<?xml version="1.0"?>
<opencv_storage>
<opencv_ml_ann_mlp>
  <format>3</format>
  <layer_sizes>
    9 100 100 24</layer_sizes>
  <activation_function>SIGMOID_SYM</activation_function>
  <f_param1>6.6666666666666663e-01</f_param1>
  <f_param2>1.7159000000000000e+00</f_param2>
  <min_val>-9.4999999999999996e-01</min_val>
  <max_val>9.4999999999999996e-01</max_val>
  <min_val1>-9.7999999999999998e-01</min_val1>
  <max_val1>9.7999999999999998e-01</max_val1>
  <training_params>
    <train_method>BACKPROP</train_method>
    <dw_scale>3.0000000000000001e-03</dw_scale>
    <moment_scale>0.</moment_scale>
    <term_criteria>
      <iterations>600</iterations></term_criteria></training_params>
  <input_scale>
    4.3673689195262702e+00 -2.3105018862527533e+00
    4.7954550578525108e+00 -1.5957445955738732e+00
    1.0008191839677917e+01 -2.1146091976785719e+00
    1.1465127662480079e+01 -1.9633707479981299e+00
    1.3616736192932455e+01 -1.6985548341653340e+00
    1.6476286873633864e+01 -1.5194720251198666e+00
    2.0362374950193793e+01 -1.4648839680087022e+00
    2.7693805976379490e+01 -1.5581627665258853e+00
    3.4767307306400944e+01 -1.6517085498730539e+00</input_scale>
  <output_scale>
    1. 0. 5.2631578947368418e-01 4.9999999999999994e-01
    5.2631578947368418e-01 4.9999999999999994e-01 5.2631578947368418e-01
    4.9999999999999994e-01 5.2631578947368418e-01 4.9999999999999994e-01
    5.2631578947368418e-01 4.9999999999999994e-01 5.2631578947368418e-01
    4.9999999999999994e-01 5.2631578947368418e-01 4.9999999999999994e-01
    5.2631578947368418e-01 4.9999999999999994e-01 5.2631578947368418e-01
    4.9999999999999994e-01 1. 0. 1. 0. 1. 0. 1. 0. 1. 0. 1. 0. 1. 0. 1.
    0. 1. 0. 1. 0. 1. 0. 1. 0. 1. 0. 1. 0.</output_scale>
  <inv_output_scale>
    1. 0. 1.8999999999999999e+00 -9.4999999999999996e-01
    1.8999999999999999e+00 -9.4999999999999996e-01
    1.8999999999999999e+00 -9.4999999999999996e-01
    1.8999999999999999e+00 -9.4999999999999996e-01
    1.8999999999999999e+00 -9.4999999999999996e-01
    1.8999999999999999e+00 -9.4999999999999996e-01
    1.8999999999999999e+00 -9.4999999999999996e-01
    1.8999999999999999e+00 -9.4999999999999996e-01
    1.8999999999999999e+00 -9.4999999999999996e-01 1. 0. 1. 0. 1. 0. 1.
    0. 1. 0. 1. 0. 1. 0. 1. 0. 1. 0. 1. 0. 1. 0. 1. 0. 1. 0. 1. 0.</inv_output_scale>
  <weights>
    <_>
      -2.2433146489252209e+00 5.2275986574340350e-01
      -1.9834130084841589e-01 -1.1403118323844950e+00
      -1.0615660548691752e+00 -6.9092700381960370e-01
      3.5012813913772406e-01 -2.5083320833580176e+00
      -3.8560814746064420e-01 -7.7164817832757915e-01
      4.4732564118094087e-01 6.3786028868877165e-01
      2.1128370950797344e-02 7.7930669803328434e-01
      2.0817514225135164e-01 1.1990080852212803e+00
      -4.5539006226514689e-01 -1.1956209314568635e+00
      8.5508076594732685e-01 7.8559799940645547e-01
      7.2975564019924077e-01 -6.4856040404937276e-01
      2.4915851521624646e+00 -1.7741860336257009e+00
      -1.1460674899946774e+00 1.3552056450664762e-01
      6.3027993768496893e-01 2.8433937177267221e-01
      -2.8957136876773406e+00 -1.5918086467335285e-01
      -5.4086318172439873e-01 1.1682003306746727e+00
      1.7702364210483283e+00 1.6664930402271707e+00
      6.4359512309961198e-01 -9.4156856888701193e-02
      1.7609811382923396e-01 2.0861485304082120e-02
      1.0545687857325925e+00 2.1287410943212617e-01
      1.3560108106545417e+00 6.0464930959419927e-01
      -2.1552518342394253e+00 -5.8021582138007649e-02
      -5.2109656794262793e-01 2.1507402466966390e+00
      -4.5092810309001696e-01 -5.8230025513081196e-01
      -3.5050271741515817e+00 -2.3469769978582042e-01
      -1.2643605097404660e+00 1.2227320229847705e+00
      -2.4757772598777636e+00 -1.6438323532465171e-01
      -9.5300165824475858e-01 2.5134100096833105e+00
      -3.6792698493417442e-01 -2.2516340105449486e+00
      2.7008019758294591e-02 2.7579683086964835e+00
      -1.3622570277813697e+00 -1.4122887154997327e-01
      -1.3846378130474912e-01 1.0320585921923024e-02
      -1.2764316357441707e+00 1.9519105465554065e+00
      4.1722892281826884e-01 -6.7586825570715658e-01
      1.0959700328568438e-01 1.1632803460223631e+00
      -3.9740973499721699e-01 8.9347597139622903e-01
      9.6970155578192418e-01 2.0611384611680643e+00
      6.2668206407881932e-01 5.4060184349367907e-02
      -1.1185185942480973e-01 -1.6031705545647821e+00
      -5.6977067873510356e-01 3.8616324990615464e-01
      6.0314931346379042e-01 8.2495262947591796e-01
      -9.1413047406501791e-01 -1.7994312592345619e-02
      -1.2784164350506302e+00 1.5177151755611529e+00
      -3.3501642164641710e-01 1.2956032294483395e+00
      5.2623366692414064e-01 -1.6539115055748246e+00
      -6.9703829878065260e-01 -2.0764190859166642e-01
      -2.0203078451047509e+00 -3.1257449172362457e-02
      2.7796656677584547e-02 9.4394248025446514e-01
      2.0384990964229925e+00 1.1864706936148375e+00
      2.3838135736097057e-01 -1.9498798103954887e-01
      2.5894296787959807e+00 3.9915432001068230e-01
      -3.2813970688407207e-01 8.0363876632399944e-01
      -8.7057418281088095e-01 5.6678851684194254e-01
      -9.8223866475009181e-01 -2.6127933950396374e+00
      -1.1773226956925660e+00 1.9025622770295156e-01
      6.3719230086856637e-01 1.3692071219902173e+00
      1.3529899818488758e+00 -4.3517571349267087e-01
      2.5815834381639431e-02 4.6444903430121781e-01
      3.9749356829411131e-01 1.8497710522355582e+00
      3.9587123243277941e-02 6.6398556029032074e-01
      -1.6005776289049776e+00 1.4157365386295462e-01
      -4.0362055609909603e-01 4.8275915943137782e-01
      -1.0824845828651979e+00 -1.6695673412266414e+00
      3.5967348758978079e-01 1.5130345912136642e+00
      1.0899699454793803e+00 6.4405500057514953e-01
      -1.8961093483017218e-02 7.5603186718370818e-01
      1.5099099398729612e+00 -3.4258668075662646e+00
      7.2431075282942081e-01 4.4891153817580171e-01
      6.0890032445737687e-02 2.3467420597741748e+00
      -4.3950074880853085e-01 -3.2955078065864019e-01
      2.4819463204789125e+00 -1.1061067970335162e-01
      -2.4929840179351723e+00 2.2675969706462502e+00
      -2.3729188763987930e-01 -2.0635774516248495e+00
      7.9597274569843546e-01 5.2763106495738965e-01
      -2.1800476675948284e+00 -6.7480063399539447e-01
      -1.9724226265796307e-01 8.1256624654518272e-01
      -1.8115287182708288e+00 5.6359629285013868e-02
      -2.3011648793853404e-01 6.4440697315978379e-01
      -2.1294513577281671e-01 3.1572424736280897e+00
      -9.1709185008789673e-01 -6.2544445363906254e-01
      -3.3481705546065905e+00 -2.3319089736043703e+00
      -6.6601392551287186e-01 1.5808301323700318e+00
      5.8136526331086347e-01 1.3967707162927088e+00
      2.1968415465234015e-01 -5.3115716537748758e-01
      1.5818278336731053e+00 -4.9244056357582644e-01
      6.1569725689687271e-01 1.8259123441467667e-01
      5.3985247344555465e-01 1.9509346781790490e-03
      1.1218419125092345e+00 6.1523174179864915e-01
      -3.1265252372163410e-01 4.0083378309230762e+00
      -8.6972432856563509e-01 -7.7025188094880903e-01
      -1.4416382696393715e+00 9.1427489940585172e-01
      1.8002274344188299e-01 7.2007462920250814e-02
      -5.5664583587392469e-01 9.8987029642013113e-01
      1.1169447016618559e+00 -9.7119881507071693e-01
      3.3848537900720282e-01 -2.1711500447275540e+00
      -1.9065193859780025e-01 -5.3500386063369598e-01
      1.1632399652152072e+00 -4.3822459763082111e-01
      1.2501739447286833e+00 1.6812051484637805e-01
      1.1380836317797001e+00 5.6287968085646989e-01
      1.5491145726284303e+00 -2.1700988884906693e+00
      3.2708466359766458e-01 -8.9971385249828861e-01
      -5.3558535210039837e-01 -9.6013707667254519e-02
      -4.2263619867895003e-01 -3.1508462306706719e-01
      2.8418202462624687e-01 2.4746098062432513e+00
      -5.7669688755847603e-01 -1.1047649088909621e+00
      7.7083294847123918e-01 -1.5014249587463062e+00
      2.2794880148173187e+00 1.7538100673199277e+00
      1.1274002705360411e-01 3.8236589550405396e-02
      -8.8875561154004745e-01 -7.4635656169200615e-01
      -1.6005826512717830e-01 -1.6348594382471355e+00
      1.2368242625567669e+00 7.2707339488465417e-01
      -1.5194561967002185e+00 1.2992835976965575e-01
      -6.2764808067753941e-01 -9.6857020153491263e-02
      -4.9390182612961592e-01 1.9047453434513313e+00
      -2.6228271635629068e+00 7.3601841028825346e-02
      1.7657447937011861e+00 1.5278405259209664e+00
      1.5504514430905587e+00 -5.1827688703114971e-01
      1.4024711095733304e+00 9.7379044437740614e-01
      -8.2717323471277771e-01 6.5445151470995611e-01
      1.6584435175013790e+00 -9.7854725244377505e-01
      5.9199270909855384e-01 1.8073619191244450e+00
      1.6650362070522493e-01 -9.4777948572052551e-01
      2.4807098302507599e-01 5.0027118165749718e-01
      -7.1086429861340272e-01 -3.0560342533334561e-01
      4.6993342788245546e-01 -1.0120295950417515e+00
      -2.2888803450252110e-01 3.2546598295266621e-01
      -1.4260653580335075e-01 7.3390151847527052e-01
      -1.4568664723220695e+00 -9.0302601621436962e-01
      1.2141683110890478e-01 9.4758700533031115e-01
      -3.0072875424396450e-01 6.8697192135845686e-01
      1.1015902081576938e+00 1.9594161017379588e+00
      -7.2050332995178934e-01 3.3625039644146759e+00
      -7.9781267991936644e-01 -1.0423510647493266e+00
      1.0797766708734797e+00 -1.6566464575715656e-01
      5.0640274478915959e-01 -5.4229778673254944e-02
      5.9466419427013961e-01 -4.4926475219379236e-01
      -1.9611171009250994e-01 -5.2225360317640834e-01
      -4.0507920910668105e-01 1.5136501208960496e+00
      -5.0100901370302842e-01 -5.9248275272788886e-01
      -8.5297295470264134e-01 1.4300826491539631e+00
      5.8932479924374559e-01 -7.5624099254136068e-01
      -8.1618631423759314e-01 -1.0342444409484404e+00
      -1.9166101230896154e-01 -3.5969222342326052e-01
      1.3921687837832004e+00 -1.7878836730694869e-01
      9.7613856667309951e-01 4.7614232235117659e-01
      1.0828231865349462e+00 -4.4131459744915974e-01
      3.2534747037032924e-01 -1.5030434605414202e+00
      -1.3188735375511502e+00 -9.0839918209548121e-01
      -8.0404891646003718e-01 7.9285719821113010e-01
      9.3463482994283409e-01 -3.8843508168864616e+00
      2.9199127853575391e-01 -3.3238854022269981e+00
      -1.0928110866342269e+00 2.5324780209448577e-01
      8.6903516302817718e-01 5.4204650165028567e-01
      -1.1414151846799207e-01 -1.4820555373216349e+00
      -3.8752362315105043e-01 -9.7306246804015895e-01
      3.8955058485715233e-01 1.0169922327555811e+00
      1.6316967069703998e+00 3.5353094612239411e-01
      7.7009563959490590e-01 5.6055492006914920e-01
      1.1864917184034216e+00 -1.2362521830704849e+00
      5.6636822498898964e-01 -2.4203318127845683e-01
      3.2101568169725425e-02 -3.9824815743827557e-01
      1.4237377540536766e+00 -1.4063537144372001e-01
      -1.4735541124767599e+00 2.7510090856862264e+00
      -6.5924875756323131e-01 -1.0528326614129462e+00
      5.2619652547372081e-02 -3.4664610013070740e-01
      1.3347110733780096e+00 3.4336502957849802e-01
      -8.2385019689561267e-01 2.5633470754792604e+00
      9.2356652286585339e-01 2.1544584014201336e+00
      -6.6373462634053648e-01 1.6446886500204174e+00
      -7.2575272438232119e-01 -2.7743376605159492e-01
      -9.4437645232374234e-01 -1.3570393978881107e-01
      4.2111314029859548e-01 -1.8276900603734030e+00
      1.6551216689394968e-01 1.2682478696549480e+00
      -1.1748728298689085e-01 -4.8903871043218483e-01
      4.5980492332809209e-02 -1.2203919692332348e+00
      -7.3923943412061643e-01 -1.4685669253155864e+00
      3.0212760177064224e-01 1.1362328280421314e+00
      -1.9286626318557325e+00 -1.4859218560735792e+00
      1.0606223092021279e+00 -2.3589293045401388e-01
      -5.9909409054204399e-01 -1.3152192599191714e+00
      3.7901833440277748e-02 7.4719252491086141e-01
      -1.4060780138529374e+00 -7.8330716416494772e-01
      1.3007389613020662e-01 -2.3594424343371783e+00
      8.1422954021146232e-01 5.8568487480562670e-01
      1.3079766260827000e-01 3.0959653765747919e-01
      1.0244904781310051e+00 -1.8931251258225690e+00
      -1.0743740181234522e+00 6.9598430069271722e-01
      -2.7321988597204866e-01 -3.1693072493560087e-01
      -2.8197377874798357e-01 -3.9921699298610264e-01
      -6.4844653599819624e-01 -9.2233226610120489e-01
      1.0180049937553955e-01 4.3447350151837461e-01
      -5.3465221061296919e-02 -1.3741959166673847e+00
      -4.6632813168185161e-01 -1.0703249827262664e+00
      1.0262207825301177e+00 1.4888109955232007e-01
      6.7204618084135226e-01 -1.4862552258515265e+00
      1.4713040298141704e+00 4.2418596728219193e-01
      -3.8437560008484778e-01 -1.3080743647391746e+00
      1.3082906648616777e+00 -2.5368540144181047e-02
      1.5317297366526819e+00 -5.1141586031396491e-01
      1.1065007425888078e+00 -8.9815813297032188e-01
      -1.6651536435876642e+00 -1.6149364785880657e-01
      -8.3601354680750539e-01 -3.1709303572445530e-01
      -8.0782936801554228e-01 -8.4883855388341078e-01
      -7.0232282269770341e-01 -1.9462124993985823e+00
      -1.9546843589600407e+00 -8.4565032396688211e-01
      -4.6739894787043795e-01 1.1685656032130292e+00
      -2.3490247322559097e+00 -5.6542888029714211e-01
      2.2341264583440243e+00 1.5320475467606522e+00
      5.3739837297759585e-01 -2.8948803951098633e-02
      -5.4713649696388234e-01 2.8181027746033664e+00
      1.2254321811592953e-01 -1.6340653569755039e+00
      6.8295248846786460e-01 2.6862648120028099e-01
      1.8483165655888512e-01 -2.8876055747016767e+00
      -2.5899529907908292e-01 -1.0460733184990971e+00
      7.5713528986864709e-01 -3.7004889080502140e-01
      -9.5294168779145105e-01 1.1159526673909236e-01
      -1.1565318372668205e+00 6.8717259277108333e-01
      7.4967906201322820e-01 1.2682112635989111e+00
      -2.6750480471975761e-02 4.8187575942573052e-01
      -9.5878196244075986e-01 -9.6125443239344510e-01
      -1.3466369625204571e+00 -9.0175220414373380e-01
      -3.5780693587046558e-01 4.4795546168433992e-01
      8.2974077704638016e-01 -1.6643718960741458e-01
      -4.4023564255974873e-01 -5.9225385915464213e-01
      -2.5354552675308288e+00 -1.3544086595864893e+00
      -1.5625101212739609e+00 -9.9916561442062368e-01
      2.3829184703610398e-01 1.0410837919685161e+00
      2.7561398627925621e-01 -1.1544691887109093e+00
      1.5075220408966594e+00 1.3847346475485198e+00
      2.0925165775829955e+00 1.4809859814888786e+00
      3.6602142021883860e-01 -7.0917473058483649e-01
      -2.0023580821540636e+00 2.5601133389085806e+00
      2.0300133118476185e-01 1.0502701134675465e+00
      -3.3599162042662201e-01 -1.0330777094419514e+00
      -8.8047921913672347e-02 -5.3665541079594044e-02
      2.1227633491695981e+00 -1.2919478863553724e+00
      6.7937852714587943e-01 -1.0222158788813586e-01
      1.1689840536989509e+00 6.1209336579473539e-01
      -1.2147841059753139e+00 1.6688746319871073e-01
      -1.3211087160246124e-01 1.2852118751579271e+00
      4.8139154693756697e-01 1.4071206282565207e-01
      -1.3036943662916628e-01 -1.8538022826030021e+00
      9.5680268801039581e-01 -1.6733777607635871e+00
      -3.4906063743240040e-01 -6.6004576703930762e-01
      1.4738998727745958e+00 -1.1286158719552901e+00
      9.8534328298350438e-01 1.2410077067288365e+00
      1.2948931466447327e+00 -8.6951301626605382e-01
      -1.4714557884702193e+00 1.5842800315449208e+00
      1.7611674289279202e+00 1.1292633668699106e-01
      1.2630624068214362e+00 1.7330838175670087e+00
      -6.4685639288292041e-01 -1.5307005003849556e+00
      -1.0114029432364209e+00 -2.3924711477567420e-01
      4.3026725170964381e-01 -1.1450961291255495e+00
      -1.0469333680829929e+00 -1.0811823408337637e+00
      -1.2989441970730899e+00 -7.0698635852225200e-01
      -8.4169402917148317e-01 1.0674281919864397e+00
      -1.4392333747691479e+00 1.6660211324853083e+00
      -3.5961095240176361e-01 9.7268501699137011e-01
      2.8540856177314144e-01 2.6629656379102956e-01
      3.0769104662452224e-01 -1.3853302251224917e+00
      -1.4642177513150108e+00 -4.0338508514972499e-01
      9.3360011432850154e-01 -1.2078199427579497e+00
      8.1494840303966687e-01 2.4756993650420620e+00
      -1.6158329498772066e+00 -3.1981638127924310e-02
      2.3288884229891507e-01 2.6393784277061993e-01
      -4.9684713421009913e-01 1.4948086311377904e+00
      -1.8264970420330877e+00 3.3285206417329000e-01
      5.7459210825698304e-01 2.4754177178928050e+00
      -1.1070609154136817e+00 -2.6196611094013472e-01
      1.9103889392788939e-01 1.1533505484462944e-01
      -6.0557874643150233e-01 -1.1310606756267141e+00
      -1.3680863326179360e+00 4.7925206724274078e-01
      1.3522598983514253e+00 1.2226942117754533e-01
      -1.7787103046407254e-01 1.5217892536560768e-01
      5.7406427295128426e-01 -1.1820307786083353e+00
      7.7323070236616565e-01 -5.1524180652768516e-02
      -1.0288531198386284e+00 2.9000112131383116e-01
      -5.0091559479022285e-01 4.4129058917714714e-01
      1.2729296523716656e+00 2.9441086375910752e-01
      1.4152955085955692e+00 -9.1191847608816823e-01
      1.2544379953069737e-01 -1.8788960451370038e+00
      -1.2599626148989338e+00 1.6302210925465503e+00
      -5.2370661257661516e-02 6.3092272251460058e-01
      -6.2060996370247401e-01 5.4199364182952392e-01
      1.5421507725622079e+00 8.1579470941433219e-01
      7.1324632870729721e-01 -1.0163862982458427e+00
      3.7019231030424321e-01 -2.5554339864049508e-01
      8.7073463886030555e-01 -1.6988141384594418e-01
      -2.5271554094712700e-01 -3.5901731705965045e-01
      -4.4016183031371531e-02 1.5151294591228552e+00
      -1.5648309304723940e-01 -9.4196104519001222e-01
      -1.0576034567378765e+00 -7.9475585019429384e-01
      3.0350574671141134e-01 1.2430848651343611e+00
      -8.6554021067670139e-01 -7.1389659928840332e-01
      7.5161775444295509e-01 -1.3167751322048202e+00
      8.1303720062803952e-01 -3.0627282520356647e-01
      2.0018483291567195e+00 -2.5841305724145086e-01
      1.1378654533315540e+00 8.3606736787860669e-01
      -1.4554134463478097e+00 2.0730501105603319e-01
      3.3260192160725643e-01 -1.3984162262342079e-01
      1.3894867334620808e-01 -1.0589109969367410e+00
      -9.1367283422392687e-01 1.8266352805830630e-01
      -5.1956914764812401e-01 -4.1564096386434363e-01
      1.6646763446036419e-01 -1.5760420281261914e-01
      5.9833015864511541e-01 -6.9344792297488489e-01
      -8.0740603648209647e-02 1.0873378347667829e-01
      -2.1435598407611792e-01 2.6592575663127320e+00
      -2.9625559962554165e-01 -5.3101890252790895e-01
      9.4432966614643155e-01 5.4986456218238378e-01
      -8.6904108568049643e-01 4.5892766025941212e-01
      -2.1826636589183064e+00 -8.8376173719248508e-01
      -3.4247122146950704e-01 -1.0245362585172013e+00
      1.0564940005782288e+00 4.8310822906424938e-01
      -1.9598668265093739e+00 2.4317354674945464e+00
      -4.3365132996692202e-01 -4.8265542725816024e-01
      1.5208153980627181e+00 8.0011939610471638e-01
      -5.2050693040244478e-01 1.7113647598902932e+00
      9.4409689676036379e-01 -7.4534798819973436e-01
      -2.3544869355201375e-02 1.5675995226328172e+00
      1.0138550430529261e+00 -4.5575254397715093e-01
      -8.5207692449778993e-01 2.5565584965846827e-01
      9.6320184523733143e-01 7.9884470145831576e-01
      1.0929697755818313e+00 9.7489952861815643e-01
      1.6080156756266351e-01 1.6129723341697363e-02
      -3.4663634542063987e-01 -3.3423858952998303e-01
      1.6755089479169354e+00 -1.0940763327404930e+00
      5.8798433588691204e-02 7.2819764056913383e-01
      -8.6329599682854707e-01 3.6401059945569703e-01
      1.1767873292143132e+00 3.7934959350605818e-01
      2.3109324024528446e+00 -2.0911913521203102e-01
      4.8826808710049019e-01 9.7825373161562079e-01
      -1.2404755787366200e+00 3.6149370441569167e-01
      8.3908795837432848e-01 -7.1847121455823559e-01
      -3.8198321378656130e-01 1.6368043769953764e+00
      1.5390244680289853e+00 1.0090686605557424e+00
      6.8117296520738047e-01 4.6689139726559026e-01
      -1.2484942636749781e+00 -3.4826174539042676e-01
      7.1430569395557975e-01 -2.0656286868736577e+00
      -5.1185232196955810e-01 5.7772457024470991e-01
      -6.1022206037108329e-01 3.2333539164246961e-01
      5.2666788850186153e-01 6.5247530095337181e-01
      -2.9836436349024209e-01 -3.1777434587743447e-01
      -2.4109113911736164e-02 1.2526535751955797e-01
      -1.6532893356096359e+00 -1.9351641422314994e-01
      9.8475855979366267e-01 -1.2217162194708202e+00
      6.3022527944130424e-01 1.0670511536978247e+00
      -3.9719087361390276e-01 -5.2423529314317463e-01
      -8.1716516959086327e-01 4.2834506456971261e-01
      4.0952439285535386e-01 8.5895420148268364e-01
      1.2919727825100309e+00 1.6343751780565541e-01
      -3.1053949929251790e-01 2.0448480337507474e-01
      -8.8987404089949995e-01 9.3441442358349169e-01
      -6.8273766251304446e-01 -1.5955574582356611e+00
      -3.1495795274160149e-01 3.6507998680932457e-01
      -8.5092061387448514e-01 -1.5351952751178036e-01
      1.0637957694463675e-01 -1.4824192802060596e-01
      6.7880856208119478e-01 1.3805719966728989e+00
      1.3334846001385667e+00 -1.9315027041791558e-02
      1.3222080583163507e+00 -3.2083882294345628e-01
      -1.7384917521070786e-01 2.5756638010579780e-01
      -9.1408178465419432e-01 -3.6154005982914944e-01
      -1.0497240537858616e+00 8.0624751432284747e-01
      8.3623282992369341e-01 -7.5279496956377567e-01
      -7.8964861841698897e-01 5.9214538496845459e-01
      -9.4665945427789522e-01 -3.7960558240280579e-01
      7.8948649900669121e-01 -5.4054618658098863e-01
      2.7230892692143911e-02 6.5015591647990700e-01
      -1.0269219764297828e+00 -9.2530318948962764e-01
      -3.0776433638963954e-02 -6.9400034423758550e-01
      -6.1560956911249598e-01 3.1281577902801194e-01
      4.2859860841239425e-03 -7.4048447882608459e-01
      -1.1293364898553566e-01 6.3619196559840011e-02
      3.0716827759962007e-01 -1.9186759147458604e-01
      -3.9763616294847132e-01 -6.2369176357298128e-01
      -1.7495873506792581e-01 -2.4120160356689774e-01
      -6.6980423035133074e-02 3.8271013622563171e-01
      -3.2752031054141162e-01 -3.3103143891639003e-01
      -1.1675160363475887e+00 1.0941268668240194e+00
      6.0269222262682547e-02 9.9972890271855120e-03
      5.8103017845538185e-01 -2.7426103589038808e-01
      4.4513212659314033e-01 1.2061450558792910e+00
      -4.5896799576846153e-01 3.3970066410724875e-01
      -3.7675473172828777e-01 -5.3961161854975781e-01
      7.1414224589858966e-01 7.9382636763577108e-01
      -2.7080345853593007e-01 6.8098847011279673e-01
      1.1552637850730498e+00 -2.0731305478663578e-01
      -8.3476453132815698e-01 1.3663848923583313e+00
      1.0146565830102354e+00 -6.2132820047672077e-01
      -1.6497799133328515e+00 -4.4770939506688451e-01
      -5.7828943296932278e-01 -4.8378618854843430e-01
      2.4231422574214934e-01 3.2596738885055893e-01
      -7.1059701839280021e-01 -4.9275610151668969e-01
      3.4312927879191124e-01 -6.7476097019974846e-01
      3.7421555531751449e-01 -1.3042200764813716e+00
      9.3816848680589249e-01 -2.9209842196919816e-01
      1.1132728581508633e+00 7.3539839715806732e-01
      8.5256500271367541e-01 -1.6256246589282246e+00
      -2.7291220161727348e-01 6.3380582867659727e-02
      7.6592567272410528e-01 1.3482198748125607e+00
      6.6974967520231010e-01 2.9919641373624517e-01
      3.8740420572189121e-01 -3.4623002110015177e-01
      -2.4672621812370701e-01 2.4424885452607314e-01
      3.5984421047340415e-01 1.0227944423012107e+00
      5.6868991345605391e-01 1.4384994202604404e+00
      -7.9485982345358586e-01 -3.3522967498142336e-01
      2.8820609881996367e-01 2.3417256587712582e-01
      7.8301850746506030e-01 -2.3317823239976418e-01
      1.6083429717909929e+00 4.7572572170029720e-01
      4.6619246285664862e-01 1.1153994644372785e-01
      -3.5668456191485853e-01 -9.2594574288611987e-03
      -4.5318063597376990e-01 4.4381946746218065e-01
      -3.0223552362850314e-01 -5.1810842968819282e-01
      1.2722154111551842e-01 -1.5745104756647421e+00
      8.4299709171711301e-01 1.8592837413816427e-01
      1.2577329947490479e-01 -1.5201317813599267e+00
      1.0622266343214057e-01 1.3242965710077708e+00
      -1.0892890644446205e+00 9.5014108138639797e-01
      1.3273951971652214e+00 -5.0424558790543961e-01
      7.7789621455035386e-04 -5.8518264326247715e-01
      -7.6885215616772362e-01 -3.9788774369705743e-01
      -1.1692871664101836e+00 -2.4900547799452710e-01
      -2.0449907362617598e-01 1.4953172580777252e+00
      1.0157967448861709e+00 -1.1980344198738972e-01
      -5.0694452363210718e-01 2.4153286678661334e-01
      -1.0468805277467653e-01 2.6010968177423446e-02
      5.3548742438443916e-02 1.8411075708848373e-01
      -4.6483286786436422e-02 3.0137202973110877e-01
      4.0533269754463315e-02 5.5323880764874023e-01
      -4.3432909855477153e-01 -8.5190421232168978e-01
      7.0226348988002077e-02 1.4525662853479493e-01
      -5.7362652628381161e-01 2.0602213575940298e+00
      -4.2979817788677155e-01 5.7096588606156695e-01
      -1.7298379691572868e-01 1.1586324224352432e-01
      5.4579068673720234e-02 8.3031728364373436e-01
      -9.1422533333468192e-01 1.2128456264817711e+00
      9.9417487845651942e-01 -4.1883523757608443e-01
      2.5074971721411200e-02 1.4712353962284503e+00
      1.4976024325163706e+00 -2.5551505899211062e-04
      2.1402219522772428e-01 2.1363862520772998e-02
      -1.2621417323024420e+00 8.1353125422637770e-02
      -2.7009545085296460e-01 -8.6539554932768781e-01
      -6.8280337666872726e-01 -9.9731394741506740e-01
      1.1880889713037588e+00 -1.0184815418769706e+00
      -1.0519206299956336e+00 -9.2452943210367144e-01
      5.9901420055401089e-01 -1.1829332321746535e+00
      1.2767171193451916e+00 6.9496299866096600e-01
      -1.0063040568752180e+00 -5.4618770715980658e-01
      3.2041043723792784e-01 1.0923981505468634e+00
      -6.0699057734930761e-01 9.6721569330807866e-01
      1.4008622735617602e+00 -5.2185740572182349e-01
      -1.9382476709344350e+00 1.8466821829676432e+00
      2.2821721862082728e-01 -1.2073664456407722e+00
      -1.0690320472413251e+00 1.1628950478607984e+00
      1.4684039881501074e+00 -1.2315795251674484e+00
      1.0341609882593189e-01 -3.0293917186138614e-01
      -8.4926365243618462e-01 -1.7331277633511770e+00
      1.0469177089321389e+00 1.2508368008024420e+00
      -1.4487688938217785e-01 2.4037899609901470e-01
      5.7004045129871839e-01 -1.3250025236177045e+00
      -1.7532145136152399e+00 -1.1653578316588595e+00
      1.1811634012405632e+00 4.9438875974842131e-02
      -9.7892180411694907e-01 -4.5482999850812744e-01
      -1.9595136753022457e+00 -2.1325424261536141e+00
      -6.8931752896018483e-01 -7.8857850341571212e-01
      -1.4372996972106076e+00 9.7250847300781443e-02
      8.0739769783838666e-01 4.5290979546827620e-01
      -2.9804425449434930e+00 1.6690521098254729e+00
      1.3160336330482290e+00 3.7103467382935496e-01
      3.0806961999021759e-01 -3.2217537274192076e-01
      3.4220178481809038e-01 -1.9251649944095489e-01
      6.2555212291271423e-01 5.0385457656541666e-01
      -2.1722062122359870e-01 -5.2917469472022205e-01
      -1.3648653941186775e-01 -7.2988440982439651e-01
      1.6094050818007219e-01 7.1606655701039579e-01
      -3.1174210140522635e-01 -3.0155352842012961e-01
      7.6812363653271509e-01 5.0054863721265774e-01
      5.1897101656050038e-01 1.1878020766372606e-01
      9.9105379009347638e-01 -4.6516458172767777e-01
      6.1664877540612839e-02 2.8020819520201092e+00
      -8.1232727566802465e-01 -2.8308672791457989e-01
      1.4985218900092958e+00 -2.3753726095110655e-01
      -3.4628041154566602e-01 -3.2228352009493104e+00
      3.4967488818527198e-01 -8.5166101957783069e-01
      2.5845132399902915e-01 -3.1541452607944309e-01
      -1.0593148818296829e+00 -1.0675239870909330e+00
      6.7366448374784157e-02 -3.4328687432380761e-01
      -1.3543030765085762e+00 1.1163747879580150e+00
      -1.4280065905338442e+00 -1.3406585301939060e+00
      4.0715456199277561e-01 1.8062456728928225e+00
      -5.1150907974516949e-02 4.5388622029025072e-01
      4.7809228361316821e-03 -1.4941781800938339e+00
      1.3817000335915497e-01 -4.1877195054636068e-01
      -7.3248293281928070e-02 -8.7809718032664752e-01
      2.0046499584008606e-01 1.5895371647409700e+00
      -1.7219457777805808e-01 4.8674048676018034e-01
      1.0623134834293964e+00 -4.2142361094569170e-01
      1.7137813854894950e+00 -3.1844778831447956e-01
      9.4971821953241786e-01 6.4389161592810285e-01
      9.1535710002068602e-02 -8.1844185713246431e-01
      -9.0881995385556036e-01 4.4313999303525697e-01</_>
    <_>
      -2.0093788946356273e-03 2.7927115206857483e-01
      -5.3384026732783162e-02 8.1864905535489127e-02
      2.7254082858173212e-01 -8.8127466941888499e-02
      4.2398004155663566e-01 -1.8951825463383140e-01
      -5.4977919383163362e-02 -9.3578378805233304e-03
      2.1208815554476179e-01 -4.2166269342428328e-02
      1.6403371568440971e-02 1.0909283248062589e-01
      4.9069352560623071e-03 -1.0495111317092327e-01
      3.2861192465250343e-02 9.1634361500249284e-02
      -2.9673445196822917e-01 3.3999748251253625e-01
      2.3787101988207626e-01 1.6330041844689552e-01
      -2.9747139714427878e-01 -7.3141994066961757e-01
      -7.0645589494992677e-03 6.8309425184449435e-02
      1.2244009042899979e-02 2.2124994075955781e-01
      -2.3917353237062014e-01 2.8785041926372790e-01
      -2.0278156537855657e-01 -6.9268545255544822e-02
      -1.6845213944741705e-01 -3.2470705212971124e-01
      3.1304892158770087e-01 -1.2554407913277282e-01
      1.8666090327700344e-01 -1.4236399494601393e-01
      -5.9193522459425114e-02 -7.8268829279571328e-01
      1.1723183219071674e-02 1.9634788364545519e-01
      -3.1367568237514820e-01 -1.3854117151570478e-01
      -1.6674096464363522e-01 5.0004576467829953e-01
      1.4083581000983633e-01 8.1457432843189112e-02
      -3.9391757910955914e-03 -2.5677065032780949e-01
      4.2607774334508286e-01 -3.9066872947363918e-01
      3.9961252136568946e-02 1.7156713746155100e-01
      -3.6616598629625817e-02 -3.1937231269821503e-01
      1.5439247693385663e-01 -3.1016295634605711e-02
      -5.5475906359430345e-02 9.0149692717667762e-02
      4.7749271001957455e-01 -8.8999276569896768e-01
      6.0693998632267920e-01 7.1014562734828561e-03
      3.8683924539291070e-01 3.2659892684572318e-02
      -2.5422890276845367e-01 1.3247889274202056e-02
      2.1665068315631714e-01 -2.6107482326312947e-01
      -1.8946379316076506e-01 1.6020896839717411e-01
      7.0756516294059796e-02 -4.0858923385051843e-01
      4.7751125225134927e-01 -4.6324712539882788e-02
      -1.5784248035297155e-01 -4.4161051827772702e-01
      5.2980272328100730e-01 1.7859051211966179e-01
      -9.0076102330874513e-02 -1.2579369323815576e-01
      1.2018015108304485e-01 1.7019173236502191e-02
      6.2409738398435582e-02 -7.7958846027587347e-01
      -1.7534912372992384e-01 1.8962607673013207e-01
      1.5397218125727502e-01 -2.1713531412043097e-01
      4.0462584654170319e-01 -1.1080576521655375e-01
      -1.2798264732120471e-01 -1.3369977238268060e-01
      9.0777581040225139e-02 -1.9414421082528796e-01
      1.9489300742193225e-01 2.0016884471760615e-01
      -1.2548350865541930e-01 -8.1875168044607316e-02
      1.7441644714006732e-01 1.8516661979975632e-01
      1.7232634737942895e-01 3.1906852230866936e-02
      -4.3710589744472000e-01 -1.7207923816600845e-01
      -5.6807249423204698e-01 -5.1906285447028766e-01
      -7.0561226149234421e-02 7.0850532263048688e-02
      -2.1743791841438215e-01 5.3943370483617199e-03
      3.5375044885334733e-01 3.3225697736547033e-01
      -2.5507032985681619e-02 1.9333836608640390e-01
      4.4839641273448155e-01 -4.8752057250613809e-02
      1.9722234856843171e-01 2.5833709597967508e-01
      -8.5259750239019827e-02 -3.2091341948880103e-01
      5.1426407637971205e-01 -4.5669556702163366e-01
      -7.0968947297909658e-03 7.0596627738666085e-01
      7.6480239809995770e-02 -5.8494696980817856e-02
      -1.4463623035405845e-01 -1.9761187073908690e-01
      1.0990514593970035e-01 -3.3771382888047519e-01
      2.5861639582792145e-01 2.6771978541899000e-01
      -4.7629447167895844e-01 -2.4174225699511881e-01
      5.7842251172081409e-02 2.6586833788927305e-01
      -5.2968257995367633e-02 -1.2610568504128897e-01
      -1.5072275218597792e-01 -1.8940559397693948e-01
      -4.9367011805308425e-01 -2.0838822411075222e-01
      -1.4468119569518256e-01 -6.6920619738827888e-02
      -2.3226755755495977e-02 -1.8498466821476284e-01
      1.4254547406396350e-02 -4.7436556352255632e-01
      4.0519231967241881e-01 2.2080913721631321e-01
      -9.7911114536037444e-02 1.4874458297971930e-02
      2.5090149522015859e-01 -1.4471027417879392e-02
      -2.2286041214539018e-01 -2.3371647456003197e-01
      -3.6352750964990826e-01 3.5925124565953320e-01
      -2.2598898466557032e-01 -9.8076717432081018e-02
      -1.2516603725137709e-01 1.0512058103895550e-01
      3.3424583747494435e-01 5.3096498049912166e-01
      1.5702710671432615e-01 -2.3845644730843199e-01
      4.9024554906917911e-01 -4.2135068161852191e-01
      -2.3030287115313458e-01 1.7621862661320767e-01
      -2.9769321483460148e-01 -7.2970513013529442e-02
      -1.5572603898899029e-01 -2.0531079567946783e-01
      -1.2691990523217062e-01 -4.9568984373091390e-01
      -9.9737906890794581e-01 -6.0963808384051410e-01
      -4.1821397010290051e-01 -2.5586588081838535e-01
      -1.9286165422614751e-01 2.8192964816767357e-01
      -1.7738040490767046e-01 4.0963154440965183e-02
      -2.4026553021223033e-02 1.3260027201836497e-01
      5.5035195139048032e-01 3.0244798032956849e-01
      1.6788735457753531e-01 -7.4134526520949795e-01
      -5.4608351982281290e-02 -4.3483687973582202e-01
      1.0072606419704606e-01 -1.8209161052535927e-01
      1.0318119042065479e-01 2.6198278163006317e-01
      -8.7732581064198817e-02 5.6659046317881590e-01
      1.1223751215179999e-01 1.5971719616764368e-01
      1.5435062632072835e-01 2.1510668298204400e-01
      -1.3985434922314890e-01 -1.0820511846350926e-01
      -1.2329678304430067e-01 -1.5385900367998445e-01
      1.1670560585224399e-01 -1.1436843790406320e-01
      -1.1567364871630198e-01 1.7802537230862839e-01
      1.5643337218147726e-01 1.2072027504986758e-01
      1.3026392356825836e-01 2.4572078731993058e-01
      1.7523805942903087e-01 -1.0097794567670988e-01
      1.7523403713130681e-01 9.4060581403259527e-02
      1.0129680098358922e-01 -2.9244682909925673e-01
      2.0263023661583032e-01 2.1045736615774610e-01
      2.3124516952141044e-01 2.5412097158953328e-01
      -1.4117098612167975e-01 -2.0261458470502836e-01
      9.9643694041418346e-02 -1.4682671067856537e-01
      1.5748649362315803e-01 -5.8705837986113889e-02
      1.4650460389913100e-01 8.8434436605852873e-02
      -1.7312783196134171e-01 -1.5009421491982983e-01
      -1.4010975400608044e-01 -5.2463897955315600e-02
      1.3732221567581010e-01 5.4268063879854077e-02
      -1.6086273051353950e-01 -9.7955977524910462e-02
      -1.8180496918995867e-01 -2.1246329833919886e-01
      -1.9220464132662048e-02 -8.3226318524230805e-02
      -1.3328181213560936e-01 -1.6585480164968056e-01
      -7.9328652337174219e-02 -1.1515207327860566e-01
      5.1469222079475692e-02 1.9375130809228797e-01
      -1.0540984733828074e-01 1.1266581016287000e-01
      9.5958425896633975e-02 1.2757649736648824e-01
      -1.2440789588501561e-01 -9.6983508544903091e-02
      -1.0148195293274032e-01 1.8420521639367252e-01
      -2.0779747246587651e-01 9.8195750455937258e-02
      -1.3741021899090416e-01 -1.6908593806381245e-01
      7.4559980054781774e-02 9.3702828462175120e-02
      1.4757042829917222e-01 -1.3723474153494261e-01
      1.2127444867775358e-01 -6.6429128099050785e-02
      1.3083851395513627e-01 1.1610344478210517e-01
      -1.0027518847674730e-01 1.9735461110260574e-01
      -8.2006689598720928e-02 -4.7639383610252627e-02
      -1.7234850110585137e-01 -7.8231702657530808e-02
      -1.9317393011663175e-01 -4.3078922464930475e-02
      -1.7010671968507388e-01 2.4237451827080789e-02
      -3.3101180359951722e-02 1.6224024485672378e-01
      2.7097281745131058e-01 2.7929149176466933e-01
      1.6475358945329352e-01 -2.6005809398853197e-01
      1.0306121691142571e-01 1.8201981695558100e-01
      3.2658497497023653e-02 -2.7757714671365979e-01
      1.2139877971940941e-01 -1.9524236716492390e-02
      -1.8702608940008655e-01 -1.0418611911587271e-01
      8.8145416096216289e-02 8.9693722418049349e-02
      -2.2327781191218843e-01 1.8045892701767469e-01
      -6.4324301065722789e-02 5.7871378273353008e-02
      3.1477193982550118e-02 -4.8048158191505319e-01
      8.5339796812968369e-02 -6.1463771397964134e-02
      2.4720717695726639e-02 -5.6224706366099136e-02
      9.5691643577811986e-02 -3.8176672708261272e-01
      9.9134430498554013e-02 -6.9103334933990943e-02
      4.5980949203279303e-02 -3.9949614576026089e-02
      -1.0723348886169444e-01 1.7472302988407087e-03
      4.9263268932273679e-03 2.9575268501063415e-02
      -5.2385611118587486e-02 -1.1162862052173414e-01
      -6.6725554230300105e-02 2.3846810811091060e-01
      -1.4253816448282711e-01 3.3487048848508234e-02
      -1.3645980032864763e-01 -2.8106400421469953e-02
      -3.0614115006573565e-02 1.4312239722075223e-01
      3.0083534081218371e-02 8.5719147248151883e-02
      -5.2596213880234700e-02 5.5027921883432987e-02
      -1.5549907552895820e-01 4.7400142436756207e-02
      -4.6083340670776206e-02 1.7257836883336491e-01
      -2.2805850115897680e-01 2.2008645724391679e-01
      -1.9723686446825545e-01 -1.3743110312689480e-01
      3.4088538329187484e-02 3.9851058815721591e-03
      -5.0765967971396028e-02 1.7561589472488962e-01
      5.5845066886009070e-02 4.2216157728759979e-01
      5.1139925171785200e-03 5.9265136981278159e-02
      2.2479072503477193e-01 -8.0521944172474214e-02
      -1.0564695021214546e-02 -5.5091186830257335e-02
      3.8379799087262484e-03 1.2072721802347443e-01
      -9.8752364286475297e-02 3.3164188157232041e-03
      6.4404678767436691e-02 -9.5092872117247956e-03
      7.5883948438341370e-02 3.2175411471520428e-02
      3.8571863719717978e-02 -2.7902118082238259e-01
      4.0607764585705081e-01 1.8763213378313662e-01
      -8.0795593773378457e-02 1.1053474175671684e-02
      3.7731490133152530e-02 8.1254134741427217e-02
      1.8489411177324281e-02 4.6645363257078229e-02
      2.4834908924743568e-01 -9.3573303121111395e-02
      1.6765651580973703e-02 6.8844254073587453e-04
      9.6306979646644503e-02 -1.2409263604358451e-02
      2.8369836669504597e-02 -2.2706460779698909e-01
      1.0896936286591222e-01 1.0706646073460013e-01
      3.0387790097925742e-02 1.5166910252545640e-01
      -3.8329627632170911e-02 -2.7947480935290207e-02
      1.5616557021133551e-01 -4.7970346013102738e-02
      -2.4597305107818625e-02 4.4229796056922932e-01
      -4.7211224699406706e-01 -2.6644005454266861e-01
      -3.3112789189645171e-02 -5.4897425338991293e-02
      -3.9149189692617542e-01 -1.5695262442129591e-02
      3.5610926939942202e-02 5.5499397598078044e-02
      8.4922966492802635e-02 -5.4862649672956414e-03
      1.4221387156108092e-01 -4.5579646382353962e-02
      -1.0392529542739898e-01 1.0718419644010409e-01
      5.4846602793044812e-02 -3.8101471734324917e-03
      -1.1247995558331701e-01 5.8854823420841605e-02
      -1.6458018271100228e-01 -1.1394977950865437e-01
      7.3818022214664991e-02 -2.7829319750588177e-01
      5.8521554921165987e-02 1.1388786864655062e-01
      8.1095539825175908e-02 6.2591761300833576e-02
      8.6623707286042934e-02 -2.6313300549922181e-01
      5.6636615732544193e-02 -1.6596346674690687e-02
      1.3427879958053736e-02 7.2340604238564463e-02
      -4.2752600236564686e-02 2.9637788810576906e-02
      3.3336669239033237e-02 -2.1989669250545715e-01
      -3.5524861852860301e-01 1.1885356527915092e-01
      5.1061845178851449e-02 4.1135358136886291e-02
      1.0007947216111465e-01 -4.2022013086780663e-02
      -8.7396320417024217e-03 -7.3113727637634046e-02
      1.9629363584987743e-02 5.3925787003669567e-02
      6.2827424652953665e-03 -8.7542360138582270e-02
      -1.3175147077282665e-01 -2.5702241452373242e-01
      -9.9501272966575099e-02 4.2982157481398608e-02
      -3.5844971305800687e-02 3.6267154889309616e-01
      -4.3016439928253124e-02 2.2997967750333567e-02
      1.1873685243832102e-01 -1.8241742517882167e-01
      -2.5407962204197741e-02 -6.5178521984503246e-02
      4.3161112608277118e-02 -5.3513036350878007e-02
      -1.2242198526030527e-01 4.5303245802876283e-03
      -4.1728745916557057e-02 6.4436833046685113e-02
      -3.7512237179552453e-02 4.0024261566160412e-03
      3.0153889130868250e-02 -3.0754173839931530e-02
      -4.9426622485295592e-02 1.5991039433385937e-02
      4.6443641850560588e-02 3.5229817829862875e-01
      -4.4258721329332257e-02 1.5051542662456935e-01
      -9.1162632272658389e-02 -3.2768192919570283e-03
      -1.1232896358666079e-01 -5.3028842172447820e-02
      5.6976335231163411e-02 2.9114670927977759e-02
      1.2284160766348785e-01 -3.9830408396394609e-02
      -2.6929871149714860e-02 2.0154810010957797e-01
      -5.2209461139973434e-03 3.1311000448990045e-01
      -9.2659216592579863e-02 -1.8877074952010636e-01
      -2.5806186940495551e-01 -1.4471781126704708e-01
      5.7757817680884598e-03 1.2788407459004095e-01
      -8.5938160469025013e-02 9.3412042037872133e-03
      -1.0422025621275173e+00 -1.2459464450682277e-01
      -3.8168456942010045e-03 -9.9621416969979198e-02
      7.7563872830625491e-03 -1.6620700100775494e-02
      -1.4830823602698312e-01 -7.7826343816560659e-02
      8.3704103931281762e-02 2.1739910638405961e-03
      1.6147114616958541e-01 -1.3964861494570921e-01
      -3.0625622433173655e-01 -5.6235496477239260e-03
      2.4719840727882185e-02 6.6898330547731213e-02
      -1.7495407952778991e-01 -1.6531378261896924e-02
      2.2363727567499034e-01 3.8964354107413557e-01
      -3.2947200273421778e-01 -4.7933521974715121e-02
      -3.1016233828410289e-01 -7.1161658069167364e-03
      2.1332577067073744e-01 -4.3206090717554164e-02
      1.0998382068554786e-01 -6.2809829370198177e-03
      9.6939777047655329e-02 8.4527883772633358e-02
      -4.3309724152540821e-02 1.7801847065559900e-01
      8.7706425943596730e-03 -8.1450486175308090e-02
      1.7000958297079288e-01 -1.4910029690250687e-01
      -6.8697804768024950e-02 3.4285182104673420e-02
      9.7543039088943698e-02 9.4622467209810449e-02
      -1.8912540039722175e-02 9.6348922684733246e-02
      -2.2052974476871484e-01 -1.6529148646349756e-01
      1.9108795714975430e-01 -1.6358559943534776e-01
      -7.1363444182720934e-02 1.2485159036438616e-01
      1.6834358148844625e-01 7.6428511747078667e-02
      -3.1403174840372583e-02 -4.0351189439983434e-02
      -3.3800768825215738e-01 -9.5670516534546394e-03
      -2.0586503222148156e-03 5.6421905686249041e-01
      -1.7706026037464678e-01 -3.3581714549899722e-01
      -5.8213318330928361e-02 6.8193044958238561e-04
      8.4402015526786583e-02 8.3089068694217741e-02
      -1.2276894660966911e-01 -1.1619619496735166e-01
      -1.9532718380810737e-01 -3.6172426036426564e-02
      6.2250492364584256e-03 1.4070492904189194e-01
      -2.1207517150233335e-01 -8.3127417182717153e-04
      -2.1334293958299180e-02 1.8663227716285510e-01
      -6.2561389973055076e-02 -7.9478692039820446e-03
      -4.9643619043372049e-02 1.3637831632544489e-01
      -2.6866221290112713e-01 3.8388517093246399e-01
      1.6620225511112460e-03 9.2058853681266289e-02
      -9.4238572344299068e-02 6.4506986079786804e-02
      8.5601502983563837e-02 -4.7052135185255514e-02
      1.2047321246681526e-01 4.7615025815206234e-02
      2.2536017011300874e-01 -4.7232028085905785e-02
      1.3795025033937169e-01 1.5228242598086214e-01
      -8.7483029516333452e-02 6.0796659700496899e-02
      -4.8258455272305663e-02 4.2322603884104956e-02
      -9.1864963152793310e-03 -1.2537839875248830e-02
      -1.9550092084442975e-02 2.5849125580917658e-02
      -1.2837112061305292e-01 -2.2291654568997094e-02
      -4.0110284253493439e-01 2.2961115413559954e-01
      3.0633728806722580e-02 1.2081198795359976e-01
      -4.5460525856953699e-01 7.2333751806939850e-02
      -1.4741013159874133e-01 -2.2198761280499868e-01
      3.8051971948251267e-01 8.1464596175561441e-02
      -7.1999737872027292e-02 -1.3556768511664941e-01
      -1.8856053344444104e-01 1.6143194417801050e-02
      8.4853524797372681e-02 6.8558521860148935e-02
      1.4038345129483068e-01 1.6178521372789320e-01
      1.4357730692841419e-01 -9.8502516178806024e-02
      5.6878378394945826e-02 -2.9136968563838805e-02
      -1.0025715122257460e-01 -4.9039274029368418e-02
      -2.4584069445517918e-02 3.8085923425265017e-01
      -7.4947610915218163e-02 1.9026296200660953e-01
      4.6073086928213935e-02 1.7502959933788448e-01
      1.9350024436106747e-01 8.7678967894860543e-02
      1.4495730294814599e-01 -7.0546085853489496e-02
      1.3979316790634572e-02 7.2623966004251972e-02
      7.5064794934077250e-02 -1.6028906159299730e-01
      1.5554611054656325e-01 7.8078002396893734e-02
      1.1463241479192281e-01 1.4701535917111158e-01
      -3.8863017383723504e-02 -8.0622988824704797e-02
      3.8459351485183438e-02 -1.0060957719369983e-01
      1.6389794562709853e-01 -1.4755838013291331e-01
      1.7497292455059693e-01 1.5634178835811846e-01
      -4.6670650409997773e-02 -1.7114285591715603e-01
      1.7790524587320103e-01 -2.0572919891657843e-01
      1.4445204909516166e-01 2.0598841052021821e-02
      -6.2764734927299282e-02 2.7831621646642934e-01
      -7.3693818829924540e-02 -2.1703931811875007e-01
      1.0104816534005226e-01 -1.6551387154407798e-01
      -7.2082002856910674e-02 -1.2303158075099967e-01
      1.7245303798616690e-01 -3.4409197830022699e-02
      1.6006879768418592e-01 2.3144932462945975e-01
      -6.4516692798590472e-02 9.8486995803074892e-02
      4.5323430531646516e-02 1.5398783399994190e-01
      -1.3552257738431112e-01 -2.0348779124406105e-01
      -5.0655239735136796e-02 4.9977208817195994e-02
      -2.1777575694588258e-01 2.6863003039898309e-01
      -4.1841330833610563e-01 -2.4638046726644597e-01
      8.6479403749238987e-02 1.2526957603286129e-01
      1.2598230441694142e-01 -1.3724617992679908e-01
      8.0957593224958602e-02 -1.6390779787346599e-01
      -2.0951946123577422e-02 1.3431644401969077e-02
      -1.0222625497405718e-01 1.1681320316266330e-01
      -1.3195022877674187e-01 -1.2619772713708647e-02
      3.2222582588791689e-02 7.0768340431669199e-02
      -2.7324829750887511e-03 -1.3109298566808625e-01
      4.2911355346912636e-02 1.5291598819750779e-01
      -6.1520346463723376e-02 3.2374953141060231e-02
      7.4520078465020378e-01 2.3130471030328464e-01
      1.8513691237975530e-01 -3.9920691267015757e-01
      -3.5348962737780038e-01 1.4949695068605756e-01
      1.8266155229805559e-02 -1.5107386563380901e-01
      6.0958341270989445e-02 -1.5093346163200830e-01
      -8.2871042841381345e-02 -2.1880326692655183e-01
      9.3563564800552730e-03 -2.7216700223019145e-02
      -1.6044126291821087e-01 9.5961467917894769e-02
      6.3416540576609004e-02 3.5061607268032757e-02
      3.7477607561455621e-03 -9.7978779840247054e-02
      1.2950528794720895e-01 -2.1060607155663413e-01
      7.4272227982440778e-02 6.5306826251573927e-02
      -2.6506519697080605e-01 -6.9313635401929849e-02
      -1.1348847700824839e-01 -3.3611950762309445e-01
      -4.8513750591496915e-02 -1.7824640244010789e-01
      2.0439864749309999e-01 3.8872063780545135e-01
      -1.1947190684687480e-01 2.9642973158565714e-04
      1.3163718500337476e-01 4.9550337665763965e-02
      -5.5852732278804058e-02 1.3705302126971053e-02
      -1.3997957140209794e-01 1.6888838580404633e-01
      -1.6576350741348758e-01 -1.5088648062389565e-01
      1.7118844169951603e-01 -2.0454722261107672e-01
      -6.6373804539786502e-02 -2.3177539609229497e-02
      2.0899103679848532e-01 -6.3024906387605134e-02
      -5.6198775916525244e-02 1.3131906843938985e-02
      -8.0503218867757617e-02 -1.4752221453283557e-01
      5.0163881360488043e-02 1.2085392564524033e-01
      -2.7554682065469105e-01 3.9428593884671032e-01
      2.4604740865444813e-02 1.0459929558832680e-01
      -7.9855823573642376e-02 -2.7267798352450578e-01
      -2.6978108253651317e-01 1.5758984944161883e-01
      -1.8232043529766987e-02 -4.1238336396057583e-02
      -6.8758303944987900e-02 7.5911774068540383e-02
      9.8298960558924023e-02 -8.9655147737197127e-02
      1.1474326866745636e-01 -2.1645618991900880e-03
      5.1771298970158886e-03 -2.5445646830575852e-01
      5.8941984656172883e-02 1.5603251274732047e-01
      2.0158101031337206e-04 1.4230310064928760e-02
      2.4005332108853589e-01 2.5435220361075561e-01
      -2.2655515406379362e-01 1.9607899994404707e-01
      3.3152344908568963e-02 -5.1490765678537609e-02
      2.8065248138792676e-01 7.8312371495983593e-02
      9.6068927354760095e-02 8.1522180291499782e-02
      -5.1816069943013895e-02 -8.0963652471540845e-02
      3.1176892412408697e-01 -2.1296824295872618e-01
      4.2243251062641742e-02 -1.1413431221764617e-02
      5.4527299654199904e-03 2.8061205186292570e-01
      -5.6513557945014803e-01 1.5282280388345232e-01
      6.8570684883479505e-02 -1.5388552698859670e-01
      1.0174775275008435e-02 -3.9963738701834298e-02
      -4.4713355079257838e-01 3.8836317426226985e-01
      9.0019777237835261e-02 2.8327245646157445e-01
      1.7135889791654020e+00 -5.8162389623989723e-02
      -1.0424443349054577e-02 1.7319757728722676e-01
      -1.4991219114653531e-01 1.2324733556135486e-01
      1.2536033034177477e-01 1.0321154695967615e-01
      -1.0087610314763373e-01 -1.0899383484830959e-01
      -1.3995598723785568e-01 -5.9522118197346083e-02
      -1.8291264895852605e-02 2.4635093743806302e-01
      1.3238902565637115e-01 3.2679228222211726e-01
      -3.3359229968091508e-01 -9.4421764868802882e-02
      -1.8691587033409482e-01 -1.9801103941055589e-01
      4.0562918935701719e-01 1.2358111241563890e-02
      -2.3949426054701936e-01 8.4444337784070192e-02
      1.2755314022732936e-01 1.3254091121327569e-01
      5.7320990588417262e-02 3.5728436173681477e-01
      1.1659724606154753e-01 -2.1562171213454284e-01
      8.7949975934236355e-02 2.7801457764193616e-01
      1.9652081193159462e-01 -3.1096862400904007e-01
      1.0593455317247777e-01 2.3958538685765765e-01
      2.2895766480344373e-02 1.3973960236782132e-01
      -2.6940925502749274e-01 -1.7070737269692890e-01
      2.1000672362020212e-01 -7.3206974324905610e-02
      1.7368309579721369e-01 -1.1149741328602512e-01
      1.1914037050193882e-01 1.1046496010711124e-01
      5.6120474900814593e-02 -2.1293411301925547e-01
      -2.3030054704731465e-01 3.8645082256747565e-01
      2.4826960517957544e-01 1.1330470159791163e-01
      -1.2444718558300594e-01 -2.0427457887115621e-01
      -5.7207314480940040e-02 -1.3861046868454005e-01
      4.7003821361535841e-01 -1.6135144817058675e-01
      -3.0176187118627962e-01 -1.8724032079612868e-01
      -1.9356022347903043e-01 -6.8053020885646659e-02
      3.5792156687152471e-01 1.1274611044767233e-01
      -1.9315156603176564e-01 8.2249684882205354e-02
      -1.4595829467433531e-02 4.9618908996813489e-02
      -1.0056285268963648e-01 -6.1461407688236262e-02
      -8.3045354144238429e-02 7.8946605142074591e-02
      -3.4495121984254376e-02 1.7867634131021395e-01
      9.8788503533619870e-02 -1.3751472532285380e-01
      1.0018993146296466e-01 1.8176276965962035e-01
      1.9062422688124409e-01 -9.9137985870647719e-02
      1.2092250227110897e-01 -2.6369648409145879e-01
      3.1904133444639110e-01 2.0811976969377607e-01
      -1.3590782142982244e-01 1.7321682938233582e-01
      -1.9524989976385260e-01 -4.9534244040676537e-02
      -1.9260825251941988e-01 -7.7588857015951126e-02
      1.9212230736898370e-01 -4.3406461153807974e-02
      -2.6202325658603306e-02 -1.7894362889194743e-02
      -3.2948625171834012e-01 1.2360437227787949e-01
      -2.1910971469819542e-02 8.2888850542525913e-02
      1.2734001138814335e-01 8.3596199176090957e-02
      -9.9278115600304473e-01 1.2113437922195819e-01
      2.0480376285660259e-01 -1.9648706223650761e-01
      4.2846597657347346e-01 -1.2331379324839348e-01
      -2.5290816538929212e-01 -1.7194197773196654e-01
      4.7419417062491961e-02 5.6301798151737505e-02
      -7.1626175037718287e-02 6.1189146914012685e-02
      1.1334530977934074e-01 3.8909263959089682e-02
      1.0120070635297937e-01 1.9548575920341010e-01
      4.7518032349615692e-02 -1.2049083449319059e-01
      -2.7939496435972731e-02 -1.2369356275606580e-01
      -3.3991922218468244e-02 2.2253259760953905e-02
      -7.2189598752578632e-02 2.0321767556825951e-01
      1.8186510727418073e-01 1.2045328561450655e-01
      8.3517834150068790e-02 2.1397070596035264e-01
      1.1314621191781890e-01 -1.1205708498088005e-01
      5.4914095873914645e-02 8.9941193475236506e-02
      6.0392558538079788e-02 -2.0823005031851163e-02
      -8.4227395408333820e-04 1.1838495712369947e-02
      6.7289126940768426e-02 1.0607979038452786e-01
      -1.2725997837216410e-01 -7.7116619150501151e-02
      3.7963179727135495e-03 -4.3140592299431610e-02
      7.0632431461856451e-02 -1.7980578409201604e-02
      9.4827798313743675e-02 8.5564697614720436e-02
      -5.1883806183351047e-02 -8.2738076321478504e-02
      -3.1001435357727557e-02 -1.5855021394624508e-01
      4.6566731350649260e-02 2.7196184400189211e-01
      -7.3695281471354776e-02 9.3977557305608819e-02
      -7.6492418787184685e-02 -5.4247390552704500e-02
      1.0190079366475560e-01 -1.1835495257654187e-01
      -2.1011892920785813e-02 -9.7636825963372420e-02
      -4.8153059016234033e-02 -2.0264791710612071e-01
      8.9415077735497686e-02 1.0723293835687799e-01
      -8.8819168285641417e-02 1.2451966521753441e-01
      6.2561405590741276e-02 2.6791374885009439e-01
      -1.5097481069315816e-01 -2.2779663954162918e-01
      -1.6785194923791194e-01 1.9562335388579133e-01
      -1.9219515969311871e-01 1.5112090093184960e-01
      -2.8364663519189132e-01 -1.1649835582851241e-01
      8.8673317488836723e-02 6.1043827440999454e-02
      3.4815034185354185e-02 -4.1730888188385225e-02
      1.4341899278434100e-01 -7.6543362058176551e-02
      7.1433762620398814e-02 5.1616227877281796e-02
      -2.0290015487977706e-01 -3.2384909095665014e-02
      -7.4676790579389474e-02 -3.8338549181848189e-02
      -6.8065760681712259e-02 -8.9087247753372886e-02
      -6.1058049701044531e-02 -1.0227171647835778e-01
      -9.1169854504108291e-02 1.2089147368244849e-01
      -1.5471770782323038e-01 9.9256422207170084e-02
      3.3507179099522150e-01 1.8855482675202948e-01
      1.2817604777668481e-01 -9.8308578619273848e-02
      2.0377597604139486e-01 6.7103014894778004e-02
      1.0193453849668578e-01 -1.1739842358012613e-01
      4.1997148659765289e-02 -9.6634088165260187e-02
      -1.9476071696096164e-01 -7.0081291157562717e-02
      1.8308704537276163e-01 9.9917255936575147e-02
      -7.3723120375180501e-02 7.5743025822141249e-02
      5.3555324545801641e-02 -4.9447157667821415e-02
      1.1597863995375893e-01 1.3430459788771243e-03
      2.1910278622480897e-01 -1.0657452052686076e-01
      1.2124608563529557e-01 2.6055404437793004e-02
      8.1575786346056681e-02 -1.9792319593569044e-01
      1.1008508281968241e-01 -9.8291599832164470e-02
      9.5601424529242793e-02 6.2235261052489312e-02
      -6.7851435032640364e-02 9.5823263028661843e-02
      3.6581407791781172e-02 1.5814963506958155e-01
      -3.9222418806509375e-02 -1.0382647015024274e-01
      3.6551974699057535e-02 2.8639958210495015e-01
      -5.4222346255417442e-02 9.5602415782526776e-02
      -5.4030014974091661e-03 5.4049721452150090e-02
      9.3111877334781962e-02 6.4865051560065431e-02
      -7.0271335723546746e-03 -8.1900367389182681e-03
      -1.1798044812677669e-01 7.9354023099133073e-02
      -5.1052529112852442e-02 5.5183299507625613e-02
      -8.9669109876255593e-02 8.8459654207594052e-02
      -1.0240286623973857e-01 -1.2407431410094411e-01
      -1.6362555559587752e-01 -1.1178922095504908e-01
      -5.5042918542228259e-02 1.6143972940113208e-01
      -1.9918795101894590e-02 -6.8625510848481742e-03
      8.5612531732021407e-02 2.6735319205169356e-01
      1.0928020041363488e-01 7.2496639548335802e-03
      -1.0475849280234567e-01 -6.4961620507000856e-02
      6.4680258958109513e-02 -1.5284853739566093e-01
      -6.6665356367990036e-02 9.3417286694702187e-02
      2.3311895008697320e-02 -3.4298653638150399e-02
      -6.6366290628301253e-02 6.2803877849031881e-02
      8.2294176698741645e-02 7.9860031383895774e-02
      -3.6051468384631601e-02 -2.2090604636653027e-01
      -1.3255206993056620e-02 -4.4409103207402240e-02
      7.4386705602015823e-02 2.5453680087730250e-02
      6.0569786121176299e-02 -4.9419616746048334e-02
      3.5329738112935709e-02 -1.3881411870634552e-02
      -1.9489488634796888e-02 1.5685607050429626e-02
      1.0683897201200748e-01 5.1268854017527683e-02
      7.3955786006882948e-02 -8.9915436928513795e-02
      6.9460086877861330e-02 -1.9535286641008770e-01
      2.8993190630060539e-01 1.1252403010240415e-01
      1.1811696080592723e-02 2.5960009755719077e-01
      7.1451978717695555e-02 -5.6130817663237863e-03
      2.3829666146616213e-01 2.5111277217207106e-01
      -8.6341174843793764e-02 1.0798704775827542e-02
      -3.9463284930667852e-01 -1.1710641549880740e-01
      4.9009386027556619e-02 -1.0703042091852215e-01
      -5.9762203703422653e-02 -4.4008086740692891e-03
      2.8770428123481521e-02 6.9065615433024738e-02
      1.1187310486000267e-01 7.9998049742763082e-03
      -3.6180422181818953e-02 9.4672619291208612e-03
      1.6020756156996999e-01 -2.4737856435944744e-01
      -1.4905227929690448e-01 -4.7907457702080153e-01
      8.2601630159417263e-03 7.4728307967213345e-02
      9.9656995383629238e-02 1.6456194903563817e-01
      -1.9435162390001873e-01 -7.2688025025152231e-02
      2.1592928365032391e-01 -3.1108732182905829e-01
      -1.2183924349250036e-01 -2.0996793573574982e-01
      -1.4473937464042666e-01 -2.3939199232858174e-01
      8.8007701754549472e-02 2.2214068021981484e-01
      -1.2634003705360319e-01 -7.3359498842038948e-02
      2.7839822283455906e-01 -5.9083317588344578e-02
      -2.2622683971880550e-01 -3.0014643626617704e-01
      2.0124460685194864e-01 -1.8541398061372835e-01
      1.2699939088460671e-01 2.2979060434569662e-01
      -2.3565410678778193e-01 1.7319411197916762e-01
      -1.8332835545037768e-01 1.8528211443849260e-01
      -1.4750312260143411e-01 -2.5566148955145745e-01
      1.1995317002837597e-01 6.1698965979564792e-02
      -1.3888453849504009e-01 1.9512127235988683e-01
      -2.3587483192556269e-01 -7.8167213211244269e-01
      9.9847105820419876e-02 -4.0469535737905038e-01
      2.4097797017646420e-02 9.8114615790470400e-02
      -3.8088027352044029e-01 2.9032758359800565e-01
      1.2650472149975375e-01 3.1294941056253417e-01
      -1.2761323583943113e-01 -5.5619541591794421e-02
      -8.7929576373007218e-02 -3.0712077863344598e-02
      2.5879504243322066e-01 -2.6398692760649783e-01
      -4.2823910958123247e-02 -3.0169725918811324e-01
      1.6481949377156657e-01 1.3913757395268095e-01
      1.9989504679188849e-01 -1.2018759005657161e-01
      3.3139130981523957e-01 -2.8590192090233707e-01
      3.4741194271477271e-01 9.1853490318520206e-02
      1.8662466274940703e-01 -9.9419502140515204e-02
      -3.1416123169402310e-01 1.1275630943446238e-01
      -1.7016723122501465e-01 1.7325245109294778e-02
      5.7107750729325918e-02 3.5952980802065229e-02
      1.9365318563339717e-01 -1.3126198755138813e-01
      8.7004064066695030e-02 4.9282381418347863e-02
      1.8244003784517507e-01 1.6246457033491157e-02
      -1.6415015149980042e-01 8.5564852208754968e-02
      -3.4136043718818350e-02 1.1606439367031073e-01
      2.4218566304725725e-01 4.1613289454643487e-02
      2.1135186464234865e-01 -4.2817198626506725e-01
      -1.6884967885112129e-01 -1.4949620395162030e-01
      1.1591636101477854e-01 -2.6522881439987284e-01
      5.5192331265841332e-02 2.4690681670034451e-01
      -1.8995050069949057e-01 1.0721253175671698e-01
      3.3824403506195361e-01 1.6514288116202402e-01
      2.0530590465909987e-01 1.1626751290218172e-01
      4.6770365173949524e-01 -1.2938508598237702e-01
      -3.1288549849359537e-01 -2.3328983786657573e-01
      1.1352310811813500e-01 -8.5122622354624256e-02
      -1.5940802509925509e-01 -1.8351599875885199e-01
      -3.2331063493051421e-01 9.6989575690879001e-02
      -3.9041600376194996e-01 -9.1929394932668759e-02
      1.9853037857991762e-01 -3.7601918962718928e-01
      5.3067520420540831e-02 -1.7787387825983364e-01
      1.6689803231785202e-01 3.1246263857752415e-01
      -2.6662360736176876e-02 1.6418138402308161e-01
      3.4936356357237780e-01 -2.7417836988671052e-01
      -3.6152170801828759e-01 -1.8752997876019969e-02
      2.7283596486579981e-01 -3.3740509154961429e-01
      2.6400670913024687e-01 4.9274859904764379e-02
      4.3321898097053592e-02 4.5276135337815751e-03
      -1.5080232007294853e-01 -3.8068548614706856e-02
      -1.1071082546351985e-01 3.1822583560722967e-01
      2.4133284874694846e-01 -7.5754968326282437e-02
      -5.3018117666825487e-02 -1.6557454783556337e-02
      6.1079645496923400e-02 -2.1173528977645198e-01
      -2.7033275624860448e-01 2.5134120712227365e-01
      1.5475407169415520e-01 -3.6560820196454924e-01
      -9.5334674949927548e-02 -2.2592868232118682e-01
      -5.5199530011647957e-01 2.0495271908930063e-01
      4.6837187338171805e-03 -1.0857411227584608e-01
      7.6946762565425597e-02 -2.6777536290853415e-01
      1.3955794368911018e-01 1.6164664313322308e-02
      1.2942496182495805e-01 -9.7320509913867079e-02
      1.4334894475563023e-01 1.7319954386705352e-01
      -1.6853233403421317e-01 -5.7201422862630281e-02
      8.7603796461961439e-02 1.7339008734595662e-01
      -3.0891633816173408e-01 4.0895315347711658e-01
      -1.2689129427678769e-01 2.1897379701071068e-01
      -1.1080624775561565e-01 3.1223222664128799e-02
      -2.4305171010108875e-01 -3.3405866602865396e-02
      1.1218299930280450e-01 6.0160257944985022e-02
      -4.3366159026641993e-01 -1.6974804069254251e-01
      4.0519142548377562e-01 -1.2664129093669271e-01
      3.9174811757379302e-02 -1.7977353243086891e-01
      2.3877593881639906e-02 -6.1562896555056357e-01
      1.5692130327868040e-02 2.5832087410957033e-01
      -1.7300308372555295e-01 -1.2558387905314361e-01
      2.0204721641465198e-01 -5.0203828338939313e-02
      4.8148103785264335e-01 -9.6760015160419918e-02
      -8.5986228828126843e-02 -1.1761387475816514e-01
      1.7262462276893649e+00 -3.9690222509659236e-02
      1.3303087269152169e-03 1.6700037875423800e-02
      -9.6487486694474836e-02 -1.0643857461347701e-01
      4.1286220307528360e-01 1.5075390165674593e-01
      1.4172551485242460e-01 -9.1523991269945135e-02
      8.9138757239505609e-02 4.2902284566641656e-02
      9.6769925268766391e-02 -3.0206282982170890e-01
      -1.4245045902645379e-01 -5.6605735639416033e-01
      8.3898074242421544e-02 1.8994775641937484e-01
      6.6472108134094890e-02 -9.7425027842633474e-02
      -3.4740266655512742e-01 -1.0133297394903162e-01
      4.8315957868183330e-02 -4.0372834254292006e-01
      -2.2195693628150839e-02 4.3811748709070432e-02
      -1.1798729327594815e-01 1.9529351408241158e-01
      -5.3140347917346994e-02 2.3541179959986530e-01
      -1.5434573553011185e-01 -2.2074906729145688e-01
      -3.6069605186208259e-01 3.6909461436280960e-01
      -2.8311935532315334e-02 -4.1745786389602618e-01
      -1.7133799327782320e-01 4.4662837133578395e-02
      3.1896775861967125e-01 1.8588250130558095e-01
      -3.3834151494776793e-01 9.7278845123394825e-02
      -1.0582746824899437e-01 -2.6646826861584227e-01
      -1.7489662874673181e-01 -2.5756349464708755e-01
      -1.2367464183682512e-01 -4.9135818509630134e-02
      2.6392973188720498e-01 1.9377452017150501e-01
      -5.0769718315565870e-01 -3.0961284911494236e-01
      2.1096067313814380e-02 -1.2385211163861962e-01
      -4.4021753646882392e-02 4.2437620723155697e-02
      -4.7566779741356441e-01 3.6863567808873365e-01
      3.3550543418291334e-01 5.7600061880857145e-02
      4.5752636166326666e-01 -1.2671806316328124e-01
      1.7837957992209250e-01 -1.7215428560592563e-01
      2.5516438422032314e-02 -1.6298474142480249e-01
      2.3448068633373309e-01 -2.0830627557578585e-01
      2.1696903826536834e-01 7.3894047627303783e-02
      8.8257317673876540e-02 -1.8109829552967743e-01
      1.4641029299861366e-01 -2.3756309955870189e-01
      4.5992969146239085e-02 4.1883536350954953e-01
      8.1979579563076440e-04 2.7893264267878259e-02
      -1.5035965272190058e-01 8.1037642107837024e-02
      -2.9289795451662593e-02 7.7666141885475146e-02
      -5.4507945970817384e-01 -2.3844380320456382e-01
      2.1106350855563186e-02 -3.7228689723326241e-01
      1.3628414808028766e-01 -2.9130411172234205e-01
      2.8370162256695669e-01 -4.2485130337320998e-01
      -5.2108837311959966e-01 -9.8189314924669729e-02
      -1.3137482060811295e-01 -5.1354019350239577e-01
      4.1707902609098763e-02 -8.6142176390059264e-02
      -1.4471011170204770e-01 -7.9927842899359181e-01
      -1.5383106880365516e-01 4.2231182887608315e-01
      8.2307758992281366e-01 -1.3052804570080487e-01
      -1.5094131167380154e-01 -1.0359740803669344e-01
      -4.5837995281533844e-01 1.7377532315540772e-02
      3.1959986459921147e-01 1.9857189798258346e-01
      -4.9942972667032584e-02 -3.4607865146357566e-02
      1.6475720916507369e-02 6.0781788054097077e-02
      -1.5707391468969248e-01 -1.4178790376068126e-01
      -1.3964773903866276e-01 -4.8215684961070421e-01
      -9.2872504235926343e-02 2.3064550370514242e-01
      6.5352059376946395e-03 2.4464113248492966e-01
      -3.2761953529252391e-01 -1.9411518533010136e-01
      3.0001598084360431e-01 -1.3016606244412776e-01
      -1.1066437317300713e-01 -1.0975396389143507e-01
      -5.6738453904442258e-02 -1.7576324628593398e-01
      -1.8767578688095796e-02 3.5040946016686295e-02
      -6.0460859297459979e-02 -1.5597283251392136e-01
      -1.9310228413781269e-01 1.3370440750193577e-01
      -6.6677045709297528e-02 5.7910828652327842e-02
      -1.2136616283252734e-01 -1.9106180669083539e-02
      9.0797361207941643e-02 1.9018713162745543e-01
      -2.4220433202142366e-01 1.4020912883559170e-01
      -1.2783505506356321e-01 9.3331291180558634e-02
      -4.5718504493228035e-02 -2.8440770179799807e-01
      8.5520135883502338e-03 8.4725086345003794e-02
      1.8617938752317137e-01 -1.1426409373164814e-01
      -3.0129783934679688e-01 -2.8039870914357690e-01
      6.1944493260190005e-02 1.3543401995928414e-01
      1.3833414503487759e-01 2.9009369726446552e-02
      -4.2163346001346796e-01 2.8667317209879511e-01
      3.8407469312840156e-02 1.4675519410932020e-01
      3.0290755753182991e-01 1.2491238836162118e-01
      -1.3564531591581588e-01 -6.6182307408812174e-02
      2.3160128791184181e-01 -1.0250260938866923e-01
      6.1633295561350852e-02 -6.1231442867601453e-02
      1.4095828613908801e-01 7.6332019171631502e-02
      1.5324951375122414e-01 -1.1679593969474535e-01
      5.5177707863317126e-02 -2.6148811266250082e-02
      3.0448256948115860e-02 1.5350523296141674e-01
      -5.8288806966394685e-02 -5.6518403891011572e-02
      -3.3988526966973803e-01 6.4652629659533445e-02
      -1.9557347525087737e-01 1.0607347761867880e-01
      -3.1565432924915243e-01 -2.0742386887168732e-01
      2.7870887449484361e-01 -3.2461987615933968e-01
      2.3552249269696540e-02 4.3208111419240032e-02
      2.4675325613498617e-01 -5.4775078725764974e-02
      -5.5392293819252070e-01 1.7215117124326890e-01
      2.5637092046773911e-02 1.0167883510447310e-02
      5.0876631111663143e-02 -1.6001654819726104e-02
      -6.7310250494211146e-02 -1.8235320009393294e-02
      -1.6773661935645889e-01 2.5554170206297644e-01
      7.2111143729333838e-01 -1.4259671841800498e-01
      -1.6983390217986769e-01 3.5370443302358397e-02
      -2.1220914919748421e-01 1.5942470351922786e-01
      2.4204023767100472e-01 -4.8105767885263266e-02
      7.3922141715810638e-03 -8.3465256602551122e-02
      1.2369761503763702e-01 -1.0531498836689367e-01
      -7.4453291812685646e-02 -8.9997310838332692e-02
      -1.3851385350601397e-01 -4.0753579195540779e-01
      -7.8042593410711833e-02 9.3389706116312782e-02
      -1.2163088905405649e-02 1.5898615796301238e-01
      -2.1535278105974309e-01 4.2439609561378995e-02
      1.9882419998671011e-01 -9.3038330845309797e-02
      -1.9047046899759723e-01 -1.4342523139352226e-01
      -8.2507139785236008e-02 -2.1489617778153675e-01
      -1.1723041137102296e-01 4.9840491336653088e-02
      -9.3172449147181202e-02 -6.9391424578043648e-02
      -8.1780423221088389e-02 1.0761876393193118e-01
      -6.5995777782527659e-02 -4.8780608220917461e-02
      -6.8375325396724015e-02 -7.1762763246289676e-02
      9.5919116286128245e-02 1.2628149715251977e-01
      -9.3971879444026449e-02 6.9936725500795563e-02
      -1.4011864024895940e-01 2.4202130205199232e-01
      -4.9329021491556373e-02 -7.0868764478389051e-02
      -2.5001983899599137e-02 1.0380193323689386e-01
      -1.5763864247395985e-02 1.8436681869920785e-02
      -1.2650489070098586e-01 -1.5056453389312688e-01
      7.4272187442636334e-02 1.9774304032694490e-01
      3.3477126473681347e-02 1.2751655057048178e-01
      -3.2978036995127930e-01 -6.3141122389020074e-02
      8.4528759741152537e-02 8.9259219030651413e-02
      3.8545072885879617e-01 1.1925954110615988e-01
      -2.2730292656415277e-01 2.8174234989545039e-02
      1.0856680119453982e-01 -8.2746181251826326e-02
      8.3312176796562790e-02 -1.5373803370130887e-01
      5.7238571971668484e-02 1.1768154141077398e-01
      1.1344490760636394e-01 -1.3909716074333636e-01
      9.9549748182276195e-03 -3.6058872144795737e-02
      -1.7217188456470414e-01 1.6842718849628030e-01
      -4.1194328144135331e-02 -6.8442950130488539e-02
      -1.1955828748215315e-01 1.4423844691590926e-01
      -6.5546453342289313e-02 1.3592957838275416e-01
      -1.8230140421391441e-01 -1.5511126567595598e-01
      2.1596673636894892e-01 -9.7759971571232451e-02
      1.9013703763610709e-01 -1.4637505279960118e-02
      3.6826174172700239e-02 2.4741546695363387e-01
      1.8503241860834924e-01 1.0273745617004898e-01
      9.4340954077403338e-02 -2.3349475789628779e-01
      2.2787483660684915e-01 -9.1873003061580236e-02
      1.7191067467293458e-01 -1.7897115441388217e-01
      -1.2702244982119085e-01 -3.1113016851590944e-02
      1.0439872328771682e+00 -7.2657429022785505e-02
      -1.0573404344027124e-01 1.7848154827034637e-01
      -2.4644972740183996e-01 1.2508153154161511e-01
      1.5005865881804240e-01 1.1505725544143414e-01
      1.1795139330262497e-01 -9.4968978097265136e-02
      1.7810978469251112e-01 -6.4852517811450100e-02
      -1.0753304140041646e-01 -1.1113732944526902e-01
      -2.1668044491758850e-02 -4.6352859939279727e-02
      -1.5848455488027291e-01 2.2624110276613635e-01
      4.4667090163736697e-02 3.0452713211612115e-01
      -4.7058119915646693e-02 4.3793908561847859e-02
      8.5030878545102065e-02 -2.2886094024426037e-01
      -5.3366716739042051e-02 -2.2713785735065866e-02
      -1.1753980240334477e-01 4.5866937354442423e-02
      4.3925564113669928e-02 -3.7778963756609267e-02
      -3.4993380330756163e-02 -1.2319093992886973e-01
      -9.9829431889263298e-02 -2.6706030371800221e-01
      1.3572019072213559e-01 -1.2923249661172365e-01
      2.7135565747414454e-02 -1.6730532954462546e-01
      8.3577331838578559e-02 1.7010214193936174e-01
      -9.1451487964291561e-02 -9.3120923008206430e-02
      -1.5502995176347834e-01 -1.1866400869480867e-02
      1.0202374910045076e-01 -2.7754770030564058e-01
      4.8965054262257009e-02 1.1785211875706648e-01
      1.0342888347223830e-01 1.9735687910316269e-01
      -2.6912703549287112e-02 -2.9384984760510841e-01
      -1.2576443813290513e-02 -2.2254628867936918e-01
      3.1500128678483225e-01 -4.2500482766707252e-02
      -1.1135915685753718e-01 2.0114987346229790e-01
      -2.1076436302528620e-01 9.2702428705455156e-02
      -1.7291133661940652e-01 2.0699227464892264e-01
      -5.8520318050227081e-02 -6.9362765707626867e-02
      9.2686794981370075e-03 -1.8846284322428780e-01
      6.0782016105477010e-02 -9.5599565267817987e-02
      5.0496810961689544e-02 2.9304752917281105e-02
      1.4481840335308069e-01 -1.0440916677540055e-01
      -1.2605970121555850e-02 -2.0619598844260678e-01
      2.5059477508338213e-01 2.4202938555211606e-02
      -1.1632234992169946e-01 2.3699557321224796e-02
      -2.8829448841599442e-01 4.5876939983184206e-02
      -2.2593051678436804e-01 -5.1356558198906666e-02
      -1.7785336582329223e-01 -3.5429852497674677e-02
      2.0819604377469572e-01 1.0492739129001759e-03
      2.8238470666433216e-02 1.0662052360317255e-02
      1.8915256284774573e-01 3.5115592970569709e-01
      4.3862224902816369e-02 -3.1480575115701848e-02
      2.1032870517617062e-02 -1.0720593633426655e-01
      2.1597326046806306e-01 1.0967614351204512e-01
      -1.3232229800597695e-01 -1.5365818839879000e-01
      -9.7815171951377469e-02 -9.1601739773429322e-02
      5.5732680391405054e-02 1.2241796924712076e-01
      -1.3040745471362725e-01 1.0216434703809822e-01
      1.9936331569491719e-01 -1.8346638752174006e-02
      6.5001419669905705e-02 -4.8561006077867071e-02
      -7.9102437659268429e-02 -6.4326464375422943e-02
      6.0051736841017847e-02 -1.4631677793745643e-01
      2.1293909062706518e-01 4.5521214241343077e-03
      -1.1908398710304527e-01 -8.9035976575622400e-01
      1.7034493701591663e-01 1.1820788878119626e-01
      3.0141297460100913e-01 1.3452546016755351e-01
      -1.2672516820849444e-01 1.9120739318976046e-01
      -8.7871326301737163e-02 -8.9762213798756360e-02
      -4.5046755565822981e-03 6.8638915214415230e-02
      -1.2997124854936547e-02 1.2681547155637876e-01
      -2.8307798572503005e-02 4.3424065080951223e-02
      -3.1440471483131067e-02 -2.5326524609553674e-03
      -9.5762716303172332e-02 1.9191766032405932e-01
      -1.6302370846944057e-02 6.8918362662169469e-02
      -6.6481591883685298e-02 -8.6386926534364666e-02
      -2.6360493022201916e-02 1.8255176005987825e-01
      -9.1709559610061650e-03 -2.0718725901872337e-01
      7.7086645022337419e-02 -1.0262923454238800e-01
      4.1698217175098605e-02 -1.5351240291571569e-01
      4.7819174035809056e-02 1.3778233170882315e-01
      2.3945173408870565e-01 3.1464576463604060e-01
      -6.9332767373922841e-02 -3.7806973336292732e-01
      -5.1735209252549499e-02 1.3641347500254766e-01
      1.3444901585092719e-01 -1.3265398430149083e-01
      1.0544634712538242e-01 -1.0251175728359136e-02
      4.7628903101201756e-02 1.6409648026406765e-01
      7.1445624066264957e-01 7.6018544091872545e-02
      1.6950092322051277e-01 5.4737717806197010e-02
      8.7417706202736326e-02 4.7430247281361915e-02
      -3.5231005483990933e-02 1.7435595435378165e-01
      1.6794715447837147e-01 -4.9487241745162065e-02
      9.4369580209043933e-03 -5.9686903905381263e-02
      -7.6555551727757840e-02 -2.0067068949531269e-01
      1.0684451339939624e-01 1.9417035817755612e-02
      5.0569455549577457e-03 1.0823317934348277e-02
      -1.0446299713852225e-01 2.1543664916421117e-02
      -1.4285570367568712e-01 -9.4246644637660901e-02
      -1.4009020176977149e-01 3.9717318026393653e-02
      -1.3448857392463034e-01 -4.0612755557603797e-02
      -1.2780530365403006e-01 2.5380455391380202e-02
      -9.3537831018518272e-02 1.8097537075346312e-01
      -2.1491392404383389e-01 1.6358662495834367e-01
      1.9226617867576098e-01 1.9884645451843905e-01
      2.5520402229356937e-01 -7.4184167730897782e-02
      1.7374206823722479e-02 -4.3706607397665062e-02
      -2.8680613096846400e-02 6.9810017046064987e-03
      -1.1531385883685055e+00 5.1880799858421922e-02
      6.0776992758898730e-02 1.3884431057213681e-03
      -3.4787795765986951e-01 -5.6032534598873640e-02
      1.5369225230411573e-01 1.0722938471677314e-01
      -9.3092263145309342e-02 4.9802882749701224e-02
      -2.7640871272514139e-01 -2.1167781177527853e-01
      4.6568551176913858e-02 7.8904826894387922e-02
      4.0958230977806785e-02 4.8263625920459435e-02
      2.8152636026532102e-01 -3.0611121166098109e-02
      1.1403400493976708e-01 1.3757733496728786e-01
      -9.3790183784035738e-02 -3.6434981256633214e-01
      1.0836634640564288e-01 -1.9533658885572056e-01
      -6.0862890133352276e-02 6.2844682575664279e-02
      4.5313570156036660e-02 6.5414997207663403e-02
      1.0165458500087948e-01 7.2857353889023382e-02
      -1.1629455741149201e-01 1.9828819639652443e-02
      -3.8401329104392312e-02 1.4851485388178223e-01
      -1.4561538063895318e-02 -1.6718936586574412e-01
      2.9594222347151438e-03 -3.3549923139966902e-02
      2.4732382883295578e-01 1.9069278951129395e-01
      -5.0425581536166948e-02 -5.3956626355845819e-02
      1.4425942680403378e-02 -4.7734610307612856e-02
      -2.7507502650290394e-02 -9.3378769855300553e-02
      7.1805834327153303e-02 -6.0238410899081996e-02
      3.8898442193633664e-01 -4.0121928946694085e-01
      -1.1271192334056401e-01 6.4835073573919003e-02
      -2.3232494605047296e-02 5.2078755915336505e-01
      3.4776771859894813e-02 -1.5591113776431484e-01
      -4.9745337807564904e-02 3.1899937569309345e-01
      4.5937639481464032e-01 6.5064358244981593e-02
      -5.5566483378720277e-02 1.6967438895419525e-02
      1.4529987331345090e-01 -2.3565273998095312e-01
      1.0883731222282958e-01 -1.1589490372998357e-02
      6.8236381786907968e-02 -1.1472983928439297e-02
      4.4875118187594189e-02 -4.8365589852541087e-02
      8.7126969247203669e-03 -7.1482241037646152e-02
      5.3768173192688768e-03 7.1989401289328542e-02
      -3.9095764330746054e-02 1.1505589708170443e-01
      1.6889846396047112e-01 6.9759469427395498e-03
      -6.7331132520950715e-02 -7.0142803603811116e-02
      -1.0985167030193864e-01 -1.6800116220637762e-01
      -4.6968595374756983e-01 1.1058857836904641e-01
      1.5707871552815325e-01 2.0886470115062884e-02
      2.7817106995091059e-02 -4.1726373416422866e-02
      3.0278638447629336e-02 -1.4436580790672210e-01
      -1.7661242893262039e-01 -2.6449851887031813e-02
      3.5883698208184073e-02 1.7400671876111337e-01
      1.1506238027593090e-01 4.0994013907767142e-02
      -1.9179243466873003e-01 4.4011265440077418e-01
      -3.1964752787308356e-02 2.2475774293761147e-01
      -1.7098876329939555e-01 -2.2601720548915731e-02
      8.9743574191636533e-02 1.2483957505873820e-01
      -2.8444559939435409e-02 -1.0532956505309071e-01
      1.3799655747577250e-01 8.8951329771705927e-03
      -2.8042972645098137e-02 5.8204411002260502e-02
      -9.3780983584780708e-02 -9.3258128924936970e-02
      -1.0059368319455433e-01 -3.4847022415085654e-01
      -2.2576724348878866e-02 -8.5584121377391756e-02
      5.4897956061138849e-02 1.1970623975246801e-02
      5.3660556393317335e-02 3.4704315053634988e-01
      -1.0631611248490115e-01 -1.2440258864403117e-01
      3.2574318357934345e-01 -2.0313783381161690e-01
      -1.7184166457548672e-01 -8.9600073227876831e-02
      -1.2703972457537122e-01 1.2851412690716604e-01
      -6.7999850930520550e-02 3.7826362814610004e-01
      -1.5908983853664224e-01 -3.6355344758186142e-01
      -2.9079271269811480e-01 -1.9981999544763066e-01
      3.5116990415624211e-01 -5.2081102772364507e-01
      -3.0465081177676900e-01 -4.2788693422228663e-01
      2.0555464688511429e-01 2.5066155722653316e-01
      1.3595862669534430e-02 -1.9516327011318210e-01
      -3.4644063524268248e-01 2.0996631529102192e-01
      5.6238062111959877e-02 -2.3779357518174518e-01
      -9.7265949148117453e-02 1.4024919867887450e-01
      2.0772231419988349e-01 -2.0291743269401200e-01
      -2.5376079808234137e-01 2.2048273795951207e-01
      2.3336220615868191e-02 5.1615058284049231e-01
      3.5235858052793351e-01 1.1660544262639276e-01
      -1.3283592027900462e-01 2.2112948713675418e-02
      2.7848536084557329e-01 7.5969837505272447e-02
      -1.2103969421999124e-02 3.0252749169839260e-01
      2.8236306898960100e-02 -1.2299588292257121e-01
      1.0628266893601411e-01 -4.0783134712148805e-01
      1.1095252392145420e-01 2.6533514265410047e-03
      1.3851403581788183e-01 -3.5349827907527241e-02
      9.7661937981049274e-02 -1.8323876299627362e-01
      -6.0738315145328590e-02 3.4620920781126008e-01
      -4.2576898296546001e-01 1.9052224607663973e-01
      5.3456617954037902e-02 -7.5354583573402315e-02
      -2.9494004934466223e-01 4.0919957257741321e-02
      -4.4838067262939096e-01 6.3938172110436370e-02
      -1.8248660508938705e-01 -2.6731154264430766e-02
      2.5076623790386243e-01 1.5222469080453463e-01
      -9.6413985027258425e-02 -5.9789295579033917e-02
      2.4309879808216961e-01 3.2208886500128814e-01
      -2.3077908486266304e-03 5.6634873251791430e-02
      -1.3264051358326878e-01 -3.6213098132221228e-01
      3.3580818238686050e-01 5.9153558783767650e-02
      6.4191817009144825e-01 -1.2841174105997930e-01
      -1.2644734632404064e-01 7.3180316686152118e-03
      6.0203901709965890e-01 6.4501531710256202e-02
      -8.1446772588934777e-02 4.6868521141150155e-01
      -2.7803269695264038e-01 1.6240735377509496e-01
      1.7433312664506570e-01 2.3018286954797196e-01
      1.3010628822411144e-01 -2.7258953927696204e-02
      1.9702353129153569e-01 -2.5875219469504424e-01
      1.4061133895741088e-01 -7.7589212220136927e-02
      1.1530248038372079e-01 -5.6623773790601228e-01
      -1.0756309561493316e-01 -2.9462239324985051e-01
      -8.4908444898269278e-02 -4.4785308999428897e-01
      -6.1605952088498166e-02 -3.4912955632184350e-01
      5.4130418013179585e-03 -1.1346815271376202e-01
      1.6248268004992267e-01 1.1203021656099085e-01
      8.7369695627897259e-02 -1.0850155752763088e-01
      5.0387817388561622e-02 -7.5488830604324167e-02
      1.4688394163263210e-01 1.0146363338332177e-01
      5.0366862696019740e-02 5.5216565513160849e-02
      9.0536808525234463e-02 -2.5492043955163246e-02
      -1.3855474535613005e-02 3.4392554925924017e-02
      1.5097174005727687e-01 1.6801737868749400e-01
      2.1459246207147226e-01 -1.6983859051609596e-01
      1.8492173921977365e-01 -2.9797770501944587e-01
      8.7977299551243227e-02 6.9565300714612796e-02
      -9.6011843163010369e-02 -1.1963399675002358e-01
      -1.1256396272921589e-01 2.0997329974594214e-01
      1.2515789826347024e-01 -2.2148531514959677e-01
      -4.8988864367423036e-02 1.4185185162642819e-02
      -2.8048187806147751e-01 -1.4185453312111151e-01
      -1.1885889444004201e-01 5.5376339231317816e-02
      -3.8630104222402434e-01 2.4639346642282619e-03
      2.5858267203150148e-01 -2.4750012986537492e-01
      8.9888216600437304e-02 -4.5573004724294493e-02
      -1.7803398423492386e-01 3.4790296221306405e-01
      1.0690392534354520e-01 -2.5612806967150983e-02
      1.4237708810610930e-01 -2.3175556524728545e-02
      1.2193156767878935e-01 1.9436840649901127e-01
      -5.5920021910515316e-02 -3.6361733962869552e-01
      1.7273962815449073e-01 1.4657434304649503e-01
      8.9753703080200517e-02 1.4683028953360941e-01
      1.1161916166256292e-01 1.7451334614952477e-02
      1.8126190042928508e-01 -2.4394058826783999e-02
      1.4397766555547709e-01 -9.2983157852423220e-04
      -3.0157433264459965e-02 3.2469399123221976e-01
      -1.7887360118523921e-01 -2.0536060649760063e-01
      7.0439152537117675e-02 -7.9112147155780366e-01
      -2.4235087975369868e-01 4.3483611680021440e-02
      -1.5885400785922119e-01 -1.1949746358805576e-01
      -3.7742027777272941e-01 4.1995701776461003e-02
      1.0994445401413153e+00 4.2490542232364648e-01
      -1.0072963881861952e-01 3.5326273134015024e-01
      4.1475452174174659e-03 1.7344096091463510e-02
      -7.4846432489962714e-02 -8.4105306429757998e-02
      -4.3906978610021463e-01 -2.5913529368052962e-01
      1.7839411712707992e-01 -1.4135951143682235e-01
      2.4328363325023863e-01 5.2426469624027652e-02
      -1.1479521778555055e-01 4.1390714036231152e-02
      -3.4017573804237582e-02 2.3684301273867586e-01
      7.5634364948570190e-02 2.1535322863495365e-01
      4.6135378704329447e-02 -1.3121582065535578e-01
      1.5740953599253044e-01 -1.6280909374296626e-01
      1.4093191348670273e-01 -5.3167366562770213e-02
      -6.1411746979149938e-02 9.4315804814012541e-02
      1.1918810150865870e-01 1.3909231356790355e-01
      1.7231088462292454e-01 -4.5083689646807689e-03
      4.2903715620661066e-02 -9.2495412127770009e-04
      3.1305544746267386e-02 1.4886332333105112e-01
      2.6352863067387283e-01 -3.4855257557650202e-03
      -9.2535032683466828e-02 5.6033499399476099e-02
      -1.6451258644094685e-01 1.7780438753055153e-01
      2.0645041538986872e-02 -5.6907921719391845e-02
      3.1441036638940744e-03 2.9656148172070556e-02
      5.5254769986110647e-02 -1.7183949294420561e-01
      1.4367729197390241e-02 7.5569455358609150e-02
      2.5032615818676069e-02 -7.8230260119674405e-02
      -4.7862634029162271e-02 -2.8492266684924045e-01
      3.9621921489888530e-02 1.6919858696193396e-01
      -3.9055689462113539e-02 3.3383404619469609e-01
      -1.9076952023643320e-01 -7.6690258649995430e-02
      9.0987275208886359e-02 -1.9774158658962240e-01
      1.1633023492194516e-01 -9.3068440743669018e-02
      -2.0479022201403994e-02 -1.4230083582652917e-01
      7.0095703096243689e-02 -1.5282802528578139e-02
      -6.6154492015069011e-02 1.1533976505854038e-01
      -5.7943784522975939e-02 -5.1713269828806474e-02
      -3.2349491839551943e-02 2.2274213074937672e-02
      -9.2400620319370214e-02 4.9877987202583199e-02
      3.0123007711160776e-02 -4.7075793959497278e-02
      -3.1502351610428975e-01 3.0968888832404378e-02
      1.3930128823193916e-01 1.0985685794884020e-01
      1.4481419698654893e-01 -2.6085684762487796e-02
      2.0153611968320798e-01 -6.9068887063720469e-02
      1.8962855239508450e-01 9.3997603210196998e-02
      -3.7182986596259140e-02 5.7835636735963550e-02
      5.5379343028006400e-02 1.3365819530816621e-02
      -7.8850771370488792e-02 -4.8888668998954471e-01
      2.8469357362787995e-01 1.6279858963795350e-02
      1.1898210016415482e-03 4.7993076739955891e-02
      -4.1678939489498197e-02 4.5222134626689087e-02
      -1.9431151040759989e-01 3.2918532965589964e-01
      -8.7923120956862298e-03 7.8500828582318230e-02
      -4.7506729877830070e-02 -3.6992424563764763e-03
      1.3287342334201158e-01 -2.3898927134485642e-01
      -7.7379520242456479e-02 -8.7938221343422288e-02
      -5.7071559193928728e-02 -7.2294253573376779e-02
      2.0374126566556953e-02 7.9183867136441613e-02
      -2.1157754002951298e-01 1.0895324908220909e-01
      -7.1659442151529792e-02 1.5075150350982314e-01
      -7.1905721011187806e-02 3.5880242529453021e-01
      1.6380937542424329e-01 6.1384850707237530e-02
      6.2884162912677496e-02 -1.2772894112723221e-01
      -4.3386573442989233e-02 1.4104725567657886e-01
      -1.5888606414565697e-02 2.0051394323509625e-01
      -1.3674495517189092e-01 1.0756450003574439e-01
      -1.0222966249632416e-01 -3.5906146784447529e-01
      -1.6463947803126641e-02 -3.2291900567424037e-02
      -2.4493311926690417e-01 1.5457289552707393e-01
      2.5161344902417881e-01 3.0093049082301165e-01
      -2.6053381046713120e-01 -9.8908211390692752e-02
      -4.8083641932327517e-02 6.0161311606950318e-02
      -1.6367599009308051e-01 7.1658801901874625e-02
      -9.4278435978445416e-02 2.5405031467763933e-01
      -1.5308202927049444e-01 -2.3791756882734990e-02
      -2.0553671567459994e-01 -8.9804754113822230e-02
      -4.8323250495807841e-03 9.5027058661293684e-02
      3.9383795541602051e-01 6.9341985203113618e-02
      6.4868201452297672e-02 -1.8462466914188172e-01
      2.2083343040836045e-02 2.4816868339295683e-01
      -3.1484920750692723e-02 1.3832475812663317e-01
      6.0220926419937010e-02 2.1621489452439829e-01
      1.5561252154973554e-01 7.5649147392252269e-03
      -3.3940534588050236e-01 -6.1963433622828190e-02
      -8.2304239169746968e-02 -1.4851730570355770e-01
      7.0168191328745747e-03 3.2668199167357651e-02
      -1.5324755534706894e-01 1.0497994478692891e-02
      1.6092476751281706e-01 -8.4581336124749454e-02
      -1.4263832636046186e-01 -4.0916487233747995e-02
      2.3754662656472272e-01 -7.1829419292686914e-01
      1.7563893103360845e-01 -1.4172754156017497e-01
      9.3932269196076432e-02 -9.9969886057641455e-02
      -5.3069820615869463e-02 -5.0162094998736029e-02
      6.8543489412837708e-02 1.7675695734310173e-02
      -2.5350184455746277e-01 1.9820820295575603e-01
      -2.8383409633732420e-01 -8.9445946852812888e-02
      7.4441135207153661e-02 3.2415697856728105e-02
      -5.7456828906954381e-02 -5.0997727550711724e-01
      -2.7647642753139814e-02 -8.3455159592354500e-02
      -2.6979662700194133e-02 7.8123026166095316e-02
      -7.2292861192839911e-02 1.3475499847570450e-02
      3.3816476809482421e-01 -3.6186809347244636e-01
      8.1007562738778221e-03 4.9457552941443390e-02
      -3.2734464672358160e-01 -9.9093791689481084e-02
      1.8653860827052504e-01 3.3113934425869664e-02
      1.4310884927788303e-01 -8.7692173241343652e-02
      -1.8944512135390257e-01 2.6984685561553815e-02
      1.2451676386851322e-01 1.1947303578717462e-01
      6.2691154192737936e-02 6.8125890535336367e-02
      1.0818059247961671e-01 1.9134055039288467e-01
      1.1595160196528749e-01 -8.5261651624254045e-02
      1.7743888725109647e-01 -8.1119951476156915e-02
      1.7320700198536676e-01 -7.3487270553151268e-03
      -3.1887818275802804e-01 2.3942733607937388e-03
      1.2088931826197648e-01 -9.9529762446611478e-02
      6.0391666195467333e-02 7.7316549815003563e-02
      7.6712498233057078e-02 1.7633149251420896e-01
      -1.4252281569868486e-03 9.9936618925023646e-03
      -3.3251390574499731e-02 4.4687848617945792e-03
      -1.2796797830048845e-01 1.7815510988317929e-01
      -2.0526190233250790e-02 5.1608823737801610e-02
      1.2591875783671280e-01 8.1588108517103589e-02
      4.1593952004236982e-02 9.5000574977990568e-02
      -1.9567682396274350e-02 -4.6595420484568287e-02
      -2.5705950084414935e-02 1.1307734837656572e-01
      -4.9920064770058004e-02 8.8458424242718200e-02
      1.4487340475203289e-01 -1.2827747610774895e-01
      1.8538961351341227e-01 -3.1354193326013885e-01
      -2.6475012082169852e-01 -1.0938752014355840e-01
      -9.4821526122426891e-02 -3.8668835052477618e-01
      1.2417049869064044e-01 6.4969860842685703e-02
      -4.3185216526961329e-01 3.2768597327075474e-02
      2.0492018126657036e-01 5.1258617282702763e-02
      3.4904597105785876e-02 -8.5975473278571621e-02
      -4.2497302980955651e-02 7.2554670882671979e-02
      2.4946787683889887e-02 -4.5607722483588041e-02
      -1.0463201962316407e-01 1.8040405998458375e-01
      -9.2855354334987372e-02 3.0244409732206001e-02
      -3.9354777666267826e-03 7.3694045541659300e-02
      -4.8060906314554931e-02 2.4231869852047130e-01
      1.9331195464368225e-01 3.1071991331228978e-02
      -2.9656494746599087e-02 -6.4619157470433827e-02
      2.4782661717166275e-02 -1.0091736376978550e-02
      -4.5539522063583714e-02 7.1099059998824848e-02
      -4.9533691591352941e-01 -8.4640058238388702e-02
      4.7255614380964954e-03 8.9718869602608331e-02
      2.3636500564005500e-02 9.9074205654074307e-02
      -1.2975990621186512e-01 -2.8913723044577189e-01
      -1.3069534781024722e-01 8.6637799403696716e-02
      1.7366060734745764e-01 1.5176047193973610e-01
      5.4821266792174653e-02 2.2783086285990139e-02
      -4.0386489696866806e-01 4.0342820673492913e-01
      8.1822030997016251e-02 -6.4331074695281529e-02
      5.2305426440942704e-01 2.2906962495227406e-03
      -8.6524869266278698e-02 2.2932986139919918e-02
      5.7388363930912754e-02 9.0505715529426420e-02
      3.0521627648081640e-01 4.5715857936376022e-03
      -8.8826629939168372e-02 2.6959528123408718e-03
      -1.1782232428465117e-01 -4.8729085596223180e-02
      -4.9957037955747054e-02 -6.5306770107748588e-02
      -5.0370468183159087e-02 1.2202316191961028e-01
      -1.0743972567449564e-01 -1.4927763605240117e-02
      1.5385808988399785e-01 1.6074656032766105e-01
      2.0841509736185701e-01 -2.2162732474869989e-01
      -8.3635709107574577e-02 1.6921224385563180e-01
      -4.7571992442015619e-02 -4.9928893537491130e-02
      -3.8515915312477264e-02 3.6794691648115885e-01
      -1.0131367621683863e-02 -7.8793839473956434e-02
      2.2463761983353384e-02 1.9680364534655906e-01
      2.1167067607260048e-01 1.4910377163005318e-02
      -1.3235475548881984e-01 -3.8236942715226735e-02
      -7.6443720268063453e-02 -7.8587761723131005e-02
      -6.0986781726953786e-02 -1.6770748899015522e-03
      1.6893411179889969e-01 1.5906407308959661e-01
      -5.8318162103058895e-02 -6.2187158364069246e-02
      -1.0443605437119827e-01 -3.0529053425836970e-02
      -6.6020627692334848e-03 1.7432329574115762e-01
      -3.3473585697663660e-01 9.5180336631253762e-02
      1.7501443578247924e-01 -1.8998114356174628e-01
      -4.5711794876432399e-02 2.2938440389251125e-01
      2.2156333886637808e-01 7.2057895246615156e-02
      2.9841580984077087e-01 2.5879896241183897e-01
      -1.6975284104787303e-01 2.0842892733757531e-01
      -7.5422082280212951e-02 8.3274724088863217e-02
      1.8000215011273940e-01 -1.8803291115169632e-01
      -1.3566569279609456e-02 -1.1821660271954375e-01
      -2.0879694926647216e-01 8.0452034545891948e-02
      -6.6265722714866332e-02 -2.5509075139719110e-02
      -4.8468195861157241e-02 -1.0922977897959341e-01
      -4.7334274904497584e-02 -6.8055750026951556e-01
      3.1595878202628469e-01 -1.3091878031751564e-01
      -2.8665219944896871e-02 2.9430847375784160e-02
      2.5070234828963395e-01 -8.1041560356936326e-02
      -8.6073100423783702e-02 -4.4027188881792467e-02
      3.2861644805451273e-01 1.7200887006573720e-01
      -1.1203300637655904e-01 4.9288866144671657e-02
      2.7847064797972700e-02 1.9467292705808276e-01
      -1.2837803856250876e-01 3.6521890963511328e-01
      -3.7228435625751022e-01 2.1667082040694779e-01
      1.2834201375330923e-01 2.6124518508117484e-01
      7.8747745893987013e-04 -1.2743401076532923e-01
      -2.7946469633715892e-01 6.0254289269773009e-01
      -8.0764956479180139e-02 1.4835418358654365e-01
      -1.2108247459336252e+00 -3.3894441553165879e-02
      1.4989718086453910e-01 2.6949817541400106e-01
      -5.4640391833634561e-02 -7.5959430962919336e-02
      -8.9371457975412035e-04 1.1011816070556345e-01
      2.6154308408931723e-02 -2.7422874011427879e-02
      -2.4551341829607172e-02 -7.7194988630379491e-02
      2.1607047655619868e-01 -1.7118334547487665e-01
      1.1194494058964578e-01 -4.5901932424133884e-01
      1.0368261061778382e-01 -1.6866869524699685e-01
      -2.9838882406471379e-01 -1.8333060761184625e-01
      -4.5853017350600911e-01 -7.9001510123240234e-02
      1.4077711233838994e-01 -1.7445046588347182e-01
      2.2713989256076786e-01 3.2622234522091169e-02
      -3.1758442278287469e-01 3.5588377161124851e-01
      1.6238982140772909e-01 1.1723250249431456e-01
      2.2551084044980632e-01 -7.0170798982393950e-02
      -2.2932086535312754e-01 3.4019345494073476e-02
      7.9190255947335836e-02 -3.1129959383979944e-01
      -9.6660238986082406e-02 3.8061154976170913e-01
      7.6071562113250155e-02 5.0303157655864433e-02
      -3.3556546115482161e-01 -3.0907464873579504e-01
      5.4235350657405998e-03 -9.3389032853143886e-02
      1.8948267365201990e-01 3.1098176578307413e-01
      -1.4782930361046215e-01 2.9415864168144813e-03
      1.2378999595898087e-01 -4.9384620957973557e-01
      -1.3657633162387269e-03 1.1326639539293403e-02
      5.3019362963360420e-02 2.0481657768279046e-01
      -3.2681376409044872e-02 -3.0126062812715976e-02
      -4.7915167466136060e-01 -6.2203162385318575e-02
      9.4332665303611174e-02 -1.1221965222900237e-02
      3.6935467456182364e-01 -1.4292829130372056e-01
      1.0460021684343647e-01 -2.2274945186267672e-02
      1.6319364770260933e-01 -3.8725395545557434e-01
      2.5260427902437876e-01 4.3173526488516034e-01
      -2.7671610852083561e-01 -4.6115976224009986e-01
      7.9434186625290018e-02 2.8182309041774561e-01
      -5.0217447447044494e-01 1.1701602903004137e-01
      -1.4095911325929006e-01 2.0168239617820849e-01
      4.4956261090953256e-02 1.4502437537140325e-01
      1.3672337964128309e-01 1.6721774991904845e-02
      8.9709358918018900e-02 -1.3373691327757964e-01
      -3.6694180037099006e-01 -1.8693534153892444e-01
      3.0580316893587860e-02 -3.3806219588154829e-01
      -2.9931488156356284e-01 -8.5552075108514203e-02
      -5.3531781795572289e-02 -9.8016595708078552e-02
      -4.6403172592517045e-01 -1.7303451332038861e-01
      -1.2040730777807129e-01 -1.1766214998518378e-02
      -1.2066824777823279e-01 5.9078297558661154e-02
      8.4418165651795618e-01 4.9593233020167410e-01
      -2.4704450850129087e-01 -4.0613370155451238e-02
      1.9955621730066024e+00 6.0755166222208390e-02
      -1.3214779586101519e-01 -3.4600213110432693e-01
      -3.1726436218334347e-01 -3.9105233819468177e-02
      3.5299369678627562e-01 -4.9427542258776076e-04
      8.6075257691891893e-02 -7.7159154749964043e-02
      2.6588175986924234e-01 2.9334365226805426e-01
      1.2622121431522693e-01 1.1464283025141112e-01
      2.2244236486727989e-01 4.5794206104154528e-01
      -6.1911154147255530e-02 -3.1502327769811994e-01
      -4.4637199975445525e-02 -6.0887854693676191e-02
      1.8628984288583775e-01 7.4837270142548415e-02
      -9.3235402766084274e-02 9.3071717230556003e-02
      1.5195420145399469e-01 1.0344692165431060e-01
      7.5174796021868856e-02 1.9297700485500188e-01
      1.0320293674564521e-01 -1.3351202283055830e-01
      2.7925264302553678e-02 1.6048117860921809e-01
      1.9728543833401915e-01 -1.3484813683434624e-01
      5.8046005429555257e-02 1.5458450102127880e-01
      7.1721352700879301e-02 1.3751361421392291e-01
      -6.8391692982427171e-02 -1.9952320695299983e-01
      3.1772425449612784e-01 -1.6323968044246123e-01
      -7.0212008622104208e-02 1.9156633390947864e-02
      1.5237247939538437e-01 1.9961081851196980e-01
      5.1821012904093730e-02 1.3778894902729679e-02
      -3.1716447590398417e-01 5.9343232187228812e-02
      1.0357246503754398e-01 1.7745817964169244e-01
      -1.1456547127390000e-01 -3.3042823710277824e-01
      -1.0400730994042745e-01 2.2477735324145081e-03
      2.5755860717843765e-01 2.0851041384168035e-02
      -1.5540273194122795e-01 -4.0376066978256520e-02
      -2.9605368155025952e-01 -2.1738895613980733e-01
      -3.8328691946944812e-02 3.0874209313216139e-01
      -8.9762266931784185e-02 9.3511973964750500e-02
      -1.6503279722425432e-01 2.5039204593654452e-01
      -2.8757423483211869e-01 -2.1918034023613986e-01
      -1.5321938997346760e-01 3.3178124754731131e-01
      -1.7603455084997885e-01 2.9579394578576449e-02
      1.3813603240784667e-01 -1.5036555719111389e-01
      -3.3634042368089548e-02 1.5892899917126946e-02
      3.1722879443329577e-01 -2.1633740867169374e-01
      1.6928773993227875e-01 -1.3327508261472809e-01
      3.6432039539413502e-01 1.6172840499571858e-01
      -9.6897275134845168e-02 3.1756020625774251e-01
      -1.0372907653060733e-01 2.3337155402944226e-01
      -7.1546792352512753e-02 5.1937436189170676e-03
      -1.2084933577481866e-01 -1.3917034681099692e-02
      6.3364427342955915e-02 3.1075854596313851e-01
      5.9638110355273550e-04 1.5165808973881742e-01
