<?xml version="1.0"?>
<opencv_storage>
<opencv_ml_ann_mlp>
  <format>3</format>
  <layer_sizes>
    19 100 100 36</layer_sizes>
  <activation_function>SIGMOID_SYM</activation_function>
  <f_param1>6.6666666666666663e-01</f_param1>
  <f_param2>1.7159000000000000e+00</f_param2>
  <min_val>-9.4999999999999996e-01</min_val>
  <max_val>9.4999999999999996e-01</max_val>
  <min_val1>-9.7999999999999998e-01</min_val1>
  <max_val1>9.7999999999999998e-01</max_val1>
  <training_params>
    <train_method>BACKPROP</train_method>
    <dw_scale>1.0000000000000000e-03</dw_scale>
    <moment_scale>0.</moment_scale>
    <term_criteria>
      <iterations>3000</iterations></term_criteria></training_params>
  <input_scale>
    3.8209450631955564e+00 -3.4922284267695529e+00
    4.4808066279549621e+00 -1.7453170173779007e+00
    9.7653871283183165e+00 -2.1518047661236435e+00
    1.0670326305560215e+01 -1.9241936946154055e+00
    1.2578743177016534e+01 -1.6827450333328893e+00
    1.4220573874197644e+01 -1.4478259316695743e+00
    1.7329590851620015e+01 -1.3433660122047077e+00
    2.0931801719451933e+01 -1.3172574100051169e+00
    2.7715211913811213e+01 -1.4576515216181014e+00
    3.7514382457507473e+01 -1.5789096716861921e+00
    4.6774528102311280e+01 -1.6563501965866601e+00
    6.0987481149853330e+01 -1.8620183921444056e+00
    6.5986917511568464e+01 -1.7584466167997164e+00
    7.7308219939251899e+01 -1.8266263194833283e+00
    8.6754872040742526e+01 -1.8571081282651292e+00
    9.7924903611640218e+01 -1.8866121269203628e+00
    1.1220552444892331e+02 -1.9579382534629430e+00
    1.2259819093760871e+02 -1.9352534765527167e+00
    1.3623611525615718e+02 -1.9569418126802547e+00</input_scale>
  <output_scale>
    1. 0. 5.2631578947368418e-01 4.9999999999999994e-01
    5.2631578947368418e-01 4.9999999999999994e-01 5.2631578947368418e-01
    4.9999999999999994e-01 5.2631578947368418e-01 4.9999999999999994e-01
    5.2631578947368418e-01 4.9999999999999994e-01 5.2631578947368418e-01
    4.9999999999999994e-01 5.2631578947368418e-01 4.9999999999999994e-01
    5.2631578947368418e-01 4.9999999999999994e-01 5.2631578947368418e-01
    4.9999999999999994e-01 1. 0. 1. 0. 1. 0. 1. 0. 1. 0. 1. 0. 1. 0. 1.
    0. 1. 0. 1. 0. 1. 0. 1. 0. 1. 0. 1. 0. 1. 0. 1. 0. 1. 0. 1. 0. 1. 0.
    1. 0. 1. 0. 1. 0. 1. 0. 1. 0. 1. 0. 1. 0.</output_scale>
  <inv_output_scale>
    1. 0. 1.8999999999999999e+00 -9.4999999999999996e-01
    1.8999999999999999e+00 -9.4999999999999996e-01
    1.8999999999999999e+00 -9.4999999999999996e-01
    1.8999999999999999e+00 -9.4999999999999996e-01
    1.8999999999999999e+00 -9.4999999999999996e-01
    1.8999999999999999e+00 -9.4999999999999996e-01
    1.8999999999999999e+00 -9.4999999999999996e-01
    1.8999999999999999e+00 -9.4999999999999996e-01
    1.8999999999999999e+00 -9.4999999999999996e-01 1. 0. 1. 0. 1. 0. 1.
    0. 1. 0. 1. 0. 1. 0. 1. 0. 1. 0. 1. 0. 1. 0. 1. 0. 1. 0. 1. 0. 1. 0.
    1. 0. 1. 0. 1. 0. 1. 0. 1. 0. 1. 0. 1. 0. 1. 0. 1. 0. 1. 0. 1. 0.</inv_output_scale>
  <weights>
    <_>
      -1.8760884385525967e-01 -4.2080969747715580e-01
      -1.3590628181344859e+00 -1.3516944881680637e-01
      -1.6121064762941355e+00 9.1469096726477150e-01
      1.4141761238132480e-01 -2.1580261292261751e-01
      -1.4218046994230660e+00 -3.0364589823985838e-01
      -2.1529954016666042e-01 9.2574660053948088e-01
      -1.1570137198003581e+00 1.4389142750809025e+00
      -2.1029702326946076e+00 2.3027739961615154e-01
      -6.6865312480432038e-01 1.0677352768455144e+00
      9.2382403386416556e-01 2.4196624026246654e+00
      4.6875446239291468e-01 -5.3170114493314180e-01
      -9.4640427498647695e-01 -1.0855864378680898e-01
      -5.3484022980049435e+00 -1.7309770449377879e+00
      -2.5802049218094081e-01 -1.8085039500930014e+00
      -1.4514241050993024e+00 9.5734439933208160e-01
      1.1846352976984670e-01 5.0111879944345938e-01
      -5.6190442230919554e-02 5.3182851144343679e-01
      7.8760892836355945e-01 -2.0485620354438350e-01
      5.1247418553460167e-01 2.0805082050067847e-01
      -5.9539467373856592e-01 -7.4823510974345941e-01
      8.3876042260008643e-01 -1.2922884037260964e+00
      -6.3791364460056599e-01 6.3993636318143454e-01
      2.0560472211767697e-01 -8.8436366435096103e-01
      -1.3842639934359122e+00 3.3245444210161451e-01
      1.1676326885044277e+00 -4.5764112082044406e-01
      2.9594528059341489e+00 -1.7970232346780355e+00
      2.6371012572381314e-01 -2.3138823133760072e-01
      -2.2652831204621835e+00 2.3185804481046004e+00
      -7.8793759233439498e-01 4.8786443668579138e-01
      -1.6274050746230249e+00 1.0771558215228597e-01
      7.6290322745038242e-01 -7.7212484460151687e-01
      2.5231770686515875e+00 1.0203304805308915e+00
      -1.7801607772618075e-01 -1.3141868672939502e-01
      1.5219471368471524e+00 1.7366432747900717e-01
      5.8889891404561268e-01 6.9526743917279388e-01
      3.2011066658300391e-01 1.0339695746593451e+00
      7.5201927239022293e-01 -2.4211485284156922e+00
      2.8935819785747702e-01 -4.8805101543085166e-01
      2.2239445424562434e+00 1.5920469471755971e-01
      1.0073607217204785e+00 1.0021909127838116e+00
      -4.8439029900992908e-01 1.3541093621771250e+00
      -4.0339931546104835e-01 -2.2315489053020885e+00
      -3.9691128070338727e-02 3.2225766131588623e-01
      2.2282149276246296e-01 -8.4562822121086945e-01
      -2.5376595064904001e-01 -2.1049556550880774e-01
      7.5112602088840585e-01 9.0783066080348340e-01
      3.0269846349244616e+00 -1.6755614477005484e-01
      -1.5698961456147742e-01 1.2475022289112900e-01
      2.7391900944909781e-01 1.2439295734053883e+00
      4.2718501022396488e-01 -6.9515028058780592e-01
      8.2376193322589919e-01 -9.0825810652140870e-01
      1.5935494952908680e-01 -1.4545396411585204e-01
      -9.5492437318596857e-01 1.5337141952906510e+00
      1.2166228995250108e+00 2.3246463321988804e+00
      3.6529859678317778e-01 1.4300346382594171e+00
      2.1727088055094057e-01 1.8620491960081076e+00
      -3.5615245639132687e-01 -9.0701183991554080e-01
      1.8080453971322779e+00 1.2043277498625025e+00
      1.5612938078144734e-01 8.8110944015056170e-01
      -1.2712916420866134e+00 1.7097863602970571e+00
      9.0283924917763048e-01 2.2180646378773925e-03
      3.7483911552510246e-01 -6.6284666603053127e-02
      -1.2781814840484056e+00 -1.2914853425542311e-01
      -8.6676222552982785e-01 7.5687025839037414e-02
      1.6605258274682638e-01 -3.1904026700985404e-02
      -5.2862894139528571e-01 -1.1010779996668612e+00
      1.9094317662242102e+00 1.1906898486640336e+00
      6.3920733206952063e-01 -5.5873946935620655e-01
      1.5089252941588197e-01 8.6122918055960701e-03
      -9.3304607193779084e-03 -1.0622450669116548e+00
      4.3887516646320929e-04 -2.7555013895773937e-02
      7.0081949784516862e-01 -6.6762521874843961e-01
      -5.6696095120505474e-01 3.3177283133931756e-01
      6.5518916958411078e-01 6.5275936309660665e-01
      -7.2069390486128260e-01 -1.1280406031620864e+00
      3.3878100363251884e-01 -2.7763203220286775e-02
      -1.8620716250069491e+00 -7.7397431795283167e-01
      2.7608048342197113e+00 2.8045080688865237e-01
      -3.5476611000108249e-01 -1.6348581311118604e-01
      -3.1796720876898238e-01 -1.8807434547415645e-02
      5.0982877118553482e-01 4.7324237027004545e-01
      1.6386726820078312e+00 6.3522556886771220e-01
      -1.0495460614094840e+00 -1.9622392627989942e+00
      4.6416692988727234e-02 -1.8883355433087473e-01
      -6.1991216857162224e-01 2.2635540807758642e-01
      -4.2118724695664900e-01 1.2101592813663697e+00
      5.4668855894707913e-01 -1.9362563354510183e+00
      -2.0099318796127416e-01 -7.6262458758676696e-02
      -1.3170366637754458e-02 3.9176618298997011e-02
      -3.0773970766390479e-01 1.4966772158856126e-01
      2.4286014908042722e-01 -9.1892943560220541e-01
      1.0502954339859032e+00 1.8694702897397788e+00
      -2.9622547889539580e-01 2.8835392428884876e-01
      8.2254585729031393e-01 5.5339215716044166e-01
      -5.6549717823237600e-01 -3.2376074057578913e-01
      -3.2331348150511935e-01 8.0643891493043507e-01
      -1.3307011807375972e+00 4.0343120513457825e-01
      -3.6224723877497589e-01 2.1717169421657367e-02
      -1.2194768297174938e+00 -3.4025802602498978e-01
      2.2890713389168102e-01 -8.6524829979149753e-01
      -1.6962007969543773e+00 -2.3243532491474488e+00
      3.5001550646571666e-01 -7.7322347549970372e-01
      -3.8631255158825817e-01 9.9362105863057926e-01
      -1.7421998676792283e+00 -1.4461342338724934e+00
      -2.7759263347603271e+00 1.1909944660763032e-01
      1.9495015513453917e+00 -1.1020867213770844e+00
      -4.1341721695324024e-01 -1.2091434480991421e+00
      -7.6016705452706002e-02 8.8728477246305038e-01
      4.5441728427850055e-02 3.6939971079332362e-01
      -8.2684697567000087e-01 1.5624464971887435e+00
      8.9764315015139307e-01 1.1863584382400738e+00
      1.0239478408321934e+00 -5.2761050456485048e-01
      -6.6207577321748790e-01 -1.0499668244110738e+00
      -2.4598089084615889e-03 -7.8532662924795316e-01
      7.3712602553374640e-01 -1.5311692563754014e+00
      9.4400423701064506e-01 -2.1962375034179737e-01
      -1.0103436222649365e+00 1.1268816453385331e+00
      4.5262569257641155e-01 -4.6550505966964861e-01
      -1.7984717987992646e-01 -9.2127969391937306e-02
      -3.2998001292572426e-01 -1.2632790186067073e+00
      -2.9698546333160264e-01 -6.6883069595700506e-01
      -1.0419166242923901e-01 5.3568401724232551e-01
      9.3605794762450054e-02 3.7900970273415219e-01
      -3.4825208352501341e-01 -2.1614306447012566e-01
      9.0808892844675237e-01 6.0070540507530445e-01
      -1.3157136143245225e+00 4.7708878743182082e-01
      1.1985536621604254e+00 6.1080713489719995e-01
      5.4588969100920537e-01 -5.2432694259286172e-01
      -7.6090487883210589e-01 1.6305532139658885e+00
      6.5665499294792906e-01 -4.0618986801143192e-01
      8.8735905616400435e-01 8.5674234094713683e-02
      1.1328970390640523e-01 1.8153360091558105e-03
      -1.3650945489588615e+00 -1.1785341165106884e+00
      -1.6638402012804967e+00 -6.9738214832549261e-01
      -3.1325925649042746e-01 -7.6272130503790558e-01
      -1.6913044300180419e-01 -7.3803469814347356e-01
      7.1929395327521550e-01 -6.4366922020957340e-01
      -5.2658596077580155e-01 -8.3563984673410896e-01
      3.2664793090422650e-01 6.7193806249286536e-01
      6.3748012079323557e-01 -2.3828432027206383e+00
      2.8998664793647116e-01 1.6288879048855156e+00
      1.2599844032618956e+00 -6.6907481873205155e-01
      -5.0678229642087202e-01 4.4853286284162508e-01
      3.1346789115571025e-03 2.7847415957589383e-01
      -6.0738507185351309e-01 -3.6762935971139177e-01
      -6.5183971968530574e-01 -4.6844682284978539e-01
      7.2842534554020733e-01 -2.1502485502681487e-01
      1.1051753100195814e+00 -3.1855581430147401e-01
      -1.1985021736125033e-01 -6.3630323799046395e-01
      -8.7067484146130247e-01 -7.9587326600062669e-01
      -1.1566676486085747e+00 3.3873890860078282e-01
      3.3018457063815942e-01 3.5587380028334309e-02
      -2.4529204332818915e+00 6.3096771023163911e-01
      2.9358614815242210e+00 2.0891996861138549e+00
      2.1103802199403070e+00 5.3855238199902522e-01
      -1.0778111962005712e+00 -2.1315367061437981e-01
      -4.7391801918411519e-01 -1.4842173394792459e+00
      -4.1170841439907074e-01 1.9481047431949072e+00
      -8.0504500081844599e-01 5.1794792094569675e-01
      -1.6564890820468585e+00 -5.2284799214093614e-01
      -2.9473665360857715e-01 7.4122381800588366e-01
      3.1032927231562957e-01 -2.9203811308432615e-01
      -1.7866667702937498e+00 -1.4290395761606571e+00
      2.8383853554299765e-01 -9.4156989433873739e-01
      1.8473959372094810e+00 1.5195457171889448e-01
      5.1603809595393813e-01 9.4519460918379716e-01
      -1.8290147550842259e-01 7.0932994884091205e-01
      1.2152752099051622e+00 2.8136474235543729e-01
      6.9421202676015523e-02 3.6709178459236569e-01
      2.3922622621627521e-01 3.7280579156308835e-01
      -2.0821215831238057e-01 4.4619425297346604e-01
      2.9058321917377194e-01 -7.1682589851539580e-01
      -5.4803424103241138e-01 2.1629598366625351e+00
      2.9606689559456273e-01 7.5468811193963747e-01
      7.9414935711924783e-01 1.8472506338722525e+00
      2.8089608452570154e-02 4.0183757417493948e-01
      2.1084803337961988e-01 -6.7482557733461923e-01
      -6.0637969472021191e-01 8.6130761716735293e-01
      1.4141675261274655e+00 2.5353678810689422e+00
      -8.9815892903364858e-01 9.3588492899103731e-02
      3.6822364185113471e-01 -7.1628678402367563e-01
      6.7385473979774901e-01 -2.3854483186726661e-02
      -1.1292684969190958e+00 -2.2513785150787458e-01
      -3.2047420703906232e-01 -5.1673167927062924e-01
      -1.3981088215898541e-01 -8.8203935318353535e-02
      7.9502501757069965e-01 -1.4605392680403819e+00
      6.4215961908204688e-01 3.8294102343521375e-01
      9.9013240087813192e-01 -1.1167615681173240e+00
      -1.2413350466146225e+00 8.9095783769455761e-01
      -9.1626871142611366e-01 -2.1830192990476180e+00
      3.4252172712243556e-01 9.9621810628600982e-01
      -4.3804352381962119e-01 1.8604952076246477e+00
      9.8323421970219316e-02 1.0388103218223164e+00
      5.7110845659362386e-01 1.3306021525933469e+00
      1.2975898443327322e-01 -3.2155728801822998e-02
      -2.7889495399961206e-01 -4.9411039811640195e-01
      4.9723648608497917e-01 -5.7622645962424301e-01
      -4.4716886898336877e-01 -4.4311245136301020e-01
      1.5226423890621313e-01 4.2273431411493628e-01
      -1.0037470167418572e+00 -2.2369950937640229e-01
      -1.1885353615568048e+00 -4.8037929740784219e-01
      -1.3025321163047177e+00 -2.0693894207411616e+00
      -2.1463067127669122e+00 -5.2080865611962492e-02
      -4.3204775314549387e-02 7.0246712245709020e-01
      -4.1780334496128696e-01 5.3656691571551174e-02
      -6.1994247316209193e-02 1.1531105983068792e+00
      -2.5903420213095657e-01 -6.6072917549194099e-01
      -1.9201283319806781e+00 -1.0408843465769104e+00
      -1.3893065300674921e+00 4.1383529213133047e-01
      2.1219272163372949e-01 -3.8013795570770065e-01
      -4.0628185897886226e-01 -7.7857286546401716e-01
      1.4043735463663560e+00 -3.0919838346298611e-01
      -8.3653796531895697e-01 -1.3334784974146459e+00
      1.6604136776882589e-01 -1.0455639877488554e+00
      -5.9561936416760797e-01 2.0483611910929686e-01
      1.5085896275719592e+00 -1.3884477777860733e+00
      1.3055389232566499e+00 -3.0444062929826765e-01
      -1.6517923528691119e+00 1.2484497700134043e+00
      2.4189555814752214e-01 4.9551011756982316e-01
      -1.6363684584353869e-01 6.0909798875963539e-01
      -1.0745870770579356e-01 2.4281462846769797e-01
      3.7403128133130770e-01 -2.8582766663677850e-01
      -1.1106644677803502e-01 1.3610520791566960e+00
      4.5740977889754958e-01 1.7373492804920276e-01
      -2.5866810227732351e-01 5.5574552679983980e-01
      -1.9760922325234158e+00 6.2653636429908444e-01
      -1.3193427976746346e+00 -6.4035385636057429e-01
      2.0584351580529985e+00 -1.6462400133343796e-01
      5.9154778874532221e-01 -1.7193035250500560e-02
      4.0451478088896053e-01 -1.2292507290231334e+00
      1.1021161198244736e+00 -2.9940883026811344e-01
      -1.6376731565587749e-01 5.2816486847707700e-01
      -4.7045267509753591e-01 -5.2769320136475961e-01
      -8.1964474196727699e-01 -5.2066400401837398e-01
      1.3846120085984288e+00 6.2000498127546089e-01
      1.9746041777758625e+00 -6.3669353437492482e-01
      4.5457146553533345e-01 1.7750381928689873e-01
      8.4212360063088076e-01 2.4994284341251935e-01
      4.1594518703798100e-01 5.1320015495633919e-01
      -1.3480257534495315e+00 -5.5162253945508921e-01
      8.3664018073331223e-02 -8.8000945166464961e-01
      7.8471473021327331e-01 -3.1445874287330594e-01
      5.5884109512570757e-01 1.1040839607687323e+00
      1.6693883657918637e-01 -2.1158288755898692e-02
      -6.0122119197384871e-01 -6.8821268554508119e-01
      -2.3397683164871225e-01 -1.4018149224646863e+00
      5.6229670274397336e-01 1.0503654905700872e+00
      7.9523553139058289e-01 -7.0430019849168235e-01
      -7.4593567554234197e-01 9.1391900407813781e-02
      -6.6263524196837165e-01 9.0502669651786202e-02
      -1.6036071270289589e+00 -2.2134885637608415e+00
      -3.0347789566155098e-01 -4.8451853753381119e-01
      -2.3250947624456725e-01 -8.3570286270217592e-02
      5.2507108736111396e-01 -9.1325334198170116e-01
      9.1438422563583255e-01 1.3932319928282808e+00
      -9.3882554786719599e-02 -1.9160538178134415e-01
      7.9862049667418589e-01 -1.7676812525143229e-01
      -2.0636622727511429e+00 5.2795286827939780e-01
      -2.6015510682630540e+00 5.7506336540520375e-01
      -2.3311193462876881e-01 -3.8113434174908489e-01
      -2.0226731219388011e-01 3.6981733807406841e-01
      7.4383483510454262e-01 -2.6788168899989784e-01
      -1.0237262976991914e+00 7.5215370678484539e-01
      -8.9729841109927955e-01 3.1757170766397408e-01
      8.1466264561847423e-01 1.0591211848840318e+00
      3.0600293565392611e-01 4.7214431717072991e-01
      4.7578674477248550e-01 -2.6200331178767106e-01
      1.7428808226686803e+00 -3.8233705304185622e-01
      4.3774477978681547e-01 6.6210767967227779e-01
      1.1168591651139290e+00 8.2557078941262729e-01
      -1.6291840466725205e-01 -1.2214551054998237e+00
      -6.4871313624611737e-01 -1.7557962848829620e-01
      -2.4344137434027423e-02 7.8710079592071058e-01
      -2.0879450533165061e-02 3.9028003826583768e-01
      1.1271809686953535e-02 -1.2006590195376521e+00
      5.2004416825710231e-01 2.6862026033275932e-01
      4.7626708610296803e-01 -2.7622849262075511e-01
      1.0991133796929855e+00 2.5776047448110628e-01
      1.1168920690615256e+00 1.0461732645182440e+00
      -2.0632560254273158e-01 6.0038220338377057e-01
      1.1901272910508889e-01 2.7904795970459634e-01
      -7.0583241030909918e-03 1.0231500427962088e+00
      -3.0659598823646206e-01 -6.4835073944970723e-01
      3.9582154097859490e-01 -1.1265852861786845e+00
      -2.5220449585789120e+00 4.0675545819934422e-01
      6.5452781499573398e-01 -1.6111355943517955e+00
      6.7463247914610913e-01 -6.3271931767392242e-01
      3.2038155188040374e-01 1.2978710903727693e+00
      -7.4564205987837506e-01 3.6259779206188841e-01
      4.0346504487845464e-01 -4.7329901268068858e-01
      5.4199717955758697e-01 6.9253524419578480e-02
      3.7339822791321753e-01 -4.8959404944572338e-01
      -6.0272243902463796e-01 7.0723727057612862e-01
      6.3954048478416281e-01 2.5911258735662268e-01
      -2.6921240316233275e-01 1.3341255469309166e-02
      -8.9799425059030313e-01 2.5534682699087552e-01
      5.7622077816255712e-01 -7.9807410452344085e-01
      -3.1406331919439373e-01 -9.3543241840049876e-02
      -8.3011027542975246e-01 5.8057505010560106e-01
      5.1172732510553498e-01 1.6295563366175858e-01
      -8.7299688427367927e-01 1.1114583613482745e+00
      -3.9918897784082330e-01 4.0706496037427563e-02
      -5.1062246560495894e-01 6.1174662590637596e-01
      -6.2735328874244420e-02 -1.5746932765453370e+00
      -6.4958111936647644e-01 -2.5937420384390358e-01
      -4.7827526047325369e-01 -1.7186814630467662e-01
      -2.4885105244094516e-01 -5.7535060513674163e-01
      -1.3286271155653990e+00 4.5612546289039790e-01
      -2.4231724416099354e+00 4.4817079879206190e-01
      -4.8681841123224479e-01 -1.6788181627043798e-02
      3.6124366242327888e-01 2.0150983896015670e-01
      5.6055634748238392e-01 -4.2335577588331746e-01
      -4.6145756017737988e-01 6.6225918601789635e-01
      -6.3048923490470909e-01 -5.6403382889670317e-01
      2.8912264366067736e-01 2.3401570186748499e-02
      3.2830289029955245e-01 2.9097124826592369e-01
      -1.2670691389103046e+00 5.2102013981726225e-01
      8.4714648929444047e-01 1.6871504311690860e-02
      8.6545102111159830e-02 5.7188073180787946e-01
      3.0049797415087183e-02 -6.1150805676103037e-01
      4.6885998924676181e-01 2.9373529520845810e-02
      -2.2562548690144377e-02 -1.2099457848125950e+00
      1.0793522008071287e-01 1.0873362173334029e+00
      3.9814052940482425e-01 3.4886298860091686e-01
      1.9271873729930586e+00 -2.4238850798384828e+00
      3.3994466824090530e-01 4.4298015130876911e-01
      1.8449317580192208e+00 -7.8637673858183510e-01
      2.4122387283619734e-01 9.5536767639158549e-01
      1.2378486591600903e+00 2.3190845281638064e-01
      -6.2907249765719986e-01 3.9085318519966988e-01
      1.6423120554258988e-01 4.7088824086854969e-01
      -1.2421423407487497e+00 4.2050239834730868e-01
      -6.4933460077776051e-01 -4.2140722838152116e-02
      1.6455264260393179e+00 -6.9323037851236657e-01
      4.7346998203693147e-01 -6.5295227462541761e-01
      -1.0210808743361217e+00 -4.0825567612240593e-01
      3.8897044070924852e-01 2.3768851724162720e-02
      3.7409692079721474e-01 -1.8982802636716078e-01
      -1.8949790909845698e-01 6.5772036868735584e-01
      -4.8971395491699077e-01 3.2818478836583143e-01
      -1.3691820802623139e-01 -3.4536991254424426e-01
      6.4695398870134280e-01 -5.1734422892089815e-01
      3.2538670926941010e-01 6.5852541438243017e-01
      2.0869306299749160e-01 4.4529695618011361e-01
      -4.0850301291170378e-02 -2.2567235121920479e-01
      2.0022919484854889e+00 3.8684748120504442e-01
      3.9858326739395239e-01 2.8237077036156871e-01
      -4.5251370951265746e-01 -1.8503556045288450e-01
      -2.8476082308696260e-01 9.7295330239794531e-02
      -9.7640761255239350e-01 -5.8801367085067162e-02
      -1.7611943557767469e+00 2.2773826255579034e-02
      -9.2541823911497834e-01 4.7884174336080043e-01
      -9.2537767462317261e-02 6.8155008684107388e-01
      2.9129228471306673e-01 -3.1029842369821170e-01
      -1.7904837841960575e-01 1.8169829246244042e+00
      -1.4001789822041579e+00 -8.4408004037356088e-01
      -2.9623235169944284e-01 -1.8983284906648615e-01
      -1.7197564696790331e+00 9.4609621129202714e-01
      4.8514127069406932e-01 -1.2691197738525348e-01
      -7.9835803834783148e-01 -9.4057889308000786e-01
      1.8913148788407638e-01 -6.3027466916820851e-01
      9.3917662341530106e-01 -4.4871268503949524e-01
      -9.4607216875894329e-01 6.8670755276171469e-01
      -2.4212144703257460e-01 -1.4428771782009442e-01
      -5.4709942224327256e-02 5.0458873362484735e-01
      8.0708695683147891e-01 -7.2148530867008465e-01
      -1.0983230636610748e+00 3.0968757684719306e-01
      -1.0384974741765231e-01 -1.2454522950620858e-01
      8.1854710002205924e-03 9.2179098363248679e-01
      1.9132614528658126e-01 -4.6146393784025985e-01
      -8.2228792970883891e-01 1.3648552911381109e-01
      4.8342435643753140e-01 -9.8443469663149097e-01
      7.1288611856517325e-01 1.1470080408678422e+00
      1.6597672920937327e-02 3.7984356047904663e-02
      1.2511386436816692e+00 -1.1388215494078584e+00
      -7.3849236207213384e-02 1.3581593904127074e+00
      1.5236385751005348e+00 -5.5565818024545088e-01
      -4.8642027043145664e-01 1.0058151859102231e+00
      1.2310347525860506e+00 1.7699465804155057e-01
      3.9596725482355372e-01 -7.0807495968855516e-01
      4.2346581996994592e-01 3.7861338262594246e-01
      1.3829110741977308e+00 5.7441643079426241e-01
      3.7166296416338385e-01 -4.3492434050354878e-01
      -4.1105753683580992e-01 3.3674113996393151e-01
      9.2882416306739424e-01 -1.1923714293301710e+00
      9.0164547569429976e-01 3.9503141362287225e-01
      1.4796674719266489e-01 -1.9115576368288197e-02
      4.3908670849464621e-01 1.3577430279851610e+00
      5.2865128191492228e-01 -1.6246382790804306e-01
      1.2382629506591538e+00 -1.9685743053916049e-01
      7.9682409543275345e-01 4.6464587118213757e-01
      8.3530579592393384e-01 -2.3502604852259690e-01
      -2.8793039758608141e-01 1.1310138424849196e-01
      5.1844851664923441e-01 1.4498861761148150e+00
      7.7909472186627160e-01 -4.0599581772711285e-01
      2.6888158007211294e-01 4.0895538360049721e-01
      3.0010114086760231e-01 -4.1121877613850549e-01
      3.8469333090671742e-01 1.1942083444273412e-01
      -5.7963484079386429e-01 2.6200055758776108e-01
      -1.1469394806260671e+00 -1.0209089341063857e+00
      7.4118155608178193e-02 -3.8410983812283922e-01
      -1.6617742566132621e-01 4.9326046121860527e-02
      -1.6432451286635516e-01 7.6136555516982329e-01
      -5.2446395318495953e-01 1.0015873923514419e-01
      9.3549348064717597e-01 -1.6094207950873285e-01
      7.6200156935567920e-02 2.1621250059354655e-01
      3.7538584762468274e-01 -1.6154677867444451e+00
      -7.3777417975853177e-01 8.0621457266813312e-01
      8.1672882018220494e-01 1.6620865919110614e-01
      -8.7126295345989313e-01 -7.2566199204035076e-01
      4.1655259334501739e-02 -1.1689920601991229e-01
      8.0970020762360997e-03 -6.1763941395992639e-01
      -1.2973849706900640e+00 -4.8749422406589182e-01
      8.4619668750867030e-02 -7.2867141309163774e-01
      -1.0217667566780189e-01 8.6627720989022305e-01
      -5.7149524320234624e-01 1.3970726798605662e+00
      -3.9384623869300905e-01 -1.0595253004900018e-01
      -6.7445901046123180e-01 3.1983077774390389e-01
      3.7633265279019101e-01 5.3647455423813029e-01
      4.3871244674639109e-01 -1.3742212128851645e+00
      -5.4188067106478033e-01 -1.5133820920339663e-01
      1.1603453836204762e+00 5.0913566853395653e-02
      -5.9123640106811148e-01 2.3989049603485799e-01
      -8.6659805277290092e-01 5.2644954454035198e-01
      2.5278078123182599e+00 5.5029812537437019e-03
      2.0844095414492508e-01 8.1225978908646146e-01
      2.2273390138806266e+00 -1.1754504519990281e+00
      -1.8849601097468252e-01 -3.9064123723057192e-01
      -3.2304672873119811e-01 2.4723066011495337e-01
      1.2613123851751165e+00 -1.3895392819619548e-01
      -1.3191903289613413e-01 -3.1742486844011103e-01
      1.3218258213192697e+00 1.0761691054706644e+00
      -1.5531445854555748e+00 -5.6569309920975330e-01
      -2.7117427942812036e-02 -1.1900068822526639e+00
      1.8737853010166151e-02 -1.0555541170583882e+00
      1.8432326276179825e+00 6.1275666827690589e-01
      8.3445714462319154e-01 3.1436865495912507e-02
      1.2983126450741744e-02 9.8747669066744492e-01
      3.3375927155806545e-01 3.8417121413090866e-01
      4.4133280488165350e-01 -7.4347086878643678e-02
      9.8504367391335879e-01 -1.5976788175377625e+00
      -4.5913697979822771e-01 -9.5781255371564855e-01
      -1.1695241626161139e+00 4.2579577081629838e-01
      -9.0957545517112617e-02 -1.1234075889283615e+00
      -1.6846657868205064e-01 -6.1271953630423692e-01
      3.6415761567680505e-01 1.0704278688790771e+00
      2.6427435827766321e-01 1.5024551630329135e+00
      -9.8569461377791240e-02 -1.0848594080926072e-01
      -2.8067389573353496e-01 -7.4159739958132709e-01
      2.5000900098316775e-01 -8.3312112050301579e-01
      9.3885204601546113e-01 -2.1930297889357150e-01
      1.0962068087553720e-02 -2.3970392354732767e-01
      -4.7815001268434044e-04 8.0592230041667823e-01
      4.9908505483558657e-01 -5.6730327503616396e-01
      9.1378860022082820e-01 1.1507341574985221e+00
      -1.8203601562248426e+00 2.8669626012419192e-01
      2.2982641338565400e-02 -8.2632912282765147e-01
      7.5894603046424802e-01 4.7244407363003360e-01
      -1.2325697685184690e-01 -4.1621839299954611e-02
      -6.8334051012522479e-01 -6.2618786471167553e-01
      6.9806954817128508e-01 -3.5705482323510129e-01
      6.8982006285387054e-01 -3.5121587454103120e-01
      -4.3454018381389287e-01 1.6539450377760362e-01
      -2.1262221011062610e-02 5.0475619911569258e-01
      2.2333477204670210e-01 -4.4885021462896857e-01
      8.2492342473882030e-01 6.9407383091180275e-01
      2.9682666950746145e-01 -1.1724591686171841e+00
      8.9822836337341250e-01 8.3551360773216432e-01
      1.5905511138546607e-01 -2.6713927537974091e-01
      7.1414113213965846e-01 4.1389798641606584e-01
      2.3605564463742207e-01 7.9138600646107324e-02
      -6.2330780860638924e-01 7.7025238525615547e-01
      -8.4684329667254987e-01 -5.8498937657028693e-01
      -7.0542415803883221e-02 5.9318673317104487e-01
      2.1544836220220243e-01 7.1995139540638986e-01
      7.8163752329962000e-01 5.9714924443423731e-02
      6.7859473486434774e-01 -7.0000291072446741e-01
      8.4107628276172672e-02 5.4498775230701746e-01
      4.9560158514924041e-01 2.8605448234772546e-01
      5.9041398179248994e-01 -4.8373209913038606e-01
      -9.3505020470727274e-01 -5.4610206548912110e-01
      -2.9689552108049672e-01 1.0527003227933591e+00
      2.2069497069517033e-01 -5.6049792469338389e-01
      7.1255419062748765e-02 -6.1393137681382319e-02
      6.2081601029432443e-01 -2.1202777958750085e-01
      1.9555125451243080e-01 -6.8903539744090547e-01
      2.5900570151986657e-01 -1.0783411010357950e-01
      4.1711780843668167e-01 4.3270607065928396e-01
      -4.2077838830893477e-01 5.5772929693710849e-01
      5.2719579942653572e-01 7.0595498577329233e-02
      3.9151422962846610e-01 1.6304649019150416e-01
      3.9580621214140987e-01 -2.1297487687772017e+00
      2.1905306903905106e-01 5.5380976739916166e-01
      5.7110801299874898e-02 -1.7515303270930986e+00
      -2.8882254234328664e-01 -2.1716842662315095e-01
      9.0905406584305470e-01 1.1233229384626662e+00
      4.8983928157256601e-01 1.2473539973208467e+00
      3.4681313985163692e-01 -4.8230899755243681e-02
      8.4853764027274781e-01 -1.3202819242113151e+00
      -4.0089526038240902e-01 -7.8315444783801968e-01
      -4.2134436614955106e-01 1.1910909776583353e-01
      -2.2492648928496814e-01 -5.5469090876386795e-01
      6.3490655268087559e-01 1.1296335756452622e+00
      4.9573335910637784e-01 2.0747079791411478e+00
      6.3991610370947505e-01 7.9684430421059682e-01
      -7.9301330557795169e-01 6.5747766367857230e-01
      5.8014748249673856e-02 -2.0277268384588029e-01
      5.8747941727723663e-01 3.9157530709732974e-01
      -1.0788913718676005e+00 -4.3558686878616587e-01
      2.8420015493239525e-01 -6.1602072615300529e-01
      8.0205778442980180e-01 -7.8079582203528031e-01
      6.7844532396724955e-01 -5.7040830191491887e-01
      -8.1457955054195730e-02 -1.1590955656579349e+00
      -1.0242497162607886e+00 4.0762672839875469e-01
      1.1792552841261423e+00 -8.3222993680634560e-01
      3.5178263941531618e-01 -3.4210298088231433e-01
      -5.1180652235756219e-01 -6.2720521556733666e-01
      3.6679657613015554e-01 9.3534628428571343e-01
      1.0079162300343909e+00 1.8573673357652373e-01
      1.2064742570985242e-01 8.2846077543121777e-01
      3.5793018062567872e-01 -7.1387826039576130e-01
      -2.5082660551115282e-01 4.1554231552918547e-01
      1.2376086847266676e-01 -1.0225737063762095e+00
      -3.7734822598267609e-01 4.1890335918117938e-01
      7.5405008158288123e-01 -1.6266012946754893e+00
      3.7044657432569383e-01 -1.9327806259121921e-02
      -1.6077246069936094e-01 -3.1867972916980175e-01
      -2.7550435170152882e-01 6.6980044584092679e-01
      8.8153297066694503e-01 3.2608661042390763e-01
      -2.1578658109561663e-01 -1.4260646339292840e-01
      -1.1424150231618964e+00 -4.4237140504502770e-01
      4.1701583110540441e-01 7.6053190868769238e-01
      -7.8169939364700558e-01 -1.4510837706645058e-01
      -1.2260824903506362e+00 -7.0550303760292077e-01
      -3.4071800878170000e-01 -6.8298407221103807e-01
      1.2466926298566074e+00 5.4724871591007884e-01
      5.3478361236426231e-01 2.0691233276597087e-01
      3.4350920251860630e-02 5.7648580676243899e-01
      -1.4769069760934341e+00 2.3748617240532910e-01
      -3.7141945396301895e-01 -2.7085297633854277e-01
      1.1200330028740255e+00 1.9470611248845607e-01
      1.2493385779621159e-01 -1.1836802471090768e+00
      -5.4437607669393706e-01 1.8518157676985775e-01
      -5.7801822703481415e-02 -2.1506544571128239e-01
      1.4709323568153474e-02 -1.7246164030469979e-01
      2.3094998099080757e-01 -4.8619405032248336e-01
      -4.7380592917314701e-01 9.3458846315940786e-02
      7.4404056054366197e-01 1.8422566749089561e-01
      -2.8417497027862909e-01 3.9420684781687348e-01
      -6.4531477069733612e-01 -6.5476113391830570e-02
      1.7407897929459584e-01 -3.3057625595292633e-01
      -7.5501851412547194e-01 -8.9346820300379914e-01
      8.3362924382697184e-02 4.0385722713187749e-01
      -1.0061567381686551e-01 8.7208976773172264e-01
      3.2732017481767339e-01 -9.2593149969165556e-01
      -2.3238728544281284e-01 -1.3759816338814732e+00
      -2.3219165548190734e-01 2.6321384719262975e-01
      6.1190488658051245e-01 6.8766294660605498e-01
      4.9200356052484523e-01 3.6085067224348555e-01
      2.6524207816995665e-01 1.3960307619587817e+00
      6.9626613977677965e-01 -3.2979388075898730e-01
      -1.0385969346790279e-01 -1.1593615858708411e-01
      1.5732606855493436e-01 4.5988736356164311e-01
      -1.6727975712293108e-01 -9.9100786086733048e-02
      7.9788423977166867e-01 1.4427561953739632e+00
      -1.1450559418801889e+00 3.9004637541337533e-01
      -3.8807568907960677e-01 -1.4784699504380642e-02
      1.7047959757681874e-01 -2.0801234730397791e-01
      8.4335269519825562e-01 -1.8880964283261972e-01
      3.2159884739100482e-02 -8.8246999378892521e-01
      5.8221543480856175e-02 -8.0127422719553809e-02
      -1.5041729976403290e-01 -1.1239809958571281e+00
      -2.1642243412450628e+00 5.6506097988729242e-01
      -5.6059368910413077e-01 1.9336716378007207e-01
      -2.5371356186731468e-02 -6.7808472530487396e-01
      6.5091140323383118e-02 4.6535299762318227e-01
      -6.6473717979633112e-02 -5.2180208726317880e-02
      -5.3436330667610686e-02 -4.4376153089734041e-02
      6.3207444444295846e-01 -1.3497337268661508e-01
      -2.0182693992421985e+00 -8.2197657156461079e-01
      -4.7487779719893386e-01 4.1150674692794820e-01
      -9.5048388186743549e-01 4.4978504524450930e-01
      -1.1735610645010759e-01 -9.9724597110891100e-02
      6.0429819238929250e-01 5.4959574425727364e-01
      -3.5409550271895529e-01 -4.3145489485923938e-01
      1.3080177544701519e+00 2.1350042608514039e+00
      2.0725370485493218e-02 4.7197766594052989e-02
      5.1756709694525072e-01 -1.7343930797874738e-01
      -8.0914072468667086e-01 -5.4805119417422454e-01
      -2.1070497227854142e-02 9.8602399294373450e-02
      6.8953555744682227e-01 1.9137986892120537e-01
      -6.0590024207214277e-01 -3.5250536804667537e-01
      -5.4613101882755775e-02 -7.9823441936554662e-02
      1.7625749168497626e-01 -1.9706581845112464e-01
      -2.4913885366480787e-01 4.6670209049018301e-02
      2.6838742680172362e-01 -3.3436004494276289e-01
      6.4644182671616379e-01 -9.9850373662805941e-02
      -2.9919898525379690e-01 3.1602253306186236e-03
      1.0459946271962338e-01 1.6376958312318421e-01
      8.8582337120202581e-01 -1.2345873286539233e+00
      -5.3359046523223719e-01 -7.8970045790992738e-01
      5.5847462420771199e-01 -8.9633306696768514e-02
      6.7886795173672831e-01 1.6895216797946638e-01
      -4.9544341487760477e-02 9.7634945749252175e-02
      -8.8062339469650897e-01 6.6538006953940954e-01
      -3.2945238290237755e-01 1.0721440345956217e+00
      2.2119511494810074e-01 1.9105703379929287e-01
      1.5163288721507662e-01 8.9572974050444243e-01
      1.5296042894634013e-01 -8.0906250479685665e-02
      -3.2307065691868270e-01 -7.3989067794543020e-02
      -2.9175248345167720e-01 -4.1765534914036666e-02
      4.7499883072972032e-01 -1.3483982121085852e-01
      -2.4176849062619049e-01 -4.3578162210807048e-01
      1.2691405832744218e-01 -8.5440919411724203e-01
      1.0683239379365230e+00 6.9103247073896412e-01
      2.2699410699841009e+00 -4.7757820120689476e-01
      -3.1171959587251119e-01 -5.9289512414951484e-01
      -1.2294817304494088e+00 9.2157765799305746e-01
      1.6250059102232950e-01 2.1443871034035086e-01
      4.2058773873725108e-01 -2.6808070508360848e-01
      -2.6343696619035351e-01 -1.2791230036371715e-01
      3.4780977389555945e-01 -1.1856185858931569e+00
      -1.0255556981049490e+00 2.6389317558775910e-01
      -2.0575182394735550e-01 3.1288213306511414e-01
      1.5543213414373900e+00 -2.6855947804612751e-01
      4.1409949106868893e-01 4.6559475601461120e-01
      1.2602832433327942e+00 6.8600633793850603e-03
      6.8547107601241899e-02 2.6644612748338697e-01
      -7.2838885439843737e-01 3.1869647615603222e-02
      9.8876112311843165e-02 -7.8649942238382020e-01
      5.7643571838468341e-02 -1.6651763526794477e-01
      -8.0081750868077217e-01 3.2623027623398537e-01
      1.0629520852833401e+00 2.1145964144422938e-01
      -8.2922972871272571e-01 5.6605614114205383e-01
      4.8810464371636088e-02 3.3387689484654887e-01
      1.5214810264416020e-01 -4.3651050575703643e-01
      7.5595085727617903e-02 -3.3405069119935199e-01
      3.8502253639566991e-01 9.6627448838198404e-02
      -4.0336198920601035e-01 5.2362064774294913e-02
      2.3374186050579917e-02 -3.6714439930373616e-01
      3.0617539192817878e-01 9.4448772827531221e-03
      -2.3141902555613847e-01 5.2114723980814359e-01
      2.4102128919511998e-01 3.2420644502908746e-01
      2.1565626587666406e-01 -1.0876910542606339e+00
      1.3801054335317983e-01 -3.2217316460942835e-01
      9.3205222704382373e-01 6.5833985064131251e-01
      5.1776949069658706e-01 4.9506884583765065e-01
      -8.7151198658384013e-03 -4.7842721454456594e-01
      -7.8927130230364018e-01 6.2351368218028425e-01
      2.7838111522606800e-02 4.4171648425657062e-01
      -5.4018801061299626e-01 2.6373609042314400e-01
      -6.2134743267237680e-01 -5.3361676750318365e-01
      7.9530061730360269e-01 2.7418253508862256e-01
      6.8351834282828983e-02 -2.1330405028752156e-01
      -2.6645528048077199e-01 -1.1248473696206229e+00
      -4.9433347939150735e-01 -1.1295548905616322e+00
      1.1878323249422698e+00 -3.3587570139809109e-01
      9.2736543694965923e-01 -2.9971103939970872e-01
      1.9423149131646122e-01 -1.4810160681984054e-02
      4.4844445509658898e-01 5.6069023894494174e-01
      -3.7723365279715926e-01 -2.0181648011770431e-01
      4.6395529588689560e-02 -1.5149804027613811e-01
      1.0597969614562790e-02 2.2528812074583285e-01
      4.7011936813047517e-01 -6.0867796288854670e-01
      1.2492568412854974e+00 2.6674589443532591e-02
      1.1562753193830719e+00 -5.9185135393373023e-01
      -5.3753789792320328e-01 -8.6552692917975371e-01
      -6.5919637132317010e-01 -1.5755225565663560e+00
      3.0881827403302947e-01 -1.8742605073566404e-01
      1.4978255146730118e-01 -1.0407397946793013e+00
      -2.8164412748162976e-01 -2.8531274596959033e-01
      -7.6742209284097174e-01 1.1253128800206158e+00
      -1.5489241593001779e-01 -1.5740271090180466e-01
      -4.0924770106898922e-01 1.6134701432697404e-01
      -3.8783585380807090e-01 -4.3144071706480221e-02
      4.7624813995907284e-01 1.7641374109181146e-01
      4.9152447517179521e-01 -5.2030376120928090e-01
      2.8680034730524079e-01 3.9951608978268072e-01
      -1.4190680521891574e-01 3.6826239653764747e-01
      6.2342657337708732e-02 1.2717059954718693e-01
      -1.1961461294025377e+00 -3.2002137481555115e-01
      -7.8260527927066936e-01 -2.4151700560684644e-01
      2.1453413468490126e-02 -1.7022206076898899e-01
      -4.4783636764901169e-01 -5.4592518356557884e-01
      -3.1589075446100165e-02 6.9439554515569990e-01
      3.4235669331430624e-01 -2.6693821898440745e-01
      3.8839572385840287e-01 2.6511682549078963e-01
      1.0539990215924984e-01 7.0404729178527348e-01
      -1.0312517447969298e-01 6.3031675427506106e-01
      1.1294807115375939e-01 3.7124915771045108e-01
      1.4166073408897539e-01 -1.8848813027056768e-01
      -3.7382892314910204e-01 -2.3236716249317002e-01
      -2.5574824598873791e-01 1.8982049830509612e-01
      3.1816099373464435e-01 1.0147265445836280e+00
      7.0626349751483175e-01 -2.5871294639351955e-01
      5.3377010786929274e-02 7.9920932064214545e-01
      4.7694901740710682e-01 9.9788517924807689e-03
      8.3514930415656796e-01 -4.6855099266199174e-01
      -1.0353923804128888e-01 1.5389005165790889e-01
      2.3748692397555496e-01 8.7002971927052009e-01
      2.6798172517232427e-01 -4.6837747334537122e-01
      -7.9101339177430907e-01 2.6988273245736386e-02
      2.8678997897712616e-01 8.0952336340735609e-01
      4.4996265896764176e-01 4.5318850349573263e-03
      -6.4638868585897635e-01 8.8108865429275351e-01
      -4.6153413243946217e-01 5.6317542884350524e-01
      -3.6723304097823734e-01 5.3593520834263400e-02
      7.7599880793247911e-01 -1.7956291486631748e-01
      -1.3809109525791277e-01 4.6730174397792601e-01
      1.0271723169710065e-03 -5.6197219906930530e-02
      -7.1565057133530363e-01 1.1440173770208223e-02
      -3.0424396255135405e-01 -1.7146132402283812e-01
      -2.9256511129792084e-01 1.0536254950756565e+00
      3.7230601983932415e-01 -3.6744290669393420e-01
      1.0213076329606554e+00 2.6725113254307285e-02
      2.3814411874335022e+00 6.6151538334031024e-01
      9.4844794137376578e-02 -3.6675394876276718e-02
      5.0294442991864441e-01 -2.7516840389208558e-02
      3.3610878983243220e-01 1.9760480918578474e-01
      -4.6521215107939207e-01 4.6311401225248483e-01
      -4.2604974165425247e-01 -6.7195107213759930e-01
      -8.4435454497759366e-01 -6.8493276825052130e-01
      -2.5132177426114433e-01 -1.0021179719815216e+00
      -7.5550978735161745e-01 1.9617656457404298e-01
      1.0479429631910382e+00 -4.8494806379214633e-01
      -2.1105812933266868e-01 7.9388938272124909e-01
      1.0586527177135219e+00 1.6019874473540513e-01
      -6.8255903909991297e-02 1.2083415508167830e-01
      3.2649442177191557e-01 4.4990784824654145e-01
      5.8009498035406015e-01 3.8300253116465255e-01
      -4.9865413489118171e-01 -3.6487333163390623e-01
      -1.0678169253160250e+00 1.8318796462611999e-02
      -7.9812244463003745e-01 -1.6195355191164498e-01
      8.4070452338481177e-02 -2.0155236678235028e-01
      -3.3427362007859557e-01 5.1062288556597246e-01
      -4.4624221003041409e-01 1.0642239737621157e+00
      3.4911754631604369e-01 -2.6219197482414452e-02
      8.5739019641914460e-01 7.3524789135642121e-01
      -8.3876832247248589e-01 -4.9986551875712409e-02
      -3.8703974900314986e-01 6.4782735384013668e-01
      1.1468714608667767e+00 -1.2013561891149732e-01
      4.5337364808483227e-01 1.4735942794051157e-01
      5.6497966282357233e-03 4.6554593022464191e-01
      -1.1338960713887329e-01 -1.5034275811729518e+00
      7.0432402140963235e-01 -6.6255490969712824e-02
      3.3822336329608443e-01 3.7328667847522500e-02
      2.1390685944027929e-01 8.4632183344461251e-02
      9.9031514803507736e-01 -1.9327145224094539e-01
      -5.2624620386901144e-01 -1.2469783008895663e+00
      -5.9783830827115003e-01 -3.1699484960177160e-01
      -2.9000873409187777e-01 -3.8079577167807188e-01
      4.7699290482530232e-01 3.5461971808828557e-01
      3.5904315198600328e-01 2.4075717051705015e-01
      8.4398061039514791e-02 -1.3697378068176033e-01
      3.4160440359217892e-01 -1.3218810428175087e-01
      -4.9573539974276870e-01 6.1658360524781075e-01
      6.4889907817161396e-01 4.2320357029640104e-01
      1.4879498041811570e-01 2.7436288962753928e-02
      -4.0075751113173214e-01 6.0140283155997110e-01
      5.2865630687384746e-01 9.7476189729456519e-01
      -4.7923047677129271e-01 -1.1602805711151463e+00
      3.8520426966121984e-01 -8.4958345725868273e-02
      3.4876355065906423e-01 -2.8684603559597271e-01
      -4.0359025503652890e-02 -5.2043445250551226e-02
      3.3967212294418242e-01 -3.3606738364214295e-01
      -9.2096678474759786e-01 9.6879689701468841e-01
      4.6510654731289174e-02 -2.3452819872405534e-01
      -3.5909878931005668e-01 -2.0044652878009503e-01
      8.0937449626396082e-02 -1.0289104596970824e-01
      -3.7055867881455673e-01 7.3144818349567897e-01
      -1.9050151538403826e-01 -1.4615348957029273e+00
      -6.1644842016051427e-01 -4.8095790647303849e-01
      1.0408460905718042e-02 -1.3453781539287479e+00
      -5.7611864648248590e-01 1.7814171118944587e-02
      -1.2906982463451036e-01 -6.9376325609912270e-01
      2.6962135470917087e-01 3.3704255946986711e-01
      -6.6150850640308567e-01 -1.1044177474146655e+00
      3.8599345748659680e-01 1.4958708818304242e-01
      -4.4200178053738753e-01 1.4695320700992143e+00
      3.5429519283698591e-01 -9.5645645953071379e-01
      -6.2599306394508492e-01 -6.5724197778518256e-01
      -7.5215254701813039e-01 -3.4873641384116488e-01
      -8.1014626330433104e-02 3.7536129280558322e-01
      6.8283890697450567e-01 -2.2276703532424427e-01
      -1.1590932662651059e-01 6.5329965593539507e-01
      3.0390061008385177e-01 1.2216356809942883e+00
      -1.6809344315652430e-01 2.1787551819204642e-01
      3.6038807765296138e-01 7.7439262467572623e-01
      -5.5839615771401552e-01 2.3265902816802998e-02
      -2.3051982930260935e+00 6.9485738565977129e-01
      6.1605260046574406e-01 -1.0518045266594662e+00
      1.8863815768147335e-01 -1.3391114714153624e-01
      1.1517336703493986e+00 -1.8634281248897472e-01
      -4.6764679929498815e-01 1.6236137368081996e-01
      9.2641308497266164e-02 1.6931414119770009e-02
      1.2811867832752084e+00 -9.4664390927267084e-01
      2.8592614447371906e-01 -3.4713724605419588e-01
      1.2622483947540679e+00 -4.4689302267241648e-01
      -4.8009087817538165e-01 -4.0806830926479554e-01
      -8.5641371865042715e-01 8.2721767957401091e-02
      5.0100624518418280e-01 -3.0874026814378691e-01
      -5.5586243813844283e-01 -3.9635626374058203e-01
      -3.5236269421977512e-01 2.5388808081602893e-01
      2.2234238234015991e-01 -4.0352658364617749e-01
      2.5338135339875917e-01 1.8541417484795225e-01
      -5.2222864749774844e-01 -7.8742116320570621e-01
      1.6728754425426176e+00 4.1612020558715275e-02
      4.1012201956519062e-01 4.7651630833303948e-01
      2.3412919552033873e-01 1.3622625071511779e-01
      -2.0882164587181329e-01 -5.5884245384683162e-01
      1.0328031451279612e-01 4.4967156517821204e-02
      2.5913943211937784e-01 -6.4818571637797207e-01
      -4.8504259525788151e-01 -1.8443474613092342e-01
      -3.8018845288154590e-01 -3.6736523337162358e-01
      -1.2947782439481709e-01 3.9572489007920836e-01
      -4.9943896647479219e-01 4.9340737697523079e-01
      -2.5222941998733239e-01 4.4448331767425037e-01
      -2.4706762871240651e-01 -2.5473654507231558e-01
      3.0057296075309448e-01 -3.0520193066251838e-01
      3.9851183462842782e-01 -2.4481929679626827e-01
      -4.0054113854874146e-02 1.3629918879615510e-01
      -3.7433746513386873e-01 2.0330745807928197e-01
      3.2408832332889631e-01 3.7775774950278357e-01
      -7.7628029379499586e-01 3.6336204625854013e-01
      5.6804038552698100e-01 -1.3069416982425953e-02
      1.8595508793430202e-01 6.3814696590292685e-01
      2.2024359820660305e-01 -4.1444754242918436e-01
      1.3151483927094679e-01 3.5717217209708402e-01
      5.5171423221720051e-01 -5.1461932849063315e-02
      2.0857741520715026e-01 1.4310649936177275e-01
      -6.5534041883624994e-02 7.7247827399099217e-02
      -1.1322904667681122e-01 9.3417388702127652e-03
      5.4622863556661427e-01 -1.2236623205881438e-01
      -2.7031965584226975e-01 1.0585119575388111e-01
      4.1417261161210313e-02 -2.9760511405275630e-01
      9.4571019815417923e-01 -1.1375696526982220e+00
      4.5297312417057817e-01 -3.4163590543842520e-02
      7.1925604191089187e-01 1.0683155952095835e+00
      -6.4456622303843525e-02 4.8693967391262438e-01
      -1.6631317366609319e+00 -8.3441562964509453e-01
      8.5526192962765824e-01 -8.5649358531695063e-01
      1.8044410651846204e-01 -1.6568253823764234e-01
      1.9903376172093514e+00 2.9216685071880955e-01
      3.8359613335462667e-01 -6.5052307928950936e-01
      -3.6010217510652770e-01 -3.3784920497078172e-03
      4.0236091092232257e-01 -5.7983794271857236e-01
      1.2435257478033040e-01 3.0758227380510966e-01
      1.3565012608544219e-01 -4.7173690688162934e-01
      -3.0231011477403741e-01 -4.3577112827403958e-01
      -4.6362372822570064e-01 6.6923851836337270e-02
      -6.2557701825890710e-01 -2.4019522608693678e-01
      6.2578441466579815e-01 -6.8509582975200878e-01
      1.5723689900660720e-01 1.6229243036766597e-01
      2.9869066344250744e-01 2.9466045509452388e-01
      -3.4312087117388884e-01 8.0205084607096233e-01
      1.7085995184337494e-01 4.3853007368345354e-01
      6.8634779725270523e-01 -5.9989849803345242e-02
      -1.7552537289771231e-01 4.7005381174946215e-01
      3.4407777716111604e-01 -9.6592306246024967e-02
      -8.2594606080003297e-01 5.8207832950191041e-01
      1.2057879538281822e-01 -7.4537507351640420e-01
      2.8526122904109019e-01 -2.9707575090251720e-01
      -3.1489229317917145e-01 5.5390493068461888e-01
      -4.0103840157442346e-02 -4.5332611834264952e-01
      -5.2582491448484536e-01 8.8658162227468329e-01
      -1.0661141391751139e-01 2.5733813347468709e-01
      -2.8657812240513373e-03 -3.1480321996581107e-01
      -2.6610653818658547e-01 -1.4216679428899723e-01
      8.3719613102246193e-01 4.5148881535912100e-01
      3.0267027920960039e-02 2.9648748625192851e-02
      -3.7968194854645715e-01 -1.8855665651095621e-01
      -9.6084134024930656e-02 -5.0035942052705673e-01
      -7.9964913419209482e-01 5.7722978423557292e-01
      -5.5730877550635549e-01 2.1694209539130044e-01
      1.2217099638352619e-01 -1.9949487478923494e-01
      -2.1255944780906182e-02 4.8980781257033801e-01
      -2.4934145266475294e-01 1.2715825325693286e-01
      -4.3241098380285115e-01 -7.8961654478760870e-03
      -7.0472579361825671e-01 7.5329399843306766e-01
      -1.1602576100990578e+00 -3.0682367301735652e-01
      1.5228392518103179e-01 3.1863113609744981e-01
      -6.1903953185927252e-01 -2.3573246756786962e-02
      1.6265566720794135e-02 1.4540229551045680e-01
      -6.8454383421973497e-01 3.4289812331285152e-01
      4.6850180081945952e-01 -6.3294006762107180e-01
      -3.9216171965416358e-01 -2.8863366255313117e-01
      9.7333084050644239e-02 -2.2114814418324216e-02
      8.9058370210250803e-01 -1.0187651694656519e+00
      4.3997921219280367e-02 5.7551420623171035e-01
      1.8506527621554200e-01 1.7566361372752276e-01
      7.4095373869293657e-01 3.5093877677136170e-01
      -7.3307521513975948e-01 -3.3013363093842479e-01
      9.2630509990749677e-01 3.9661727887159554e-01
      -5.5900387069353609e-02 5.0571869351516130e-01
      3.6551777903478860e-01 -2.0419706982573962e-01
      -1.3910455324538906e-01 -8.5467847215154075e-02
      -3.7577853760099988e-01 2.8565944136668447e-01
      2.5734136981200201e-01 -1.0428000407114273e+00
      5.3002616922777933e-02 7.9805100129993445e-01
      8.1191971175779198e-02 -4.2974470868513631e-01
      -4.7174545967203235e-01 8.9698408885157410e-01
      -4.6505574339124045e-01 -3.4412227498370951e-01
      1.5891457429390235e-01 -3.3278689622629187e-01
      3.4787927629020304e-01 -5.2120111207649222e-01
      -1.7282619729385587e-01 6.2414339580482092e-01
      5.5494127686986172e-01 3.1517605871474558e-01
      -3.8431633629740392e-01 5.1140574688696383e-01
      -4.3432803418089322e-01 2.4825988976467672e-01
      -4.2957052116065986e-01 3.6315803453768708e-01
      -6.2815052544827077e-01 -2.2709472298958713e-01
      3.9182491068953340e-01 -1.4627499094493256e-02
      1.6052809951242011e-01 -5.5051236775271583e-03
      -2.3598466228052048e-01 -3.5629573244599927e-01
      2.4053043972222007e-01 3.6070345864326732e-02
      -2.2731133677356786e-02 -1.2716074840004651e-01
      8.7501612210505830e-01 4.8933478882147202e-01
      5.0935699632816989e-01 -5.4965272303794534e-02
      -7.1617888524965323e-01 -3.7218839693642208e-01
      2.5949747952000835e-01 -2.9534263980299405e-03
      5.4189907653574276e-01 -5.9957274773579883e-01
      -5.8500070187316677e-01 -3.5125670989434821e-01
      2.2101679828515991e-02 -1.3010698600173265e+00
      -4.1797585160520584e-01 6.5973068002871604e-01
      -3.7628345789521955e-02 2.4454602736765310e-01
      -1.3889294568184568e-01 -3.8596474880503667e-01
      -9.7952516839436607e-02 2.9997280702972129e-01
      -4.0476156075742176e-01 -4.4539442463337658e-01
      -3.0966598729429878e-01 -2.8476958724660967e-01
      4.4864335731165600e-01 1.0741433025607163e+00
      -6.4695009623492428e-01 -1.3423536520728133e-01
      1.7247626007864172e-01 2.0789788686276675e-01
      2.1213877868657632e-01 7.2474188696012742e-02
      -1.7071414457915216e-01 4.9674335898759142e-01
      3.0389853264252564e-01 4.9134559666370548e-01
      5.0254650492801400e-01 -1.0027768086615372e+00
      4.2867387214379227e-01 3.3673634861180363e-01
      1.9800776227213587e-01 -9.3917128505859940e-03
      -6.2501385859069794e-02 -8.0465732759961647e-02
      -2.7489654312285267e-01 6.3637260862730072e-01
      3.8838026291646094e-01 -2.0234250157173164e-01
      -1.4144230743115530e-01 -7.0611956992179675e-02
      -1.6279748149433504e-01 4.6033188732077668e-01
      -8.4497617906053576e-02 3.1939381115067819e-02
      7.4093311240666149e-01 2.0486501271353211e-01
      -1.1603705470080970e-01 -2.3146857842464605e-01
      -2.3219022758825375e-01 4.7058277349306277e-01
      3.2862711261683042e-01 5.0745238999267916e-01
      -6.7587730582583805e-01 -1.1487782679472374e+00
      -2.9453506713866356e-01 -6.2997470021325372e-02
      -4.9247709419822849e-01 -4.8113308792913695e-01
      3.5580594395812082e-01 -2.0570339791898808e+00
      -1.2828487882688963e-01 -2.4919602651652439e-01
      -3.0427999068250537e+00 -7.7655999819636357e-01
      2.3220417655408476e+00 1.4134242260867016e+00
      -6.2769361224462239e-01 -1.0372746923214113e+00
      -1.3706977222960068e+00 4.2923274205478196e-01
      5.7765112051437928e-01 -1.1047793263247430e+00
      2.6664376861458945e+00 3.7996375778718544e-01
      1.0773553518806542e+00 4.7890945101555038e-01
      1.2736107512494392e+00 -4.0405905396622160e-01
      -3.0357175583330243e-01 8.7137341605735019e-01
      -1.2808086425111502e+00 5.4668476465216709e-01
      -2.2451018130420386e+00 1.0464253848925900e+00
      9.7759659420693890e-01 1.4476411931474098e+00
      1.3616224333752975e+00 1.1277025434653161e-01
      1.0698018912570757e+00 -6.3648282514862764e-02
      2.5616312173786043e-01 3.7914742618679065e-01
      7.2756099214219272e-01 1.7133150762369538e+00
      -6.4452671891901614e-01 -6.9335993353441061e-01
      -5.8222096509888037e-03 -3.3952186563189463e-01
      1.4863399919783014e+00 4.4848784947091026e-02
      9.5865976576487308e-02 5.0356220684091769e-02
      -2.2416530251054292e-01 6.2439382033481106e-01
      1.0334893914504215e+00 -5.6978565724393915e-01
      -4.8480106529922684e-01 -8.5243335862040959e-01
      7.8142281372278566e-01 5.7026184286483195e-01
      -5.4947514268724995e-01 1.0503849692221230e+00
      2.7514319424047623e-01 -3.5801462524461330e-01
      -8.4416613296215559e-01 1.6604980989013500e+00
      -1.2393187087039592e+00 3.8501608669004428e-02
      -4.5166185985674823e-01 -3.5597699334576316e-01
      -1.0371375765313566e+00 -2.2400289547407570e-01
      -1.1332817884225741e+00 1.3221137250702104e+00
      -5.9530830524673180e-02 -6.7145135230918651e-01
      1.4197235339564787e+00 1.2371794314044298e+00
      1.4983066821123043e+00 4.9889801931615024e-01
      1.0519105561308384e+00 -5.1173955867154752e-01
      -2.6071228312718708e-01 -7.7029825433999488e-01
      -1.7883976609753560e+00 -7.9737846642886523e-01
      5.9970490529713205e-01 -3.1607639977827322e+00
      -1.9330637608578921e-01 2.2408151505592175e+00
      6.8002498966919245e-01 -1.3463467507273497e+00
      7.1958088425661715e-01 3.6754978924949555e-02
      -8.7515218293137897e-01 -3.1813584174834031e-01
      4.0783478519272254e-01 5.6605630900297396e-02
      -5.7622194258895121e-01 7.6324045240258320e-01
      1.8244850279866947e+00 -4.8106966247141786e-01
      -1.4680914735146797e-01 5.1552106564122580e-01
      2.3296905884385697e+00 5.7622858812334636e-03
      -8.4688159301024524e-01 2.1074043806830098e-01</_>
    <_>
      -3.3341352306640015e-01 4.8041228183907568e-02
      -1.9548009924244078e-01 -1.7847063409969863e-01
      9.4016724360745180e-02 -6.7132610253995372e-04
      8.9860979756110598e-02 -8.7952005506862233e-02
      4.2560127624179954e-02 2.0523659186356288e-02
      1.1956863524468234e-01 2.9257873688766639e-01
      -1.8557384133761801e-01 1.0949846420267681e-01
      7.1158572013655552e-02 1.0613840155817856e-02
      -1.8989636385977091e-01 -2.1108923204712540e-02
      3.6144905376723963e-01 1.7399401362264252e-02
      -1.1083096324215244e-01 -7.4445157235537268e-02
      5.2912594896894538e-02 -1.7450359761912629e-02
      8.7872862580090083e-02 -2.1666768620066731e-01
      -8.2486760351065808e-02 1.1299207501644844e-01
      -9.1706474021460524e-02 2.4606721143771987e-01
      -1.0162419809271990e-01 1.6069139904341612e-01
      4.6333239629142609e-01 6.9429417684030742e-02
      -6.9802608712156644e-01 4.7784958578742920e-01
      -9.0658978749644945e-02 -4.6191188685710829e-02
      -8.4549401313688419e-02 6.6564468187920002e-03
      -6.0370637368932431e-02 4.5074582865863461e-01
      4.9855264557842054e-02 -1.0132368095267522e-02
      -3.9644316102117427e-01 1.6282188431838288e-01
      8.4685776325837722e-02 3.2471417664904134e-01
      1.6810082270473165e-01 -1.8916761598949083e-01
      3.8058710385848604e-01 1.6520783245247381e-01
      -1.7396818704118641e-01 -3.3196136720127339e-01
      1.4960648126175230e-01 -9.5615951528585888e-02
      -1.2706721634449650e-01 9.4366487338052515e-02
      -4.8783075890983058e-01 8.8529971828697429e-02
      -1.5801283467828252e-03 -1.4758307887424630e-02
      9.6253452061636172e-02 8.8573869347013931e-02
      -2.9046889397485748e-01 3.2945900465788915e-02
      5.0133160159210079e-02 4.1242364104463738e-03
      -5.8077914646189652e-02 9.4997092109441240e-04
      1.6898676610810781e-01 1.6301730032451517e-01
      -2.9371378823248646e-02 -7.7986356907310442e-02
      -5.4577859798192041e-01 -2.6133206295693056e-02
      -3.3473967279497738e-02 2.8649926504218937e-02
      -2.9022675380433821e-02 6.6158785799806427e-02
      8.2226489836820821e-02 2.3112754135775526e-01
      -1.4681366828146322e-01 -7.3847928513663577e-02
      2.8820844861151596e-02 3.8253065236673794e-02
      6.6358091716922002e-02 6.6923458488717849e-02
      1.7349026532428780e-01 9.4302159475098762e-02
      -3.3217146314113899e-01 1.5373921665793736e-01
      -4.4766434635569431e-02 -2.4116725992523014e-01
      -1.5638110033542679e-01 1.5455394462757149e-01
      3.2613580749940219e-01 1.5869314730015685e-01
      2.6586577920263527e-01 -2.5395115661226969e-01
      5.1770902701044907e-01 8.9704173959956696e-02
      4.1266548328361968e-01 -8.0131034338985685e-01
      -1.2089923133718165e-01 -2.8579359772021314e-02
      8.1023687927228825e-03 -2.0837670411303164e-01
      7.0701890832457698e-03 -6.4636628345543498e-02
      7.8275964402200554e-02 2.1403240720123565e-01
      4.2416664949172489e-01 -2.5200166282372721e-01
      -2.3947625744112094e-01 -5.2281302137919476e-02
      -3.0493309229097368e-03 1.8467471581406428e-01
      -6.5844450496838269e-01 2.6117137308563809e-01
      2.1620103384269201e-01 3.6456775915693004e-02
      -1.0629003245082158e-01 -1.7269970572202192e-01
      2.2333706588354607e-01 -1.0867407321277969e-02
      9.4713413244727374e-02 1.9461711325123010e-01
      1.1475833551122712e-01 2.7918033392013053e-01
      4.3865413150654486e-01 -8.7395496812570864e-03
      1.0937186657723266e-01 -2.0861442872977837e-01
      -1.8713061371887916e-02 2.1355689524857474e-01
      8.4296857238919318e-02 2.3929837093128012e-01
      -3.8689424252611460e-02 -1.5534667993357643e-01
      -1.0097344250005384e-02 -6.8953286210848130e-01
      -6.2695593544970243e-02 2.5368529533099520e-02
      -2.9177322263697514e-01 -1.8752005809888378e-01
      -1.3205540985643510e-01 -2.4400427681574580e-01
      2.1140789035510418e-01 1.8336739883207676e-01
      2.0587606632037647e-01 1.9381353347399041e-01
      -7.7402120591589130e-02 -1.4319801663601786e-01
      -7.1970173313509508e-02 8.5050797460946959e-02
      -3.2832142399386373e-02 -4.2340837097878875e-01
      9.1164540987594056e-01 1.1540521171216039e-01
      -1.9109245695457425e-01 3.2352754803452004e-03
      -3.2532454212538309e-01 1.3807158811651746e-01
      -7.0577399417499964e-01 1.6976910451862984e-01
      -2.6239096168596521e-01 1.1589418141836771e-01
      2.7093487537469652e-01 1.1453812924052070e-01
      -8.1204614112679929e-02 -1.7250133132749174e-01
      1.2585053382863151e-01 3.3819802750484801e-01
      -1.8333208960561459e-01 -1.9360958298376230e-01
      -8.1167351232039747e-02 1.4186487885485366e-01
      -2.0186175698483955e-01 2.4092578237226883e-01
      4.8484572250504232e-02 -3.4848774638543484e-01
      1.8801013638207900e-01 -3.8151605117285783e-02
      -1.9001461177902051e-02 -2.0910556329753763e-02
      -2.6559858345148546e-01 -5.5742327385052665e-02
      -3.0304322872182998e-01 -2.9728904603523226e-01
      2.1843349372861745e-01 -1.7214340193082450e-01
      -2.1164493360325135e-01 4.8332643666504843e-01
      -1.4823525514346006e-01 8.1498835777477865e-02
      -8.7848536886627540e-02 1.4309876403364677e-01
      -2.3121760063111441e-01 1.9186563902758447e-01
      3.8581330497316146e-01 1.6703356101316572e-01
      6.3929032385092510e-02 2.0980716843853614e-01
      -1.7994852941393158e-01 8.8358594048328715e-02
      -2.6260922087979192e-02 6.6517602314074620e-05
      5.8452841582108603e-02 1.9072176698072315e-02
      9.2773908655034001e-02 1.2429521730492299e-01
      6.9942871256993486e-02 -1.1277291707098783e-01
      1.6014979477977556e-01 -3.8581255604999316e-02
      -1.4046775572710440e-01 1.2385260633002947e-01
      -3.0528672232621429e-01 -1.5196660099582943e-01
      1.3085509992722369e-01 1.5798884323110876e-01
      -2.0089234707548281e-01 -7.8277387438881629e-02
      -1.3952969206834118e-01 -3.0477651925466597e-02
      1.5200854648630116e-01 -4.2768131071546658e-02
      3.2182137443613909e-02 4.4814091903418564e-03
      3.4528361627963144e-01 -1.2382385330514710e-01
      1.3361763036490298e-01 -1.7495807622697496e-01
      -2.1030506589258011e-02 -5.6522125941147312e-02
      4.8294165989744058e-02 6.6053645784553874e-02
      3.0513830526334840e-01 -1.1733889686528334e-01
      1.1877440485893372e-01 -3.0307100454376396e-01
      -3.6122379653801802e-03 1.0427333257769912e-01
      6.3506425864061480e-02 -3.6560719405371971e-02
      7.7666259814593297e-02 -6.3884528935619411e-02
      -2.2176422068807922e-02 1.8084015349084245e-01
      1.3762317129363877e-01 -4.4280495182080805e-02
      -7.4678093352544564e-02 -1.2051071809264947e-01
      -9.1383877170379005e-02 1.3658992594711805e-01
      7.7154215076161839e-02 -4.0321162520458192e-01
      3.6747995071752898e-01 -7.1922719260334653e-02
      -9.0760695766598218e-02 7.3500939239103972e-03
      -1.0769951560865190e-01 4.4603661871391254e-02
      2.5640081065253909e-02 1.1551282001821041e-01
      3.9551676217910371e-02 5.0221659828303546e-02
      3.5469219143157510e-02 1.9537045977662051e-03
      2.8758548540504029e-02 -9.8610290812350954e-02
      -2.7730173355309440e-01 9.5490607217748089e-02
      1.4230472013773668e-01 -9.8962942039655416e-02
      -6.5771774026065488e-02 2.1671342351316478e-01
      -3.7447669075160933e-01 1.2816467992191252e-01
      1.0495489901374896e-01 -4.4773878937815598e-01
      3.0688076853366103e-01 7.6357955097746807e-03
      -2.3850247488813578e-02 2.9731925430558998e-01
      -3.1380376606453853e-01 4.6892728642202945e-02
      -3.3818640068889533e-01 -4.3651640427930634e-02
      9.8763618622741106e-02 2.9734873081724410e-02
      -3.5967384361735778e-02 1.7994941786539553e-01
      -6.0527516578528603e-02 -8.1858220509983551e-02
      4.7899242801785931e-02 9.2021720966279100e-02
      -1.5207351898877815e-02 -3.2571464114584038e-02
      -5.0982892911336530e-01 -3.5129548173731671e-02
      -2.7788401641886475e-02 4.9505108828223468e-02
      2.6864616618558296e-01 2.2556620766176888e-01
      1.0006730449080704e-01 9.0985476048130287e-02
      -1.0681659521197401e-01 4.0516458570454918e-02
      -2.8782833075305801e-02 1.9126674208801955e-02
      1.0053981222447148e-01 -2.4759466035322655e-01
      1.3648157501082261e-01 1.2115475612503819e-01
      7.5224629026157619e-02 2.8375401227473000e-02
      4.4086588790327663e-01 7.8665730035653567e-02
      -6.5193528627383229e-02 -6.0125804364339709e-02
      1.1487967486507862e-01 -1.0757673219354100e-01
      -6.9092644307415754e-02 1.9345444808406505e-02
      -1.7248286273590538e-01 1.8185750615033638e-01
      -3.4918033901105544e-01 2.3376041097480699e-01
      -3.4490505620765260e-01 1.7826132198676697e-01
      7.3157872953539885e-02 3.1247365713159423e-02
      -4.9123358933241851e-02 5.6642444770024825e-01
      -1.3146503444040281e-01 -6.6303141170772670e-02
      -1.1975904263471494e-01 8.6673529345745015e-02
      4.9004222354746704e-02 5.0064005479285223e-01
      2.5300012959143647e-01 -8.1249122907844085e-03
      9.8009252475235842e-02 1.0522426093733298e-01
      2.5391185034704994e-01 3.4696929091812750e-01
      4.9584396432223961e-02 -1.0019205382715592e-02
      6.4527271093657051e-02 -3.1241100194532793e-02
      -2.1589100035405220e-01 8.2746081875501327e-03
      -8.0721649147636035e-02 -2.6829023443739808e-01
      -1.7206310369564142e-02 4.2373640179650968e-01
      -5.0497380911754863e-01 -8.8211710922589337e-02
      -1.4844597089454030e-02 8.0318135728586065e-02
      2.0976592505528729e-01 -7.4857632860610271e-02
      -9.7868321797589586e-02 2.0545172943575430e-02
      -8.8937973737352585e-02 1.9283916933349685e-01
      2.9650825771173346e-02 -7.9536179395341133e-03
      2.6780360488716504e-01 -2.1960018743171786e-02
      3.9644040318650597e-02 -8.7576203558598978e-02
      4.6633660274357953e-02 -2.0995924048259416e-02
      -1.3535943853174787e-01 -1.1844805598792614e-01
      2.6006727897702830e-01 -6.1368050999798265e-02
      4.3946715672374112e-02 4.8803232261082902e-01
      -2.1463144632410830e-01 -2.6014462418547835e-01
      5.4433496574862177e-02 -3.7665156645382995e-02
      -3.3771332291533805e-02 7.8143418615543497e-02
      2.0607229232297322e-01 -3.2894269953013207e-02
      -1.0568838070746321e-01 1.3988927572418614e-01
      -2.2129876495682740e-01 2.8125275043630887e-01
      -1.3823201799054793e-01 -1.8448137347512765e-02
      6.9747120870795098e-02 -3.7417463533128796e-02
      -2.3925930670870957e-01 -3.0917639800585782e-02
      6.3853066269846404e-01 3.1453434354620841e-01
      2.9777847059319490e-01 -3.2145051123554161e-02
      -6.0470850444534645e-02 1.4149799801562371e-01
      -4.0068652235204977e-01 1.7762800502556556e-01
      1.8430816953946558e-01 -4.9173800323536743e-01
      -8.2255178732222753e-02 -6.4646636975432027e-03
      3.7179619669515629e-01 -4.9646985334140226e-01
      -3.1510719285510674e-01 5.8962129591313500e-02
      -6.1904025061977369e-02 2.0540997495960864e-01
      -2.4831176368743174e-01 1.2511683707569610e-01
      3.1734426925174808e-02 6.3485027032052957e-02
      -1.7078646149706908e-01 -2.1583052066924518e-01
      -2.9747133974333467e-01 2.7231164520493595e-02
      5.5840494906944003e-02 1.2619079499130043e-01
      1.2789576709526290e-01 6.0960074434949507e-01
      -1.1700628228191221e-01 1.3197164438683950e-01
      9.0086505190075483e-01 -2.7947955985569545e-01
      -5.4300198345494077e-01 4.5361856050201860e-01
      1.6973274350041404e-01 -4.7852559520692693e-02
      5.2832036691025042e-01 -7.1261664344855785e-02
      -5.4087630244325280e-01 -3.1142328534248132e-01
      3.9308141297989024e-01 2.0150515991834955e-01
      -4.0673891775850268e-01 6.1379325943490277e-02
      2.5657077670376988e-01 -1.9855894368465216e-01
      2.3002977268971346e-02 -5.5342288397893180e-02
      5.5829331604067378e-01 -2.3236788596750998e-03
      -4.2001440308102522e-01 -3.3883289520107984e-01
      9.2108093619927667e-01 -3.4985779641759598e-02
      7.7226128866436164e-02 1.3559966193020473e-01
      2.5179484976164013e-01 -4.4069893883458938e-01
      -2.0465875698987440e-01 -6.3589030183363970e-01
      -2.0762824036111896e-01 1.5645955126133121e-01
      -8.8809025785674719e-02 1.2383626376290859e-01
      -1.6282938534252334e-01 2.9905179208249894e-01
      1.9518326313350154e-02 -9.5766247697125686e-03
      1.0988403214798879e-03 2.7863975861005339e-02
      -1.6045790843687649e-01 2.1118255936778219e-01
      -5.1787016248141815e-01 -3.8207516390336510e-01
      -1.4088303469692618e-02 -1.5363479715448845e-02
      2.6369412638849680e-02 2.7481039717985989e-01
      9.0205713951537023e-02 1.7883263419017645e-01
      -1.0183511299483129e-01 -2.5946848998632238e-01
      3.5989793412543020e-02 2.1967639026465716e-01
      -3.5429263932183347e-01 -1.2754668931590947e-02
      -1.2872985005976240e-01 -3.5190175835744919e-01
      1.9029638319054504e-01 -2.3840607916265039e-01
      -2.3925069032115728e-01 6.0913382663280302e-01
      -1.5923670203905355e-01 2.3167463471569086e-01
      -1.0639717269047409e-01 2.2830993425036875e-01
      2.9104652468837644e-01 3.2403930471863607e-01
      -6.7235499697257436e-02 4.8346315187945958e-02
      -1.4243555111077374e-01 7.7215475203514614e-02
      -9.7044153946475739e-02 3.4136144633808602e-01
      1.5806569230457604e-02 -3.4306681284136074e-02
      4.0483383249596605e-02 4.6089894557830323e-02
      -2.7156820456746994e-01 -7.0405021302496124e-02
      -1.2445149896836985e-01 -4.7831354191068660e-02
      1.9322548710005347e-01 1.5917211710114332e-02
      -2.8454834897166395e-02 1.2664732955388694e-01
      8.9584918059062768e-02 -1.1294422351523026e-01
      -1.7473517567353716e-01 -1.0454300381843573e-01
      6.9622140653349374e-02 -8.2116636941628546e-02
      -4.8208132263385953e-02 -5.7304992971184222e-02
      2.7194267917200067e-02 -2.6418734603455074e-01
      -1.5077165490673053e-01 -1.1361297818175792e-01
      -9.7189152082318209e-02 -1.8506005862972623e-02
      9.7710346127606595e-02 -1.2663061468920941e-01
      -1.0829647272854814e-01 -2.9333873701256469e-01
      -8.0225434174752253e-02 -4.3417839532048919e-01
      -2.5762924167403556e-01 1.1968733536552723e-01
      9.2695361529907455e-02 1.2076142333416472e-01
      8.6858344423465794e-02 3.7204013710019357e-03
      -7.9658538781585672e-02 -7.0042587494558425e-02
      2.8195217636585496e-01 1.9119161567783907e-01
      -1.2699958827616784e-01 -1.6886721556813336e-01
      -1.4604604530094417e-01 -1.1830665432368888e-02
      1.7646513696079813e-01 -2.1907455244855048e-01
      -2.2523799514349052e-01 -6.5328906398638489e-02
      -1.2160827871873978e-02 3.1141400313096812e-02
      -2.0074292146933162e-01 1.2906302971692349e-01
      3.7931598927744364e-01 1.4539639221890435e-01
      5.2454827955581249e-02 -4.5078774192282858e-02
      -1.9513261812360108e-01 -3.3674347979367095e-02
      3.1903899703943256e-01 8.0055255932234545e-02
      -1.7841284761847997e-01 -1.0899172228363412e-01
      1.1954103724396030e-01 3.1564399772065410e-01
      -2.4879359923450931e-01 -6.8776069028812281e-02
      -3.3089367929495329e-02 3.9395079395667623e-02
      2.1673382982793709e-02 -2.4029946457795415e-01
      2.2520170478889448e-01 -1.1592160322494882e-02
      -9.6950991262434144e-02 8.6786166577063686e-02
      -1.8280543747488268e-01 1.1096395910444999e-01
      2.5074937253701347e-02 3.1705906969126268e-01
      -1.7381187254797884e-01 2.3068831827497832e-02
      2.6933112852968077e-01 1.5505189720499235e-01
      -6.4659563871227857e-02 1.1712122329421529e-01
      7.4626595917154009e-02 6.4869705400412175e-02
      2.2275932320543043e-01 4.1015046633366359e-02
      2.6975224092238757e-02 -1.3182626248525459e-01
      8.0366685198941046e-01 -1.9425162353710404e-03
      1.5590513645395737e-01 -1.6892054219560720e-01
      -4.4733707066819489e-01 1.0399036368612602e+00
      3.7903612956231104e-02 -2.0603939722377057e-01
      -6.1682675334887971e-02 3.2671433699561508e-01
      -2.1006050792796448e-02 4.8675186649791785e-02
      7.8781323490740601e-02 -3.4329648591864115e-01
      -2.8551400912085956e-01 1.2056618858105672e-01
      1.7987536193235168e-01 1.8845093440793971e-02
      -9.2455049741665379e-02 -3.2041975976544734e-01
      -3.1560549141424521e-01 -1.6416239335968258e-01
      -2.0789052158647123e-01 1.9354225646035922e-01
      6.5960323320635908e-02 1.5351755661466002e-01
      -4.3334764342611459e-01 -1.1939598159082753e-02
      -7.4676792948650497e-02 -1.0175733921298380e-01
      5.2823908231612419e-02 -9.1215721387835000e-02
      -7.9080419733530260e-03 -3.2526084577815702e-03
      -1.6285847957116303e-01 3.0771111329912409e-01
      1.2050282611222964e+00 9.6050523397295754e-03
      -1.3890027473701858e-01 -4.8338912167664944e-01
      5.2756080588427856e-01 -2.3546771011224024e-01
      1.0374140932217892e-01 -4.0531449193259489e-01
      4.6798000236298681e-02 -3.5005873698477846e-01
      1.2494987476165922e+00 -1.2947135143391020e-01
      1.0126532918034577e-01 -1.9726441252953489e-01
      -2.4431090455276364e-01 -6.7229426298559672e-02
      -1.8876269388897898e-01 -4.4098227779541238e-01
      -5.7977439363393113e-02 2.5881536389243409e-01
      7.3409115293267241e-02 1.2423828459949565e-01
      2.5481323089498947e-01 -5.4254834280089141e-02
      7.8981600568584176e-01 -3.7992289022555964e-01
      -2.9169117107470649e-01 -1.0316768953280266e-01
      2.3095914143270505e-01 6.2893153483227840e-02
      1.0070634701319163e+00 -1.4840408004737510e-01
      3.0432111050972721e-01 7.2462032587515920e-02
      -4.9777285884831844e-02 9.0687453679009780e-02
      -8.7847341844961763e-02 1.2472702146360436e-01
      -1.6658787146004005e-02 1.5994221015972820e-01
      1.1640635949382345e+00 1.1974937283507207e-01
      -4.9981824997292368e-02 -8.8118830585345781e-02
      5.8667825469775101e-02 -2.9810216971013764e-01
      4.6584516614395978e-02 -1.3589510606301278e-01
      1.8325952361047929e-01 9.4044994249036479e-02
      -1.3255065321125337e-03 1.1120029822101370e-01
      2.3032302957249978e-01 -4.0635705310402151e-03
      -3.3552039055763616e-01 2.1888211285549045e-01
      -1.2882084522318843e-01 2.3330928057588468e-01
      2.4020875690988303e-01 -1.2611619340638391e-01
      1.4758012471889861e-01 -2.4615252215188937e-01
      6.8621646868699579e-02 -7.1395339972615074e-02
      3.6849164552336189e-01 -3.2755958729460471e-01
      3.0507017895727023e-01 -3.1728072354693368e-02
      -8.1863252190302133e-02 -3.6455277956517784e-01
      -8.0184745537731472e-02 7.6621196608372980e-02
      9.8154448987482629e-02 -2.6394756690623755e-01
      2.6568226258744842e-02 3.8382985884535287e-02
      -3.1228439417353385e-02 1.7134089435947680e-01
      -9.0536019478276678e-02 7.1037843326085065e-02
      9.8887139652558007e-02 -3.6130819164180830e-02
      3.3205385833717349e-04 -1.3523785799271448e-01
      -4.0043875738391665e-01 1.0169299173381757e-01
      -1.0231142625598512e-01 1.6195112871862826e-02
      -1.1910999390507179e-01 3.3562173034711769e-02
      1.3560312347494280e-01 -2.3972715332800099e-02
      1.0428293364943612e-01 9.0165901191462783e-02
      -1.3855360494343419e-01 -2.8218232756451239e-01
      3.1729658591799881e-01 -1.0760572449219589e-01
      1.0520595025546025e-03 8.3978251119473397e-03
      -1.1022054074478739e-01 -4.0689946038303382e-01
      -3.8406834927980769e-02 -4.6961049002813277e-01
      -1.3269342530749664e-01 -3.3315051151959658e-02
      3.5535387339844571e-01 -3.8801744374548058e-01
      3.1537368516988823e-02 -6.9918793844848864e-02
      -2.4187983171901367e-01 -2.5583716305517812e-01
      1.0441316081717647e-02 -1.0696508942161123e-01
      1.5728615828288919e-01 6.2248152470853659e-03
      9.0285568850583739e-02 5.5278580879339172e-02
      8.4869690984090709e-02 -1.3062923044422953e-01
      -5.3256736238983149e-01 1.0945717550132179e-01
      2.1754486469167061e-01 -3.6387133978952296e-01
      4.3560708116287877e-01 3.1104577329832706e-01
      1.1717720395628820e-01 4.0199437940757216e-01
      1.6424249948843814e-02 4.3412838347012324e-02
      -3.4133960503565014e-01 8.7344040966794531e-02
      4.9010790116061145e-02 6.3059895979517694e-02
      6.2254451407065210e-02 8.0321303986314402e-02
      -1.4500637508036599e-02 1.5627197087478062e-01
      -6.9278549957348418e-02 1.1214579972596861e-01
      -1.4160010672602605e-01 1.2035960991013609e-03
      4.0431270531981860e-02 -1.3773838769055699e-01
      -2.8038728834236848e-01 -1.2340632395557787e-02
      9.3913298326473771e-02 -3.6104547853442193e-01
      1.7901629890497062e-01 3.3935241880714832e-02
      -4.4769690854718595e-02 1.1252918930038630e-01
      -1.7171175464653135e-01 2.5412536398116851e-02
      -1.7750554094614340e-01 -6.0665325706634111e-02
      1.0439966180822471e-01 1.8303132212926976e-01
      3.9709132654168353e-02 2.0242958465365349e-02
      1.7865762224841503e-02 -1.7048516396727564e-01
      1.6666303491290715e-01 3.7016767745384704e-02
      6.0250332772753568e-01 -1.7093377059018944e-01
      -2.2521254068081636e-01 -5.6017182045593701e-02
      -7.4097396658772893e-03 5.5898323624953417e-01
      6.3981120079105780e-02 1.1682498364473947e-03
      -7.5362006287085989e-03 7.4390638797214109e-02
      -1.5505425240910281e-02 1.3300915932725829e-01
      -4.9778503922804182e-02 -9.9381337716356669e-02
      1.0922260898686253e-01 -1.0564107584357336e-01
      1.4402303571846145e-01 4.2498589321442466e-02
      1.0290898171411839e-01 -1.0928183509303144e-01
      3.3400458465473309e-01 -8.1308025043979062e-02
      -1.7758545168580547e-01 -1.8261101483163324e-02
      -9.4149006398855609e-02 1.2051504862104376e-01
      -1.1860418254582709e-01 3.5090742862050198e-03
      -3.4758843348229554e-02 -3.9127990152174455e-02
      -6.6963004259028597e-02 -1.0342901586008793e-01
      -1.8872451318921513e-01 6.2493035701934700e-02
      7.4248194932150541e-02 1.3540352840169115e-02
      1.0777587840516714e-01 1.6996710938107933e-02
      3.4073261892296508e-02 -1.7760112295793395e-01
      -4.3619851986580593e-03 4.9431410331515810e-02
      -2.4612490756292218e-01 3.6703917667059466e-01
      5.7016486446516870e-02 -8.6837258657958993e-02
      1.7198885449196805e-01 2.3640321267560999e-01
      1.3027339855974052e-01 -1.2941663528660713e-01
      -1.3051622361670623e-01 -1.8350400454695140e-01
      -6.0227391821782481e-02 -7.2301352123442686e-02
      -6.5853562364073179e-02 -4.3364286866450504e-02
      3.4834201664292791e-01 -1.4520037601935984e-01
      -8.3469402730344172e-02 2.0514434900675979e-01
      -4.8511684173170339e-01 -1.0920054663807092e-01
      -2.8399088568121227e-02 -2.4214776655041056e-01
      -5.4483904663301282e-02 -1.2038351609763261e-01
      5.1191755573567066e-01 -5.1792401205085346e-02
      -8.8111396494977443e-02 -2.5074362135411515e-02
      -1.6436688261786031e-01 -6.0400672071202484e-02
      1.7823997636393460e-02 3.9258802058427168e-02
      -2.3847077722337640e-01 -1.4911524003924179e-01
      7.3584582789905179e-02 1.6818682765417903e-01
      -1.2526072571059473e-02 -1.4707940682853982e-01
      1.9222472909938690e-01 -3.9500531616296373e-02
      -4.9210668113504857e-02 2.5697493609107980e-01
      -1.4648655394808036e-01 -1.5787896518131750e-01
      3.2760692007030516e-02 2.2766285301081562e-01
      5.9115311944531991e-02 -1.9232690269981600e-02
      9.9149573895157148e-02 -4.2293930572143069e-02
      -1.6766901013952337e-01 8.9859974797043191e-02
      -2.8633141254001161e-02 1.7161301863266729e-02
      5.0556834455567259e-02 1.7337417861005666e-01
      -1.2249883696032049e-01 -7.3754069305897674e-02
      7.7543441755661344e-02 2.5899237802183345e-01
      3.5801468766276864e-02 -9.0109726474538021e-02
      1.7730607160862860e-01 5.0296766323114206e-01
      8.1211384251378985e-02 -6.9532065082031505e-03
      -3.1610343881577779e-01 3.4606563771553972e-01
      -7.1731031163094067e-03 2.4557077289514606e-01
      -4.5508209359378979e-02 -3.2879556218584621e-01
      2.3306447180714506e-03 -1.9764321751335148e-01
      1.9921401752071066e-01 7.0483858899864762e-02
      1.9413220531975309e-01 1.1924245975486256e-01
      8.6448469580214210e-02 -2.8722107454626444e-01
      1.2439883990066966e-02 4.4410382593496764e-02
      2.3854717874446103e-02 -1.0771913406660551e-01
      -2.4768331279105005e-01 1.2277383641366450e-01
      -8.6859102774333979e-02 -2.5232886674438748e-01
      2.1644642065393802e-01 2.6027220966003695e-01
      -4.4655402599930805e-01 1.3096141770930456e-01
      3.7536167979830747e-02 -5.8380096196848974e-02
      1.5218532348029368e-01 4.4736109574530464e-01
      -8.2887243775151845e-02 -4.9499388242949582e-02
      2.6267986286601647e-01 -3.9157019515220918e-03
      -2.3445853809993328e-01 2.9476924787479594e-02
      -2.1321476175224258e-01 -3.5402175757425880e-02
      2.4386358991332444e-01 1.3214884230008761e-01
      -1.2608461833082080e-01 -2.0469946681188014e-01
      -3.3681645244371733e-01 1.4547452883664905e-01
      -1.9471769130610420e-01 -2.7382576255270857e-01
      -5.2511691066244703e-02 1.2608117814034009e-01
      4.6958456006597848e-01 -2.2118578309877279e-01
      4.6106445143082431e-02 4.9192612983528788e-01
      -1.3768730477704511e-01 -5.0467747464313906e-01
      -1.7023322928651738e-01 -1.8187084261643857e-01
      -5.2665345600257263e-02 -1.0146894006935606e-01
      4.7210483273572412e-01 5.7158228355016320e-03
      -3.2056986174738573e-02 -1.5561139307781077e-01
      -5.7653016851542373e-02 -6.7709291464596033e-02
      -1.0578774541827329e-01 -9.3348734716841478e-02
      -8.0610526234296195e-02 1.0717231829647971e-02
      2.1092565608189673e-01 1.1737981859728783e-01
      -5.4602208036600167e-02 -1.5402707079366329e-02
      3.8029798880866267e-01 4.7831699349441164e-03
      -1.0916292556542428e-01 4.1281028294002098e-01
      -1.8208090198989585e-01 1.9072735365283415e-02
      3.5363424174699745e-02 5.6667345907501915e-02
      -1.9933897829741896e-02 -6.3191837512128035e-02
      1.4675683912736689e-01 1.0672924021099882e-01
      1.0971120398999088e-02 7.2292917369251669e-02
      3.5447188203129150e-02 1.7866749988465200e-01
      -1.3199567154575199e-02 -1.9623800067255959e-03
      -3.7802390640892153e-01 -1.1815884216428001e-01
      -7.0033199404542626e-02 -7.3737745449321559e-02
      1.8595779981710189e-01 -3.5564429568180483e-02
      -5.3135725817558301e-03 1.5516003531117639e-01
      -1.3913303909220364e-02 1.4120947150270402e-01
      -1.0663231279940821e-01 2.1971602795065556e-01
      -3.9371931855161142e-02 1.4149926774397584e-01
      5.7464787228683575e-02 -1.0927371726280448e-01
      -8.2001499224606006e-02 -8.1250683344697150e-02
      2.1932983528901953e-02 5.3377910927549385e-02
      -1.5311705953694454e-01 1.0292545509409146e-01
      -7.9184486580704636e-02 -1.4269742497063795e-01
      -8.9949826564056964e-02 1.2292848159150475e-01
      -1.3373727007518635e-02 -7.6210195800965649e-02
      6.5984889421584356e-02 -1.6556805176329500e-02
      1.0932264705824724e-01 -2.2246328500412790e-02
      -1.0796359283728617e-01 2.7404703961929699e-01
      1.0213436884143831e-01 5.0576637041974210e-02
      -1.3163400851169382e-01 -2.4100944098610305e-01
      6.8409121961127295e-01 3.1881776771191239e-01
      7.2659788225233182e-02 -2.9656750451258179e-01
      -1.0182399993844873e-02 -1.0246037593973906e-01
      -1.2388535947545817e-01 -1.8978032212414545e-01
      2.2882604842828358e-01 -1.2144378757059765e-02
      4.9855611698236785e-01 2.5832525715864797e-02
      3.4128779660555630e-01 2.0425642321041651e-01
      -1.1338228734034258e-03 2.9076416678707747e-02
      -1.1240424589789470e-01 -1.0697638012040313e-01
      -9.0554151488935249e-03 4.2943557353168405e-01
      5.5033226241903007e-03 1.2413293613388569e-01
      -1.5712527967523216e-03 -7.0943524411626463e-02
      1.4087099637242342e-01 -2.8163681535000840e-01
      -2.4267551296000775e-01 1.9307892439768157e-01
      -5.5093992666005592e-02 7.4297298389400801e-02
      3.0383128152375777e-01 1.1475315517830587e-01
      -1.4293268771641563e-02 -3.5342938444414641e-02
      9.2546109355342382e-02 9.0607677485869190e-03
      1.9990042041131420e-01 4.1439337835603121e-02
      3.6454558085394462e-01 4.9518651541968453e-02
      5.3293827992610021e-01 -9.3947403187992148e-02
      -1.3946998670440408e-01 3.4969281293394459e-02
      7.7398280776591236e-02 1.2416144769582710e-01
      2.8883903614982529e-02 -1.4654868084075219e-02
      8.3924120279639552e-02 -1.6989986446389413e-01
      2.8086836093236613e-02 -4.3553458274189283e-01
      -1.1986878421528020e-01 7.4656042263958645e-03
      -9.2558802576402685e-02 9.8914506387292891e-02
      2.5615193159431872e-02 -3.1672750741610950e-03
      9.0742302087400313e-03 9.7742214607844491e-02
      -1.6656841134350983e-01 2.5141735097904579e-03
      -4.0442487585185004e-02 9.0199077694910021e-02
      5.9421109610761391e-01 7.2916811908360177e-02
      -3.1752066111844268e-01 -1.1365859210482589e-01
      -1.8924397246403446e-01 -2.6345427654179798e-01
      5.3077711572925214e-02 -1.5089794324244554e-01
      9.6321351025683385e-02 -1.1396737596167064e-01
      -2.4233821028147379e-02 2.7244322299454826e-01
      -1.3930083763949636e-01 3.4918498105160636e-02
      -1.7668112056931831e-01 1.9975390633138787e-01
      3.4338503214007055e-02 -4.0069212019800803e-03
      -2.4874292984046111e-02 -1.3608084806243570e-01
      2.7293432270021423e-01 -2.2258547118184077e-02
      -6.6257188178556045e-03 -4.4681193912783398e-02
      1.7834239528277779e-01 4.4479022445838130e-02
      1.6573546295063107e-01 -9.7077069305695728e-03
      -3.1809541294432531e-02 -8.7665921962839219e-02
      3.5831854229120996e-02 -1.3950368180562788e-02
      -5.4213083403147906e-02 1.8417888073691772e-02
      -1.7816059206299661e-01 1.5138837630304020e-01
      -1.6526695371414049e-01 -1.4805748812741368e-01
      1.5863534458010555e-02 -1.3371175740735294e-01
      -2.1079003613427885e-01 8.6959728216291818e-02
      2.9192251086202596e-02 2.5262746226539717e-01
      3.6724460122485363e-02 -1.1727922314500211e-01
      -1.6681208859804197e-01 2.3041803526384290e-02
      6.9592125338572737e-03 1.7697819473246493e-01
      1.0174142172600441e-01 -1.6527037049641569e-01
      -7.8655903390352236e-02 8.3017651648014418e-02
      1.0821737606227193e-01 3.7110404817163385e-02
      -2.1137490352547778e-02 -4.4830366193039292e-04
      1.0216837804106114e-02 8.1959095629367873e-02
      -3.6011565312119093e-01 2.4760917357766676e-01
      1.0897866961276621e-01 7.7339743594805416e-02
      1.0542750281282981e-01 -4.3823231270250958e-02
      -1.8363927201787980e-01 -1.1353478731872589e-01
      -5.4778572120851132e-02 -2.3427397316347778e-01
      -3.1565664262800330e-02 -6.8814883725711049e-03
      -6.0736871974580678e-02 6.5384829024034405e-02
      2.4177444944906443e-01 -1.7608482796919261e-01
      -1.7339363352041925e-01 -1.1389940098237203e-02
      1.4953737625838151e-01 3.9288603895580712e-02
      4.3179594471894442e-02 -1.4305855704869208e-01
      -2.1968153703392918e-02 1.0148461830895769e-01
      -7.6273103644957707e-02 1.1744612500143364e-01
      -6.9939168816293912e-03 -3.5970589512589929e-01
      2.7376138921102322e-01 5.6998382346709640e-02
      9.9176764529905925e-02 1.6030478266690634e-01
      -1.2459916347383954e-01 7.3656630224281580e-02
      1.1422991481004822e-01 -2.9284055839599898e-01
      1.5032918264524093e-02 -4.0220155573490270e-02
      4.5457959543008172e-03 -1.6181220897225124e-02
      1.4159050557068900e-01 -1.4020989737231032e-01
      3.4323179962226408e-01 3.5776855633669905e-02
      -1.4771592141026799e-01 1.2573836236904992e-01
      -1.6610608927400158e-01 1.4737206020745686e-01
      -1.1147516714712682e-01 9.7893681102840940e-02
      5.5324506537842238e-02 -2.1551067446072006e-01
      -2.7868962448671566e-02 1.7924395330904774e-03
      -7.3523254780600053e-02 4.7699062202709655e-02
      1.0906472153274452e-01 2.0677055562294246e-02
      -9.1908887854469518e-03 8.6164985105590328e-02
      -3.9694492175004309e-01 -5.5500557241366114e-02
      -5.2349731104660568e-02 9.6285825097987096e-02
      -1.0439614799907877e-01 1.2018576325493593e-01
      -1.6961717023391318e-01 1.1381260758044265e-02
      1.7623032670632380e-01 3.4132213983956342e-02
      -1.7471588877333735e-01 -1.7640159001540100e-02
      2.0387659902410457e-01 -1.6963046569892942e-01
      6.6918758011269411e-02 -4.0531206318872533e-02
      2.0371111310992038e-01 6.6726354878334575e-05
      4.1350549770552386e-02 -1.8008098505383596e-01
      3.2033962326926813e-01 -6.1869802236301535e-02
      6.3266761622635601e-03 -3.6984799695614634e-01
      2.2980432979448800e-01 -2.4835652645700951e-02
      1.3066481849032735e-01 -1.1884499580308511e-01
      3.3909488221821688e-01 3.4082251164131418e-02
      -1.1949714084715067e-02 5.2455762690216512e-02
      1.1081525377330040e-01 -1.5170675590129357e-02
      -7.2971476975615596e-02 1.0614857223498823e-01
      9.9051448143035362e-02 1.4754983619427853e-01
      1.0230361918790651e-01 -2.2971443684766901e-01
      5.2767870660782745e-01 -2.1024999386999121e-01
      -1.5211489243069409e-01 -7.8280756743848795e-02
      9.3694582949816248e-03 -2.1045391396779797e-02
      -5.8195686132462322e-02 -4.7590761820259673e-03
      1.1851716308804659e-01 2.1499830800107533e-01
      -8.6671712784955071e-02 -4.0045840556816224e-02
      1.6408281456704396e-01 8.2488422976262216e-02
      -1.5965908534752601e-01 1.4382902089765770e-01
      1.7960241373299207e-01 -6.2953591275582518e-02
      -4.5991881479693145e-02 -4.2694382211509840e-02
      -1.3235911645591461e-01 -6.1467111587592905e-03
      4.0194624686031168e-02 -1.5271594145024847e-01
      1.3378907967536108e-01 1.0420825879275080e-02
      1.7450868384066277e-02 2.9467037189543072e-01
      4.0315551362443015e-03 -4.0306518296546606e-02
      -1.3787230580418575e-01 -2.1448128932449458e-02
      1.1561389305969037e-01 2.7209807542483061e-02
      -5.6424342317279531e-02 -2.3936260489008026e-02
      7.5390359480911440e-02 -8.5987044233036700e-02
      -4.0208921713543185e-02 7.0139828035525098e-02
      4.7145107975483680e-01 6.8669122591164644e-02
      9.1558360219623058e-03 7.9135844743096387e-02
      2.2938796097087027e-01 2.0927561162131955e-01
      3.1558856999294382e-01 3.2567453473844371e-01
      -4.9704325704100312e-03 -5.8785975932422515e-03
      -3.2797303812681776e-02 -6.9672231847259103e-01
      7.9253645999902825e-02 -7.1325162293952943e-02
      2.4953607012217383e-01 -2.1377701962790049e-01
      -2.4390319642817551e-01 -4.2172589398024318e-02
      2.1164475850854508e-01 -1.1696285263752457e-01
      4.3108584638762659e-01 1.5925425729937839e-01
      2.3305201878892994e-02 -2.3495406070743721e-01
      -4.0599725452788532e-02 -1.0105473160303254e-01
      -1.7538849928239290e-03 -7.7498115322108596e-02
      -2.3279271892655867e-01 1.6158420446188340e-01
      -2.2579857952277632e-01 -2.4462160572718059e-01
      -5.0182478966328203e-01 3.8988086467217253e-01
      -1.6742688460953942e-01 -1.6139177987402650e-01
      5.2195199586973863e-02 -4.8534031526815596e-01
      2.3155165504888739e-01 1.3876885845028133e-01
      -1.4402721828296550e-02 -8.3263043064202236e-02
      -3.9308204204691244e-01 2.7793816210632383e-01
      1.2546775654181583e-01 2.8012749612125021e-01
      1.4339498537834864e-02 2.8760807883585421e-01
      1.1151155968727181e-01 -2.3818975321355043e-01
      5.5855068915353599e-03 -1.8719093584060992e-01
      -8.3016650531697905e-02 1.1909749059093920e-01
      -9.3416895169003200e-02 -7.0541210943430216e-02
      6.7592926616366722e-01 -4.6529197310014458e-01
      -2.5242027215653878e-01 4.3783696845781178e-01
      -5.8747023060748838e-01 -1.9083592706410260e-01
      -9.5206701102363844e-02 -5.0068265534151146e-01
      -2.6587607642116662e-01 5.1923512388416457e-02
      9.5995972293417942e-02 1.0484941297515044e-01
      -2.0110382503598842e-01 4.1228967850563636e-01
      2.4289822373511721e-01 5.9361069256545669e-03
      1.6811785953652514e-01 5.7677859804057714e-02
      2.1014692948783603e-01 2.3103706784764999e-01
      1.6440896907097646e-01 9.3535188283125036e-03
      -1.4140243806168432e-01 -1.0323840132192430e-01
      2.8725203307897479e-01 2.1248268742886614e-01
      -7.2676486314174574e-02 3.2728150664172367e-01
      -2.3486119410240672e-01 -2.5068428661937719e-01
      3.2095643223877188e-02 -1.5086190667464877e-01
      1.6408622461715254e-02 7.5685610026161490e-02
      1.5313262449042511e-01 -1.2193541635907998e-01
      3.5769029036461446e-02 -2.4493742850762842e-01
      -2.5039791485273660e-01 9.4014972692846255e-02
      -8.8904409783128940e-02 3.1140039765728911e-01
      -2.2756747572803809e-01 2.7499294682253556e-02
      -1.7928677108443344e-01 6.0429023698612716e-01
      -2.4089341218718427e-01 1.8303228430140486e-01
      1.0435492142848973e-01 -1.9191420675392185e-01
      -2.8572382506083360e-02 4.4410331695042488e-01
      1.4813169171610413e-02 -1.3311209476953226e-01
      -4.8779426875915417e-02 -5.6806282009948206e-01
      2.1090629184926324e-01 1.5247709410219423e-01
      6.8084170664226923e-02 9.5602464579396321e-03
      -1.2968008573048753e-01 1.7460087602510999e-02
      -2.9374628856359910e-02 1.9256149177933321e-01
      3.6199520282079795e-01 -8.0070671118282810e-02
      2.2046107072249579e-01 1.8279014193861326e-03
      1.5222681356975631e-01 -2.0232556838113655e-01
      1.1807192015167461e-01 -8.2389244890162857e-03
      -5.1116862676767336e-02 8.9362952824066921e-03
      -2.8303741411342082e-01 3.5965101534983179e-01
      3.6956606229619236e-02 -2.5891659091449859e-02
      5.9079305826090445e-01 -2.8076627954117067e-01
      -5.1362846697669196e-01 3.1024026711658198e-01
      4.8645443919326702e-02 4.3425952030969267e-01
      -6.1594913338737109e-02 -2.1940458032540616e-02
      9.0339326644137810e-02 3.6363136837263699e-01
      4.7992320399544691e-01 3.6731637740576845e-01
      -4.4952143687579538e-01 1.0551770088248294e-01
      4.4812903156123446e-01 1.4401617748182197e-01
      2.2489333334653149e-02 -5.8622371531468681e-02
      3.1337323721583771e-01 1.3931686448615890e-01
      1.2932034509208409e-01 1.4743684660832504e-01
      -8.9634827632301226e-02 5.8405560547442302e-02
      -9.6544990875638143e-02 4.7820483527263084e-02
      -4.7577117624939563e-01 1.6735719405084895e-01
      -1.4449153858140435e-02 2.7986481468708139e-02
      -1.4389370512251473e-01 -4.9711542057930262e-02
      -1.8321974865894577e-01 2.1421445420053137e-01
      -1.3709462935792155e-01 2.5072180602906247e-01
      4.7140617959472206e-02 5.0441017989756289e-02
      3.0874323417054889e-01 -1.9715461696823583e-01
      1.5654566245963439e-01 -7.8631810320642148e-02
      -4.0010687833392605e-01 -3.6430987327950970e-01
      -2.1323047409734089e-01 1.7173820728408393e-01
      -1.3733847330008206e-01 1.7382014120509029e-01
      5.6096565738665310e-02 6.1903427518222288e-02
      -1.2495373443959320e-02 6.3530723455791430e-02
      -9.4287085739225163e-03 -2.4509962419579015e-01
      2.8696277414936733e-01 9.4071309235257861e-02
      2.9880701184124038e-02 1.0010510793408435e-01
      2.4000194292347198e-02 -1.9735708586941622e-01
      -9.0875612776734668e-03 -1.0618901105147646e-01
      2.5808730151690325e-02 9.7937558434644204e-02
      7.3699420169471230e-02 4.0235878994522942e-03
      -4.1942770133765028e-01 -1.8091927613600640e-03
      -4.1523952256439990e-02 -1.3464282686052173e-01
      3.3741858735784752e-01 -1.8052213721606286e-01
      -5.2720574321454251e-02 3.4133913627337975e-02
      4.9325332726480944e-02 4.4938392451665879e-02
      -7.5594594195103865e-02 1.4219756429099870e-01
      -1.2558019548261220e-02 -4.5509622538221710e-02
      5.4417544584824513e-02 -3.4364011263579596e-02
      1.4061718178652585e-01 4.9456732737382186e-02
      3.1041792122002670e-01 9.2497763715066059e-02
      -2.4374746742486733e-01 -3.6786464397373900e-03
      9.9770368707275403e-02 1.3348750134421053e-01
      -1.0389617099311201e-01 4.7597891703933456e-02
      -2.5766758938344087e-02 1.5878228611773149e-01
      -3.7648969257215781e-02 2.8114263785340286e-02
      1.9697575726726699e-01 -3.0974676332429407e-01
      1.0528199220320361e-01 -6.3842194947652073e-02
      -4.1341481341913544e-01 -1.7833660731081996e-01
      5.1658215760561188e-01 -3.6122470724893363e-01
      -9.9690476532096117e-02 -7.7312568147566527e-02
      1.2979301122543163e-01 -7.9657772263507481e-02
      1.2373424887043084e-01 -2.4053110323298438e-01
      -1.8464069807625455e-01 -9.3167408806025739e-02
      1.8400470185084306e-01 -1.0421960256167001e-01
      -1.5739175969796287e-01 -3.5672305051781811e-01
      -5.6025148732943161e-02 2.6431541373121897e-01
      -2.6946516840348983e-01 -4.7654373035170977e-03
      4.2972211795362820e-02 1.3370173821143810e-01
      -1.3193850314519037e-01 2.1308614349435939e-02
      1.0681010773734848e-01 -9.8872534175344640e-02
      5.7294263740353568e-01 -7.7726670628116390e-02
      -2.8791531159442130e-01 5.7353815826849272e-02
      -2.6705433471119633e-01 -2.0191956148120543e-01
      4.2651409635773879e-02 1.1656482539917865e-02
      -9.9473946226895663e-02 -6.8280425905621556e-02
      2.4490064649998346e-02 2.0078973485504761e-02
      -5.4653325774085312e-02 -9.9585461158248886e-02
      -6.0865526579566100e-02 7.1327678739279143e-02
      2.9566836166892713e-01 6.3379274113523523e-02
      9.0856492767953864e-03 6.0996881233222290e-03
      1.5199505589834941e-01 2.0483158088851000e-01
      -1.4470387836971907e-01 -1.0951732909166648e-01
      7.4182859773710585e-02 -9.3691132391977947e-02
      5.2216115554380681e-03 5.9654638560384721e-02
      -2.2463119574538429e-01 -1.6632925418314293e-01
      -2.7399127801480572e-01 1.8486251303741232e-02
      1.9670360478251783e-01 8.5620360898188946e-02
      -1.1923413883809653e-01 2.4764956481505537e-01
      -6.6834600024375787e-02 -1.0036155331810634e-01
      -3.0063979263605378e-01 -1.6049733477218436e-01
      -4.4156054065601288e-02 1.2840116790822462e-01
      7.4735726724894161e-02 2.6373691576344182e-02
      1.5588464459351339e-01 -1.5371527678814281e-01
      4.2066984017955639e-02 -1.8851485229277584e-01
      7.8434932569738380e-02 -2.8396144623441438e-01
      -2.5863465767813364e-02 -1.9026983957971751e-02
      1.8650568568999944e-02 1.7935064422414482e-01
      1.0005911344530864e-01 -4.4910905246699599e-02
      -2.1285132443345997e-01 -5.6499986306359690e-02
      -1.3846897926050700e-01 -3.0434238480643239e-02
      -1.9359232233755264e-01 6.4495210402814834e-02
      3.0353771322011375e-01 3.0035380463574166e-02
      -1.0597833878220142e-01 5.8478024194740255e-02
      1.0602040431534222e-01 -1.0479151412535453e-01
      -4.6818812454285944e-02 6.7517050518142135e-02
      2.6207653958800710e-02 -8.6626977925895299e-02
      1.2663073635276767e-01 -1.1052747887714409e-01
      -5.6351785065415971e-01 1.2302133541258853e-01
      -2.5922640431786476e-01 -9.6554918119849439e-02
      7.6885838582834140e-02 3.5757594260608511e-01
      -7.2594777264583230e-02 -5.3139503321569553e-02
      8.0209235032932494e-02 -1.9321796391829885e-01
      -9.1442466138222947e-02 -2.4035824066039942e-02
      -3.0028617964757159e-01 9.7051182369098821e-02
      -1.6862360411613736e-01 7.8417821484166067e-02
      1.7041962746473771e-01 1.7642149193026840e-01
      -2.6451984792704542e-01 1.5097495453033000e-01
      5.5856178614348974e-02 -1.2425374649259080e-01
      -1.9062774163149987e-01 4.9094316180989472e-02
      -1.4751433266163227e-01 -9.5328428504504709e-02
      3.1555807863281043e-01 2.4775355405890515e-01
