<?xml version="1.0"?>
<opencv_storage>
<opencv_ml_ann_mlp>
  <format>3</format>
  <layer_sizes>
    14 100 100 24</layer_sizes>
  <activation_function>SIGMOID_SYM</activation_function>
  <f_param1>6.6666666666666663e-01</f_param1>
  <f_param2>1.7159000000000000e+00</f_param2>
  <min_val>-9.4999999999999996e-01</min_val>
  <max_val>9.4999999999999996e-01</max_val>
  <min_val1>-9.7999999999999998e-01</min_val1>
  <max_val1>9.7999999999999998e-01</max_val1>
  <training_params>
    <train_method>BACKPROP</train_method>
    <dw_scale>1.0000000000000000e-03</dw_scale>
    <moment_scale>0.</moment_scale>
    <term_criteria>
      <iterations>2750</iterations></term_criteria></training_params>
  <input_scale>
    6.5259525650915489e+00 -3.4042660561742331e+00
    4.7954550578525161e+00 -1.5957445955738749e+00
    1.0008191839677993e+01 -2.1146091976785883e+00
    1.1465127662480038e+01 -1.9633707479981228e+00
    1.3616736192932450e+01 -1.6985548341653334e+00
    1.6476286873633903e+01 -1.5194720251198701e+00
    2.0362374950193836e+01 -1.4648839680087054e+00
    2.7693805976379515e+01 -1.5581627665258866e+00
    3.4767307306400937e+01 -1.6517085498730535e+00
    4.5372115226642222e+01 -1.7511566104070695e+00
    5.5821735278811794e+01 -1.8442163504573112e+00
    6.4096410523737688e+01 -1.8347033898008522e+00
    7.3757432240921872e+01 -1.8618719455566175e+00
    8.3670759947260692e+01 -1.9395424411570441e+00</input_scale>
  <output_scale>
    1. 0. 5.2631578947368418e-01 4.9999999999999994e-01
    5.2631578947368418e-01 4.9999999999999994e-01 5.2631578947368418e-01
    4.9999999999999994e-01 5.2631578947368418e-01 4.9999999999999994e-01
    5.2631578947368418e-01 4.9999999999999994e-01 5.2631578947368418e-01
    4.9999999999999994e-01 5.2631578947368418e-01 4.9999999999999994e-01
    5.2631578947368418e-01 4.9999999999999994e-01 5.2631578947368418e-01
    4.9999999999999994e-01 1. 0. 1. 0. 1. 0. 1. 0. 1. 0. 1. 0. 1. 0. 1.
    0. 1. 0. 1. 0. 1. 0. 1. 0. 1. 0. 1. 0.</output_scale>
  <inv_output_scale>
    1. 0. 1.8999999999999999e+00 -9.4999999999999996e-01
    1.8999999999999999e+00 -9.4999999999999996e-01
    1.8999999999999999e+00 -9.4999999999999996e-01
    1.8999999999999999e+00 -9.4999999999999996e-01
    1.8999999999999999e+00 -9.4999999999999996e-01
    1.8999999999999999e+00 -9.4999999999999996e-01
    1.8999999999999999e+00 -9.4999999999999996e-01
    1.8999999999999999e+00 -9.4999999999999996e-01
    1.8999999999999999e+00 -9.4999999999999996e-01 1. 0. 1. 0. 1. 0. 1.
    0. 1. 0. 1. 0. 1. 0. 1. 0. 1. 0. 1. 0. 1. 0. 1. 0. 1. 0. 1. 0.</inv_output_scale>
  <weights>
    <_>
      -1.6173894335211378e+00 -1.1798257790005342e+00
      -2.1781156009356990e+00 8.5196109200753556e-01
      -4.2968417986921503e-01 -1.0470293074895123e+00
      2.0887101639705907e-01 -1.4294089932237788e+00
      6.3540097963604603e-02 2.5841445359891035e+00
      8.5399460069372157e-01 -1.0700825448684770e-01
      2.4951510267991588e+00 2.2944373044640396e+00
      -5.9136072353426261e-01 -3.5051259782310197e-02
      -1.0189655703717277e+00 1.5167839087669868e-01
      -4.0471001955495906e-01 -3.1582697519282915e-01
      1.0441158731388283e+00 6.7371654222558863e-01
      -1.0276789504543824e+00 1.4895144990182169e-01
      1.4386336405418452e+00 -6.0334433512947117e-01
      8.3536154541175567e-01 1.9899518222879237e-02
      -3.6656512272433153e+00 6.5240343660723021e-01
      2.2558408035855446e-05 -1.3834173063152948e+00
      -1.1350880233885019e+00 -7.8232132801528964e-01
      -5.0755269708238204e-01 -2.2829900206837195e+00
      5.4640588827675668e-02 4.5780382759005672e-01
      5.3762480794284162e-01 1.1000825567243733e+00
      -3.5441831327714085e-01 -1.4043062318202675e+00
      2.9461887471354067e+00 -3.6987255583897916e-01
      1.2922134781143206e+00 1.4704121245911155e+00
      3.4503433201603184e-01 -1.3289072492878884e+00
      4.4921710472985842e-02 6.2846100273967320e-01
      2.3716420805499161e+00 9.8179497151719219e-01
      -6.3768895794047001e-02 7.8263049743748103e-01
      -1.3545952989809804e-01 -1.2083590412997876e+00
      -1.1805418396944445e+00 -5.3930400020437919e-01
      1.0962390104188628e+00 -1.0395303872463701e+00
      1.1194595249483670e+00 -2.5695329750539493e+00
      6.7600381513479732e-02 2.7843860492893019e-01
      5.7696382205981123e-01 7.9667949598435783e-01
      -8.3673780776225537e-01 1.1237221798443842e+00
      -1.3549186614147493e-01 3.2131984907829481e-01
      -2.3961203024329634e+00 -2.4058142698658118e+00
      -2.1364131267144724e+00 1.0374464844656255e+00
      1.3927037437964027e+00 7.9428276968329046e+00
      -6.8186128795456136e-01 3.0243181776914563e-01
      4.2634312076639930e-01 2.6727911128654741e-01
      5.2457263059290393e-01 -2.3864903179910799e-01
      -1.0153025014916177e+00 6.6215714566622108e-01
      4.3801778486758636e-01 -2.3267631524356619e-01
      -3.1926884398476219e+00 -2.3161765020520639e-01
      -3.0123267832132872e-01 -2.9366267927645329e-01
      7.8257911561839799e-01 -2.0913710548768440e+00
      8.4991963308896612e-01 -1.9656239300612326e-02
      2.2232306962242698e+00 -2.5712238164966212e+00
      -1.2019104005858094e-01 -7.1231145252938055e-02
      6.7201095109568210e-01 1.3498843886179164e+00
      3.3658216307121236e-01 -1.0686667438530786e-01
      -2.8673140644173745e-01 -2.3831618623119860e-01
      -6.3457481925157544e-01 9.9592046598160733e-02
      1.7027325419385467e-01 5.5837672628738622e-01
      -5.9575773951190743e-02 1.5665609653789931e+00
      1.8590062516943198e-01 6.0347294277697527e-01
      -4.1006959625886663e-01 -5.9912996624809611e-01
      -2.2903148376180432e-01 1.1950327013187205e-02
      -7.7924263903977753e-01 2.2338710922108096e-01
      5.0590354653106340e-01 5.2646634463546713e-02
      8.3534001870787578e-01 6.5572062176215962e-01
      -1.6573693741130051e+00 6.9787842631500951e-01
      4.1519283978635074e-01 2.2494883510885341e-02
      6.6526041304221883e-01 -1.7672704505835086e+00
      -1.8005089696690826e+00 6.1903408434992924e-01
      -1.4523960265261064e+00 1.7166290107511082e+00
      6.4371018808274938e-01 -1.1471742926257113e-01
      4.3294307097507291e-03 -1.3185518942145520e+00
      7.3604842799431103e-01 9.6053878500120216e-01
      2.0511211940575156e+00 1.9008390523614932e-01
      -1.8769230994354025e-01 -1.4529607866405050e+00
      2.9700132189297443e+00 9.1593724276541144e-01
      -7.1655326455033042e-01 -3.8031174281231435e-02
      -5.5450073141034362e-01 1.6405009226384362e+00
      1.0373348572222162e-01 1.2965548187187139e+00
      3.6341714731690979e+00 1.2411394743442659e+00
      -6.8295287958178741e-01 -4.0019066627855163e-02
      3.9326914707292548e-01 8.3600131351247897e-01
      -1.2550063645119547e+00 6.9047734180027942e-01
      -9.7452048051895446e-01 2.5454023497904926e-01
      1.8900070455869544e-01 1.1598801215499428e+00
      -5.4032153150255702e-01 -6.3104883611814611e-01
      1.5297899210898491e+00 -2.3623754407447342e+00
      -4.2695817319029195e-01 2.3375661754815188e-01
      -9.5714150290763841e-02 2.0679462942052937e-01
      1.0963292465429129e+00 4.1969674741893787e-01
      -8.2198553316397416e-01 -3.7002521895908108e-01
      7.2567530924203316e-01 -4.1531792617504677e-02
      2.7760018856149071e+00 -1.2361295630755709e-01
      -1.2245443684306967e+00 1.4765140717763550e+00
      9.2492265881997526e-01 -4.3616436480531767e-01
      4.8292777960934152e-01 5.6871142665643436e-02
      1.0308058259482198e+00 -1.1445284688432390e-01
      5.1194006275422810e-01 2.8529635704231104e+00
      1.2466753710252447e+00 -6.9876753046074602e-01
      3.6029152139133014e-01 -2.8462857783298484e-01
      -1.0436774513656804e+00 -1.5981778668212048e+00
      5.7378825083865392e-01 5.6407009825391119e-01
      -9.6332245523180193e-01 2.0034069444794195e-01
      2.8639936662945537e-01 -1.7746454747118543e+00
      -7.3170435792044664e-01 7.7865264724257810e-01
      -3.0255997292782200e-01 -1.1990835862344409e+00
      8.6504892527083199e-01 -5.1322473307759342e-01
      -1.3340386938961335e+00 -1.9548629375781434e-01
      9.5634282419930394e-01 1.1581940452892268e+00
      1.5179391900623854e-01 7.3247040178858236e-01
      2.8872608553054036e-01 -1.0958436828422613e-01
      1.3835432877623162e+00 -1.1848981890020687e+00
      1.2953920398420939e-02 -6.9725841728829319e-01
      -7.0316325937494784e-01 -6.1605776148466396e-01
      3.6451841194745405e-01 -3.8338697757803647e-01
      -7.6088825220049094e-01 4.7222251309173548e-02
      7.9275121958340827e-03 3.3811779054559432e-01
      7.3384374159676788e-02 5.6285636473378153e-01
      -3.2730438680315205e-01 4.1750157311893737e-01
      1.2952204695040206e+00 6.0250172721976114e-01
      -1.7607350917789559e+00 -2.2482556592860001e-01
      1.1532411164185613e-01 -3.4522010006371817e-01
      3.6392350287127845e-01 7.1907938456805109e-01
      -5.7398645993629471e-01 3.8001925904739453e-01
      2.3188019339360577e-01 4.1449923678472739e-01
      3.5800007054755395e-01 -7.7290881252633614e-01
      6.9599523159516175e-01 6.5901540834297079e-01
      -4.2642745276251443e-01 1.4550272290421649e+00
      7.4260675055944442e-02 1.1361530917119724e+00
      6.0999647497559728e-01 -8.4256330186602979e-01
      -7.0559491971871868e-01 -1.0548259565583391e+00
      -1.3276734128085516e-01 -2.2980315599579115e-01
      -6.1479124358706516e-01 -1.4447914331782968e-01
      -7.8133850561614349e-01 6.7936962785241917e-01
      -2.3501410633530084e-01 7.4913843949742276e-01
      -4.8885355394853952e-01 -3.2907949327310465e-01
      -1.8631575740486842e-01 2.3861393562221274e+00
      -5.1013486842349653e-01 -2.7925519991080755e-01
      3.6405325166550609e-02 -2.8119770625520740e-01
      1.2120532456485398e+00 -7.9333018368997077e-01
      9.6753540384754555e-01 4.0145412071110803e-01
      1.7269826246921403e+00 5.4820488575207338e-01
      5.2186194104359473e-01 9.2246212996691745e-01
      -3.3828527004132292e-01 -8.3393552045024222e-01
      1.1048395694523749e+00 7.6718817967418973e-02
      2.5203139050922054e+00 -1.2801229531865193e+00
      -2.1847938100882657e-02 -4.5857656528595869e-01
      8.5158819655690288e-01 -3.1885276414423730e-01
      -8.0055861974228607e-02 3.9884044448091438e-01
      -8.4146510680552045e-01 2.4611516550793491e-01
      -4.5839687815199531e-01 1.2456223467421415e+00
      -1.7097375327920517e+00 -4.6468048729955448e-02
      5.5291423280144336e-01 1.0219405802360966e+00
      -4.0728820581044889e-01 -6.6867559026051515e-01
      -1.1455413496786164e+00 -5.0431344556745097e-02
      3.8364493759465135e-01 -2.7981612092181685e-01
      -6.4041889151004383e-01 5.0539953337508081e-01
      1.0484286755418208e+00 4.9687970292583872e-01
      5.3279195617451669e-01 2.4111302446308644e+00
      3.2381491102792653e-01 -1.2962025631900181e-01
      6.8570101789537763e-01 1.6151697753782259e+00
      3.1832764066370878e-01 8.4464395633163203e-01
      -3.4715900049084480e-01 1.7832649554194422e+00
      -1.3458181182479887e+00 1.6867259339272687e+00
      3.6640435106084468e-01 5.1142627323667977e-02
      -4.3704933052979167e-01 3.4953304089978476e-01
      8.2406134200254222e-01 -9.4223261350740684e-01
      1.4175024438097991e-01 -4.8752427004077686e-01
      1.3209253737227384e+00 -1.1078212393989564e-01
      5.3687262686987247e-01 -2.7066535037497341e-01
      -2.2865953343939260e+00 -3.5909834882212710e-01
      -7.2592900424871043e-01 1.0223317820546349e+00
      -1.3407289886682989e+00 -1.2149293940482131e-01
      1.9708329996256062e+00 1.0781389768637906e+00
      9.1557848542376152e-01 9.8114330058103838e-01
      1.2656150696268531e+00 6.9403328543763643e-01
      7.6168431825295535e-01 5.7192504299853975e-01
      3.2785808305482800e-01 6.6254279145144068e-01
      -5.6760557049760985e-01 -1.6419095298565662e+00
      -1.9199052096010216e-01 5.9335591513320951e-01
      -5.4991894722365287e-01 -4.4105327451311793e-01
      -6.5432279103240720e-01 4.5074237607614398e-01
      -3.8937768762405645e-01 -1.1394699667311741e+00
      -4.4704238447573147e-01 -1.8539842981556665e-01
      2.4405256231484458e+00 7.6802698728644525e-01
      -5.7206589179534473e-01 7.6528759363375887e-01
      1.7089548511088464e+00 5.6329870884160138e-01
      -3.6757208870222907e-01 1.3834985466803209e+00
      6.1031866425433477e-02 1.0256401649260782e+00
      -2.4333133696251219e-01 -2.5122500157863853e-01
      3.7059695408916715e+00 -8.6306323785321837e-01
      3.1130837781503180e-02 5.7200048453107755e-01
      -5.9489106273859182e-01 7.0358750927909341e-01
      -5.4106520472827691e-01 7.7632522824982320e-01
      3.9586706975222197e-01 -4.8258518357857816e-01
      -1.0634993136855144e+00 -1.3080750662877159e+00
      -1.2376424432249106e-01 3.2431163761507625e-01
      6.1778690121541158e-01 2.6193791221069113e-01
      1.8683856083917388e-01 7.7824353357624998e-01
      -1.2224436777058867e+00 2.1144181626577424e-01
      4.6160903629448835e-01 -1.5846978482419674e+00
      5.6726576029600440e-01 -2.3231986127789747e-01
      3.2019147703039941e-01 1.1686651375255879e+00
      -2.7351316741464343e-01 6.7525425885005552e-01
      -1.1934065415768613e+00 -1.4077904080738124e+00
      4.1198991429959517e-02 6.1152165938580173e-02
      -2.4181560290085002e+00 -1.3867578269075675e+00
      4.1998080522679349e-01 7.3607704129210672e-01
      -6.2442679258493561e-01 8.4846886497126961e-01
      9.5164501239295018e-01 3.2999812815502089e-01
      -8.9847594705215594e-01 2.8288244267084711e-01
      -3.4522913728547938e-01 -2.2702244175786590e-01
      -1.1740293465098335e+00 1.4844032874246551e+00
      1.4381796102001210e-01 -9.9040378059793693e-03
      6.2391134169112283e-01 8.6645546940122631e-01
      -1.0146923803772087e-01 -9.6806813815174531e-01
      -3.6347670303534985e-01 -7.7229546462431309e-01
      1.5865514317917666e+00 1.7748414015455037e-02
      3.1014886208962844e-01 5.3098260961361698e-01
      -2.7326507408075368e-01 -1.9394911621473916e+00
      -1.2552528067337696e+00 -4.5834106639346467e-01
      -3.2231095495079382e-01 1.7463120804947690e-01
      6.8221534139236062e-01 -7.1917095010065291e-01
      3.0968319333316194e+00 3.3809745459489438e-01
      6.9238787587839401e-01 -2.2059434524169025e-01
      1.6521797064538124e+00 3.8136101220426578e-02
      -3.6814080887212436e-01 2.8518996012492159e-01
      -5.9489902295167107e-01 -8.1933403305176011e-01
      8.1539844015025120e-01 1.4007655177690082e+00
      -3.7530159761528396e-02 5.5552988462646480e-01
      1.2789433524394294e+00 1.2838445568443704e+00
      -5.5303512539405286e-01 1.9815916191779616e-02
      6.1444931015465454e-01 -1.1820324466705239e+00
      9.2964636347820995e-01 -6.6672481779037451e-01
      1.6283218615045633e-01 -6.2552834742881421e-03
      -8.4575943673030662e-01 1.4141011774565204e-01
      1.7088662605015434e+00 -5.3707636957777471e-01
      -2.1883490453199128e-01 4.7065648264276150e-01
      5.8237479898395583e-01 4.6239602711002559e-01
      -3.7278837001465703e-01 -1.0355467136419300e-01
      2.6666005772254175e+00 -2.0560724135882467e-02
      -1.0929841836265051e+00 -1.1024043728402653e+00
      6.0344653332622022e-01 -5.2358510998291841e-01
      -5.8645704190799641e-01 -1.1608910994261532e+00
      8.1455713434704380e-01 -1.2705224694935229e+00
      4.0728564043154147e-01 2.2549339879349413e+00
      4.0130749518089026e-01 -4.7472004234602390e-05
      -4.8625206862412174e-01 1.9510383960411209e-01
      -5.5732441516125719e-01 8.8789386537136361e-01
      -8.7472936252075506e-01 4.4441177393181479e-02
      1.0879346288528213e+00 -7.1180744898024040e-01
      -2.6700884641273390e-02 -9.8531732383179382e-01
      1.6149883792940565e+00 3.4757987113843331e-01
      -4.4398334096551451e-01 -4.8264504640294914e-01
      -2.0191438965542213e-01 -1.8076105734599333e+00
      -6.3058209699989665e-01 -3.1629489655978053e-02
      -5.0303704763162975e-02 -9.4192437337103352e-01
      -1.1949676131786982e+00 1.6029221147472111e-01
      -1.8083374175741324e-01 -1.5236277145589394e-01
      4.8891767720136792e-01 2.5478820412091030e-01
      1.7000197957086755e-01 5.9664591108868603e-01
      -2.7944879076966239e-01 -6.6303694692503690e-01
      3.1043225775774624e-01 1.1710432744619979e+00
      -1.7212011079139838e-01 6.9192118384022094e-01
      1.0906738913243039e-01 -5.2143971687135936e-02
      1.3667380065816228e+00 -3.1678883820327819e-01
      -7.4160346819371104e-01 1.1444916764063283e-01
      4.9870440286759898e-01 1.9792166244131565e-01
      -4.2726990662416370e-01 -1.8044129049824334e-01
      4.5807304625525530e-01 -4.4183085545711709e-01
      -8.8859590134538791e-01 2.4558210522982418e-02
      6.5357107553116167e-01 -2.0188671533283098e+00
      -3.8321497384323833e-01 2.0343916928956046e-01
      -7.4652705816947482e-02 5.0092684622084482e-01
      1.4582111293963609e-01 -3.4790918220697820e-01
      2.3482577590611528e-01 1.8905289525546010e+00
      -1.8973963607642019e+00 -8.8076406220817138e-02
      2.5786880314996996e-01 1.3608690791242415e+00
      2.9852857595814214e-01 -1.8570446432943313e+00
      -5.9719901696508060e-01 3.8524007727309312e-01
      1.8347715613943275e-01 9.8531081481505856e-01
      -3.2239878189392235e-01 3.6723694266903345e-01
      -9.9094457528726931e-01 7.0888840957507981e-01
      -1.3639563177712439e+00 -9.9277107315549196e-01
      9.5998953375153073e-01 -3.3842934854151141e-01
      -3.9054444356056733e-01 6.8241873474215642e-01
      -6.9355326878343271e-01 -2.0894520109983596e+00
      -1.3985180693880245e-01 1.4307162496175478e+00
      -2.5368926302879108e-01 8.3021959791677868e-01
      5.6290961016456520e-01 -4.6221111587946628e-01
      1.7326383448543055e+00 5.8320591439797687e-01
      5.9374199660599114e-01 3.3802688672349662e-01
      -7.0333632043587085e-02 1.7995127385275693e-02
      1.0026288377064398e+00 8.8406193353463358e-01
      3.5182695458667307e-01 -2.5714355824887175e-01
      1.5919269884353660e+00 5.4905804871433284e-01
      2.9767857018549077e-01 7.6151401222880732e-01
      -1.2514118925996824e+00 1.8084140598055380e+00
      -2.0916126055745504e-01 -1.1755788965870513e+00
      -7.9416601983627455e-01 -3.9330851489651819e-01
      8.8256798066565756e-01 -2.2987827011164082e-02
      1.7723417985266421e+00 -8.0971829970125164e-01
      2.9525214777012165e-01 -3.5330034807129634e-01
      8.2393336231419567e-01 -2.8990024681417281e-01
      9.4147396056174748e-01 -6.3940255958636782e-01
      -5.8826673231315074e-01 1.0824564111654171e+00
      -5.3022209916021035e-01 -2.1045980302033405e+00
      -1.4735331082189210e-01 4.6077397615955451e-01
      2.5811738962975417e-01 2.8488401446795886e-01
      -2.5463809169321899e-01 7.4434576324478197e-01
      -9.0672154118649573e-01 -8.6501107956744941e-02
      -2.1331248867416738e-01 -5.3136942953692790e-01
      -7.4157235320485043e-02 4.4110542733244179e-01
      3.9178656183863897e-01 9.3374162155393559e-01
      -5.9159814630413665e-01 -4.0088894424432685e-03
      1.4345902703155740e+00 -1.4428147068350466e-01
      -7.7233095408916541e-01 3.9135950705852025e-02
      -1.4016664288811040e-01 5.6189104858458350e-01
      8.8609822231477975e-01 9.7346416137140832e-02
      1.6178235003501618e+00 -4.3577589106242653e-01
      -1.3592266029268196e+00 -6.0919588160276805e-01
      -8.9005963343769590e-01 2.8210465650283306e-01
      -1.0952506154275865e+00 1.2267068694514570e-01
      1.3265955744618156e+00 1.7145475978682057e-01
      -5.9428495772744050e-01 -2.2305043108313929e+00
      5.1903492552068564e-01 4.6732772786765003e-01
      1.6614025759346870e-01 1.0677246913932430e+00
      4.4226458999786822e-01 7.0593894430810611e-01
      -1.8478134192436654e-01 7.0964226231866467e-01
      -8.3845695279797261e-01 8.9528015414543061e-01
      -2.1287703270730710e-01 6.2833335806546231e-01
      -8.7731861020008531e-02 4.1139607231568948e-01
      6.0535108348495836e-01 3.9402717146452637e-01
      7.3358464110881150e-02 -4.5629665453042484e-01
      -3.0073330491132000e-01 3.9193739187011756e-01
      -1.7185487612993314e-01 7.8476747615801834e-01
      3.5835084739172327e-03 8.0655096179435259e-01
      -1.2019048118813904e+00 3.5186148850410448e-01
      7.3619336627641263e-01 4.9930841595778164e-01
      1.7449248302449183e+00 1.5522728931670273e+00
      1.0573707598598932e+00 4.9637453922417601e-01
      -1.3883927872938873e-01 7.4459050124518500e-01
      -1.0313513335818615e-01 -9.6794225617613217e-01
      2.8372610610436361e-02 -6.3421608461770895e-01
      1.1375789244329040e+00 -5.8372139064308437e-01
      3.1392719428407007e-01 -1.1527808405057178e+00
      -3.6257501234308542e-01 -7.7899013937688044e-01
      3.2630951354914361e-01 -1.1945298095949476e-01
      5.0790535057061348e-01 -1.3722006199578567e+00
      -1.6210653075536754e-01 -1.6682281582287171e+00
      -5.4923353725661157e-02 2.0333549537162227e-02
      -8.0340448126918473e-01 5.0804332667154595e-01
      5.6905611903676390e-01 -3.2709158626553242e-01
      -8.3813374201740476e-01 7.3399577745137323e-01
      -7.6226817352263521e-01 -1.7623877756723521e+00
      5.1983724506702078e-01 -1.6358805704978127e-01
      2.9977406276598256e-01 2.4126094048897870e-01
      6.4504022411507489e-01 6.4424391286786176e-01
      5.7905103912063571e-01 4.9829580801747081e-01
      -1.9108608553696074e-01 -2.4991452085557625e-01
      4.0535666829544986e-01 4.7073403272771874e-01
      -1.0554237795924377e+00 2.8963095700963148e-01
      3.2273190867126161e-01 2.6409687180717241e-02
      -2.1547130961720115e-01 -3.5407491119409396e-01
      1.5772025713269995e+00 1.0638924157706586e-01
      7.8938997492771179e-01 2.1929168899698565e-01
      4.0482044222860586e-01 7.0036971490374678e-01
      8.0563993128892131e-01 7.1532258701857743e-01
      -4.2077621031436951e-01 6.5480109169530343e-01
      -8.8437925064785194e-01 -3.4187500375659019e-01
      1.5748694518360556e-01 -6.2560146952299986e-02
      -9.8869547956707632e-02 -2.4749774405397943e-02
      -5.4410186781327918e-01 2.7506162939913120e-01
      -3.7145355309751926e-01 7.7455328875455709e-01
      1.1063104272358320e+00 -1.1904098682360138e+00
      5.2946448628895004e-01 -2.2420939538981785e-01
      -1.9653876819323443e-02 7.1399655062060674e-01
      1.9653691326329040e-01 -1.9378531484965589e+00
      -1.2112288461934886e-01 1.7448235837566146e+00
      -1.1389576324212627e+00 -1.6739918853870328e-02
      -7.2779120185935664e-01 1.3487971439329554e+00
      -3.3724245465199688e-03 -1.0598051616124669e+00
      -1.8757680214339933e-01 5.9256664746859727e-02
      -2.6251097010882701e-01 -4.0332269654695169e-01
      -4.8992089386648008e-01 3.8197156772358726e-01
      -4.4008414446000454e-01 -7.3873787238833211e-01
      4.7078239506810493e-01 1.3836690237596851e+00
      -3.0440010639985365e-01 5.6372163134059516e-01
      6.4868869647652705e-01 4.4279301128712084e-01
      1.2274744152669363e+00 -6.5016926942602651e-02
      -3.1168109275097616e-01 -1.0082364529946213e+00
      -1.9982012990148446e-01 3.5349627797844613e-01
      -1.8529195777236132e-01 2.4688678362310895e-02
      -8.6108479371950852e-01 -3.6279194466146752e-01
      8.3869787490996817e-01 1.6615686568548291e-01
      4.8219585353783573e-01 -4.6055993274651769e-01
      -8.8657147300509109e-02 7.4275881196641136e-01
      7.0233235912393596e-02 4.1990457342455745e-01
      -1.4170265361255179e+00 -1.0284669937029189e+00
      3.1109044312437428e-01 -2.0151945980042385e-01
      -3.8643551527073627e-01 -6.1860995406551700e-01
      -7.4721197456233268e-01 -1.7584265855394160e-01
      4.7921729365808985e-01 -2.9097479546616184e-01
      7.9269492623119386e-01 8.3258502491652495e-02
      2.9471283075486378e-02 -1.2910966663751440e+00
      1.0664744484455255e-01 -4.4730122185300744e-02
      6.6287917678127595e-01 6.4581248116891321e-01
      7.7482496715243132e-01 5.4163285922077330e-02
      1.2001638591677231e+00 5.7156927746937736e-01
      4.5001336456653213e-01 -1.0998306834428577e+00
      -8.6156402728563530e-01 7.7967891062045422e-02
      4.2244891744632596e-01 -8.3659903288003890e-01
      1.2247351737274514e+00 -8.6586085497534904e-01
      2.2990290490775284e-01 1.5744369057805921e-01
      5.7287120216468979e-01 1.0349178620787554e-01
      8.2487360634070439e-01 9.1366679350613167e-01
      -2.9961795844824418e-01 -2.3875642208709230e-01
      -1.5619722969616273e-01 7.6206782149785421e-02
      -5.4999017216999224e-01 4.5282166527817408e-01
      -8.5227096847161443e-01 -3.6980669249984874e-02
      -7.4822321402485858e-01 -3.1555191525403703e-01
      -1.5301391516963403e-01 6.3068291591011227e-01
      -9.9106625901132961e-01 1.7755691033227114e-01
      9.0378798600049340e-03 1.9501131292644003e-01
      5.6694171010962380e-01 -2.1916843486181935e-03
      1.7342562977560720e+00 -1.0407100962869122e+00
      1.1806017405399054e+00 7.0803317940006749e-01
      1.8697592862162996e-01 -1.2792493427606206e+00
      -3.6561954476149949e-01 3.7730954927342947e-01
      -7.1399176812383214e-01 4.1462241742070999e-02
      -2.3513711161643755e-01 -4.2673344009229341e-01
      -1.5541976049991422e+00 -5.3043566928673580e-01
      1.1107398949655078e+00 4.2393262645229629e-01
      1.6155446663837841e-01 -7.9928175162207415e-01
      6.1521335739191962e-01 1.5259692900978880e-01
      -3.0627854354529421e-01 6.9324563397107630e-01
      2.8774795791140872e-01 2.5246044751197183e+00
      -4.6642232466879696e-01 -6.9687942840212430e-02
      4.6229803137939063e-01 5.5229347829173381e-02
      1.0893809027245890e-01 9.2939053557589232e-02
      -5.5335219308519679e-01 -3.6086129581747484e-01
      1.8503543683644594e-01 5.1360088377671209e-01
      -1.0573864322178053e-01 -8.3680363515811584e-01
      -9.7919711331540804e-01 1.3280297465541868e-01
      2.6069498435707994e-02 -1.1179148754609471e+00
      1.0280671967318720e+00 -1.0286841660832282e+00
      1.3922248383416560e+00 8.0813833789605716e-01
      1.5879268667776833e-01 -4.5250789838300354e-01
      -2.1107554469431744e-01 2.8962949644221592e-01
      5.8580734842763584e-02 -4.4118276618400717e-02
      -1.2599481994795330e+00 9.8588731384160422e-01
      -2.5050612046682613e-01 -7.8663326678913278e-02
      9.9716310579984445e-03 5.7186238433111902e-01
      4.1776295711302042e-01 -3.5997934543697635e-01
      1.9718784182094612e-01 -1.9090617191151722e+00
      6.8235355337691417e-01 1.4855733062869686e-01
      -1.9993528837547663e+00 1.2759145017980664e-01
      1.9297445448343828e-01 1.2529424161920037e+00
      1.2448793052321592e+00 1.2042827123832114e+00
      -1.9381517475662785e-01 -3.1616370542450772e-01
      3.1263201868809648e-01 4.9785232095504388e-02
      -1.2484401816126175e-01 4.9312609069440144e-01
      4.3533122517105755e-01 -1.4700199790264843e+00
      7.8401990359143303e-01 -5.6273950912023474e-01
      -8.9123600556156835e-01 -1.5608885648140336e+00
      1.1363045855331908e+00 9.9515235214404540e-01
      -6.5853964754349348e-01 -5.9281639105475692e-01
      1.7497833801032719e-01 2.1744810946457227e-01
      -1.0603884784467816e+00 8.4790014342523035e-01
      -7.5827845833814536e-02 2.3661186545503407e-01
      -3.6087110106528902e-01 -1.5830335432880558e+00
      -5.7048226055766420e-02 -6.2775031496034792e-02
      6.4115163566054001e-01 5.5092642565777628e-01
      1.2328035364984107e+00 7.1378287988425404e-01
      -2.3348162549116119e-01 -2.1085041047677550e-01
      9.3806017207145875e-01 5.3208563046409740e-01
      -7.3510475309970058e-01 3.8699631366251414e-01
      -9.1684351485634719e-01 -9.1954778092061884e-01
      -8.8108363023136516e-01 3.3993289660543519e-01
      -1.2084618847622135e+00 2.6198042753465645e-01
      -4.4178073292586678e-01 -5.3875584698132284e-01
      -1.1492043554368465e+00 -1.0592177402567928e+00
      -5.2682504031745114e-01 -1.4139802919616859e-01
      6.8864930833162574e-01 -5.5581510542483825e-01
      4.8005943662550060e-01 3.3375721756804594e-01
      9.5042778602390188e-02 8.4334483004774674e-01
      5.0209731205349628e-01 -4.3220089838579040e-01
      6.2348872827117929e-01 4.0175405647281359e-01
      -1.3105033008721664e-01 -1.1963333895179987e-01
      -1.8032067541283486e-01 1.5020332453898197e+00
      -2.4435542725807766e-01 5.5524629397075420e-01
      -2.0568469324799238e-01 1.6026115878396366e-01
      -5.1473600492829064e-01 4.7075858361758587e-02
      -5.1291876275091491e-03 -5.2527159943135515e-01
      -1.4611063067165811e-01 -1.5519041324782972e+00
      -2.2225704144412331e-01 -5.6224131595360960e-01
      -5.8189221105981026e-01 2.0514416211970561e+00
      1.6244059397723806e-01 -1.8707018215564064e-01
      -9.9000294774795938e-02 -5.1412384347247553e-01
      -8.9538580993137482e-02 -5.1341700799966883e-01
      1.1493166863336917e+00 -2.0715338745775545e-02
      -1.1006659439095062e-01 5.9588148975345401e-01
      -4.4177334448744315e-01 2.5048456033239869e-01
      -3.0485294155677589e-01 7.0231904319240854e-02
      -1.4640538880598779e+00 -6.5982056037047554e-01
      1.6718036174725781e-01 -1.0709553337186917e+00
      -1.2183408496680324e-01 3.8723250680095184e-01
      2.4574883390868921e-01 6.3392843684741088e-02
      4.5390467075219010e-01 -6.9798440036665488e-01
      -3.8400504268601743e-01 7.7697076586651026e-01
      -1.9684014123200419e-01 1.9231363307346519e-01
      4.6231352740527909e-01 4.1170535152761961e-01
      5.1952695322025610e-01 -5.4950393961352550e-01
      -6.3358608235373148e-01 9.1164834630966252e-01
      8.7745922950842059e-01 -5.3490346691383517e-01
      2.5516642015038424e-02 -2.5147424194360507e-01
      -2.1761050839145971e-01 -3.3883073910860040e-01
      3.8408592054131746e-01 -6.4953472301937842e-01
      -2.5372200321875438e-01 7.2105597258595211e-01
      -4.7716961034537331e-01 2.1011559753166306e-01
      7.1562167956595035e-02 3.5083588600322319e-01
      -6.7165002965433707e-01 9.0482706872368306e-03
      -3.3360271629790805e-01 4.8239784279696873e-01
      1.4744907807154894e+00 -3.5604269670660371e-01
      -9.8754966974368807e-01 -8.0293636507957733e-01
      -7.1444716423451859e-01 1.2140326557380441e+00
      -8.5418827212632531e-01 1.5325306764651131e-01
      -3.0470740880688990e-01 -1.3365912828269035e+00
      1.3514216618688559e+00 6.5938890697288599e-01
      -1.6245001344885091e-01 -7.6778524750098698e-01
      9.0790755550759983e-01 7.5414423080440496e-02
      -5.3159169283136787e-01 -2.3013049734423214e-02
      -4.0024328919367169e-01 -9.5429644333473485e-01
      1.2401940975613959e+00 1.9635008948199011e-02
      -1.0093258013626272e+00 -2.7638145067140918e-01
      -5.8959826802752101e-02 8.8322571238389380e-01
      -3.0407724618606635e-01 -9.3830718680462888e-01
      4.3155629633309306e-01 -2.4294876274755764e-01
      2.9735530567665136e-01 -3.3508145956181764e-03
      -1.4443028772750852e-01 1.1168830687469286e-01
      -2.3630132368912488e-01 3.6162008661207706e-01
      2.5136907877294062e-01 3.2640787742159877e-01
      1.3332982127611881e-01 -5.3457901066122937e-01
      -2.5403591507370732e-01 4.6407462213144468e-01
      3.3536025412312286e-02 -1.4837540035911867e-02
      -3.3192593255101194e-01 -1.2022328970873846e+00
      1.0168714386279953e+00 -3.5185219171506055e-01
      -9.8299240672098300e-03 -6.6670165639029355e-01
      1.6518103698113110e-01 -1.6708758619958811e-01
      -2.5088238708859911e-01 5.1568966039449158e-05
      -2.2732853315442855e-01 8.2904425381257529e-01
      1.1435358414734225e+00 -3.2540268326436289e-01
      5.8902668510337497e-01 4.6660423753178515e-01
      8.7655417296097382e-01 -1.9491059812455941e-01
      1.9665444962158768e-01 -5.6579361314389121e-01
      2.5248837283948687e-02 -6.5887150870735967e-01
      -9.2691833826063630e-01 -5.5641334925865382e-01
      -4.8507168489853779e-02 2.0884209236926105e-01
      2.5985679895991698e-01 2.4172547299581285e-01
      1.9099960369717822e-01 1.5051054105947603e-01
      -3.7765721707916672e-01 -1.2418672722882906e-01
      3.5838821602699711e-01 -1.0358520219441236e-01
      2.1393840475899317e-01 -1.6821558238869332e+00
      -1.2775602738918229e-01 -6.0591717642706522e-01
      3.2046821807742254e-01 5.3995674378175991e-02
      3.8621146789552407e-01 -3.4824683342195913e-02
      3.7531994054518364e-01 -1.7516854748783610e-02
      1.7753486780804276e-01 3.6291355965245198e-01
      -1.4759034926816755e-01 3.9100369106416694e-01
      1.8830078284173099e-01 3.6902335213698872e-01
      7.9288427141609363e-01 -6.4254024952611111e-01
      5.3545947457218419e-02 8.5053831530754842e-01
      1.1538497064627075e-01 -2.8228025724836309e-01
      2.3093499138049800e-01 6.9395760601474765e-01
      -4.7113566480873992e-01 -4.9619298970656017e-01
      7.6638282408900593e-01 -3.1833449633750105e-01
      -1.2783092044850075e+00 4.7368004508817935e-01
      3.3817700407212575e-01 -1.5176735730842186e+00
      -3.1481941674066549e-01 -5.7262824479640791e-03
      2.8936985481628691e-01 9.0182707242916904e-01
      2.8930564099508377e-01 1.0386841902223709e+00
      1.4642573584619203e-01 -4.2822552075942460e-02
      8.9375054564823542e-01 -6.6338378974869300e-02
      7.7782360323652511e-01 -4.9039885666620670e-01
      -2.3425201288529174e-01 1.2148914740137608e-01
      6.5262836929963730e-01 7.8081012089778756e-01
      -7.9859976243646422e-02 -1.8886477729668227e-01
      -6.2548403777217032e-01 5.9464196914066703e-01
      5.8960210490562048e-01 9.2390015382667556e-01
      -9.3284112844597727e-02 6.8629642252468537e-02
      -2.9084305139994653e-02 -6.1976887031601861e-02
      6.3810353229257510e-01 -5.1214246435215904e-01
      2.2200086045933903e-01 -2.8395595410663049e-01
      -2.5056078577329571e-01 4.8520097854217964e-01
      -5.6741397483348133e-01 1.9575657698551077e-01
      -6.0660848004496809e-02 7.1022481684109950e-01
      2.0322875475930813e-01 6.6466800568041973e-01
      4.9195577492546255e-01 1.5727889383463260e-02
      -2.1757593034870201e-01 -5.9009831141276492e-01
      -1.2816185665192392e-01 -2.0422019690088428e-01
      -1.0960980904698585e+00 2.2648026290645953e-01
      -8.6682206613881541e-01 2.5861257906832719e-01
      6.8754316769786439e-01 -7.0765415865050263e-01
      -4.9202305205384717e-01 8.7333191075632977e-01
      -5.7992272459428307e-01 -8.7324711820303424e-01
      1.0479668772650379e-01 -3.3250542982624059e-01
      1.5636435855641770e-01 -1.1207144479913151e+00
      3.8114116290287425e-01 2.8297020327201372e-01
      1.2420756947005698e+00 4.5373911180287829e-01
      -3.7439584339475146e-01 -9.3703618973309899e-01
      -6.7460349452839508e-01 -4.4235858964795705e-01
      -3.0137168391184083e-01 -8.4931928153777347e-01
      -1.7180740733494401e-01 -1.7875328910293750e-01
      -5.0866998443899725e-01 -4.9222132652351663e-01
      -1.4850772737095641e-01 -1.7965138348061510e-01
      4.9756356915920424e-01 -2.5028718437032621e-01
      5.9739845187836094e-01 3.5849336589682540e-01
      6.0981563387205040e-01 -5.5052200579622190e-01
      6.9728433666744784e-03 -1.4652114948124925e-02
      -8.2285816168741066e-01 -1.9879464923053627e-01
      4.1034177666190652e-01 4.5011577928088409e-02
      4.8422616557838433e-01 -8.6911086603434023e-02
      -1.1513277657740929e-01 -1.7511146837582103e-01
      -2.5953209666611996e-02 1.2790798312824794e-01
      1.5136674799964303e+00 5.6643403705793416e-01
      -7.3441521312890945e-02 1.1679301830074990e-01
      -2.5068963965060767e-02 -3.1111366773076063e-02
      -4.8435102823593229e-01 3.7653212605560549e-01
      -3.4922335425812379e-01 -1.6520675286047815e-01
      6.5928369846808210e-01 -6.7225237570530194e-01
      5.7331982997181441e-01 -6.3841166529388038e-01
      -4.5794936134467101e-01 -6.9094730263551729e-01
      1.3101090405376906e-01 8.4334805946813041e-01
      3.1211939915212877e-01 -1.0804122517896313e+00
      3.1663073526845345e-02 -1.5472258184851126e-01
      7.0080618561339819e-02 1.0931171052296360e+00
      -2.4057646983249904e-02 6.5737134565966360e-01
      -1.3359806367576635e-01 4.3857187901349159e-01
      5.8305532259770632e-01 1.8913023386335903e-01
      -1.4378764693683005e-01 -5.1800473689952364e-01
      2.4175646057999639e-01 8.5815244456947201e-02
      -3.0143287833844234e-01 1.6219345435116461e-01
      3.4763037402786839e-01 -2.4244641344827133e-02
      -4.9931867212974335e-01 -6.5283133447409125e-01
      -7.6918011809739034e-02 9.9964338497541805e-01
      7.1589335517073172e-01 3.0237513026288726e-01
      8.3892459853068790e-01 1.6978470385654949e+00
      2.5534209487700875e-02 8.1688152553093629e-01
      1.2553639751892420e-01 1.8952742375718770e-01
      2.1919579524943356e-01 -2.8974644333452737e-01
      6.3312993350607583e-01 6.1230283169977529e-01
      -2.7741625263592262e-01 -5.2989400833975610e-02
      2.5322856354031430e-02 -8.2941278791458928e-01
      -7.9620846967128922e-01 3.7657781857101574e-01
      -7.8529812496263951e-01 6.4189434565459325e-01
      1.2853571234027457e-02 9.7946938198670008e-01
      5.0660886331909141e-02 -1.3344322187276958e+00
      1.3240831015955250e+00 -2.8638354006438260e-01
      -8.4541861630084300e-02 8.8840457771910986e-01
      3.6709394139953982e-01 2.9992725734411724e-01
      -4.5640157603394788e-01 -3.5979586603862024e-01
      8.3387522082432053e-01 -1.0517083221328700e+00
      -5.4757791228703820e-02 -7.2682658350190898e-01
      -9.3440434213303303e-01 -9.3161108518657776e-01
      2.8555518731055984e-01 -5.2116739164420045e-01
      -3.6201367862979908e-02 -6.5747660200931937e-02
      8.3489798498570555e-01 -6.1933283728200439e-01
      1.5999937109570464e-01 -7.5427579516905485e-02
      -9.9928304259682199e-01 -1.2285202125163568e-01
      8.9423677999138709e-02 6.6069231159609354e-01
      7.4967141140667937e-01 8.4521351779401110e-01
      -5.3676151881677825e-01 2.5030232017186704e-01
      -1.7924261308729111e-01 -8.3999599057082686e-01
      1.1248719733479440e+00 3.9926604442821140e-01
      1.3660787477038012e+00 2.5045023104791952e-01
      1.3161439103822889e-01 2.9147325801327711e-01
      4.3418549854970823e-01 2.2868161779167054e-01
      -3.7295912812549015e-01 -1.1249456814722740e+00
      4.8920732353607937e-01 7.0712750037478633e-01
      1.5819927673837730e-02 -6.1525613428741577e-01
      -3.5381665669864165e-01 -8.3832557829868648e-01
      3.6596610112006017e-01 4.5954062534934344e-02
      4.2660682519018234e-01 7.9105604885307379e-01
      5.2876450864000191e-01 -1.2600754346813321e+00
      -4.4341598090735390e-01 4.6901219219916565e-02
      6.3562480113824107e-02 6.8697000192136315e-01
      2.6608286241519863e-01 -6.8791267285708368e-01
      5.7948516437110420e-01 9.3279404298893154e-01
      -3.0060289084220598e-01 1.5424291874317611e+00
      1.6550768570367291e-01 1.4759389559794373e-01
      -2.6460319000846882e-01 -1.1819275760676574e-01
      8.5466741716942940e-01 1.6028045531523625e-02
      5.9751311046142230e-02 -1.4791707473709370e-01
      3.7708593948681002e-01 3.9079600113970803e-01
      -4.1292542766799056e-01 3.0898165201255562e-01
      -7.7573518316599754e-02 -9.9354104890372136e-02
      -2.0479600472306836e-01 6.7878556738551143e-01
      2.3253944367015104e-02 -9.5272301767118941e-02
      4.0696703215845115e-01 -8.1598484001588689e-01
      -3.4692308058069421e-01 -4.6107861681693540e-01
      -3.4068914702154146e-02 1.0909123206094897e+00
      3.6407928185686722e-01 6.1975659457051469e-01
      5.4989619749627339e-01 5.9503405449278679e-01
      8.8333957476091163e-01 -4.8471645205007359e-02
      -7.0147391434322159e-01 8.3706081346779648e-01
      1.5524763309927376e+00 8.4989188391836612e-02
      -5.4136529097212671e-01 2.9300088206448183e-02
      4.8906265891451040e-01 -9.4084476723450972e-01
      4.4920454965453066e-01 -4.5998037626455035e-01
      5.9944395684604954e-02 -6.6546950742133482e-01
      -1.0566746291062452e+00 -6.1302011690122848e-01
      -4.5979773091062442e-01 -1.2936913407161741e+00
      7.7229331910596155e-01 -1.8619678383206251e+00
      1.0926236913169554e+00 8.8119713542752820e-01
      -3.4267117847359385e-01 -1.2664009016618716e-01
      -8.9019991133282836e-02 -5.1543228737907976e-01
      -1.2181616181151309e+00 -4.9073520086664962e-01
      -1.0351853484254547e+00 8.3319119118784901e-01
      4.3404262965331691e-01 -4.8825966726168929e-01
      5.1923987113941594e-01 -1.1161054263087780e+00
      -1.4030205915392910e+00 -3.0092423756755271e-01
      -2.9750922104417915e-01 5.5307132828240890e-01
      -4.4574226837164693e-01 2.4173166559370513e-01
      -3.7587622143014560e-02 -9.8622188711561398e-01
      6.9446875473592573e-02 -1.5420878895317107e+00
      -1.0552000200021114e+00 -9.3437481815153323e-02
      -8.0153618915210523e-01 9.9912746147289622e-01
      2.1082245653320486e-01 7.7701162750596742e-02
      2.9127727165822909e-01 1.5573930192786780e+00
      2.2177424859290951e+00 3.1070711683729202e-01
      -9.0805908397747770e-01 -8.2376557507034454e-01
      -1.1139639574942997e+00 1.2408931013822816e-01
      2.5954235422114232e-02 -4.0763487572625323e-01
      -5.1130238202384000e-02 1.2011885283750139e+00
      1.4276799710776173e+00 -3.6085596913381734e-01
      -2.7272863229809791e-01 3.9088671956489629e-01
      -1.8414170308829608e-01 1.7523787777604227e-01
      -4.4185776909525554e-01 1.3167501350146948e-02
      2.4026657361273129e-01 -7.0731709912261942e-01
      2.5436408146255485e-01 -6.9277321848349460e-01
      2.1739286491496177e+00 5.0041662512243545e-01
      1.0737566322296810e+00 2.1076609761308336e+00
      -9.8915642142332427e-01 -1.1335367590272927e-01
      -8.4015218624258238e-03 8.4036514510855490e-02
      -9.4103774102596649e-01 -9.3068234989458487e-01
      -1.6744166591115748e+00 -1.3658761378125488e+00
      -7.3463745998250796e-01 -3.9241308375409373e-01
      -1.0885990011415820e+00 -1.1408929807972203e+00
      -8.7717580047861632e-01 4.6490443916355428e-01
      1.4838407492380082e-01 5.7399001228826831e-02
      6.3868363286884366e-01 -6.3574066517152983e-01
      -5.3906349132022258e-01 8.4852336427418340e-01
      1.0023835247166057e+00 3.1484587347588217e-01
      8.7329931917346271e-01 -4.7335627936876140e-01</_>
    <_>
      1.2512642816914860e-01 -1.0800075417493261e-01
      -1.0070814220557878e-01 7.0843928939100381e-02
      -1.9295279545202691e-02 -1.9080877416113809e-01
      8.6311256451457069e-02 1.8484129739426172e-02
      -7.7155538684261088e-03 -3.5071263164692917e-02
      4.4336718117307383e-02 4.6480087187189288e-02
      -3.0933287560777717e-01 2.1381927743939283e-01
      5.4509599256375850e-02 3.9857953035548670e-02
      -5.1303714329935364e-02 -1.0115567393455539e-01
      -1.8979937109132305e-01 1.2167187287359088e-01
      -1.7738318318754536e-02 -2.1672488873435672e-01
      -6.4325041679398343e-02 1.4788433654247240e-02
      1.3130257534314488e-01 -7.4428606020372670e-02
      1.4756541123592752e-03 -4.1400578914182321e-02
      6.7752593707715136e-02 -6.8706054312337894e-02
      -1.8125838511380216e-01 -1.7456545751933016e-02
      4.7533231446403599e-03 8.1846098055810335e-02
      -6.2282333719253527e-02 -1.3919547665633539e-01
      -6.2430623394608975e-02 4.3646081345905642e-03
      2.7144803668358625e-01 -6.2073134606059760e-02
      1.1151473487264097e-02 -2.4415049048579746e-02
      -2.4761823657476704e-02 -5.7915535539516654e-03
      -2.0023658434773320e-01 1.7315448107709872e-01
      -9.9280778252118992e-02 -2.7923375449137196e-02
      1.1203963517003859e-01 6.3753741218763468e-02
      -5.7674606854140620e-01 -3.9442961638473453e-02
      -1.5387244558319887e-01 -1.3791826847087557e-01
      -8.3483510157837504e-02 -9.1639313418523313e-02
      -5.7461432158644840e-02 -6.6367566721910756e-02
      2.7044650413786814e-01 5.7756309685723310e-02
      4.8245856807850936e-02 1.5736305802024779e-02
      -1.2743595650645836e-01 3.2944898083708575e-02
      5.4265331506877623e-01 1.5068902435195529e-03
      3.7049489323834456e-01 -6.2747763817229296e-02
      4.8068028170066357e-01 -1.1540881640618779e-01
      -3.0861022176794001e-01 -3.0743093853295889e-01
      -1.1366126285438569e-01 1.7511568839471378e-01
      -5.4375618904041356e-02 1.5524463682189329e-01
      1.6197012265426185e-02 -3.7631994700923038e-01
      7.3047621032704263e-02 -3.3242709160539473e-02
      3.2066245501625054e-02 2.3488702806824086e-01
      -1.6935127768726282e-01 -2.1648358810187920e-02
      -5.6069745643789762e-02 2.0101359902844113e-01
      2.1853392497939991e-02 1.7669503298522074e-01
      -5.3941886485895685e-01 3.9090862084039793e-02
      -1.8392702003394831e-01 1.0445041560265354e-01
      -3.7843114375775540e-02 -8.4191524485283289e-02
      -4.7543280346918487e-02 -7.4524965605409416e-02
      1.2211833349213994e-01 -2.2406020376530434e-02
      -2.5967349518834806e-02 1.3497623372560213e-01
      -1.1241262177325553e-01 -8.4418858473293418e-02
      -2.8113676783780957e-02 1.9781095623371001e-01
      2.0291109529423629e-01 -1.2190124491615359e-01
      -1.3745306234974480e-01 -5.2987144124464446e-02
      -2.6318419006549559e-01 4.0110806402453257e-02
      5.2316481230834433e-02 -1.3871289255001409e-01
      -5.7706314820713006e-02 -3.4222751363912653e-03
      1.4193241455616493e-01 -1.6269725687342838e-02
      -1.3794905695346886e-02 2.6246173626158809e-01
      -4.3578864631676084e-01 1.9123697994370439e-01
      6.1528211954156926e-02 1.3437489612645892e-01
      1.1370757544664960e-01 3.2655844974640275e-01
      1.1391123950925890e-01 2.1273073398975476e-01
      2.6007783220290136e-02 1.5063034931491007e-01
      -1.2105441193813417e-01 1.7519284174857663e-01
      -1.3741162133775889e-01 -4.8814807848221849e-02
      4.5523662251792420e-02 -1.4571615081862085e-01
      -4.8661986466903590e-02 -9.3334584777629223e-03
      -8.3158390502793431e-02 1.4391567962886925e-01
      -9.4068831843095752e-02 7.6291761414610429e-02
      1.1852302968419257e-01 -9.1937500924330673e-02
      -1.3869405093979959e-03 3.3590560707600703e-01
      -2.0998789423896609e-02 -1.4519694201902375e-01
      1.0100352865962381e-01 2.2963016308183783e-02
      -6.6882478128383138e-01 -1.4759374114495620e-02
      2.4032746649569403e-01 2.2814104831981102e-01
      -3.3794441133012798e-01 1.5462284836454968e-01
      -2.1335515719638753e-01 9.9934799263314777e-02
      1.7547529162455419e-01 -1.2113792437471434e-01
      -8.4907435217631000e-02 -2.5789004422461521e-02
      -2.2811940574516265e-01 -2.5868346324285245e-02
      1.4201822417430493e-01 1.7283443629220974e-01
      -1.4532116649580501e-01 5.1492531032663942e-02
      -2.4552959508511177e-01 2.1620227413535917e-01
      -3.6196306138469658e-01 -9.2226153926173698e-02
      3.0269997068326382e-01 2.0631279587833515e-01
      1.2092473135365847e-01 1.8155975402724747e-01
      -7.0971292410345763e-02 7.2483768876949906e-02
      9.6379082148576198e-02 5.5741120357613816e-01
      6.0716013903827054e-02 1.5669642224304303e-01
      -3.0191476745110185e-01 7.0899365021211497e-02
      -1.3024143428040136e-01 -3.8361826027596399e-02
      4.0269334673387003e-01 -1.4891423659360914e-01
      1.1213764737782481e-01 1.0987868603145154e-01
      2.5966675510891002e-01 1.0861299519012797e-01
      1.3273205567693855e-01 5.4508208865909784e-02
      1.4497421835971870e-02 -1.3342725437073925e-02
      -8.7465098245451643e-04 -1.9611428241475148e-01
      -3.2575324248405030e-01 -3.9943043325935262e-01
      -1.5895670598769307e-01 -9.5983369313023103e-03
      -3.1276215409627794e-01 -5.9670906716856209e-02
      2.6122865052823341e-01 2.0833679607253175e-01
      4.8350456620459964e-01 -5.2796097008853564e-02
      2.0859004762864352e-02 -6.7914205691192692e-02
      -1.9702322443536366e-01 -5.8397841887547125e-02
      -6.2962482583828291e-02 -7.4289898327313350e-02
      -3.9567548878384690e-01 2.6564758157737950e-01
      -6.8091685480873923e-02 -5.9354155357087796e-02
      1.3910129481689348e-01 1.6543146192739397e-01
      4.0638189897557880e-01 1.2418833389198333e-01
      4.9784361301692226e-02 2.2629168683419471e-01
      1.8559277165297450e-01 4.7801284218802303e-01
      2.9376543281719538e-02 1.4852309449889226e-01
      -1.0306887574558792e-01 -2.7371361965372428e-02
      -6.3818953687880348e-02 1.3002071823593792e-01
      -2.3594955029260392e-01 9.0683239899023535e-02
      7.9975432543523906e-02 -1.4337311940281758e-01
      1.7003186165195411e-01 2.4266936876735101e-01
      3.1656144713125106e-01 -1.0065476520204089e-01
      -6.5156255427097931e-01 -1.8587932773638829e-01
      1.9170974889490863e-02 -5.9263639220045586e-02
      -6.1557248602227777e-02 1.4659702755557938e-01
      -2.9951812463497901e-01 -1.2282292239564221e-01
      -2.7067508741413636e-02 5.2793675551196871e-02
      -2.8877661102462410e-01 -2.3383508869478320e-01
      -4.7427637152273328e-01 -5.8732445111890200e-02
      1.5899279951340001e-01 1.4413654118465197e-01
      -3.3515653206254048e-01 -5.0211518316057371e-02
      8.6684739197574315e-02 -5.5238172874190403e-02
      -2.8795726120174636e-01 3.9202793769811156e-01
      -1.5498314796753407e-01 2.8238285957176884e-01
      1.3302098667600937e-01 5.8440028760977140e-02
      2.2295478261448851e-01 -4.1180859994981112e-02
      -3.8451345479003862e-01 1.7404728761606234e-01
      2.9859693607147081e-01 2.8257316717948561e-01
      -2.4129838707448234e-01 -4.9263962832217129e-01
      2.5229839487369626e-01 4.8216847478309621e-01
      -6.7185514374000860e-02 -3.8078035135746882e-03
      1.3297562676520699e-01 -3.3782193921405845e-01
      9.5419790743234784e-02 3.4228775749030593e-01
      1.8982483318694960e-03 1.4569451555453397e-01
      -2.3727366041009196e-01 -4.0610151443310560e-01
      4.9095249557196588e-02 1.5824238152977224e-01
      4.3127194315271053e-02 6.7415135332656292e-02
      -3.0914192749978292e-01 -4.0833423920124401e-03
      2.3041233076159270e-01 -1.6140949519330589e-01
      -6.6997712104464896e-02 -2.5962614021817040e-02
      -3.0248013783199343e-02 -2.7899253085287228e-02
      -2.9875128662825018e-01 1.4533791606785610e-02
      -2.9227846666031182e-01 8.2197320902292231e-02
      1.7666329358311448e-02 5.4773486505127866e-02
      -5.1997446657931719e-02 -1.6180282340122715e-01
      -3.8736730012679460e-01 1.9203260494228250e-01
      -6.9075085272239892e-02 -1.6340162267480050e-03
      1.3836180230300393e-01 -1.3052168179034035e-01
      -7.7793813315206226e-02 2.4970315793917806e-02
      -3.6364477378477015e-03 -4.6364133173410330e-02
      7.9905118392779625e-02 1.5111837172279671e-02
      -3.3623073318210205e-02 -3.7010274816825457e-02
      -2.4298290492354876e-01 -2.7408855128374809e-01
      -5.5179804305868316e-02 1.3637402615905795e-02
      -1.5582522736438131e-01 -5.4512515831076758e-01
      8.9980246071686282e-02 -3.2054104836619168e-01
      1.2748281001031922e-01 -3.4259603499066642e-02
      2.5622590481078074e-02 -1.6717618521547514e-01
      2.3001205553020504e-01 1.9016004636352890e-01
      -4.4763608801653179e-05 1.9489786018922076e-01
      5.9342822334911612e-03 -1.7875932352088825e-01
      -1.9819911096020115e-01 4.7198524934794338e-02
      1.2331291924382384e-01 9.8687777236259072e-02
      -3.1544912672427990e-02 1.3412404190520611e-03
      2.9104984850621102e-02 -9.7444644122887697e-02
      1.7374407494888106e-01 2.8907999502268045e-01
      -9.3778541337911789e-02 1.4387550188244741e-01
      8.3211726002710637e-02 -6.9323922726223300e-03
      2.3628964088371010e-01 2.9085049737832564e-03
      -2.3125021322313372e-01 5.6534715647865705e-02
      3.6290802466371597e-01 -3.1815613300484914e-02
      2.6255590240086817e-02 -1.0458515473955869e-01
      9.4974524388717771e-02 -5.5827567790489183e-02
      1.1369247643945663e-02 5.6562582234575675e-04
      -3.7287609420819035e-01 -3.8331364821142827e-02
      -1.2390858188030106e-01 3.8173280351984182e-02
      -1.7352613114214574e-01 -1.6841567510976992e-02
      1.3040277418273510e-01 -1.2974866731575538e-01
      1.9493475604054802e-01 -1.2507611967992858e-02
      -6.3672174760717681e-02 -1.7944243477296973e-01
      1.1186552008009307e-02 -8.7493697551063274e-02
      -2.4852794141482608e-02 2.3753642944380163e-01
      -8.5712932545446222e-02 -1.2040826167631025e-01
      -7.1999494518344725e-02 -7.2467173264292931e-02
      -1.2261311978842682e-01 1.7540591958831464e-01
      3.0578908724345964e-02 1.2270290846618902e-01
      1.0090760028021040e-01 2.7956165220023751e-02
      2.9501150303454082e-01 -1.5654646098771485e-02
      3.7553321930728988e-02 3.3928897361064947e-01
      -1.0071142328780563e-01 -1.2804099754083585e-02
      3.6703770106785487e-02 -3.8677063781471031e-02
      1.0105469131429255e-01 2.0994958688276770e-02
      1.9634036834520047e-02 -1.7015426519260476e-01
      3.7285303577817251e-02 -9.6197203736103756e-02
      2.3369758435179608e-01 5.4956537286364870e-01
      3.4472908223608306e-01 -1.7795186571825569e-01
      2.4890117342687541e-02 6.4905265096574294e-02
      -9.9308650036991200e-02 1.9486773843242228e-01
      3.1367370606228941e-02 -9.1090144774602033e-02
      -1.0926070775305439e-02 -3.6155888366693700e-01
      2.6038865885398144e-01 7.8474953190812810e-02
      6.1581614052485523e-02 -8.5698593294237263e-02
      -1.9096211396044852e-02 -2.1654995526356519e-01
      -5.6147088151081506e-02 2.5266608218988901e-01
      1.2945684849396743e-02 1.7390960849490597e-01
      -5.0533024123490929e-02 4.6221330446519932e-01
      -1.4413137883088251e-01 1.6601135616959700e-01
      -1.0117345379470320e-01 1.6151480207169266e-01
      1.2311299299446055e-01 8.6898849075354390e-02
      -2.4828241044275168e-02 1.0796149866439150e-01
      3.3298131197617209e-02 1.9798817370610458e-01
      1.3600537903047744e-01 1.4048560163965654e-01
      2.0393282669903340e-01 5.3807414720550527e-02
      3.4622930612204852e-03 7.8153035269807269e-02
      6.8213704777432826e-02 1.1050275712425635e-01
      -1.0921100586714497e-01 -7.6832942078410779e-02
      3.6540688516211955e-01 -1.2728483206039690e-01
      2.2859680766275689e-02 -7.6845290136369176e-02
      3.6443396737272316e-01 1.6114630003965164e-01
      -1.1475899392502736e-01 -1.9686267846985798e-02
      -2.6228911278820915e-02 8.7107214377675254e-02
      -8.0372946249664540e-02 -1.5222003437613357e-01
      -1.9166767354419298e-01 4.2674773675559691e-02
      -9.3211152480804318e-02 1.0958058073348109e-01
      2.2120527386958147e-01 -1.9763396164321691e-02
      -3.5661262118174203e-01 1.4259118978687330e-01
      -3.2231071552824325e-01 -5.2314414433906276e-02
      -4.0898914578290091e-01 1.3474977449591810e-01
      4.2058392484603285e-01 1.7254024720177660e-01
      9.4962748234485930e-02 2.4482408823138740e-01
      1.2862609144837518e-02 -1.6096546408934733e-02
      -2.0242321562415205e-03 2.7344926286852850e-01
      5.4468423562098146e-03 5.1704677883847305e-01
      -9.9736375918836578e-02 1.5982054003693801e-02
      -1.0021501259072418e-01 3.2696820568927004e-01
      -6.2195267895759590e-02 -2.8839292942188538e-01
      1.0635999816065393e-01 6.5146028212282742e-02
      -3.1605039492461615e-02 1.1367851022975327e-01
      3.0198897096093413e-01 1.9884959050181020e-01
      1.6972786741390342e-02 9.5662230180917407e-02
      9.4999695577030599e-02 1.4741509470191191e-01
      -8.3133309775000483e-02 1.0174347245822781e-03
      -3.8203704157390647e-02 -1.5261758757674482e-01
      -1.1163710633227341e-02 -1.9119548934897301e-01
      -1.1234258966208538e-01 -7.8064724893979809e-01
      1.7602338736178555e-01 -1.1564658723149977e-01
      -2.6510064646488818e-01 -1.2864792358443009e-01
      -1.9335121740796463e-01 -1.4561621220462351e-01
      5.7883835086381195e-02 2.6434711934534533e-02
      5.5115116402486300e-02 8.3603669858654819e-02
      -1.1471159843128464e-01 3.8054501204922285e-02
      -2.1376277564899457e-01 4.0705579586456694e-02
      -4.1434544757958991e-01 -2.3384725800663766e-02
      -7.1155836370137907e-02 -5.1498236007850182e-02
      1.4885473678878014e-01 -4.3632271250884570e-02
      1.3900397791062211e-01 -6.1892527152481158e-01
      6.6973036253920426e-02 1.8191283891048621e-01
      1.1231548342882069e-01 -3.0058667690039104e-01
      -5.0876347390534794e-02 2.6796529009069692e-01
      1.0783113471617371e-01 2.5767354104090166e-02
      2.0351973880038193e-01 -7.7026527305835190e-03
      -1.6339222674033965e-01 1.0996260320863264e-01
      -1.1795101040217013e-01 2.0010159025542515e-01
      -2.0501519588929734e-02 9.4464356573945807e-02
      9.1252327345130890e-02 1.2236745468319724e-01
      -5.1654158730204585e-03 -1.3058038440149622e-01
      -1.9512007960984534e-01 6.9626889380140125e-02
      1.2561613728724220e-03 1.0217300371245114e-01
      -2.3147545526977437e-01 2.0086730626048466e-01
      -2.6032073449548154e-01 1.0400758603709613e-02
      -2.2505881368137978e-01 1.3938811640097382e-01
      5.5283446728929375e-02 -1.2979864756318460e-01
      -7.3299796881166016e-02 -3.3690602784779665e-02
      -1.1820810204116116e-02 -4.8741816664099526e-02
      -5.6226284991448805e-01 -2.4157110280457036e-01
      2.4433604415813442e-01 -2.7289976405759357e-04
      -2.7715693541078429e-01 -6.9567840235011322e-02
      2.0477315789159156e-01 -1.2123678325275590e-02
      -2.7575378588461658e-01 -2.8633769595913511e-01
      1.5944541097218401e-01 1.6504031750473637e-02
      -3.0684456461878611e-02 -3.4218411191507751e-02
      2.3362880937233921e-01 -5.3001095058678971e-01
      7.3458825281743800e-02 -7.5518302159421891e-01
      -1.8962711426270801e-01 3.2433156073165964e-02
      -6.5207093484255421e-02 -1.7481778644986356e-02
      2.4221802535974321e-01 -1.1028844708477278e-01
      -5.3115116871893846e-02 5.6700815292836867e-03
      -8.7880587798548453e-03 -2.8139067081813914e-02
      5.4695648711477099e-02 7.9552112931867563e-03
      -1.7405980741933183e-01 -4.4531855620222882e-03
      9.9915673268273844e-02 -9.4376719513367291e-02
      -1.2430534232058851e-01 -2.5753538359159200e-01
      -2.8587033125135020e-01 4.7015473396561840e-04
      1.7873402354054633e-02 3.2443776338402147e-02
      1.0505788274838586e-01 2.4120189021774602e-01
      5.5392240419826044e-02 1.6520011140680885e-01
      3.8718544460699680e-02 4.1712146996739981e-02
      5.9475720366721309e-02 1.7982509224428234e-01
      4.5599399465880404e-03 1.5300758638434547e-01
      4.9859421794117793e-02 2.3206217743812027e-01
      -8.9780618622692640e-02 -8.3797421064070399e-02
      1.4239250618268534e-01 5.3644861240335025e-02
      -8.4669649667152194e-02 1.8977479821653290e-01
      -8.8490643934051816e-02 6.6990921359062885e-02
      2.1861171123114466e-03 3.4002161911895694e-02
      -1.1486547191628511e-02 3.1028418854688206e-01
      4.0391177704732766e-02 -3.7846202297850712e-02
      1.9102422044669332e-01 1.9645658374060090e-01
      1.4188088164327525e-01 1.2190919782979268e-01
      -3.5951798893779571e-02 1.0314379190816263e-01
      -1.8190917465399253e-01 1.9000372444119323e-01
      -2.9231608240230267e-01 -1.6747243714735965e-03
      -1.8926676556746058e-01 4.6962498876781347e-02
      2.8217118037996102e-02 1.1354272477740639e-01
      4.4095083659318426e-02 2.4918420559272869e-01
      9.1252160190547806e-03 -5.8193089417831079e-02
      3.1924595673391748e-01 1.0104547421417469e-01
      7.2425709684603906e-02 -3.3155732864334729e-02
      -2.3250475333520201e-01 1.4705351873445596e-01
      4.0893567734698225e-02 1.9564503260413918e-01
      1.1643742261672328e-01 8.1272647532614067e-02
      1.7651720474115010e-02 3.0092497525813573e-02
      -1.2620632751761182e-01 4.8905819545547319e-02
      -2.3273967799735099e-01 9.6770698957296508e-02
      3.7076824738804576e-01 2.2266116570038111e-01
      -6.3338164802967762e-03 -5.2940933117477100e-02
      -5.6220250415960860e-01 -2.6564449485414324e-02
      1.2787125231550958e-01 2.6267137444428013e-01
      2.9153569716837852e-01 -1.6457074686025142e-01
      -3.4724133905754108e-02 -1.2048042918722231e-01
      -8.2081964822523529e-02 -1.6136542511665566e-01
      6.1109521951280499e-02 3.4441648608224007e-01
      7.2200399478108274e-02 2.3399851080944661e-01
      -2.0186289238591761e-02 2.7944649259103702e-02
      -1.0659058103382374e-01 -1.5330555842605572e-03
      -1.5400059972658120e-01 -2.0731001130756918e-01
      2.9351173779436174e-01 -1.1858452116758811e-02
      3.5407200161690570e-02 1.4121505188914302e-01
      -2.6044320617810441e-03 3.7629191657647727e-02
      -7.8229342013706238e-02 -1.5798735938396455e-01
      -1.4313287014513959e-01 -8.3074951908816461e-02
      -1.2333251797644697e-01 1.0867768295381230e-01
      4.3666659744568487e-02 -1.9108726626289020e-02
      5.7873769561583334e-02 1.1185622331349300e-01
      -1.1418387264315014e-01 -1.6434018607507486e-01
      -4.1544197961950602e-01 -1.3535444642701266e-01
      1.5941057619361820e-01 2.1365311356801572e-01
      7.9080232345719148e-02 1.3269540287927259e-01
      -1.3911382467294947e-01 -1.5847315596195843e-02
      7.7306790027497621e-03 -1.0056557778159816e-03
      -5.8146641223080675e-01 -6.6781487819689178e-02
      1.2265628857272130e-01 9.9235212729380622e-03
      -2.7004597551051668e-01 3.5052162423253909e-02
      -1.2409630370959709e-01 -8.8211704568397532e-03
      2.2891619015872197e-01 -4.5481549016038342e-01
      -9.5928235941530340e-02 8.2458996774033483e-02
      -4.4154693150176172e-02 -3.2155799589696693e-02
      4.0739431266667472e-02 1.5161990890718705e-01
      2.5718636825131291e-01 -1.9976387809237861e-01
      -1.6459726162296140e-01 -8.9040812662279381e-02
      6.9134493087456381e-02 3.3527938649983907e-02
      -2.9827997216849333e-01 -5.1702110198907011e-02
      -3.4324831797043598e-02 1.0224740422693128e-01
      1.3627063374848175e-01 1.4108184823666167e-01
      5.8951309638636713e-02 4.1550455952554949e-01
      6.4676187600811577e-02 5.4072547464101811e-02
      -2.9505519872104735e-01 -3.9212281745204915e-03
      -2.1858286146981479e-01 3.4426639171891836e-02
      -1.4794966111609203e-01 -6.8668334089983421e-02
      -8.8979707695877749e-02 2.4378699765301309e-01
      4.2682397482907231e-01 -1.1153001955134248e-01
      -1.0963302197754590e-01 1.5149771664522574e-01
      -2.5893295883843598e-01 7.5822871009752491e-02
      -1.8065039177854039e-01 -2.6129645219519798e-01
      -3.7466175329776774e-01 -1.6926973126924011e-01
      2.4220370367434161e-02 -3.7800939178591814e-02
      3.5892544035857826e-01 -1.7650603697796988e-01
      5.7223638770454638e-02 2.8033245546474234e-01
      -1.3923662235130407e-01 1.1730586244128920e-01
      -2.1167724073261862e-01 5.4609968726742592e-02
      -1.0038544168668866e-01 -2.0648643855661397e-01
      2.0395644944440211e-01 1.3068786796089418e-01
      1.3929381822997128e-02 -1.1031825355392427e-01
      -6.4234631172617615e-02 -9.5056469004948504e-02
      1.2218187576436622e-01 -7.4378281312543273e-02
      -7.3901513484298603e-02 -3.9991666579786936e-02
      -3.0702045087347385e-01 -1.9603820722406237e-01
      1.0977489962995631e-02 -5.3012859832397813e-02
      -9.7622224330986704e-02 -3.0521771597378639e-01
      2.4842069417211902e-02 -7.4417055565881032e-02
      -1.7087282692809141e-01 -4.1116053301504363e-01
      8.9313735069719513e-02 1.9006195994919892e-01
      7.3681361826525085e-02 9.9283918494549289e-02
      -9.8618258442557567e-03 1.2149790111429828e-01
      -1.7988254982628394e-02 -3.9819176191532629e-01
      8.2558623705793630e-02 1.0206243359597147e-01
      1.4731410450698731e-01 6.7973054405829750e-02
      5.8196427772594934e-02 -6.4511987033255627e-02
      4.1758452830833841e-02 3.1516863073767068e-02
      -2.1537977509182124e-01 -1.1222648279314690e-01
      -9.1724538599450983e-02 9.6447369336284186e-02
      9.1005913807549008e-02 3.3984910121730411e-02
      2.5278588243368139e-01 -2.9836154993031327e-02
      1.5529349148214663e-01 -2.3085264222781388e-01
      -1.9534672782826559e-01 -2.1907485203390967e-01
      -4.4700335710583357e-02 -3.9260934059881658e-01
      -8.8910464440778783e-03 -4.5965042198720342e-03
      4.6171810060339998e-02 -2.0360256927458045e-01
      -5.1386541488088661e-02 -1.1471422475126035e-01
      -1.1718454851393992e-01 2.9514175938085748e-02
      -1.4875152993506906e-02 -1.4706884895884720e-01
      9.1132470855719877e-02 -6.0352021673234522e-02
      -1.2002825655095110e-01 -1.7482494912006921e-01
      -8.0656914207916569e-02 -4.5319914236073434e-02
      -1.5501238859340931e-02 -1.3185571181412295e-01
      -1.2194474740169332e-01 1.2366473245089880e-01
      -2.6926760206288536e-01 -3.7601344801627565e-02
      2.0029887319851400e-01 2.9420870007396502e-02
      -4.0297041999109678e-01 6.6192321351817296e-02
      5.9561007620904063e-02 -4.6786129216354486e-02
      9.3837143241087398e-02 3.5789886929897909e-03
      1.2183741487058615e-02 2.4993580850778241e-02
      3.1644144724224516e-01 -4.9876489798758881e-02
      9.2251423094369969e-02 3.1026394205745683e-02
      -4.0779304811749384e-01 -4.0423582374602335e-01
      1.4044342030905491e-01 -3.0990997085194403e-02
      -1.6966286059844379e-01 9.7679575322004927e-03
      1.4550269693790091e-01 -1.9188242819331103e-01
      1.2843787354219498e-02 -1.3337654848929567e-01
      -2.5135291094221257e-01 -4.4630790519454108e-02
      1.1306865870510856e-01 8.0640398740944100e-02
      -1.1259056802203481e-01 -1.5166855247881696e-03
      1.0560073526623522e-01 -3.5976394411749058e-01
      5.6873858269561220e-02 -9.3272691739351488e-02
      -2.4564611177156345e-02 1.2136098236487938e-01
      2.4148110507824106e-02 5.5698713468482562e-02
      -7.7807069820142585e-02 1.1172651661775576e-01
      -2.5683104878359969e-01 -8.6889224018175504e-02
      -3.5258543837095352e-01 9.0021216107656704e-02
      1.0971500086935852e-01 -3.5208465370626760e-02
      -1.7474884723108510e-02 -3.2109690029885035e-02
      9.4695265338572851e-02 1.4783907816738134e-01
      -1.6816117598253747e-02 1.7563812808966270e-01
      1.0647060527248808e-01 5.7870674762330779e-02
      -1.2281414349715021e-01 -5.7984311624071894e-01
      -7.5526674288334872e-01 2.5740062458244878e-01
      2.4339288108070981e-01 7.5446366230367296e-02
      4.1705710729410045e-01 9.4852148835237113e-02
      -9.7080969940771852e-02 -5.0580516746968063e-02
      3.2756189049125140e-01 -4.1689499565337579e-01
      -2.5685971177504369e-01 -8.7630318352657874e-02
      1.2955093608227394e-01 -2.1697102168054073e-02
      6.5230781911115546e-02 -4.3643723332216661e-01
      -9.9496563971301979e-02 -2.9400774357023018e-01
      4.8964804603871280e-02 -4.6800886645919865e-01
      -1.8989750941662026e-01 -4.5558656417281046e-01
      1.0677294310658056e-01 6.3307359073025002e-03
      -9.6158066294283889e-02 -2.4869090625782231e-01
      2.8830418249109291e-01 -1.5251202608072706e-01
      -1.3689348667973344e-01 -1.1700593506896476e-01
      -2.4281440304786767e-01 -5.0569641676649690e-01
      -2.0707515532670398e-01 -8.9273485364569846e-02
      -1.3241209875708457e-01 -3.4509651298980060e-01
      -1.0080099261815111e-01 -2.5217858084202743e-01
      8.0595102055792400e-02 -2.6716847709061686e-01
      1.2665762804580286e-01 5.0945284902226695e-01
      9.9217304176515517e-02 1.8441736796415875e-01
      2.0895924273220862e-01 3.5263988375726785e-01
      1.4931243100693228e-01 1.0480017911862699e-01
      2.7449040582641232e-01 -2.0542860838257257e-01
      4.0573939927411651e-01 5.3239395022519386e-03
      -6.5403231796656788e-03 3.0467082366112145e-04
      2.7886898596047910e-01 -2.3849309483761535e-01
      2.2246493351394378e-01 -1.8140411654572008e-01
      -4.4243151836445614e-04 1.5720175740949610e-01
      4.9944509390000377e-02 -8.3621199717246117e-02
      -1.4659935922696390e-01 -1.8532440473138079e-01
      1.6727861393329954e-01 -1.3584128512524551e-01
      -1.4445837961800001e-01 9.8980254529429004e-02
      -3.0059473042327495e-01 -8.2314647171448152e-02
      1.6414893259496511e-02 -9.4117973903023608e-02
      -2.9920445632612891e-01 -4.3356832732221601e-01
      1.1044514144127255e-03 -5.3484814038365291e-01
      2.4222333878413468e-01 -1.9660132003856626e-01
      1.7997343288986331e-01 2.2465247387516307e-01
      -2.2928820533992947e-01 -9.3537354701829001e-02
      -2.1507522295199358e-01 1.6285449536714525e-01
      -7.3026034944193172e-02 1.5897838090889593e-01
      -2.5120801328003689e-01 -9.3611324543092511e-02
      1.7275303214551863e-01 -3.1773522043744840e-02
      -1.2985745256313025e-01 6.2388226843572564e-02
      2.7460129931155625e-01 2.9778857040273304e-01
      3.3869166391928202e-01 1.9747807353049723e-01
      -2.2657067866545307e-02 -4.6920639518367779e-02
      -1.9535798527772427e-01 8.5054961923231170e-02
      -1.4647557100996474e-02 3.5067544114889676e-01
      -4.6250692993582317e-03 -1.2069334253739687e-02
      5.3242325856949595e-02 -8.0871376313779511e-02
      -1.3689298974353287e-01 -6.7213708508746250e-03
      1.0690383569858265e-01 -1.2227490481653081e-01
      -1.6831345985751767e-01 1.9110822456639534e-01
      1.7551619922565118e-01 -2.7616574006367323e-01
      -2.2225835392424576e-01 -1.4550612403347671e-01
      -7.0179637399804054e-02 -4.8292337418788182e-02
      -1.1058353728883691e-01 2.1422925789530337e-01
      -1.0534308189163108e-01 1.4695118834371723e-01
      -1.0870817070871566e-01 -9.7720877979894399e-02
      9.3009640477680788e-02 9.3490444009795157e-02
      8.5428090327927766e-02 -4.8509527429010296e-02
      -1.0771894222905026e-01 -1.8897271587060849e-01
      1.9378926231600747e-02 -2.1331510763362357e-01
      4.5454323279728905e-02 -1.1350977326883659e-02
      1.6161455627237895e-01 3.5075537645053556e-02
      1.0745945252477150e-01 1.4904907746091070e-01
      7.4589047746194237e-02 9.6500814901339729e-02
      1.3776038471013746e-01 9.5406758275251663e-02
      7.6606789764827210e-02 -3.4625456373920116e-02
      2.4777924285849798e-01 7.0686539571584495e-02
      -1.1084756519138475e-01 5.3925564628878916e-02
      -1.2236131942784172e-01 5.4661669228731079e-02
      -1.9845063241262900e-01 -1.3025124246356692e-01
      -1.3773009564475282e-02 -4.1552193838666214e-02
      6.4478725171093224e-02 -5.6800023195339021e-02
      -9.0551507990593944e-02 -3.4818816006158750e-02
      3.1588976834324528e-01 2.0190881418453299e-01
      -9.3769684505903894e-02 7.0468056200932022e-02
      -4.0324342647511092e-02 -8.1229657123557342e-02
      -1.5892084699618561e-01 -1.4739278038684323e-01
      8.1058428052718082e-02 -3.9748842598753144e-02
      2.0492472211042606e-01 -4.4655686240100974e-02
      1.5640484102167968e-02 -5.0866323467610032e-02
      -1.4996143608443497e-02 6.3083618625154339e-02
      -3.7740981404532910e-03 6.8274539686816266e-02
      -4.9685385687527971e-02 -2.3200512674282761e-01
      1.3878550813640395e-01 9.4663503728236481e-02
      -9.6814637115500025e-03 1.3394897767637962e-01
      -1.7592053300899052e-01 -1.3301922729465785e-02
      -5.1687250379211472e-02 -1.1946070879014396e-01
      -8.4751723525128220e-02 -1.5118172378450942e-01
      9.6674706203454849e-02 -2.2009571330322802e-01
      3.0103571861643891e-02 6.6830980252032018e-02
      -3.7252076495499456e-02 -5.9848127485010581e-02
      -5.0129452527667838e-02 7.1487387964037030e-02
      2.8136428267702386e-02 1.1505924997357303e-01
      -5.5244669856440436e-02 1.5391369351230050e-02
      1.5979368372723923e-01 2.7218559660022223e-01
      6.8091582054347594e-02 3.5336112824451468e-02
      -1.1918601243602853e-01 2.1711772824496436e-01
      1.3267098980208440e-02 -2.4130067292127619e-02
      3.7611556003116287e-01 -2.9361439961299635e-01
      -1.7494902429758946e-01 1.6530498933921518e-02
      -6.0403936209932604e-02 -8.1033084458868223e-03
      3.7134875795301414e-01 4.3470174454647077e-02
      4.0263981691264016e-02 1.3010762177547086e-01
      -4.4140368099378005e-02 8.4831918349883739e-02
      -1.0081755757013970e-01 1.8775154066035976e-01
      -1.9714352721615924e-01 -4.3045418187248911e-03
      4.5927884226978903e-02 8.8744042995954647e-02
      3.8322455390498146e-02 2.0521277369192575e-01
      -1.2207297204918029e-01 -1.2406072244010821e-01
      -8.5035790995129118e-02 1.2662278003893679e-01
      1.3310534629611367e-01 5.2376068424911468e-03
      -5.4813795455679375e-02 6.8991076964761117e-02
      5.5664928058328560e-02 6.0555949235030992e-02
      5.7777650368793801e-02 1.2514856521817008e-01
      -2.2433681970475315e-02 2.9050915782000274e-02
      -9.5639857572111436e-02 -1.2848577425186927e-01
      -1.1840282631795820e-01 8.4908046241359988e-02
      -1.9987061989607832e-01 6.7323847816382357e-02
      3.5564070931294156e-01 1.3458875919678059e-01
      3.7840124155876453e-02 5.4165619838585928e-02
      -1.3990291169602379e-01 1.0248690213533276e-01
      -4.4583992551279678e-02 1.2519247724106539e-02
      -1.8947388619485175e-01 -1.6220490800191015e-02
      -1.0353354754236740e-01 -2.5425481036976399e-01
      -1.3416070170848067e-02 -2.4312785268954328e-02
      -2.3715728733644956e-01 -8.1818776213869820e-02
      -4.4606850788485523e-02 1.0422898700170279e-01
      -1.2503822378878893e-01 -1.7796962571011860e-01
      -4.0329382061354946e-02 -1.2552542788954713e-01
      1.0466603329195615e-02 -1.5293439086167029e-01
      1.7004551871939116e-04 -3.9486948856002779e-01
      1.1763666274628527e-01 3.2046590306873228e-02
      -6.7703067443091541e-02 -7.7488065170191592e-02
      -2.2456124227430038e-01 -1.8853440916883304e-01
      -8.7722831361982972e-02 -8.5972443934928047e-02
      -1.1518245949518041e-01 -6.0432277999899559e-02
      -2.5217347962595904e-01 2.1662223859823672e-02
      3.2805072832242488e-02 -2.5772744319378024e-02
      9.4725640573617487e-02 -3.5560146276002028e-02
      -1.2590402456765759e-01 -4.7540936057517462e-02
      -6.7473923885773765e-02 1.8030533207786900e-01
      -1.1301967458886847e-01 2.3925313330276088e-01
      9.6525620384741412e-02 2.9603526513206385e-02
      -8.5430333258863199e-03 3.8662388650727098e-03
      -2.6367424080193075e-02 1.4516683798420899e-01
      -1.5603959221643143e-01 -8.2495919655551614e-02
      -4.3817280785489181e-02 -1.5603057944227364e-01
      6.8740508348627771e-02 1.0694641179110249e-01
      -2.3185774800945377e-01 4.7691684757251895e-01
      -1.3055663931816411e-01 2.0614683895576305e-01
      -1.7609382389101161e-01 -4.7000140696234372e-02
      1.5151507035223391e-01 4.3049134923726889e-01
      7.8127081053716754e-02 2.0031141305157089e-02
      -2.2963033168008182e-01 -1.3712634818115491e-01
      8.6039429815386703e-02 -1.8508483171369405e-01
      -6.1774331158242622e-02 7.3038964413334448e-02
      6.4292417911298401e-03 -1.1850085387157141e-02
      -1.9220491349482710e-01 1.8673191681506246e-01
      2.2352490119096316e-01 -1.1081861728881484e-01
      -2.0146996404613407e-01 6.6833922369816121e-03
      -1.0945818059042818e-01 -3.4145717739888420e-02
      -2.5067676549874632e-02 -1.7053177234529643e-01
      -1.2506991832722964e-02 8.4834259621583197e-02
      -9.9519407830948953e-02 -1.3054850904076679e-01
      2.3083551654236942e-01 -2.1089876958049975e-01
      -2.9128147715762326e-01 -6.9715163692718601e-02
      3.6168842174727571e-03 8.6685331068808227e-02
      6.5034203781745048e-01 -1.9346930883402093e-02
      2.6837306098147506e-01 -5.1577553960403325e-02
      -3.8800526166655060e-02 -3.8639918459369933e-02
      -2.6168573709878906e-02 -4.6377454807049606e-02
      1.7967785010070233e-02 -7.6130571961591613e-03
      -1.7849402839368502e-02 1.5081557087277697e-01
      -1.0631490051048838e-01 -4.6113001415458522e-02
      -2.9589660374632909e-01 6.9077007082660416e-02
      7.5045531481481104e-02 7.6457406322550686e-02
      -4.0194554091358631e-01 -7.7607917673237173e-02
      6.6039822916121627e-01 2.6076404991026397e-01
      1.4100270312597976e-01 -2.0319998238779108e-01
      9.9907044547578761e-02 1.0894118080689403e-02
      -3.8664157131083399e-01 7.7910173812286154e-01
      -7.1037523369870639e-02 -2.5833635670007030e-02
      4.2513403055911156e-02 3.8360831586115647e-02
      -6.7829637402028811e-02 -5.7067038520154635e-02
      -1.3826298699059164e-01 -2.6048962637399097e-02
      -9.8259899418192992e-02 2.7956526009160199e-02
      4.4257984292618602e-01 -2.4465353583473048e-01
      2.0194763731086271e-01 -9.4487123157500644e-02
      2.3723066077740149e-02 -1.1046633716214968e-01
      -1.1115865744687912e-01 2.1892590884002733e-01
      -1.3588891147476292e-01 2.5209062641906983e-02
      -6.0387084591887928e-02 1.3456952392163885e-01
      2.3248619324702841e-01 -7.7516891406852603e-03
      -1.1200565344570225e-01 -5.9210464902776860e-01
      3.1945862669888009e-01 3.9097968194708355e-01
      2.0541224135131000e-01 6.7484979517084903e-02
      -2.7443971813668278e-01 2.2644351293496054e-01
      2.0686609558066796e-01 1.7831470734265564e-02
      4.1134979130300314e-01 -3.7161021193205246e-01
      2.7881129095302498e-01 -2.6815859688728537e-02
      -1.9690119299727310e-01 3.2794613735494674e-03
      -1.6660474284571419e-01 -3.5853625921408766e-01
      -9.3703607084537177e-02 -2.1366535491056483e-02
      -1.4664692381152840e-02 2.6850322100489077e-01
      3.5595581142379401e-02 -3.2527480931791702e-01
      -8.0331618950721981e-02 1.9258461490220047e-01
      5.1009404509386978e-02 -1.1142218606301638e-01
      6.8755891651268303e-02 -1.7855679798938673e-01
      9.8442482336254133e-02 -5.4677335411286353e-02
      -9.0366130023921354e-02 -3.4901453012365392e-02
      5.5337211996863499e-02 3.3089118439680149e-01
      6.3563906712751128e-01 2.2799153256851554e-01
      -1.3800354941750559e-02 1.3094510665411613e-01
      1.2674271321933173e-01 1.5394508146640590e-01
      6.9700081253526391e-02 3.9886061988972982e-01
      3.6136623494665127e-01 -9.4106034481638318e-02
      4.4587283534251718e-02 -7.2436268165328235e-02
      -3.1294837955697008e-01 2.9471583196862799e-01
      -2.6124017902569331e-02 5.6727739633166498e-02
      9.3398289111284883e-03 4.9857243387941154e-02
      -2.4608564810740086e-01 -1.6877528183961191e-01
      -8.8075113336826161e-02 -1.1043509152523118e-01
      -5.0013108087578327e-02 -2.2546984119103436e-01
      3.4963879196602093e-01 1.1945092111928843e-01
      -3.7414206248438289e-02 1.4784878726751699e-01
      3.6955138805081084e-02 -1.2710062831835639e-01
      1.7237434532201920e-01 -1.6031989827601315e-01
      1.2042145582182080e-01 -4.9532889672162142e-02
      4.2593640398707021e-02 -3.0631451720425090e-01
      -6.0940566156618088e-02 -2.7147213442846496e-01
      8.4563979171710310e-02 3.4651982391521702e-01
      9.6102758226479013e-02 -4.4616321275997750e-01
      -6.5279593001323202e-02 1.9582044642424301e-01
      -1.0497052490124836e-01 1.6654154566649415e-01
      -8.1813001852100178e-02 -2.0917668164646247e-01
      1.7094843769454526e-01 1.8860418808002516e-01
      -3.5108531573434854e-02 1.0047324025100490e-01
      -2.2604952500183623e-01 3.8256114442704975e-01
      -2.7392334843597991e-02 -2.6234938138876792e-03
      6.3208707480863838e-03 -2.1823922818608263e-01
      -6.3873355892221317e-02 2.3638689559769191e-01
      6.3428905243526665e-02 8.4409191766692426e-02
      5.9720059258619597e-02 -6.3972700596303902e-02
      -4.3471599077728400e-02 5.5444749846961938e-01
      -4.9175696287703838e-02 1.8005716289254070e-01
      -6.7339182150358876e-02 -3.4321513222967917e-03
      6.0569090500436830e-02 6.1039183468289147e-02
      -1.2310992133585702e-01 1.4656747039184689e-01
      6.9885278667362355e-02 -2.0780852507021724e-01
      1.1316563287250381e-01 7.9520863582333220e-02
      2.1748848787427039e-01 -2.5743094975944042e-01
      -2.2521115984514548e-01 -4.5531977128949969e-01
      6.9805505456977127e-02 -1.1881965497159620e-02
      -2.4086507452803368e-02 1.3739554959527836e-01
      -2.9171553686459462e-02 4.4704589674900547e-01
      -3.8320679348944314e-02 -1.2999806838810507e-01
      1.2752373182654331e-01 2.0686015247715134e-01
      1.0733609956982110e-01 1.9070578642141586e-01
      -9.8696125164219294e-04 4.3618268036068331e-03
      1.0611548846724259e-02 1.2709648269535603e-02
      -9.5637495098578412e-02 -3.7130734372923538e-02
      1.9123808291650377e-01 -4.8874765780284990e-02
      4.5405758309078219e-02 1.4248944499890823e-01
      1.9783582731560920e-02 7.0633594453135218e-02
      -4.5381925728545443e-02 1.5663212823704042e-01
      -1.9533164836617198e-02 5.6699338551802328e-02
      -3.0923404196814305e-03 1.2705979298943935e-02
      -3.1670924698915376e-01 -2.1234500098985053e-02
      -1.7668012933122604e-01 6.3784527120760937e-02
      -2.1771738521273948e-01 5.6119063066351879e-02
      -7.8890694136300663e-02 -1.2431240761938635e-01
      5.7351933782114346e-02 -3.3119976707148453e-02
      -4.9948109603363385e-02 -5.4128453834730347e-02
      9.9388638671409103e-03 4.0981842718938892e-02
      -2.5283967137151073e-02 8.9955651664414688e-02
      7.1624103640709702e-02 1.1216874993211221e-01
      2.2287124404615975e-02 9.4014293954040127e-03
      -8.3320832618555676e-02 -1.5060375280815738e-01
      -3.4815491914871377e-02 3.2983163826122458e-02
      -2.5232810625459973e-02 -1.4569820767606950e-01
      -9.6515353932438583e-02 -1.3651248766322660e-01
      -2.4144375333685179e-03 5.1914573892824778e-01
      1.2536712737988839e-01 2.3170183645854048e-02
      -1.2677999537606838e-01 1.9778755819519306e-01
      -4.1145202292062203e-04 1.8615195269794099e-01
      5.5539606020932143e-02 6.7180337183515335e-02
      6.4343894062888318e-02 9.6821284027598792e-03
      1.5411658988135740e-01 2.4596157978820046e-01
      3.6698975413985732e-03 -1.3942038933521761e-01
      -2.6529250478124464e-02 7.2660356184177349e-02
      1.7939497018486844e-01 -3.3154280900046865e-02
      -4.0265725527576866e-02 6.6673336497638902e-02
      5.0798658936966404e-02 -1.6028606611483259e-01
      1.2492459713793301e-01 1.5484658191215903e-01
      7.9628798105001106e-03 -2.3989628246217420e-01
      -6.5279918521693098e-02 -5.6634838795936379e-03
      5.1564945535030646e-02 -1.3306333880134952e-01
      -1.7441140965552729e-02 -4.6400202555190562e-02
      1.1805148860187235e-01 -3.3289972238511456e-01
      -1.2286600540705538e-01 4.8329621740890970e-02
      -7.0478719138352422e-02 -4.1062001479770106e-02
      -2.5304204493813726e-01 -1.8085983443823256e-01
      -1.0408553112813311e-01 1.0135276672056603e-01
      -4.0595283326343080e-02 -4.0244686494559623e-01
      -8.6135104249096789e-02 7.4878980766586972e-02
      -7.1895892979340157e-03 1.1161438306514222e-01
      1.5006391808752321e-02 5.0666393740592994e-02
      5.5785802407505532e-02 2.2461031657926098e-02
      -8.7335750873342916e-02 1.3081905287972134e-01
      3.4601117936112293e-02 -5.2692329423278561e-02
      2.4533199911048340e-01 4.6125933795920233e-02
      1.5605745893168685e-01 8.8584741503627426e-02
      -1.3817538554449151e-02 -1.2589888919978037e-02
      6.6792413768334002e-02 1.6691930897139336e-02
      -9.2259398135435364e-02 -2.8792130242327657e-01
      4.5145584244087246e-02 -3.9513659773464755e-03
      2.6257598719673986e-01 -2.7291996514813351e-02
      -3.8045495260541917e-01 2.2581691398511097e-02
      -2.1389640260020801e-01 -9.7302702024658502e-02
      4.2661109552695120e-01 1.4404537565792986e-02
      5.2188310725759759e-02 1.8713754949583966e-01
      8.4863981456441265e-02 2.0103993069850550e-02
      1.1906221977220524e-01 -3.9400020774555726e-02
      -2.2035546321110225e-01 3.1403227912093705e-02
      2.1604294174261576e-01 -1.1032883675417992e-04
      -3.3974624629013078e-01 -1.4176429039597566e-01
      2.8990131832718208e-01 1.3757212735494986e-01
      -3.8217600940795671e-01 -2.4626494557160095e-01
      -1.3073895976110053e-01 2.4677620390753674e-01
      -4.5562785362019423e-02 -1.3989832807308955e-01
      1.5612021492542696e-01 -5.7670340397708730e-01
      -3.9261769832854281e-02 1.1845508794399774e-01
      2.8697925167998534e-02 6.3416780273824164e-02
      7.4874886408371866e-02 1.1851831502470900e-01
      2.9666254350994296e-02 -1.1933112774955057e-01
      -8.5744598657907581e-02 -1.2630208345049082e-01
      -4.4416139533881288e-01 4.9068537285960651e-01
      1.0459334248367276e-01 6.0735492410819922e-03
      -3.3177516166272111e-02 -1.1018393038334314e-02
      -1.6708470822253646e-01 -6.1132562947166496e-03
      9.8358954462259729e-02 -7.2073589715035774e-02
      -3.1554887931845417e-02 -1.1552023019754333e-01
      1.2187536482734987e-01 -8.5637165863364395e-02
      2.6729285956815318e-01 5.7560262157769854e-02
      -6.2727193137626827e-02 4.0939654622324913e-02
      -1.0213278198556204e-01 -6.5831512634220712e-03
      -1.3810177594921636e-02 2.0790684089840233e-02
      7.8463837910751719e-02 2.3562966301829903e-02
      -2.5775177417646533e-01 4.0359429521126755e-01
      1.9611096458674471e-02 1.9915809564418118e-03
      2.1888274571108299e-02 1.8164230301182271e-01
      7.7836764505650788e-02 4.3349385243387822e-01
      -4.0857312350408771e-02 -1.2677673218314745e-02
      1.3881917089764798e-01 -2.1732382851890919e-01
      3.8956798838628175e-02 8.8050959546658522e-02
      -7.4050945717059044e-02 -8.1912191558554618e-03
      9.6377060075234583e-02 1.7163661630994437e-01
      -1.3336761386755502e-01 6.9954240558814842e-02
      -1.6060538418190540e-02 6.7686303591691643e-02
      8.9107774535476900e-02 4.6380221425830308e-02
      -9.9122824532386522e-02 1.1740301044675575e-01
      -1.8362243071488282e-01 1.5409945133284672e-01
      4.7960806435435779e-02 3.3061440043695932e-03
      4.6487857454524967e-02 1.9574892668494831e-01
      -2.1864651374677763e-01 1.1322418485001862e-01
      4.4774140836759452e-01 5.8179818478235328e-02
      1.6646920064249074e-01 -1.0048028273362884e-01
      -2.7932799368012273e-01 1.1302060329661202e-02
      2.3189319390453288e-02 6.3875492213043034e-02
      1.0134304561568266e-01 -7.1590161915505698e-02
      -2.3591122076488689e-02 -1.3039895804476346e-02
      1.0654467042667289e-02 1.2785417706814536e-01
      -7.0910524178591505e-02 6.5205371475406046e-02
      5.7175343621011210e-01 3.2846979320686398e-01
      2.1174398581064460e-01 -4.7883133160118004e-02
      8.8485731055904238e-02 3.9528300775388735e-02
      3.1321607381832062e-01 -1.0417401185119930e-02
      -4.7636888348657597e-01 -1.3212211392012374e-01
      -4.3368508355877420e-03 -1.2188859014778423e-03
      -9.5653808751018157e-02 -5.4240207092532279e-02
      9.4149459223239213e-03 -5.1390706514360529e-01
      1.0115575618573319e-01 -1.6680352879577511e-02
      -1.6036219310343902e-01 1.4416744876801646e-01
      -1.7048629241227575e-01 -1.1017467422370852e-01
      -5.5926562329663199e-02 -6.0532004059753397e-02
      -5.9914550307951569e-03 6.8305476415355768e-02
      -2.2512865700962120e-01 -4.9685795232211755e-02
      -8.2502166249164538e-02 -1.1461581584748032e-01
      -2.2759611949778510e-01 -8.2751228196057458e-02
      -4.5749776374126853e-02 -2.8866494191541481e-01
      -5.5959218684395511e-02 1.6529554536999655e-01
      -2.0508687607546894e-01 -8.1034645028861832e-02
      -5.6744096287300483e-02 1.7479399062038772e-01
      -3.0627927830185853e-01 -8.5217710985850292e-02
      -3.5608212640667553e-01 -4.4240321020399775e-01
      7.5094038968106069e-02 1.2089020014114740e-01
      1.9012386324824876e-01 1.7280243501811909e-02
      -8.6441101348969915e-02 3.4681003654823010e-02
      1.7547185998167603e-01 -7.7118834726618082e-02
      -2.8954208199946113e-01 -7.5588273731398897e-02
      2.1722646702060563e-01 8.4215435328342317e-02
      6.9795105162014329e-02 -1.0797495721986804e-02
      -3.9080581061434180e-02 -4.9612589948813825e-02
      3.8798215464926171e-02 -1.6461727743307736e-01
      -3.7283493873458640e-02 -9.5217109460008498e-02
      1.4209996497269362e-02 -2.3787365021349791e-02
      1.0518513799891673e-01 -1.3120226311125849e-01
      8.3657635650677881e-02 5.3819901442359744e-03
      5.2631565531473341e-03 -7.3372775561315731e-02
      8.6467098648018770e-02 -6.4077291223610319e-02
      -2.0777882205886092e-01 -1.3998335380725244e-01
      -1.8142836839062251e-01 -7.5363147356547464e-02
      -7.3168223354060161e-02 -4.6758913915010469e-02
      6.7456024642011156e-02 -1.7364576907073959e-01
      -1.4055688817669421e-01 -1.2861948435154738e-01
      -1.6671248853403500e-01 2.3456192399528116e-02
      2.4182939518109825e-01 1.3919914903530170e-01
      -4.7597012281894047e-01 -1.2583047325970520e-01
      1.1479985027983404e-01 5.0121357896049275e-03
      3.2042923946734664e-01 -1.4262041714052397e-02
      -1.2266647623457663e-02 1.3889493414493231e-01
      1.8999944596936807e-02 4.0261825502936131e-02
      1.2065772951310437e-01 -1.7426422823546389e-01
      -2.2615649194702633e-01 -1.7529332217274229e-01
      4.8780271057152252e-01 -4.6479273906089226e-02
      1.3054932372928199e-01 -1.9692523274056238e-03
      5.6610174245484945e-01 -7.8560237386935215e-03
      1.1311665326243470e-01 -4.0881556498707544e-01
      -1.6426150819995100e-01 3.0116390593919756e-01
      4.0961321375011454e-02 -1.3034600148751715e-01
      3.7068663157319541e-02 2.0473729339830438e-01
      7.3710878196961399e-02 -1.0598516925270531e-01
      9.4012823297579443e-02 -1.5152543609947927e-01
      1.1955029566464177e-01 -9.6240993128719129e-02
      -3.8794084663655436e-02 7.8119976554101717e-03
      -2.9659482177823376e-01 -6.7735079883776944e-02
      -4.5516607561788680e-01 -2.5924758858856256e-01
      -8.8423635623525884e-02 -4.2637143220420121e-01
      -2.9179323418406657e-02 -1.3263220461249161e-02
      -1.0027639862090672e-01 -5.1034192777809941e-02
      7.2284860212516802e-02 1.5260033297970371e-01
      2.4809964904918855e-01 -3.0070955399788355e-02
      -3.3891723105712354e-02 -1.9745848909298196e-02
      -1.1730498060446329e-02 2.2437036361698456e-01
      3.2792661731110545e-01 4.1963990152465670e-03
      3.2066872848257023e-02 -8.7477324605180776e-02
      -1.0597025348753328e-01 1.5880364825523324e-01
      -9.6251908188703550e-02 7.5632556553959507e-02
      3.9357153685605582e-03 9.0762350833300198e-02
      5.9584701453537670e-02 8.0193978774312252e-02
      -7.8970037309727140e-02 -2.7290554713419252e-02
      1.3387109788693979e-01 -1.5203045312965555e-01
      1.3254257156587032e-01 -6.5241206329873527e-02
      7.3628237801070487e-02 -1.4607047398464137e-01
      1.6111932564673123e-01 1.5595802355969637e-01
      -1.1564111594569952e-01 -5.6295642981448651e-02
      3.7681798482343404e-03 1.0108375743112115e-01
      -4.4235529264975565e-02 -9.5757654500676276e-02
      -9.9709447324723227e-02 3.1432551040482919e-02
      -7.8757208419280814e-02 2.4626522876186108e-01
      -1.7251340261767466e-02 -2.3716375812078742e-02
      -4.9790952463394467e-01 2.6926846654753169e-02
      3.2535448613479651e-02 1.7414583896691832e-01
      5.7152110745763030e-03 3.9563682947673526e-02
      -9.8439946611785886e-02 -1.3061918680281087e-01
      3.4352011206785082e-01 8.6638889452584522e-02
      -5.2242739905550017e-01 1.6367531592104997e-01
      -1.7637039761689133e-01 1.0431509844706051e-01
      2.2156392974916789e-01 1.2974733722840254e-01
      -2.3301656798212755e-01 1.4086793910089895e-01
      1.9699153370193047e-02 -1.9669672955016002e-01
      -1.0952023257068072e-02 -3.9408691462841289e-02
      -2.1746432256756734e-01 2.9544907895729766e-01
      5.4826327948971709e-01 2.2471491932527929e-01
      4.7416524987101388e-02 1.1109761357681958e-01
      -5.7226580007805550e-01 1.3450836982249886e-01
      9.5380605868870885e-02 1.7954191187350990e-01
      3.3265327736698880e-01 -5.5183390135262800e-02
      1.2041395037214007e-01 1.9637661213815444e-01
      -4.7125449618972640e-03 -1.4262426870242251e-01
      -2.8227015021953794e-01 2.2027855607911004e-01
      1.6469822319747231e-02 2.2915556746361423e-01
      -8.6781405286561988e-02 -8.7730672575731541e-02
      -4.7994768007512885e-04 -3.2301221575558987e-02
      -3.3336257509999786e-03 3.9273443733712889e-03
      9.7883704388351700e-02 1.3679850281857217e-01
      -2.9498922606737282e-01 1.7601274257438204e-01
      9.6713629703615960e-03 2.6607428446704973e-01
      -8.4103859424161626e-02 -1.7564349213293806e-01
      -1.2559735597285274e-01 1.9670659078667305e-01
      -4.8068797047073640e-02 -1.5139540771846580e-01
      -3.0504130678142105e-01 6.4448001499067160e-03
      -2.0776950595126145e-02 -1.7449014539494580e-02
      1.7048265710023930e-01 -2.4705106983633510e-01
      4.4347006953630219e-01 3.5359129348390261e-01
      1.2409560164605106e-01 -1.2298598412878768e-02
      -1.7445603285221503e-01 8.8652088265026616e-02
      7.9160592479759664e-02 -1.4237847568803302e-01
      -6.6738419722884315e-02 -1.6832731446571123e-01
      5.2411700940405287e-03 5.0383127799225311e-02
      3.1061479246114059e-02 2.3836461990527944e-02
      2.8906299870672242e-01 -3.9437758772203957e-01
      -7.7455803227010012e-02 -9.5726272199519583e-02
      -1.8928262882799635e-01 2.2989810410287503e-01
      2.8202420847525576e-02 -1.4893100666054118e-01
      4.3353514214516296e-02 -5.9180674702747987e-02
      -1.4978947993474243e-01 -2.4191801407115504e-01
      9.4814801197091930e-02 -2.3795137658157613e-02
      2.4183632094567390e-03 -1.2664377304662430e-01
      4.3913422475598388e-02 -1.3618818994512094e-01
      -2.8191298084427854e-02 -6.1096918631764481e-02
      1.8065981722256580e-01 8.5054119206931247e-02
      -2.1041164938273092e-02 -5.7761104573399648e-02
      -1.1367552415816153e-01 -7.0671135379119801e-02
      -1.7636516718547965e-01 1.3256594048325235e-01
      3.7851791891505879e-02 -1.3076713567137374e-01
      4.6467494658144570e-01 -9.4689546990842019e-02
      6.9016128297552590e-02 4.7621571908123300e-02
      2.1569652334329850e-01 -7.4080716152817097e-02
      -8.5277036613723781e-02 -6.4050115930280654e-03
      5.3194567366594376e-03 4.7999751718462942e-02
      1.8052927620488560e-01 9.1406837667495008e-02
      1.0170469302058414e-01 -2.5902868682929701e-02
      1.1361022813536413e-01 -5.4117106312105846e-02
      -3.5739908602539928e-02 3.3439773786906817e-02
      1.4874340036963568e-01 -1.3084551002640599e-01
      -1.4806748322463592e-01 -2.3871811070186580e-01
      4.6194768263639899e-02 -3.1922513508058456e-02
      3.4812555224332013e-02 -2.8512130252118600e-01
      1.0521304124951275e-01 3.1132333333450352e-01
      6.7393335012411737e-02 -2.7270124823697045e-01
      1.6618223392926481e-02 -2.4547892835921573e-01
      6.6082582756186101e-02 1.4074795384922811e-01
      -3.8119243467072594e-01 -8.8123420412242956e-02
      -6.5602232431473579e-04 9.3770082380840308e-02
      -5.7413432883304853e-02 -1.5212233415117661e-02
      1.2609813533066636e-01 -3.4044208718242441e-01
      -2.6127851750612624e-01 -1.9276534671506394e-02
      1.4948136720926394e-01 1.8416401547431976e-01
      3.8282717262474349e-02 1.1433293863434170e-01
      5.7039638670740179e-03 2.0435653695153921e-01
      7.1954492093997444e-02 1.2381984292975376e-01
      4.6869457788385929e-02 1.1659341929406773e-01
      -1.9037294927078802e-01 8.4387721716380037e-02
      -2.7067452401483005e-01 8.5564286862840941e-02
      -8.2451257982533461e-03 9.7147786266160260e-02
      3.2125739499453979e-02 4.8910172382305564e-02
      5.0279885195429433e-02 3.5328970811930545e-02
      -2.3640826908430271e-01 -4.5825668937312873e-02
      -1.6869483698623614e-01 -9.1058217926032609e-02
      -1.4141619834250321e-01 -1.0106844648327279e-02
      1.1951530410840626e-01 -5.0063538867658308e-01
      -3.4329462211302356e-02 -2.8352743363994036e-02
      1.8730636143308965e-01 -3.5990147393534955e-01
      5.8196302832510517e-02 4.0955590185523139e-02
      4.1914805580609872e-02 -1.0507879501309178e-01
      -3.8018701668815456e-02 3.9494789434287102e-02
      3.2424045616308139e-01 8.3666358813057076e-02
      7.6703807241221209e-02 6.8659071178709240e-03
      -7.6813300222116201e-02 -4.5219622500151130e-02
      5.4816642777189617e-02 3.4536051407284177e-02
      -9.1007494214296006e-02 -8.8299183514853139e-03
      -9.4328200800478351e-02 -2.9054892755418532e-01
      5.4814034334586701e-03 1.6561524907816885e-01
      2.8964303694006016e-01 -4.8801231258257791e-02
      1.9688993068334402e-02 8.1250700901484715e-02
      -2.2853663919186895e-01 9.7395878654424423e-02
      6.0327296602978053e-01 4.4664885356080250e-02
      1.6812519432853132e-01 -3.0365364670039145e-02
      1.2170768804762654e-02 -3.4786031454386461e-02
      -7.7402467418228260e-02 -1.0953088133087265e-01
      -3.3688112854990911e-03 -1.4138000479733731e-01
      -8.2054645197880763e-02 -1.0505377286840996e-01
      -7.5453755691328089e-02 6.1885465024373969e-02
      -1.6221586627167664e-01 6.9213272736721773e-02
      3.3418774653606909e-01 -2.6868995934564759e-02
      -2.5142038217186313e-01 9.8700027466330775e-02
      3.7881012942001902e-01 3.6761289550509801e-01
      -2.5965607444971123e-01 -2.5399178671672334e-01
      -3.9667586126017604e-02 -1.4157896809599765e-02
      1.6444527501189210e-01 7.3804289199596351e-01
      -9.0268912433748391e-02 -3.4383584901400727e-02
      4.7505727055373592e-02 -1.0736034930187224e-02
      1.7027657033027888e-01 1.5210512828457098e-01
      4.9888674513654106e-02 -9.8855265760366268e-03
      -1.2274980551638358e-01 2.1782459723846195e-02
      2.8469702643186329e-01 1.9697952575787223e-01
      8.1331006712144785e-02 2.3851284799261677e-01
      3.8377617102953128e-02 5.4079775652119765e-02
      6.0684851068983213e-02 -4.5152107997723248e-02
      2.5224960457296874e-01 -1.3191548590761795e-01
      7.5917673622240583e-02 -4.8731039600029266e-02
      1.6774192803366758e-01 1.0331303025071782e-01
      -1.7395612488873249e-01 -2.1140407233993933e-01
      1.6552203310268293e-01 1.7392120354536585e-02
      1.4075821325308310e-01 1.2696586292120937e-01
      -1.8910052492291954e-01 2.3929610520544450e-01
      1.6604186231522708e-01 -4.0705360482363520e-02
      7.2544885237421280e-02 -9.5689325345521395e-02
      -2.4309411587086013e-01 -8.5213620190070033e-02
      -1.9567364325326628e-01 4.8460970260449848e-02
      1.4725770552234202e-01 -3.1533693427089798e-01
      -8.5200055012761317e-02 2.1362924205869618e-02
      -2.2439326119538184e-02 -1.4591822058358675e-01
      3.5063627795444002e-02 -7.9620541389574223e-02
      -7.6835569647255547e-02 1.4566488056239352e-01
      -3.1668261981551316e-02 3.2115067825736560e-02
      1.5813495329348029e-01 2.3595765043044899e-02
      4.3905649724586687e-02 -2.6088553059096947e-01
      3.0730445822461271e-02 -5.4148009061763883e-02
      8.2381085811853855e-02 1.3236923174937143e-01
      -4.1930272542739444e-01 9.3251571947271378e-02
      -5.3194787715528907e-02 -2.0323742995419895e-02
      9.8320260227146072e-02 2.3163211927738478e-01
      1.1342298766285765e-01 7.3871487230138047e-02
      -1.8878259338036738e-01 -9.7307082404327519e-02
      4.1806223337083483e-02 -1.8559480390991534e-02
      -5.9716668609068962e-02 1.7399839675426398e-01
      1.4374776203597370e-01 4.2268305438520427e-02
      7.8559148726788111e-02 5.0512273334971179e-02
      -7.7932392670582953e-02 -3.5443535905323932e-02
      -8.6718770733496930e-02 9.1831546101607889e-02
      -7.2301259117122013e-02 -6.5344985970397828e-03
      -3.0457071714007206e-01 -1.8478407126260971e-01
      -2.3330644112249107e-02 2.0763361080057264e-02
      -3.9539921281375340e-01 -8.9838850453453106e-02
      -1.4708145977350132e-01 -1.9319910597657079e-02
      3.7894199449395194e-01 -8.6260896721147645e-02
      2.6570902397381385e-02 -6.8091770094375004e-02
