<?xml version="1.0"?>
<opencv_storage>
<opencv_ml_ann_mlp>
  <format>3</format>
  <layer_sizes>
    9 100 100 7</layer_sizes>
  <activation_function>SIGMOID_SYM</activation_function>
  <f_param1>6.6666666666666663e-01</f_param1>
  <f_param2>1.7159000000000000e+00</f_param2>
  <min_val>-9.4999999999999996e-01</min_val>
  <max_val>9.4999999999999996e-01</max_val>
  <min_val1>-9.7999999999999998e-01</min_val1>
  <max_val1>9.7999999999999998e-01</max_val1>
  <training_params>
    <train_method>BACKPROP</train_method>
    <dw_scale>1.0000000000000000e-03</dw_scale>
    <moment_scale>0.</moment_scale>
    <term_criteria>
      <iterations>300</iterations></term_criteria></training_params>
  <input_scale>
    3.3005905332724086e+02 -5.0115025457240864e+02
    1.2274557085305362e+00 -1.6457542577256785e+01
    6.9491071963260631e-01 -1.8655105528671752e+00
    2.0076218884374191e+00 -2.9008259931076115e+00
    1.2941064150621819e+00 -9.4018040333423215e+01
    1.5368862246264623e+00 -7.6391863505230684e-01
    7.0431240593968547e-01 -6.3084998951485485e+00
    2.0159006982415106e+00 -3.5287682629113504e-01
    1.0286925707746780e+01 -5.8645090354483120e-01</input_scale>
  <output_scale>
    5.2631578947368418e-01 4.9999999999999994e-01 5.2631578947368418e-01
    4.9999999999999994e-01 5.2631578947368418e-01 4.9999999999999994e-01
    5.2631578947368418e-01 4.9999999999999994e-01 1. 0.
    5.2631578947368418e-01 4.9999999999999994e-01 5.2631578947368418e-01
    4.9999999999999994e-01</output_scale>
  <inv_output_scale>
    1.8999999999999999e+00 -9.4999999999999996e-01
    1.8999999999999999e+00 -9.4999999999999996e-01
    1.8999999999999999e+00 -9.4999999999999996e-01
    1.8999999999999999e+00 -9.4999999999999996e-01 1. 0.
    1.8999999999999999e+00 -9.4999999999999996e-01
    1.8999999999999999e+00 -9.4999999999999996e-01</inv_output_scale>
  <weights>
    <_>
      -1.6480044883497291e-01 2.4259256162241510e-01
      1.5957110510966374e-01 -2.2423472662801616e-01
      -1.9307038369941965e-01 -1.2162277835148799e-01
      1.3846850386693380e-01 -2.0193878137172672e-01
      -1.8645120475762125e-01 -1.7727666114945639e-01
      1.5721148546889752e-01 2.5443382099188577e-01
      1.3608875507519966e-01 1.1159093353068568e-02
      1.5999931811923421e-01 1.9794973244689998e-01
      -1.8451272306305536e-01 -3.0095804525278678e-02
      2.4337626004351387e-01 1.7284439384688963e-01
      1.9898392944109652e-01 -2.0067389900769592e-01
      1.6425763629754619e-01 -6.2972721933517117e-01
      -1.9315227539338306e-01 4.3252977142915025e-02
      2.3450103605604453e-01 -6.7967300097763722e-02
      -1.8310982524472932e-01 -1.1162059465683755e-01
      -3.9085671772007002e-02 1.4866497416315555e-01
      1.1370441951169950e-01 -1.2286680699743072e-01
      4.6436048191017900e-04 -1.6811779646545480e-01
      1.5945301128171616e-01 1.3291621737304088e-02
      1.5323038594103944e-01 2.3930445527830527e-01
      4.3440267171952728e-02 1.4259756793674058e-01
      -2.0688269123023253e-01 -2.0795355203206953e-02
      -1.8322928001382052e-01 1.9886838678656399e-01
      -9.6408014881433302e-02 -2.5611005283460536e-01
      -1.8740120891423942e-01 6.4973901344968915e-02
      -1.4563310067349566e-01 1.9198121063395777e-02
      -3.8420342591235407e-01 -2.0521625788071121e-01
      -2.9573226483099641e-01 6.6568660865418638e-01
      -1.2782876721960273e-01 -1.3007428884962025e-01
      1.9064197909420072e-01 5.6752301659910931e-01
      -1.4694480085889869e-01 -2.0479300013254148e-01
      3.6504615307144522e-02 2.4415537325438078e-01
      -1.5282781031488318e-01 1.6295641702768568e-01
      4.9361680278484733e-02 -8.6537649516761822e-02
      -1.2067769489102279e-01 2.0246026595496311e-01
      -2.1483562676599066e-01 1.7580883235937858e-01
      1.2881991756088632e-01 3.8794110205483651e-01
      2.0768581479815782e-02 -1.3730360070803138e-01
      -5.3311657473289385e-02 -9.2420961262477883e-02
      -1.4047885574734809e-01 -6.9869101921921903e-02
      7.0039063181958364e-02 2.1675835130108428e-01
      -1.6724070018438611e-01 5.0513247336773322e-02
      -2.4488043528505815e-01 1.3727500998890055e-01
      9.8335804883547574e-03 1.9666924646096604e-01
      1.2012503386843090e-01 -4.1775143263754783e-02
      -1.2344872978765246e-01 -1.7295598875047620e-02
      -2.7544350644006221e-01 1.1394853179335054e-01
      6.1727146946132426e-02 2.1220699104273599e-01
      2.0420893577407606e-01 9.0583173229997316e-02
      -7.8505786792976137e-02 -1.2965610725482314e-02
      2.7683999016816365e-02 2.4234982069230571e-02
      -1.0458808711642860e-01 1.0878209866599736e-01
      -1.6888391807707681e-01 1.3197342903931158e-01
      -1.4248812214267728e-01 -1.8521540560041597e-01
      -1.6678399329814933e-01 1.0803381625709522e-01
      2.3384790424873395e-01 1.3862836729867195e-01
      -5.4107451047415336e-02 1.1910195081645120e-01
      7.5749839755996182e-02 1.6669882967992264e-01
      1.4708933733311971e-01 1.3616400479481153e-01
      -2.7146866637481649e-02 4.8047481065350305e-02
      -1.2640349554181093e-01 1.0032747394180364e-02
      1.4109905864445463e-01 3.4166106555188031e-01
      -2.0223593830323253e-01 -2.6669626417772313e-01
      1.0992970510733427e-01 2.1817281048021750e-01
      -2.1622617002457718e-02 1.6100219882094413e-01
      4.0916802940438902e-03 9.2150399715810113e-02
      4.7152134262146005e-02 -2.0332487929378679e-01
      1.4582831449082956e-01 -3.1589353349513002e-02
      5.9506287301465788e-02 2.9036109377125341e-01
      3.6533153260436102e-02 -9.0451630496720670e-02
      2.0399199638334042e-01 4.7464957002722276e-02
      -1.6508862594202872e-01 7.3779604769483975e-02
      -2.3380613244335846e-01 -2.2763559166626415e-01
      2.3113526921675168e-01 7.3960996745915830e-02
      -1.5270023612562436e-01 -1.8458548183016560e-01
      -1.9357659508369560e-01 1.0283937856378653e-01
      -5.5752119582727293e-02 3.7260872714554819e-02
      -2.2834590036654862e-03 -1.0195371923401568e-01
      -7.8864235100099891e-03 2.0607592563149921e-01
      -1.6821202810653926e-01 -9.3008035607238332e-02
      -1.6483424766514229e-01 -1.7999422023542599e-01
      -2.1378315111650420e-01 3.6399735685845980e-02
      1.2857320231017738e-01 1.3242648181373629e-01
      1.1279563618193246e-01 -1.0836001690756179e-01
      1.9216619165975996e-01 -1.4902161246184989e-01
      1.8829094489397113e-01 1.3883873860532187e-01
      8.2336672429575541e-02 -1.4482419989598547e-01
      1.0050862811118971e-01 1.7746618420646226e-01
      -1.6151477409371462e-01 2.8574411920403714e-01
      -1.4113443654682969e-01 9.0791675814405490e-02
      -1.8054074277109503e-01 3.7254858465278574e-02
      7.5000602505712929e-02 4.7583633929877175e-02
      -1.3684656329872164e-01 1.1038511529510030e-01
      1.8380175228318923e-01 -1.4969790779789285e-01
      6.2140188387931158e-02 -2.0986572799618386e-01
      1.3807865681109543e-02 -1.5552721561791247e-02
      1.9328611250298899e-01 -1.7157982708226660e-01
      1.3515520330177605e-01 -5.7527074685825791e-03
      1.5629728244776850e-01 8.8520633999022935e-02
      2.5543460362971970e-01 -1.6331126059870416e-01
      -1.2228687773808407e-01 -1.9784372220501129e-01
      -5.6461925713701462e-02 -4.4447183486816449e-02
      5.1878213024567681e-02 -5.8482994081399738e-02
      -9.3483651565663253e-02 1.5814041518131117e-01
      -1.0115621974663822e-01 -1.6698135682159893e-01
      1.4167044532876230e-01 -1.3047123565361862e-01
      1.3196429171430887e-01 2.5231957107443975e-01
      -8.6080331864846357e-02 -3.1776734890457403e-02
      -3.3303363950336567e-01 2.2601814656752570e-02
      -8.7851519844821670e-04 -2.1995693366255892e-01
      1.9386956522013901e-01 2.0587861988387865e-01
      -1.6741796020396688e-01 1.3659593917499524e-01
      -1.0119158587020416e-01 -1.2747708881329778e-01
      -6.8771493195787264e-02 7.0696312086263993e-02
      -2.4035649419094030e-01 1.4531770133979779e-01
      7.7665018281129691e-02 1.6170000324349151e-01
      9.8143619700665555e-02 -4.5138081460244325e-02
      2.2257565711869237e-01 1.7396622009362259e-01
      -1.0519249018314125e-01 -8.2239456705475847e-02
      2.2882069115879816e-01 -2.7154320712321589e-01
      2.4649138869902137e-01 1.7772326441082237e-01
      2.2829015750506787e-01 -9.4735146554707148e-02
      5.7755215255546249e-02 1.4336877444737600e-01
      -2.6065081355840503e-01 5.4034018521873887e-02
      5.2553400020074519e-02 -1.4732494218296791e-01
      -3.2725862911537604e-02 1.7722876504825077e-01
      2.5611243747042328e-01 2.1862733725739758e-01
      -7.4633352429833225e-03 -4.0159335064262880e-01
      3.1693188653841180e-02 -3.7892116640544794e-02
      -1.8965637583033004e-01 -1.0280373932046265e-01
      1.9506773777506056e-01 1.8788484849441620e-01
      -1.3807059955663287e-01 1.1796117915555367e-01
      -1.1826764069871253e-01 -5.6602636135379525e-02
      1.3738074236732634e-01 -3.3963582632691454e-02
      1.5484141422266082e-01 -1.8141454942973584e-01
      3.5381767923701101e-07 -8.3658409027750680e-02
      7.9231596949672231e-02 -1.3391955252228188e-01
      6.8810816968273847e-03 2.7228782522528355e-01
      -1.1653005783858725e-01 -1.1759869464163838e-01
      -8.8294834795615423e-02 2.3268323972521526e-01
      1.4432429721233084e-01 -1.4966980322902551e-01
      -2.1489101267280877e-01 -1.7921594116437392e-01
      -3.8045516866861882e-02 -1.8090204796926884e-02
      3.1980167670678789e-01 -1.0124548823505497e-01
      1.7893247297523898e-01 1.1713889664970073e-01
      1.4770247859720281e-01 -2.6869110157700482e-01
      -7.2108906959421917e-02 -1.5503545205128791e-01
      -2.1209903229260563e-01 -2.1349056537240299e-01
      -1.6010686735888310e-01 1.8752604034070955e-01
      6.9694963237602117e-02 -1.2954875896702944e-01
      -2.0011201775961227e-01 -1.9092711371437651e-01
      -1.4766932664765800e-01 1.2761036655681304e-01
      1.3136382136780322e-01 8.7613597539083890e-02
      8.0289031169837703e-03 -9.7502290205199849e-02
      -9.7329224985257715e-02 -3.7751166779643901e-02
      1.1471541220801432e-01 1.3627908799252225e-01
      2.7346243996968184e-01 8.6519821355556858e-02
      8.5557499556796313e-02 1.6757780740515132e-01
      2.2707982500258972e-01 -2.4775969366051798e-01
      4.1717566578222301e-02 -1.7932195920970745e-01
      -2.1783591312383669e-02 1.2717863557868955e-02
      1.1526386224604905e-01 -3.0591464793940117e-02
      -1.4650698919228916e-01 2.2446998947719415e-01
      -4.9934714244777127e-02 -2.6068105639675276e-01
      -1.7982873007304698e-01 -5.9498448175887113e-02
      2.5242270471536077e-01 2.2886984225674697e-02
      1.7149111952772883e-02 1.0198006353464809e-01
      7.2225171831175730e-02 1.4608211962458367e-01
      -1.5181634458346707e-01 3.6010431505958701e-01
      -2.6097459853832583e-01 1.3154396975238489e-01
      -1.6502649717787254e-01 -1.0147390108404231e-02
      6.1364322298773123e-02 -2.2286524950107461e-01
      -5.4346738989958829e-02 -7.8215036294656485e-03
      1.6511093766024426e-01 -8.5506605941177066e-02
      -1.1403848347338448e-01 -1.9398900831947877e-01
      -1.5841714511051236e-01 -2.5262111400743387e-01
      2.3088639893307575e-02 1.2952646341071408e-01
      -3.1875070892353180e-01 -5.8926394404484619e-02
      3.9557262661817277e-02 2.8778525095860458e-01
      -5.4873388462982576e-03 -6.9073609975372663e-01
      2.0719525316932186e-01 1.8185590754253378e-01
      -1.3530537001916751e-01 7.4768963307029132e-03
      7.7184729182324718e-02 -1.7370140176398327e-01
      2.4199752107103095e-01 6.0270645734543445e-02
      1.1460799773254265e-01 1.2546020711185563e-01
      -1.6678449847784983e-02 -2.4119357553886497e-01
      -1.0947584537879003e-01 9.5208524717313517e-02
      -4.5056175265821133e-02 -2.5144434647861008e-02
      -2.7358897287413642e-02 1.4494411363830267e-01
      -5.1325980983725573e-02 -1.3536232890419445e-01
      -4.2888566446770186e-02 -8.4500426685914093e-02
      9.7611990219087591e-02 -2.4555612093463683e-01
      -6.2048903382020501e-02 -1.5356651588194198e-01
      1.2023722331159753e-01 2.7575265554034487e-02
      -8.0506420823429264e-02 -1.1348041917023781e-01
      2.6716484854055506e-01 1.0930300780344532e-01
      6.4966530647429618e-02 -2.2689001371441783e-01
      1.4347188736373750e-01 1.1570927393818067e-01
      7.3641986997039860e-02 -2.5208909535119106e-01
      8.6466339396690642e-02 -1.1426561576496518e-01
      -1.7117933777739144e-01 -1.1542143522069793e-01
      8.4011480740418851e-02 3.1171181390483114e-02
      -1.9524256058930878e-01 -2.6379051025993888e-01
      -1.1849041376627899e-01 -1.6810099668711068e-01
      -1.9039712273288151e-01 -1.1153878997037847e-01
      -1.5878292678900491e-01 8.5125934500792269e-02
      -2.7698618018733340e-01 -6.3249629697491698e-03
      2.1413757091395064e-01 2.1665011887704672e-01
      9.1530569730990136e-02 -7.9217366413447107e-02
      -6.4197426773219948e-02 1.9462718608220975e-01
      4.1571983397364960e-02 -1.6383315582196659e-01
      8.2830208746350192e-02 4.6246391587672386e-01
      -1.2240276456718084e-01 -2.8803280629693379e-01
      -1.2858645774167554e-01 1.6640786383074874e-01
      -2.3032233267370525e-01 -7.1697087951131541e-02
      -1.9086254515714929e-01 -1.7434190693368534e-01
      -3.2465347207095702e-01 1.3591962129958807e-01
      -5.0201075397954834e-02 1.8904117374728743e-01
      1.9803077098535077e-01 1.4558397695795422e-01
      -2.1022894330841654e-01 -1.9360082480715127e-01
      -9.0335735033631445e-02 -1.7828997518574891e-01
      -6.4079331331051884e-02 2.2565557870244116e-01
      -2.7784962164436513e-02 -8.7752565260283591e-02
      -1.8407612023416734e-02 -1.8198270416908593e-01
      -1.9013262152565111e-01 -1.6445370189772965e-01
      -1.9013739051746531e-01 -1.3863407323343011e-01
      3.1464249122189181e-01 9.5000502427660866e-02
      5.8143406602356978e-02 -3.4443709583605864e-01
      2.0927059812418156e-01 8.7874441623754920e-02
      5.2941783280489138e-02 4.9193918472810444e-01
      7.6688857772953228e-02 6.0736331587953975e-02
      -2.2588772363911513e-01 2.5326569213314515e-01
      9.0390017455438065e-02 2.1406326373437393e-01
      -2.0149776689288826e-01 -2.0591955369521245e-01
      4.6204743471850759e-02 -1.8605576713454408e-01
      4.2895034727179837e-01 -1.3259633346384533e-01
      1.0110605066797801e-01 1.0530440189039503e-01
      1.2184885258868600e-01 3.2379960048112272e-01
      -2.1497693389208714e-01 -2.6728243447613870e-01
      1.4530671591635516e-01 2.2889888749348924e-01
      9.4820152635871471e-02 -8.1032533069839551e-03
      1.2441623997969027e-01 -1.7219301315158642e-01
      1.2203794706166082e-01 -1.9328338947151841e-01
      -2.7299994274448645e-02 2.7224573024722198e-02
      1.9229769251677031e-01 -1.6412468546367998e-01
      1.3369993241751663e-01 7.5456763666810853e-02
      4.0139577741432127e-02 -1.1412308811022980e-01
      -1.5851087386527477e-01 1.1184500230494952e-01
      1.6745426012691703e-01 8.8790157661435776e-02
      2.2406961898217212e-01 5.5030739984445382e-02
      -1.3167580453089853e-01 -1.6395766762051375e-01
      -1.4001830871883036e-01 -1.7905344858794747e-01
      2.1632410522355128e-01 -5.9832017822247514e-02
      -1.4948073303719758e-01 1.2747718713871379e-02
      -1.2094019771803005e-01 -1.2067745678470179e-01
      -2.4380370273126223e-01 -4.7560384048099077e-02
      -1.0831656337142773e-01 2.1992055282662273e-01
      -1.5790640352990876e-01 7.1084002155427754e-03
      -1.0259608791290564e-01 1.9406270005843421e-01
      1.9513947834199730e-01 9.4683731376376049e-02
      -1.9203878990406217e-01 5.1500278249949204e-02
      1.7853702350540954e-01 -9.3954416399225860e-02
      1.0885980108806884e-01 -4.1151264919092434e-02
      -1.4976475277944201e-01 -1.9063310187355703e-01
      6.1301732166572347e-03 1.6680375849806597e-01
      -1.2807965386048059e-01 1.4802889445702944e-01
      -2.8154008042260115e-01 1.8823756560688309e-02
      2.2765244404040229e-02 1.5793193924059254e-01
      -3.0926948553174460e-01 -9.3573997525981778e-02
      -2.0551660261095131e-02 1.3261854844942128e-01
      7.5992122198403164e-02 -1.1202291320466169e-01
      -7.3094824196273847e-02 7.9632554395552252e-02
      1.5755828818229009e-01 9.2054204162329428e-02
      -6.5027505256970083e-02 1.2177146086892930e-01
      3.6551669448110766e-02 -1.0424605795721784e-01
      2.4559948702171666e-02 2.0769975897183593e-01
      -7.0792896299559177e-02 -6.2468424448955458e-02
      -5.6058479160852714e-02 -2.3216685984754754e-02
      1.7647425902558272e-01 2.4403378833318359e-01
      1.6049715465601885e-01 -5.8472749593359230e-01
      1.0569210493617327e-01 -1.7742208078998922e-01
      -1.0101814813525761e-01 1.2821724587208866e-01
      -1.3820481784051503e-01 1.3998392383178368e-01
      -9.6216569535436530e-02 1.2484808697490124e-01
      1.6685192920634800e-01 7.2723880628872084e-02
      -4.2670339196356218e-02 -2.2843899097855350e-01
      1.6548914355272965e-01 1.4391643659590192e-02
      2.3966191951415147e-01 -8.7270923962972397e-02
      1.5597162534655865e-01 -4.4845031466210473e-02
      1.6805180140763706e-01 2.3997864453389459e-01
      -1.1735556812455612e-01 -1.0355570155230562e-01
      -1.6863522995838146e-01 -8.7121861008718854e-02
      -9.1220905192165455e-02 1.3505660436484432e-01
      -2.3736019413331991e-01 -1.2576484561818144e-01
      -1.4808984774658304e-01 -1.2941991907669717e-01
      8.4162942018534942e-02 -2.1207685825472133e-01
      1.4711282142414289e-01 -1.7409895583520043e-02
      1.5776335023697255e-01 3.4002636555358311e-02
      -1.4708031943847460e-01 -3.1598963975555450e-02
      -3.0175574717439607e-01 -1.9475120167301335e-01
      1.5089543653147203e-01 -1.1601056145942150e-01
      -1.1527031654819928e-01 -1.0241586863399477e-01
      -6.9318363093425150e-02 -8.9115196800592142e-02
      1.6270188528322291e-01 9.5968892168892969e-02
      1.9955332680618434e-01 -1.2845919273692416e-01
      -3.7573414326775974e-02 1.2126720091681313e-01
      -3.1075055049327685e-02 7.3628863182719495e-02
      -4.0521890656983528e-02 -1.1156263570778878e-01
      8.8289296855467575e-02 -2.8793655035610037e-02
      -2.3723972743515628e-01 2.3573072831519774e-02
      -6.9557731623089383e-02 -2.0675488547554469e-01
      -7.0117492171988594e-02 -5.9401820197485156e-01
      6.9504489980076322e-04 1.3938106471177841e-01
      -6.8761795370135270e-02 1.8124655123210920e-01
      3.1109765555368117e-02 -7.7405938141293970e-02
      1.5885111859910331e-01 1.0180328406580669e-01
      4.6908019805414605e-02 1.8102621916126552e-01
      2.4708040539699100e-01 -1.2578945190906762e-01
      -2.4037694084974685e-02 -4.6164627441961287e-02
      1.9630366672850341e-01 -1.2133245749879794e-01
      -1.3595098040936576e-01 1.5714106891742122e-01
      7.4925505679957011e-02 2.4206287240196980e-01
      1.9034655214417923e-01 1.8388287405065645e-01
      9.0587580966065590e-02 -9.7681655631790140e-02
      -1.2085729726351982e-01 6.1663614185731665e-02
      1.7386338330795850e-01 -1.3834499853497448e-01
      -5.3990694896970082e-01 1.3825582854997945e-01
      -9.1086518088196788e-02 6.1912317789936866e-01
      1.9357274349180476e-01 -7.1126800834450013e-02
      1.2969248635637945e-01 8.6563038667352443e-01
      3.4147777684924885e-02 6.4991738909211446e-03
      -1.3375158184626360e-01 1.5160843040460914e-01
      1.0634039025644290e-01 -1.7299849917232271e-01
      -9.0373023829373192e-02 1.4183144637201570e-01
      1.0845099631003741e-01 1.1710443729610537e-01
      4.7800265902064605e-02 1.2570711585122249e-01
      -1.8978550257433940e-01 1.1775344042435675e-01
      -8.1867310931258735e-02 -3.1699511396384372e-01
      -2.7367495920284381e-03 1.9858504599264612e-01
      -1.4778245738675211e-01 -2.6694825931390057e-02
      2.6285718542154712e-01 1.7648159567848923e-01
      1.0452431996731706e-01 1.5450670364923610e-01
      -5.0064344720327600e-02 1.1352472423407703e-01
      -7.1601832613371941e-02 1.6673340661881170e-01
      1.8211233558667589e-01 3.2795560316349316e-02
      -9.7848923704696000e-02 1.9046702769877363e-01
      -2.9660437424021982e-02 4.5761810411670857e-02
      -7.5507287678196353e-02 1.7510004868182008e-01
      1.1313177247030325e-01 -1.3549413019648018e-01
      3.4152611166222487e-02 -1.0323120172232317e-01
      -9.2775829594362355e-02 -2.9512449328710676e-02
      -1.5753331390604070e-01 2.0604826063510237e-01
      -1.3849354422919030e-01 -1.5375942192370282e-01
      -1.5833657180792673e-01 -5.6629781159491632e-02
      -1.2173051387645349e-02 1.6381944527832643e-01
      3.5834896671531176e-02 6.2767649424526645e-02
      -6.1712119151741539e-02 1.8236989377372206e-01
      1.7235043603754563e-01 -1.4025010432848689e-01
      2.2829030548683893e-01 -2.0988215052323431e-01
      1.0894156319072439e-01 8.3884142338616616e-02
      -1.8685603643905629e-01 -1.8898015894429340e-01
      -2.3860018539164007e-01 -4.2941382054893056e-03
      2.4193436116906285e-02 9.7867252121836487e-03
      -2.4082861254419810e-01 2.3900675775928554e-01
      -1.3635622817986098e-01 1.1274356110603136e-01
      1.6201045560968613e-01 -1.1836971072257435e-01
      3.4032792017549898e-02 1.0402761800303383e-01
      -1.7987690146908353e-01 -1.0378860332356034e-01
      4.9516869487652167e-02 2.1257266995173815e-02
      -3.6014849835611804e-02 1.9953074526342413e-01
      8.4139152088079372e-02 -2.3702341895975021e-01
      -6.4207375071194589e-02 -1.8232715809072014e-01
      2.1720741216992898e-02 -2.9990318442059656e-03
      2.7590508429962288e-02 -9.9956858914837590e-02
      -7.3701909077006716e-02 -4.4065111814494080e-02
      -8.1074954012652398e-02 9.4722247933580056e-02
      -1.0600131751981155e-01 -1.7843783771659930e-01
      -3.5335819172766619e-01 4.1133614978447502e-01
      -9.3557104181998640e-02 -1.0414182136611820e-01
      2.5235038378690400e-02 -3.1581141959830028e-01
      -1.2472927235872301e-02 2.7671874328283389e-02
      -2.5507102245252877e-02 8.1017122067800151e-02
      -1.4913668440083364e-01 -8.3552221600717309e-03
      1.8106116693311591e-01 1.4440868922086461e-01
      -1.2310063849389725e-01 1.1324964431897229e-01
      1.8159370486302223e-01 -4.7994760874344056e-03
      -2.1842680308567014e-01 3.1923972972832321e-01
      2.1917147274266580e-01 -5.7252363806454008e-02
      -2.2653314639012573e-01 3.1673856761399652e-02
      2.1990793133065005e-02 -2.5905254228021513e-01
      -1.2499649067999179e-01 1.2760438580519554e-01
      -6.5061704113192911e-02 -1.2351185701810434e-01
      1.0341929424491317e-01 -1.8444998609990423e-01
      7.9587122521722828e-02 -1.1866133749719715e-01
      1.2792584209398844e-01 -1.0072946517021042e-01
      2.3912269218658702e-02 4.9920036253412008e-02
      5.9014059960517840e-02 -2.2202513099219912e-01
      -1.3050024988473907e-01 -1.2000487164541464e-01
      2.3221148862959902e-02 2.1659584369534843e-01
      1.0634668654341314e-01 -1.3358174291356320e-01
      -1.0844134634245874e-01 -9.9137378800990328e-02
      1.3860342415857993e-01 9.9952434553369426e-02
      7.2591924192429436e-02 1.5137869243415292e-01
      1.1335401139465913e-01 1.1400818015370702e-01
      -9.6496910513957534e-02 1.0336216195372061e-01
      2.0089543195363910e-02 -1.7730977073559467e-01
      1.5938483211460003e-01 1.8579216219698472e-01
      4.7067532505968138e-02 1.4100184771399080e-01
      -2.9675153147350780e-02 1.1122292418609035e-01
      -1.9547782551055917e-01 8.6633399713457598e-02
      1.4422465126668369e-02 1.4290961410950559e-01
      3.2679955101410571e-02 -6.6697242183026764e-02
      2.4606577907576607e-01 -6.5296445604257555e-02
      -1.4813381061197353e-01 -7.1874493560547495e-02
      1.2927125995320693e-01 -3.5113501577936351e-01
      -3.2560763691483641e-02 1.2660019965532615e-01
      -1.7098133408046570e-01 1.5483363992159199e-01
      1.1097406490869653e-01 -2.7380847241376773e-02
      9.8868429188455148e-02 -2.3239454871098222e-01
      -3.6724404623862561e-02 -1.9892271736178860e-02
      -7.0845978579736610e-02 2.7860109346851999e-02
      -1.6734489214782589e-01 6.2271979249443145e-02
      1.9885510834826350e-01 -1.5173072532808221e-01
      -2.7227832355409004e-01 1.6402629523742399e-01
      -1.7291261807205538e-01 1.9766164121647395e-01
      1.5773292777751055e-01 -7.7076772510679811e-03
      2.9845178626693201e-02 2.2119775355831022e-02
      -2.0502432633055898e-01 -1.0554067262941888e-01
      -2.3513269704114351e-01 1.8631892041403419e-02
      2.5912892615061989e-01 -9.8260837118316402e-02
      -2.0181095920615538e-01 8.6341457497631585e-02
      1.7030497914962670e-01 1.1289387352205039e-01
      1.1678731437611742e-01 4.3265122750765682e-02
      -8.7246073977316388e-02 1.6429406250994749e-01
      -9.8784614407815746e-02 1.8916801826427790e-01
      6.4042230858093546e-02 -7.0329858405364626e-02
      3.4526324403075105e-02 -1.1502090654785986e-01
      1.7878934689719486e-01 -1.4507593946086059e-01
      1.9968916564508368e-01 3.9556422345959900e-02
      -2.3057398982235522e-01 3.3392455958675721e-03
      -6.8431620927848297e-02 -1.9072408988871145e-01
      -1.5551064850071170e-01 -1.0657571405755463e-01
      2.3698233632661614e-01 -7.4000666214856375e-02
      -7.6190398662589476e-02 -1.5736294306083623e-01
      -1.1409549034439988e-01 -1.8562066276383779e-01
      2.4269604698029940e-01 1.0214474637191398e-01
      -1.2501694900604005e-01 8.0531139470794641e-02
      1.0852459930453523e-01 1.6008193335742482e-01
      -5.2273111186915744e-02 1.1814429384582657e-01
      1.1892431664867580e-01 -1.6187902021885592e-01
      -1.0398419065407140e-01 5.1395560105146280e-02
      1.2071717166385121e-01 -1.3033817905017211e-01
      -7.6344016250492724e-02 -3.0772001697268209e-02
      1.0297274008613354e-01 -1.8054518191501775e-02
      3.4961162604743121e-02 -6.0681503153353820e-02
      -1.3095597925680594e-01 -9.6550665366233648e-02
      -7.7691872154030658e-02 7.3660463515325597e-02
      -4.2068656537800959e-02 4.2892157149327398e-02
      5.1793667836425167e-02 -1.0222909274503435e-01
      -1.1645875572002658e-01 -7.7036974328081528e-02
      1.7580309576125504e-02 -6.0309612864373231e-02
      1.1347738557553350e-03 -1.8713949939345598e-01
      -8.0156347203298367e-02 -9.4484819967972450e-02
      -1.1504856616845490e-02 -8.2851180741024405e-03
      3.0734366603875807e-03 1.7164612219549631e-02
      -4.4858188894401158e-02 1.0831046829626153e-02
      9.7553271289173380e-03 4.1744062327022768e-02
      6.3155904965449094e-02 1.8231674015831933e-02
      5.0771280454183783e-02 2.7525893710814466e-02
      -1.7469255941464888e-02 -6.9551223311862436e-03
      1.3018456190788079e-02 3.1461932670076194e-02
      -2.4513741268427348e-03 7.5168816630795257e-03
      6.9515912322716620e-03 1.5826689889646653e-02
      4.2609495156881545e-03 -1.2362932256684354e-02
      -2.5090748636890926e-04 -5.0265901190266289e-03
      1.5690627668344687e-02 -4.8077137310568313e-03
      -1.2650332644418022e-01 7.4997617799925625e-03
      -4.6167205683823667e-02 2.7136909161715267e-01
      -3.1519840393775885e-03 9.7659403188125292e-03
      -2.3544260415804749e-02 1.7386183190442181e-01
      4.7168197080203457e-02 1.8966596070304150e-02
      6.5889159987692660e-03 4.0702744224835732e-02
      -6.8302852444041030e-03 -4.1093018086964396e-02
      -4.4681524579966610e-02 -1.0910249951851490e-02
      -3.4272862230750609e-03 -6.9237007089148414e-02
      -5.8325777589417760e-02 -1.3145415937711376e-02
      -7.2184039320684387e-02 1.2858106841450628e-01
      -1.1837949949804025e-01 -8.8315541056899705e-02
      7.5493381416778096e-02 1.0708883770387639e-01
      -1.3461405379176460e-04 9.7981285197694973e-02
      6.0742335443116142e-02 -1.0185092136701462e-01
      3.6145209838195351e-02 -4.0970760337707517e-02
      -4.2505762193329383e-02 -9.4584053023383921e-02
      -8.4501314567525909e-02 5.1411788241646765e-02
      -6.6638828890232968e-02 4.5584950459610321e-02
      -4.0248785413773545e-02 -7.0990745425728072e-02
      1.4607633241823970e-01 6.0658340947804278e-02
      5.4477251456946929e-03 6.4873774787241587e-02
      9.9250415957013019e-02 -2.9203146096769068e-02
      -2.0902613373946560e-01 9.8274092334471499e-02</_>
    <_>
      1.4468348376493618e-02 -8.8191745502232426e-04
      1.3074928377906553e-02 8.5646240602358370e-03
      -1.9049480433549780e-02 6.3755080484793322e-02
      -4.5917003014976698e-02 -1.1077690865755012e-02
      3.4928132979557519e-02 -1.9836817426221114e-02
      7.6114400416472444e-03 -1.2145296593994361e-02
      -2.2828778865505307e-02 -2.4825328472668415e-02
      -3.9497247602235504e-02 -3.4535720197650721e-02
      3.7318424537401959e-02 5.5503420166141751e-03
      1.6778239540381015e-02 -1.5773074497824852e-02
      -2.1864185542575968e-02 -2.0323470649596829e-03
      1.6799500666366832e-02 1.1261583977499604e-02
      1.7152737581454078e-03 1.0587208878139508e-02
      -2.2028844375784500e-02 -4.7598533493000807e-03
      -4.2799841768678256e-03 -1.6380620532502520e-02
      -4.9681277629719495e-02 2.6510705706725552e-02
      8.4970150750267159e-03 4.3065714197893859e-03
      -1.1703276990141148e-02 -1.2950773045178776e-02
      4.3630961827767885e-02 -1.1859944838470181e-02
      -1.8752551347410818e-02 4.8237382353121788e-03
      1.5889298400794363e-02 1.0804495311780824e-04
      -2.1164782678870227e-02 2.1697808634695736e-02
      -7.7016872150444966e-03 7.6625175083610388e-03
      2.3854552462181221e-03 -3.5537183319745959e-02
      8.2417909333030240e-03 -1.6039085922184212e-02
      -4.5649188049850936e-02 -5.9223589415635354e-03
      9.5454081442444359e-03 9.7443445708670501e-03
      2.6534998587541145e-02 2.9095295772247586e-02
      -1.9572955934485338e-03 -1.5137041718495531e-02
      3.9573261102533851e-03 3.6070911279805787e-02
      -3.2747367233520210e-02 1.4598989030097024e-02
      -9.0249639320060422e-03 1.3622876615161636e-02
      3.5737391501429014e-03 3.2649630814821080e-03
      -2.3526336409426165e-02 5.8126250842005780e-03
      -3.1344958145415819e-04 -1.0143134158358137e-03
      -2.1618981456321039e-02 -1.9195380034651013e-02
      4.4090696827814579e-03 7.7037971596494682e-03
      -5.7725058729442662e-03 -3.6661942641092633e-03
      1.4562597994524718e-02 2.7996375761640966e-02
      -5.3995092933315413e-02 -4.1262179901968919e-02
      -3.2980823930383478e-02 -1.2147702576790107e-02
      -7.9525062850144875e-03 1.0196543525844306e-02
      -2.4224878779394013e-02 2.3819045876678192e-02
      1.1865109246344643e-02 -2.1177125488486726e-04
      4.8152258051057167e-03 -3.9872004329775647e-02
      -2.3938504329066711e-02 -3.1404734516127845e-02
      2.6750771823683336e-02 2.0571497087797184e-02
      1.4322679784204897e-02 -1.0612955130842750e-02
      -1.8584900750893023e-02 -4.0029784926114302e-02
      3.8617121732560304e-03 3.3640155909967502e-02
      2.2234968549617047e-02 7.1022579342522605e-03
      -1.9641750720263158e-02 -6.4054303790103073e-02
      4.8740707015740839e-03 4.1009833403625316e-02
      -1.2545047930795358e-02 -3.5693282216401598e-02
      -5.9222151095949006e-03 -6.8497215676924586e-04
      -3.6992500899884089e-03 -2.1733700680837149e-02
      -2.2125032047292273e-03 -1.9046281449536760e-02
      -1.8604818385897889e-02 -4.8503419398650091e-02
      1.2799169300482291e-02 -2.7003115601833588e-03
      8.1527987322912478e-03 5.7561317556768056e-02
      -9.1154488816911489e-03 4.7539466857029625e-03
      8.9518239728054623e-03 -3.5838793423501478e-02
      1.7780220869644238e-02 1.8187375830288242e-03
      1.8198790613778323e-02 3.5730549701363738e-02
      -3.3076014196468051e-02 2.4769544237786271e-02
      -6.6457648792330459e-02 -2.4922747515512787e-02
      -2.1701204845119126e-02 -4.2329276842826783e-03
      -1.7612688320148982e-02 -1.1581299693964377e-02
      2.5699919011495109e-02 2.8229354515238871e-02
      -2.6626295775594271e-02 -8.7329141719035830e-03
      3.3051089231365099e-02 -1.9785985022819867e-02
      -3.5642484516423129e-02 1.9064998842615654e-02
      -1.3030819969794648e-02 1.6101568292633688e-02
      -3.1556447872143255e-02 -4.3840985532975787e-02
      9.6501301046356784e-03 -2.5611777619327529e-02
      -2.3279015209739625e-02 1.7864527267782423e-02
      6.6321234617972543e-03 1.6105723202799044e-02
      1.1923001715888538e-02 -2.7500212259223317e-03
      2.5304551282893686e-02 -4.7340729326040484e-02
      8.6915244940871341e-05 3.8271803073562857e-02
      1.0745727134594277e-02 -2.5060510192206818e-02
      3.4255972664511775e-02 -1.5641897713740865e-03
      2.0881198160985416e-02 8.7227851657563152e-03
      -2.6033085329192542e-02 3.2878202936509747e-02
      2.8180307592563145e-03 -1.0154735475099265e-02
      -2.1080429719564864e-02 -2.0743704758049677e-02
      5.2622083530364759e-03 -3.6994289263603708e-02
      1.0210953859027675e-02 -7.6006019243382034e-03
      -4.1417946049188671e-02 -4.6816830467415131e-02
      -7.3005127472097558e-02 -4.0972384473819970e-02
      -3.9883050657901840e-02 -2.8866815712466777e-02
      5.9916874907669235e-04 4.1320468148752397e-03
      -3.1551107815387225e-02 -4.1392665389212442e-02
      3.5706422652230273e-03 1.2927586779146096e-02
      3.5505664056072681e-02 -5.2058849461281809e-02
      4.0734597345077110e-02 -5.7817994177684982e-02
      -3.0073152390619425e-02 -4.1519999422808540e-02
      1.3620936889859244e-02 -1.8174101561737679e-02
      2.0932821296054803e-02 -2.0058226922794908e-02
      -4.4127607423715678e-03 3.3349926367638297e-02
      1.1216066873467186e-02 2.0000682926842307e-02
      8.0304089057359127e-03 -3.2165855903581127e-02
      -9.0628270676556631e-03 2.5685531795180360e-02
      1.4389690552717731e-02 -2.7739253403329753e-02
      -2.1690636819211243e-02 2.6121594684683540e-02
      -2.8515167112535569e-02 5.3696424991634467e-03
      -1.2685151642584989e-02 -9.5558697384630544e-03
      6.3129877331935700e-03 3.0175111612012373e-03
      3.0587109944752002e-03 7.7271139145217995e-04
      2.5640921739179687e-02 1.9429653359775808e-02
      -2.0386447726869974e-05 3.9238834088561772e-04
      5.2225303343551724e-03 1.2206491819850328e-02
      2.0440185569897931e-03 1.2084320506259266e-02
      3.1264182653120594e-02 2.1391476000049207e-02
      -6.2774580254976817e-03 4.2667661615865826e-02
      -8.9223936262504428e-03 -2.5355257578142446e-02
      -3.0623989461445785e-02 -1.9376079071420842e-02
      1.6502338698279290e-02 -3.5075165050635153e-03
      -6.6789716946051301e-03 9.2782281406310185e-03
      7.9494050573290596e-03 -2.5789857753565033e-02
      2.4308903656693834e-02 -2.3965335235596373e-02
      -2.9872980044492101e-02 3.0594735001971849e-03
      -2.7037555928060567e-02 1.2266948082034304e-02
      1.8690864484346608e-03 -2.4089090498367844e-02
      1.7404113469897019e-02 -2.8070807872196644e-02
      8.8898605195619242e-03 1.6856072378842263e-02
      2.0390139469553186e-02 2.8019374912731546e-02
      1.1665169226497583e-04 -1.4287537868296847e-02
      1.6012101578165475e-02 8.6746269752744961e-03
      -1.8241369615924413e-02 1.1372809886696368e-02
      1.0130790849195120e-03 -3.3478957038711538e-02
      2.5693604577333325e-02 2.3102745863288282e-02
      1.1901682587107838e-02 -5.6059382246704155e-03
      -7.1067480457619571e-04 1.4982895650414250e-02
      3.4950101038723654e-02 1.0359780871771163e-03
      -2.2784544387779392e-02 1.4797196561192440e-02
      2.1405866635328313e-02 -3.0786629306158851e-02
      3.0169352069693154e-02 -1.8868936102477838e-02
      -8.6952785869766035e-03 -2.3678505347175784e-02
      -2.9190640262208741e-02 -3.2916814343361814e-02
      -1.9823912093348731e-02 7.3661500953183870e-03
      -1.7089861153229469e-02 1.4285625179142098e-02
      -1.4422958797076580e-02 -4.5952439376429996e-02
      -1.5557927074272360e-02 1.1540629544930008e-02
      1.6016050119499487e-02 -2.5510148909059976e-02
      3.5974967305961919e-02 -3.0266678830579870e-02
      -1.8989315094696434e-02 -3.4747540032891440e-02
      -1.0779493588490714e-02 2.2580339725062265e-02
      4.2488648728101625e-03 4.1207193414158280e-03
      -1.3443802633210825e-02 2.3713842058532043e-02
      8.2504712825836705e-03 3.3574228815400403e-03
      -3.6294831882550272e-03 4.4107607631808272e-02
      2.5085198416193492e-02 -2.9737032386879914e-02
      1.9983426700697277e-02 1.0221056186655145e-02
      2.4207023187833294e-03 -2.8004065949265692e-02
      1.4544375346794097e-02 -2.0253961887318202e-02
      1.7075279427228647e-02 2.9786393871975389e-02
      -9.2234485206690048e-03 9.1191988992890254e-03
      1.7950893328265931e-02 -1.1871906036500870e-03
      -9.0268151630434473e-03 -6.1374959520523409e-02
      -3.0950463626813869e-02 -1.2522419829376807e-02
      2.7134626531855589e-02 1.7623600597167714e-02
      8.1136974021587833e-03 -2.4189964037647175e-03
      -2.2018930595879491e-02 -8.1799410765246335e-03
      1.0504290659328988e-02 -4.5149206543450393e-02
      -5.3541021165721178e-03 1.9741323814885893e-02
      3.1827474560359184e-02 9.9109498023745544e-03
      -7.1564743696419016e-03 2.2643975828619260e-02
      1.3638232911161799e-02 -9.6916521845542853e-03
      7.8810240557368912e-03 3.0906967476110329e-02
      -1.6027232076307744e-02 7.0857843077928783e-03
      -1.2565928139886301e-02 -1.5315176688868589e-03
      1.9585063496532175e-03 -1.2602540731131059e-02
      1.2830014512483282e-02 3.7712334817673000e-04
      -1.7409363868111812e-02 -8.4566646378754166e-03
      -2.0554565489237696e-02 -3.3729082594599856e-02
      -1.8848733012448583e-02 6.0898644241763665e-04
      1.0750549076609189e-02 4.8164114066112261e-04
      -1.1287158776636500e-02 1.0751741497007583e-02
      1.7915967402380207e-03 -1.2716119461448371e-02
      -1.9460180392725093e-02 3.4609535232513422e-02
      2.7063633298472513e-03 1.9859974392419943e-02
      -1.1797119275771484e-02 3.8035485509308901e-05
      1.0490191619017096e-02 -1.9270389255801795e-02
      -1.4806740563804240e-02 -2.0206990407255397e-02
      2.0209611067386075e-02 7.6605940725699489e-03
      -2.0554485019396065e-02 1.2763633667864600e-02
      1.7118239829372318e-02 8.6134882157081621e-03
      6.0842800752111029e-02 2.1313127862263734e-02
      3.8787062840441359e-02 1.1377776679618652e-02
      1.1124784246410217e-02 1.2759718440749947e-02
      -1.9536987728171425e-02 -1.4371072795320319e-02
      1.4153916747436351e-02 2.0266877578021980e-02
      6.0081180737365028e-03 -2.6315479887665128e-02
      -1.0327640863714342e-02 2.3951172238047633e-02
      -3.2075520677628012e-02 2.2476990482756240e-02
      2.4378411256270816e-02 1.5742500834701904e-02
      5.1654781608003447e-03 -1.1068116620284717e-02
      2.2607341949472601e-02 -5.2545060158061107e-03
      2.5378102402042302e-02 -3.1322239440933146e-02
      3.8385879948913911e-03 -2.5165237868300704e-03
      -2.2571253442158334e-02 2.6341465603159004e-03
      3.1079139585883344e-02 -2.6684778755575875e-02
      -5.8258244880626557e-03 -2.7165044889936305e-02
      1.8518385333326857e-02 -3.8598781091741918e-02
      3.3290049765091541e-02 3.5542157631645592e-03
      2.5066976034844927e-02 -6.5235540947728926e-03
      2.7132561565936190e-03 1.7592750489790754e-02
      3.4541474091891344e-02 1.4330748392801650e-02
      1.8983840479321286e-02 -2.6333548459679643e-02
      -1.2475336574058749e-02 2.6112806929675374e-02
      1.8717281431884818e-02 2.7323733312203603e-02
      2.4198868905959134e-03 9.2695101631988710e-03
      1.0095094348989633e-02 -1.1966057119201252e-02
      -1.7702629780386440e-02 -2.0368543080826522e-02
      6.2948193680979186e-03 -7.1891680912575303e-03
      -8.5113817339669395e-03 -2.5791015896867085e-02
      -2.9545944763167520e-02 -4.2821569966877511e-03
      2.8758436497152155e-02 -2.7739528064602025e-02
      2.5097272228579534e-02 -3.4477334211694544e-04
      -4.2959843599708050e-03 -7.6098179235548043e-03
      -1.5812553367555087e-02 -1.1517229125226945e-02
      -6.5631630055072330e-03 6.2882494034940907e-03
      1.2362495067444423e-02 -1.1162796601203947e-02
      -8.4628321343764509e-03 8.2117539164675742e-03
      -3.1574908545345143e-02 -1.8663480319832022e-02
      -8.4604620709507194e-03 1.8736868933400899e-02
      3.1602320680415068e-02 8.2676305595602573e-03
      -1.3386709757939081e-02 8.8349826993221192e-03
      -2.0552858117483520e-02 -2.4212533557705467e-02
      -3.3045110847543267e-02 -2.5485425004935303e-03
      -4.6687858470396146e-03 8.4145295039642545e-03
      -2.1060860687879848e-02 1.7765868354702726e-02
      -4.9327566909609473e-03 -8.1469647720668666e-03
      -2.7632674366525438e-03 2.2957166361160439e-04
      -2.2914269436661000e-02 -1.4857113197982918e-02
      -2.2874366003656631e-02 3.9393898900302810e-03
      3.6935350542246233e-02 3.7350136506532996e-03
      1.4387920451927706e-02 -1.2898621654696072e-02
      1.7605888880546240e-02 7.3270546858508262e-03
      1.2345240830669631e-02 -5.5476575746419947e-03
      -8.5643620536583775e-04 -1.5665879909851237e-02
      -1.7141195496190611e-02 2.3190016800326625e-02
      -5.2510534214417030e-03 -1.7670808702701879e-02
      1.8816973518165189e-02 -1.3446522464713884e-02
      6.3616769972064217e-03 2.3624699676668512e-02
      1.5277751323236713e-02 -1.3928014546527223e-03
      -5.9208316490641736e-03 1.6072194787481318e-02
      1.4412706511883576e-02 -1.8621392198029444e-02
      2.6368145368935784e-02 -2.8898362906772768e-02
      1.9609603028636298e-02 1.9214884965201948e-02
      6.4563725039757788e-03 1.0510383420637075e-02
      -3.6456842702414292e-03 1.2239686473695600e-02
      -1.9639796172160801e-02 2.3086495916151719e-02
      1.5712596323158834e-03 -1.9385807483926761e-02
      3.4789300658938427e-02 -2.9016636436534814e-02
      1.1029700547917742e-02 1.2859232307711833e-02
      -1.8853998268644798e-02 -5.9869181053774194e-03
      -2.0231746105133781e-03 2.2902226744477477e-02
      -1.1437399843625622e-02 -4.1344810884123055e-02
      -4.1540142082204252e-02 1.5941822899989730e-02
      4.1451556057695529e-02 3.6812028097652819e-03
      -1.7858289372562324e-02 9.4210448732840457e-03
      -4.2827204002829650e-03 1.4453884502250629e-03
      -6.2145814754883504e-03 -6.4854175642293163e-03
      -1.7405602697382418e-02 -9.3919255178050588e-04
      -1.9935727989075832e-02 1.1895408033552935e-03
      -2.6051930203198456e-03 -1.5732331543854273e-02
      -1.8473894365872282e-03 -9.5628660609067984e-03
      -1.1740145419452336e-02 1.8807827360944870e-02
      -2.2438538629694069e-02 6.8573430923503488e-03
      -7.3007132737198206e-03 -5.1590298640025187e-03
      -1.6909474029943507e-02 1.1056048635956739e-02
      -1.8264616793970984e-03 -1.7951436226857000e-03
      -1.0068329618144758e-02 -6.3181970775919678e-03
      -1.2499916798059158e-02 -1.5659683915491714e-02
      -1.6499010515494090e-02 2.3552438267019971e-02
      -1.6828825657691140e-03 2.6709716469638725e-02
      -2.5536203457918776e-02 6.6093775660963847e-03
      -5.2969459331275240e-03 1.0709893447342682e-02
      -5.5485929549351561e-04 2.5491218381745281e-02
      -2.4707868559083666e-02 6.3447052284627175e-04
      -1.8510231442308081e-03 -2.2088394545073192e-02
      1.3053209094376940e-02 -1.6154606473644251e-02
      -4.7193562850322097e-03 -1.6769296315343647e-02
      -5.3821219090577077e-03 -8.3769728431068030e-03
      -1.0326156940455897e-02 -1.0150393794065392e-02
      1.1144709954033749e-02 1.5148096179481805e-03
      4.9871658956158291e-02 2.8573810291946045e-02
      1.9260007787549382e-02 1.2411562037037346e-03
      -9.3617645217008976e-03 -3.1328145076506050e-03
      9.8302808410216207e-03 -1.6110296520317965e-02
      9.1779030073819174e-03 9.7541242033554690e-03
      -6.5768658200689827e-03 -2.8025314243859427e-03
      4.6307775239545499e-03 -1.0819716599615203e-02
      -2.6770143767329852e-02 -2.1590250063416659e-02
      1.3705305995761263e-02 1.7553852120720977e-02
      2.3218959308108321e-02 3.2402100505726705e-03
      1.6103596192006180e-02 -9.1904006345528214e-03
      -7.5495614018976304e-03 1.7311712642688520e-02
      2.0764733437829537e-02 4.3840783032308766e-03
      -1.9406737370353009e-02 -2.5262471486217946e-02
      1.7664674194987635e-02 3.0253240514772184e-02
      4.7274646051056590e-04 -1.7190754410844080e-02
      -2.0454627918860008e-02 -9.4242313592931455e-03
      -1.2126276844399212e-03 -6.3180847922132480e-03
      1.4666275501912135e-02 -1.0840166313345686e-02
      -9.3017363486949382e-05 -1.7211079327956524e-02
      3.1400630020457079e-02 1.4680796541048218e-02
      2.6024183094100234e-02 2.1616907446681238e-02
      -2.0718357446181212e-03 1.1515798466309447e-02
      3.0973609838646611e-03 -6.9960302505657984e-03
      9.2983497457434262e-03 1.2057118016815083e-02
      2.2960674318592687e-02 -8.2472141665377707e-03
      -1.2999512566751359e-02 -1.4886255318942573e-02
      -1.5287818684496253e-02 -2.5171135227266380e-02
      -2.4622370574142436e-02 -2.0653786302209546e-02
      8.5109825317948376e-03 -2.7984013266697831e-03
      9.4489659892618358e-03 1.7982439805249384e-02
      6.7748031124946172e-03 -3.8512137452688311e-03
      -2.3827067848882751e-03 -1.6932057554573247e-03
      -1.0043830398076268e-02 -1.8023622081266861e-02
      -1.1261953957653847e-02 -2.4322877244357271e-03
      -1.6072549436456718e-03 5.2034033995017629e-03
      -1.5833466912853339e-02 -1.8927399915266610e-02
      -1.7873868911337267e-03 -2.1720506550862100e-02
      1.9622035924152882e-02 1.0192684615133469e-02
      1.5094521603777371e-02 9.2395041133298723e-03
      1.8566900199347099e-02 -1.7987961251204682e-02
      -6.4548466024101888e-03 -2.1420771791657724e-02
      7.9083773230214042e-03 2.4463763738961585e-03
      2.4994582233720631e-02 -7.6456411115993859e-03
      4.2650093006127918e-02 -9.7175151633549419e-03
      -1.0214195382563398e-02 1.7297201307798819e-02
      1.6130305479305721e-02 -1.3690234917304587e-02
      -7.2703077942288148e-03 1.5922119270621773e-02
      -1.7852378867453011e-02 -3.2871422317252021e-02
      5.2544142046000745e-03 -7.7518433459620303e-03
      6.8369021224559548e-03 -1.6163120028366059e-02
      -3.2570927950386734e-02 -1.7795061910495930e-02
      -3.1521454119853541e-02 -2.4099411854266454e-02
      8.1861435629508282e-03 3.1673680199715426e-04
      -1.3037278250694641e-02 -1.8122617194557312e-02
      -6.3817954029788595e-03 1.0651738574954639e-02
      2.4083064720626431e-02 -1.3783245588550869e-02
      -9.6271693678976009e-03 -1.9400037591268095e-02
      -3.9301615642809099e-03 6.8486266946447029e-03
      -3.7946203124339657e-03 -1.2810591284154507e-02
      2.5990834312686794e-02 -1.1291894738127044e-02
      -1.5252500817014088e-03 2.3333008792194666e-02
      -4.1880900367623965e-02 -2.7739805075341142e-02
      -1.8717491021610345e-02 2.1009657189464435e-02
      -6.6632371378385095e-03 -1.0843921061446342e-02
      -2.4541652730521758e-02 3.1204296124854650e-02
      4.6602931081562098e-02 -2.0352290231530276e-02
      1.5451511954916525e-02 -3.2572532490242855e-02
      7.8251241568726721e-03 -2.7619055529013825e-04
      -1.9127942206765208e-02 -3.2750334644121538e-04
      3.6651660547186390e-03 -3.1794237084808766e-03
      4.5216086140675528e-03 -3.2359995199550309e-02
      -9.0347520063636822e-03 1.3735903419539978e-02
      3.6252512958937125e-02 1.0969258295894343e-02
      -1.1144248048910942e-02 5.5178112531837397e-03
      -1.4628615096149445e-02 -1.6341752244287092e-02
      2.9251318446846815e-02 -3.9557952222736975e-02
      -1.2635225513502723e-02 1.0737003812294579e-02
      8.0829405507502547e-03 -1.2325918700629681e-02
      -1.1273783549556108e-03 1.3524060918412132e-03
      2.7741191606691310e-02 7.1591283317750665e-03
      -2.1781775286831432e-03 -1.1967632857208421e-02
      -1.0700051316203623e-04 -6.3744794454138410e-03
      -8.7097114692643064e-03 1.4710699107068450e-02
      2.7638922581307554e-02 -1.0702111431611719e-02
      8.2039073274976435e-03 8.9532022140152712e-04
      1.5855991787503434e-02 -2.4036790796546529e-02
      -2.8547822259534891e-02 1.2213241291003556e-02
      6.9740745791736268e-03 2.3548133553005193e-02
      -2.3950186175866289e-02 2.6290054843909425e-02
      -8.1874823952819160e-03 3.4707968206376290e-03
      1.2716943326764157e-02 -6.6214323570867421e-03
      -3.8852696744016722e-02 1.4606335613887167e-02
      -3.0426395602866110e-02 -1.5121917307396203e-02
      5.1147924773156765e-03 -1.1643591458982104e-02
      1.4001279213018402e-02 2.2476258777386762e-02
      -1.2716549106629968e-02 -2.4020817073280985e-02
      1.6335692201152798e-02 1.8717453271122105e-03
      1.5088186697880705e-02 2.6874577052643390e-02
      -3.7005985934608035e-02 3.1738404206555305e-02
      3.2117899099673025e-02 4.4444656635282020e-02
      -1.3736388880285551e-03 -7.5306924497387786e-03
      -4.8156912733102551e-03 -8.3589929268024117e-03
      -2.0835306568629988e-02 -6.2138973149492701e-03
      -1.1303087535071499e-02 2.1591678069171737e-02
      -9.5844578866207952e-03 -1.2017885612694134e-02
      -3.5849697102291957e-03 -1.3090724488939694e-02
      -2.5751194537761181e-02 -1.8547200718330548e-02
      2.7260181197408879e-02 2.6074234693118578e-02
      -1.4047489998608871e-02 -9.3310595613975995e-03
      1.0462307015067123e-02 -1.2378428554615037e-02
      5.3087729527625388e-04 4.8996364018332982e-03
      7.5358762540836599e-03 -2.8474039531743295e-03
      -5.6052666749084592e-03 -8.7712904948504967e-03
      -2.1140688802687557e-02 6.4518244512249537e-02
      -2.6308195049952837e-02 -9.2749672319764349e-03
      1.6706519343967826e-02 -3.3679058958757002e-02
      -2.8218712063087610e-03 -3.0462738685430049e-02
      -1.6631047671666194e-02 -1.9864236634192158e-02
      -3.5365800390577913e-02 -2.6571896708668989e-02
      4.2439236354790286e-02 -6.6968769949073258e-03
      5.3765034451399157e-02 -2.5567422002142379e-02
      -3.9657458239874245e-02 6.2711281145372876e-03
      4.8327277401860977e-02 3.2572515883878529e-02
      5.9268484561645048e-03 6.8841331666574853e-03
      -1.2190686803721183e-02 5.7025442404096908e-03
      -3.6102122194831096e-02 -1.3201057624265412e-02
      -6.1042965789688763e-02 -1.4862312301608265e-02
      -9.8566527694273452e-03 -1.0605214111861721e-02
      -5.5275977162873857e-03 -2.8893700481745652e-02
      2.3353993178865912e-02 1.0263313219870163e-02
      7.2546224716593310e-03 1.3705745806261698e-03
      -1.1576487502643434e-02 -2.8706984731936478e-02
      -2.3655516254727605e-02 -1.8940922889515939e-02
      -1.3952028343123330e-02 -2.8563150906820967e-03
      3.7205656422171890e-03 -4.2276834715755988e-02
      3.7916139246078499e-02 -1.8149292655356919e-02
      -2.4794726969768959e-02 -1.5390147131046875e-03
      -2.5658538092983795e-04 3.6325974675818544e-02
      2.3104973592602517e-03 3.0343555515043052e-03
      -1.8179674797787031e-02 -3.0140786831122857e-02
      1.7141739837182705e-02 -1.0329158743347283e-02
      -1.3139929897437589e-02 5.7739248742028383e-02
      -1.1959867790397099e-02 -6.1633950052433816e-04
      4.3040631609398451e-03 -2.4340907978037458e-02
      -1.6713013044443507e-02 -1.0253693633234910e-02
      -5.3282057003377348e-03 -2.6950511465517701e-02
      9.0712506018208999e-03 1.4355698661232353e-04
      2.9067687767316119e-03 2.0084108706960434e-02
      -4.4747766625217820e-03 4.6134242819297726e-03
      5.7680724397624137e-04 2.8186868629714711e-02
      -1.6721957943085352e-02 -3.2809517957038084e-02
      -4.9634980772372342e-02 -1.5611414779250874e-03
      -1.3732713147277737e-02 1.8624388169753237e-03
      -2.0037389275607054e-02 1.0277130264148848e-02
      -6.9496073748090059e-03 -5.8405532420555111e-03
      6.9573890907026082e-03 -4.0280002013883480e-02
      -3.2152891917728903e-02 -4.2353722402866611e-02
      4.1839506245791372e-03 1.3651356904084720e-02
      4.9876150949692728e-03 -1.2669319734392344e-02
      1.5940184743296022e-02 -4.4920044490626095e-02
      1.4920137162138902e-03 2.2814484872870553e-02
      -1.2084235721645326e-02 -8.1690285543053846e-03
      -3.0361716694277965e-02 3.8624313320328174e-02
      1.6568097816055172e-02 7.0342541726438361e-03
      7.3974925011240878e-03 9.0451251028003318e-03
      9.8950038276917167e-03 -3.7935658868314300e-02
      2.1045442060968700e-02 -2.7077198350093971e-02
      9.3284713872411988e-03 2.2075612270109152e-02
      -2.4138355477120541e-02 8.3051946724135382e-03
      2.4674354984417217e-02 5.6240421789309439e-03
      9.6069031556292976e-03 -3.8329545512016248e-02
      -2.3317911259649649e-02 -1.3593843176668207e-03
      1.7150077761872527e-02 2.3711870814283418e-02
      6.9653065357014711e-03 1.4433131305109707e-02
      -1.2655421940175903e-03 -2.8461013750171987e-02
      -1.0650633573970570e-02 -4.2709324282198327e-02
      -3.9196605500859995e-03 -8.9690714567343260e-03
      9.4563552216021876e-03 1.5037134163046717e-02
      -1.6648703142092276e-02 -1.0883333302166647e-03
      1.1811003641241463e-02 -3.9309354367205243e-02
      2.6992652832425988e-02 1.1211855082760189e-02
      -2.1601646433814736e-02 -4.8834291569767327e-03
      6.4748455489179466e-03 1.2084906602634582e-02
      -8.1677658064975879e-03 -3.2976031632764077e-03
      7.9001901187712210e-04 -1.2953013344039059e-02
      -2.4705205447605592e-02 -1.5256942246454294e-02
      -2.6053453824607480e-02 -2.9726664683688332e-02
      4.6584485771391767e-03 1.5476915609960895e-02
      -1.1299549749707668e-02 9.1797500039966229e-03
      -5.5779885238619606e-03 -1.7914558611210222e-02
      1.5659550398933242e-02 -2.2312426854089573e-02
      -3.5681683516834407e-02 5.2778172748218784e-02
      -3.2348675906899976e-03 2.4396063941326603e-02
      6.1642741853791981e-03 -1.7079032952818336e-02
      -1.9533466652053973e-02 -1.1356999493911507e-02
      -2.8509533469988441e-02 -2.8994716152165166e-02
      3.6423148528869714e-02 2.5259142261475541e-02
      2.7948067038599234e-03 1.0867166562322967e-02
      1.8513634827225943e-03 7.4153878635813738e-03
      4.5003742945914423e-02 3.6367212378918982e-02
      -7.4515905515371511e-03 4.3106797219736401e-03
      1.2039960391358823e-02 1.5070546645694928e-03
      1.4256994397323582e-02 -3.9041294776981018e-02
      -9.4153505086031555e-03 3.9692068916508810e-02
      7.8485553221760568e-03 -1.5253387983899259e-02
      3.7493434510436656e-03 -3.5426135653137008e-03
      -2.2763100281695842e-02 -3.8618527162544874e-03
      3.7222823059418944e-02 2.5385777869379064e-02
      9.7462607467096850e-03 -1.6868070958479719e-03
      1.6029730394894127e-02 -2.4441246850309743e-02
      1.2734224051580404e-04 -9.5668744248564551e-03
      5.3640767323603778e-03 3.0232115846818603e-03
      1.7785132228965144e-02 -7.5895493032485427e-03
      8.6705706825154112e-03 -8.3557188369589395e-03
      1.8144372385237108e-02 2.5416044868067540e-02
      3.1357733824523911e-03 8.2574480323049562e-03
      -8.7066777649584832e-03 -1.5350555957379117e-02
      1.1587329943105124e-02 5.4624421009182662e-04
      -5.0611731355130335e-03 2.2219098830100613e-02
      -3.2809621195958719e-02 -6.0929350103922390e-04
      -1.9141985576180912e-02 1.4425176908583481e-03
      3.1671580712081412e-03 -4.6217182854509471e-03
      -2.6269836088705787e-02 -7.3625237869485499e-03
      -1.8321449517798367e-02 -6.9469277668038742e-03
      -1.1688644221682103e-02 -3.5553089537006446e-03
      2.7120092832323715e-02 8.0487890462004833e-03
      1.6953490209796019e-02 2.4856038613695123e-02
      9.5651109082160919e-04 2.1274474902323173e-02
      -1.2362706386509298e-02 7.8590286174849942e-03
      -1.6904490265073426e-02 4.8350289356249498e-03
      1.3369491711943259e-03 -5.7305020729917673e-03
      1.6104937433427187e-03 8.3175693563790169e-03
      2.3019263966827956e-02 1.5773617935685800e-02
      9.0690706604133284e-03 -1.1194616721485220e-02
      1.9337974944090772e-03 1.2219793267999504e-03
      3.9948455689846948e-03 2.3442105387914473e-02
      1.3155030924073297e-02 2.6856435932444210e-02
      -1.4531523769481029e-02 -2.4389694597536246e-02
      -2.4884277679163923e-02 -2.5279844771967657e-03
      -5.0031288422894380e-04 4.0793738366797809e-03
      2.2212190567459204e-02 2.4681628466859026e-04
      -9.6997430455174685e-03 -1.3675847987998820e-02
      -1.7414818612425231e-03 -1.8103106798917475e-02
      -3.1128089098899074e-02 -1.3676906432898634e-02
      -1.2547293201662132e-02 -4.9976710403344827e-03
      2.1586157263227889e-02 3.2774162265533112e-02
      -2.2162591305527491e-02 1.0588300099620520e-02
      1.5910747135884650e-02 -1.2447524013749649e-02
      -1.3361618275853703e-02 -1.3089141439820078e-02
      -2.4245207995005704e-02 -1.8631204033792804e-02
      1.1349770204842318e-03 1.3458658926452854e-02
      -9.8128405947315381e-03 -4.1825876957427392e-03
      -1.7751315190022838e-02 9.4432910683845284e-03
      1.2346549597742340e-02 -2.0321681008851383e-02
      -2.0213875912575410e-02 -1.4519850718933460e-02
      -3.1237622219006155e-03 2.9244747047925405e-02
      2.3870647705769854e-02 1.6244276091584131e-03
      -2.8582632334880280e-02 -2.3748888421105504e-02
      -2.7377305050579411e-03 -1.7537672629482045e-03
      -1.7438087201967069e-02 5.8936640889741066e-03
      -1.6268361037556092e-02 5.8331534733749692e-03
      3.6551574318951008e-02 1.9981003240929822e-02
      -4.9422250676453075e-03 -3.8665598242944910e-02
      -1.5211962185459431e-03 1.8064038902036755e-02
      2.2523140116196522e-02 -1.7335574159845688e-02
      -4.5044625880022116e-02 4.0415591244260304e-03
      -3.3029624114693901e-02 1.6920115176239897e-02
      -6.2959488693752983e-03 -2.4660337280642073e-02
      -4.5060879737157493e-03 6.5963810333058807e-03
      -1.6318308638966928e-02 1.0068385311225773e-02
      -3.3727305448960319e-02 4.3574591907180965e-02
      1.5340533857363503e-02 1.3023696500860403e-02
      -1.0717966753423337e-02 -4.5587904708484679e-02
      6.0972610653118025e-03 -4.2571995446505275e-03
      1.5235338977427373e-02 2.8870412349179468e-02
      -3.2843365151095927e-02 3.8985290041483094e-02
      1.8625521595352138e-02 -4.7943044871323406e-03
      -2.8505799957820924e-03 -5.4151579242987915e-03
      1.7115133951553334e-02 -2.0467603130557611e-02
      -1.6851269148554601e-02 3.2626696289025621e-03
      -9.9341392668457745e-03 -2.8737741686106325e-02
      3.1562098721267931e-02 -1.6272002539604018e-02
      -1.3303883881795663e-02 -7.8921036121742446e-03
      -5.3768694405527699e-03 9.3203748507756368e-03
      -1.9625041020689547e-02 -1.2155187668827143e-02
      8.6597922571594287e-03 -1.1141593049374064e-02
      1.0546605884619770e-02 7.7901900712438171e-03
      1.5563715324951538e-02 -1.4637552337196037e-02
      8.7636694591049745e-03 -1.1218152297167437e-02
      2.8891878789089467e-02 -9.8460668046688807e-03
      -2.6468091893197845e-02 3.9609477696703121e-03
      2.0277817667950209e-02 -4.2210391880754594e-02
      4.4292417210739961e-03 3.9088667850378832e-03
      2.0325774260523590e-02 -2.3066630975616060e-03
      -2.6441829664777556e-02 -2.8748409990896335e-03
      2.3280751226508620e-02 -5.5095890916846031e-03
      -2.1938493618899307e-02 -2.5376476653661474e-02
      -1.4719221353152245e-02 -3.1147897144519404e-02
      2.0174050604719822e-02 -2.9950582596985059e-02
      -2.2374902728645452e-02 -1.6261951219791012e-02
      -1.5792298400929904e-02 -1.4332288443373215e-02
      -3.2614678563728988e-02 3.9365203879398389e-03
      -3.2649926849751222e-03 3.3709028344539031e-02
      -2.4150802269984574e-03 -4.8484130483087806e-02
      -2.0608840815298651e-02 3.7060308382371794e-02
      1.8724862677581312e-02 -5.9816396766370870e-03
      2.7544236860714538e-02 -1.9209252691713915e-02
      -2.9181452411675125e-02 -4.5464543818211758e-02
      -8.7619790670718702e-03 1.6029934316590902e-02
      6.2909863956883364e-03 2.2113158009445483e-03
      -7.7487630715829207e-03 3.2370773193175259e-02
      -8.0444430092247875e-04 3.3031535706103475e-02
      -3.7328009390785288e-02 -3.2770194077005141e-02
      7.9808402036198097e-03 -8.9997602221796938e-03
      -1.7213212363937656e-02 -1.3092935748115098e-02
      1.8648728522236452e-02 -2.0331628914157053e-02
      8.7453746114388269e-03 -2.4487903833417639e-02
      1.6872074367945366e-02 -1.1535184953321060e-02
      2.8146837937387281e-03 -1.3876192832003585e-02
      1.1321374781511111e-02 -9.0136526792904143e-03
      2.0493831449074164e-02 -1.0079919158713759e-02
      -7.4918239003702973e-03 1.9241571450460848e-02
      -1.0634853126601793e-02 -1.1290826201958931e-02
      -5.4597465913275725e-03 -2.3276152466740658e-02
      1.0676572816009811e-02 -4.2419610824361229e-03
      -1.2664097765948176e-02 3.2123039943412590e-02
      -5.9487352229690565e-03 -2.0804536691137066e-02
      2.5032553760734786e-03 -1.2754357571242325e-02
      1.1822309944817351e-02 -8.9521377414797168e-03
      1.6865187565284542e-02 3.9404656892016966e-04
      -1.3500052911853161e-02 -2.5256389659493561e-02
      2.1592083159042732e-02 -3.0279708049442380e-02
      -3.8259092318591897e-02 -5.3023374459875514e-03
      -1.9825902632933986e-02 -1.0405155493563974e-02
      1.1985015789707362e-03 5.3984806062426262e-03
      -1.4976003881391765e-02 -8.8912564235383001e-03
      5.0518480539561558e-03 -5.4666146521178938e-04
      1.4528868442526186e-02 2.5407738765598750e-02
      2.3984161924170033e-02 -4.3016281277911527e-03
      -5.2170369411920102e-03 -3.5249734351475562e-02
      4.5302335131134830e-03 1.7878910809797706e-02
      -6.0820291260797960e-03 -2.3754795923518594e-02
      -4.8393089247110678e-03 3.8602870920014676e-03
      2.1930843817078580e-02 -6.4616294084349152e-03
      -3.3704575306113200e-03 -6.7872666552089862e-03
      1.3896834315432037e-02 9.0700897040331043e-03
      -3.7877400830888578e-03 4.1627543344015692e-03
      -1.1531991589459650e-02 -3.5556854889718902e-02
      -3.0907046177964816e-03 -2.9681207642500752e-02
      1.6636805610040423e-03 -2.0254249822819047e-02
      -1.1357682795096448e-02 -8.8846316025552770e-03
      -2.7014514060846248e-02 3.1406046406473325e-03
      -1.1970799464765551e-02 3.3942474896595416e-03
      -1.2866072085935869e-02 -3.1683242708593722e-04
      -1.8179045065600769e-02 4.2973860904910099e-03
      4.1734075016997045e-02 -3.0136973994164217e-02
      1.9752778146147822e-02 -5.2688598312879160e-03
      -2.0991387696154298e-02 1.2573388119682857e-02
      1.4669106271168669e-02 7.8637146072325047e-03
      5.2416699004012310e-03 5.8383062747878155e-03
      -8.6969733655064990e-05 -5.7274327641853662e-03
      -4.7421993266270196e-02 -9.0177981331586322e-03
      1.0539611548336273e-02 1.5533428224153552e-02
      -2.4428893536920477e-02 -4.0019790584371190e-02
      3.1244996773212172e-02 3.3821741123396622e-02
      1.6864719818273154e-02 2.0914441963411360e-02
      8.9301272861257094e-03 1.6689071889709469e-02
      9.0686890538509111e-03 2.8917242178540883e-02
      7.5802864413669182e-03 3.3991390703107568e-02
      -2.2947773416673596e-02 -2.2238559973158937e-02
      -3.5014034374321011e-02 -2.2125335129743996e-02
      3.7593209767539278e-02 -5.4019090376380479e-03
      -3.2384803384613171e-02 1.2008746776205254e-02
      -1.9471812667724690e-02 -4.3100150428791728e-02
      1.2827363449138542e-02 -1.3675669048763843e-02
      3.5099674786380826e-02 -2.5451399242490697e-02
      2.2214294230262395e-02 1.2745618378280796e-02
      1.5146850407843436e-02 3.0188546110049400e-02
      2.2658357049359708e-02 2.4671077513456822e-02
      -1.2639443715297238e-02 3.1708487706095016e-02
      1.1317227693684831e-02 6.3475445679955162e-03
      -3.8301245191726362e-02 -8.6670170333849397e-03
      2.8752497184902057e-02 -8.4509080871365862e-03
      4.4069743323645064e-02 6.9226823607171370e-03
      4.4490645626161437e-03 9.0309386535180509e-03
      2.3468598551517107e-02 3.0677935910827424e-02
      1.2846124914783407e-02 5.9705942424027394e-03
      1.1336230275506431e-02 -1.2201076440777416e-02
      -4.1985606240732984e-02 -3.6209586107904666e-02
      1.0090220775873055e-02 2.9987697527810615e-02
      1.7762460561831464e-02 -1.8589422634872812e-02
      2.0609012402896941e-02 4.2123232279113439e-03
      -1.0249422020877584e-02 -9.5296246824150294e-03
      -5.8518880114217702e-03 -9.7513466642865036e-03
      5.2380426430166500e-02 -2.6525307784521460e-02
      -1.2642045672335284e-02 -1.5203960250668525e-02
      2.4864426464918161e-02 1.9428289187506904e-02
      -8.7919335239209553e-03 4.8951752692844949e-02
      -3.2812127120425236e-02 3.2764415602126548e-02
      1.2677106893900171e-03 1.2488198376373199e-02
      5.4455702306436871e-02 3.8217579631054106e-02
      1.5028085831910194e-02 1.0815394369176971e-02
      9.9547625004143929e-03 -3.3700559527522531e-02
      9.0757447776382738e-04 2.8114147552652669e-02
      1.0170974833379465e-02 -2.0187727724225481e-02
      -3.2384731706984353e-02 2.6130552776659769e-02
      -6.7187024285389908e-03 4.6366951356577243e-02
      3.0812675019781174e-03 2.4912707123937301e-02
      -1.2803798467513502e-02 -9.6173122870780673e-03
      -6.5110602541388382e-04 1.8093893808009423e-02
      -2.3287057651997456e-02 -4.8699837547146012e-02
      2.9420926631541895e-02 1.2769497682628335e-02
      3.8084029108564677e-03 6.7595209452419956e-03
      4.2432101400661244e-03 -1.0407649159680035e-02
      2.9856172274333119e-02 5.4659705463348434e-03
      -2.6691625666807450e-02 2.6382394289902363e-02
      1.9690020167332047e-03 4.5606350886964056e-03
      8.6859817080972082e-03 -5.8019497027814752e-03
      1.3478717447760698e-02 2.2299954530290985e-02
      4.6383068409990395e-03 1.9489655197924699e-02
      7.7124130522225071e-03 3.1617939327311516e-02
      1.6041335110358487e-02 1.2379191869636832e-02
      -1.2960331367545543e-02 -4.1805711803278925e-03
      -1.7506158686441776e-02 2.2204565508094519e-03
      -1.9352455837507482e-03 1.6927762115857690e-02
      -8.2559232671006195e-03 3.5248448767704749e-02
      4.7428900160404160e-03 5.8755180489544383e-03
      -1.5408548973226513e-02 4.5745305719398829e-03
      -1.7029834989081610e-03 1.3803673799052844e-02
      -1.5456208583453632e-02 1.4739482527721415e-02
      -1.5534416156629330e-02 -1.5952875761423779e-03
      1.1657887756292571e-02 3.3784653220408989e-03
      4.7947926916931784e-03 -1.8430602712034592e-02
      -1.3875380300953751e-02 -1.4771557926842779e-02
      2.0498101639793802e-02 -1.2651270897124886e-02
      -2.4212657623697845e-02 8.5451341122095830e-03
      4.8756882388965679e-03 2.2614639515174447e-02
      5.1575202384766218e-03 1.7014206466060677e-03
      -1.4507451199107554e-02 -2.2574472769479544e-02
      7.6403475781446485e-04 1.3080362835430570e-02
      -1.8592795544575654e-02 2.0910510119835881e-02
      1.2240416234443129e-02 -1.1175025386584398e-02
      -4.1375780036098904e-03 -1.1138199744025431e-02
      2.4185218013714604e-03 -1.1188587508173435e-02
      1.0374037430586028e-02 2.6112217328008560e-03
      -7.1377227449291357e-03 2.0318003384192769e-02
      -6.7102194213058903e-03 -3.9433122443130499e-03
      6.1672673087729930e-03 -1.9821959709718708e-02
      1.9348142435409853e-02 9.0114809775460204e-03
      5.1832828881118887e-03 -1.6378574917436890e-02
      -9.9242549610167995e-03 3.4592918432570768e-03
      8.3068475526578544e-03 7.7667422369791781e-04
      5.3848565962772398e-03 9.9772987137655821e-03
      -1.6442970960870554e-02 -2.7698797454710919e-02
      -9.7438135116745244e-03 -1.0306154790068132e-02
      5.0193915231826368e-03 3.6587487557341427e-03
      7.0701450694237878e-03 5.0290648527409111e-04
      -1.5514758633836353e-03 -2.9290906591257829e-02
      8.9729422485765892e-03 -3.1562264610443180e-03
      -7.9931904348090419e-03 1.9694240997036795e-02
      -1.0819614731260441e-02 -1.1387280229551296e-02
      2.2144502996294280e-02 -8.5924171637185469e-04
      8.6811805376745543e-03 5.4371307441623412e-03
      2.6583633691274994e-02 -1.1548802573689983e-02
      7.1571866625640161e-03 -2.6148158950875314e-02
      -5.4557352547543646e-02 3.3952226113683065e-02
      -4.4131152738553590e-03 4.1481699739825073e-02
      -2.5035079695723723e-02 -6.6718643971963414e-04
      4.3942754225085992e-02 2.3338798134440654e-02
      -2.2866728353968854e-02 -1.4281479990338285e-02
      -4.1590701750236991e-02 3.1138999310956629e-02
      -4.0245763292326413e-03 -1.4208977416826807e-02
      -2.8003036071566727e-02 -3.0508972559091848e-02
      -2.7449511824401266e-03 2.1298811511380952e-02
      5.3486021536853943e-03 -5.9194306393993302e-03
      1.9479345318737223e-02 5.0917044839015074e-02
      1.1580902109781391e-02 1.3351094464326330e-02
      1.6442798136408695e-02 2.0783512607861980e-02
      2.6000729728337283e-02 -1.8990681868121192e-02
      -3.8000607182036336e-02 -1.0773431333569642e-02
      -1.3297019309852045e-02 -1.2583107094161949e-02
      2.1482589238249802e-02 1.6064078835569016e-02
      -8.5410234017090914e-03 9.9550052150360630e-03
      -1.0520442859018091e-02 -5.7438384932353972e-03
      2.3292433740440325e-02 1.7411911821756301e-02
      -2.9342515262512352e-02 4.2840516837079103e-02
      4.0044513283586325e-02 6.9587581604319453e-03
      -1.6196043190546624e-02 -1.6940853369400172e-02
      -1.6371035123000675e-02 -2.6474275876337203e-02
      1.4892783542196961e-02 -6.2499807904225083e-03
      -2.5004510754198614e-02 2.6914054195059319e-02
      2.4244158107709156e-02 -5.7765261347918880e-02
      1.7649299235362346e-03 1.1746999027062695e-03
      -9.5292008039226436e-03 2.0522705502187096e-02
      3.0997710790224629e-03 -1.7247384669505983e-02
      2.8767779610095728e-02 1.8677238108869142e-02
      -1.8360765046597689e-02 2.3854606324980147e-03
      -2.8042613751263668e-03 -5.2660299625228883e-02
      3.7413397390282828e-02 -3.3257997043101638e-02
      -3.4191084622847742e-02 -2.6317377692964317e-02
      2.9133480149744959e-02 1.5891327275777939e-02
      4.5832576918728389e-04 1.0590400399095685e-02
      6.1789679831164949e-03 1.2543853391126087e-02
      1.5458997516138230e-02 -5.1575646048934574e-02
      3.7750224104905953e-03 4.2830138568984103e-03
      2.2289291661691975e-03 4.2281633918072041e-02
      4.4939779619912447e-02 4.4377177586987220e-02
      -2.4916015871223302e-02 -3.4430441569277957e-02
      -1.1713341948139853e-02 1.3134064666464208e-02
      2.2947018056004051e-03 5.8658636269022860e-02
      -3.9889895506458953e-03 1.2608904649089961e-02
      3.2131396631767555e-02 1.3336934222115538e-02
      -3.7612096981967227e-02 1.0948240003059660e-02
      1.7829087637283192e-02 4.0786483656498680e-02
      1.0164989749842912e-03 1.4959868648216615e-02
      7.9142169491098462e-03 -5.3329316632092359e-02
      3.1465295738943043e-02 -1.9874804508421780e-02
      3.1120025847610488e-02 4.6196261512583070e-03
      -3.5813633314081883e-02 5.4979763466416007e-03
      1.7138778153133721e-02 2.6377011163295078e-02
      -3.8966690203568037e-03 -6.1287046760369918e-02
      -5.4785700518798164e-02 1.3431512541700686e-02
      5.9409869642531844e-02 6.9578409422741180e-03
      1.3545809781719386e-02 2.6939743537278604e-03
      -4.1178458694618664e-04 -2.2050757422733432e-02
      -6.4714504447715024e-02 -4.2653837567719337e-02
      -4.8562546596548413e-02 -2.8050287911977990e-02
      -2.1189440962379159e-02 -4.9652823879141716e-02
      -2.2849296155022823e-02 -1.0185015727613019e-02
      2.9617125489012030e-02 -3.8342176709481202e-02
      -6.8007876711934515e-03 3.2334188492800370e-02
      -3.8897648747877933e-02 -6.0914786949115580e-03
      -3.0663024719585698e-03 6.8001826777436877e-04
      -2.4062884439862896e-02 -9.0052052782651909e-03
      1.4013152641297471e-03 -1.7630650033538153e-02
      -4.2086731083535348e-02 -3.7519522798026485e-02
      -2.7560065500427815e-02 -6.6381123747925208e-02
      8.6003152907340816e-03 4.6138550280824919e-02
      8.9623687419401275e-03 4.4286421643497734e-03
      -5.2937133210029293e-03 -1.8970464085119230e-02
      -2.8476599280665014e-02 6.2375158340514832e-03
      -1.7983551542294633e-02 1.1366697462788755e-02
      -1.1675622317903249e-02 2.5209762621534876e-02
      -1.1401614889651438e-02 -4.2884501709796212e-03
      1.0158762375439686e-03 -9.1938415731096026e-03
      -8.4285574050298878e-03 -3.3254807120836019e-02
      2.8817197589967088e-02 3.9181236631288120e-02
      -3.6569158069313823e-02 -1.9088124336432807e-02
      3.0786521383755139e-02 5.3457331182406526e-03
      5.9796572671326445e-02 1.7332810628148999e-02
      -4.5566199567677115e-03 -3.0516974682624357e-03
      1.4973448819556570e-02 -2.0681683952187741e-02
      9.6612247009625739e-03 -6.6558921187799117e-02
      -1.9885991829337638e-03 2.1439208266288996e-02
      7.3146597745331176e-03 -2.0340582188297561e-02
      1.5117488934809634e-02 -2.1077619663499553e-02
      -4.1904551837310955e-02 -1.5734608293302411e-02
      2.0411885002173565e-03 5.1058220471574670e-02
      8.7510796758557795e-03 2.9842545926675938e-03
      4.0119917042619857e-02 -3.3336274363276505e-02
      -9.9358202316376272e-03 1.6552621803317145e-02
      -6.8709498812636960e-03 8.4660799286758581e-03
      9.7644518388138764e-03 1.5802956934577873e-02
      3.0594101526281135e-03 7.7509372634890503e-03
      -2.2225713735746711e-02 -2.4131122311999878e-03
      1.1873060264743229e-02 9.9143431399868198e-03
      -9.3978710629115357e-03 -6.4220909812448459e-03
      -5.0382269127650240e-03 3.3851172651288078e-03
      1.1427381044867133e-02 -1.8716590189934837e-02
      -1.4632740994329414e-02 -9.2376235563561403e-03
      2.1234317859441486e-03 -8.4826794425046578e-03
      1.5720510639006681e-02 -1.1023081392352285e-02
      5.9312747416429530e-03 -1.5031767549318080e-02
      -1.4275836800347065e-02 1.0281752625023415e-02
      -1.1202570697169486e-02 1.0978500833145914e-02
      6.6722326675842051e-03 1.6553934654410185e-02
      1.7294179888875921e-02 2.5298782744246042e-02
      1.3284922012777846e-02 -1.7290111079773539e-02
      -1.4204449017168294e-02 -5.5668087895615901e-03
      -1.3607502234359591e-02 -3.9894621853484307e-04
      7.1768331141529567e-04 4.6000987108751005e-03
      9.3738611947905576e-03 1.1800469147414649e-02
      9.4187995935009448e-03 3.7853590094930403e-03
      -1.3860943296291501e-02 -1.2404611683672727e-02
      1.1213481137312804e-02 -2.0158851649261542e-02
      2.1761087129639485e-02 -6.4697149801580351e-03
      4.2827190960267542e-03 1.1169139885446103e-02
      -1.2376101044591765e-02 -1.6838280162555612e-02
      1.8394198036193202e-02 7.5438695363494067e-03
      1.5545698591059313e-02 -1.1619150876810799e-02
      -1.2963846162446408e-02 3.3568288627364613e-02
      -8.1618416176688809e-03 -1.8580286552811017e-02
      9.4728043850555652e-03 -4.0296737619700644e-03
      -1.7072425615398491e-02 6.2210910456760408e-03
      -1.5298225126606502e-02 -3.4048168431555182e-03
      1.8655004220275841e-03 1.8434264810648648e-02
      -2.2884703539389116e-02 -4.3181256245680942e-03
      -1.9871836070043361e-03 -3.1210486348588109e-03
      -2.9651391750126214e-02 -9.9487051024075169e-03
      4.0211608773277965e-03 2.4859296591012461e-02
      -1.4997223070220188e-02 1.1867093620365695e-03
      -2.2842648820479601e-03 -1.9863433819789427e-02
      1.7536688884117822e-02 1.5290576985912040e-02
      2.0223319965557134e-02 -1.9058254039641648e-04
      -7.2320780851005909e-03 -1.3165618532225061e-02
      1.1727941824625734e-02 2.6142143977312991e-02
      -1.3485097820712937e-02 1.4111192349497840e-02
      -2.9023472827464556e-05 -5.8916106772482196e-03
      -1.0860742991486868e-02 -1.5158272790432428e-02
      -2.5031269897981708e-02 6.3531182335725854e-03
      4.7071309103385072e-03 2.1543194673996808e-02
      2.4691584750214261e-02 -5.4155074389956115e-03
      -1.6101658468832183e-02 9.2382744126061588e-03
      6.9880932583775196e-04 -1.9716588013477622e-02
      8.9479463375190266e-03 -2.7461768096569388e-04
      -1.5097097487883369e-04 -3.8395431988064149e-03
      -8.1210115642699823e-03 2.6617338835479849e-02
      9.6843330491711670e-03 -8.6278359370101938e-03
      2.6381330034915922e-02 -5.0390844048614934e-03
      -6.0906090001205827e-03 -7.2026158069921362e-03
      -1.6884676412949648e-02 3.0018807192651549e-02
      1.2275728711381632e-02 -1.4401688090109586e-02
      -3.4956037434212696e-02 -1.2634039537345668e-02
      2.7624561313039308e-03 1.8364388900106610e-02
      7.9294794338055641e-03 5.0734430333760445e-04
      1.7292865024281207e-02 2.2954489111545660e-02
      3.3582642528388280e-02 -3.1301102669241861e-02
      1.6993095163946804e-02 -3.1300920190431639e-02
      2.6611686027200061e-02 -3.3096399746925485e-03
      3.6389688986264057e-03 2.8148317469217823e-02
      -1.5222310380681657e-02 -2.6591037531513130e-02
      8.7359322922284204e-03 6.3789594739118594e-03
      -3.0240504041014245e-02 -4.8157736770215029e-03
      9.8020973299696654e-03 1.4327956694206660e-02
      -4.8348080772381112e-04 -1.4808427159526702e-04
      4.8104473577356742e-03 2.5577972536194517e-02
      2.4745874220119123e-03 9.7864786713050024e-03
      8.6184958701909248e-03 -4.8365298198943711e-03
      -4.4904430732626323e-03 5.9551405478817845e-04
      2.9036442341862544e-02 1.7817836150459041e-02
      -6.2143402247553173e-03 -7.3915561476200098e-04
      2.8514276746029531e-02 -2.2493726154722962e-02
      4.9642558795705690e-03 1.8863291887009911e-02
      -1.5049606460628355e-02 2.1998426873122154e-03
      1.2308944741240014e-02 1.7946196050531424e-02
      3.1337917355416411e-02 1.6651248511657491e-02
      -3.1717401577383106e-02 -1.3098819528403950e-02
      -1.7453032688070361e-02 -4.2482388340714008e-02
      2.1881785671397338e-02 -6.7265959417658061e-03
      -3.5810802171768637e-02 -3.7276077007147662e-02
      1.7452780828169777e-02 -1.5213086255181857e-02
      2.1372539459302599e-02 1.1835340282407411e-02
      -2.2572742664649082e-02 5.4520882852043236e-03
      1.1686422047674599e-02 -1.5076536073917396e-02
      -8.7643174897297903e-03 2.3582334810591837e-02
      1.4701371630742876e-02 9.2953227798740976e-03
      3.4618169850213466e-02 -6.7960703795090624e-04
      -3.4376051516346158e-02 -9.6614502976004012e-03
      -1.5842464406945037e-02 4.9712047658539661e-03
      1.7056713618996328e-02 1.4024383500689571e-02
      -1.9344404209666211e-02 1.1878104008628794e-02
      1.0903798011920990e-02 -1.6044391681132449e-03
      -4.9268114563690056e-03 -3.5016660639036988e-02
      1.6340611497053009e-03 2.4621687394527081e-02
      -7.0464837918167086e-03 -2.2061687326791569e-02
      -2.7778663465834963e-02 1.1914807551743673e-02
      -9.9504872057999119e-04 2.6615534480985518e-02
      -1.3631952218555430e-02 4.4673137530978485e-03
      -1.1424538350998558e-02 -3.3774011921813583e-02
      -6.6555950823125572e-03 -1.1950748925038342e-02
      -1.5831547344454442e-02 2.2690490202807098e-02
      -1.8557946989804998e-03 4.0487035639587884e-03
      -1.4398670877582169e-02 -2.0067570505696106e-02
      1.6102141738453285e-02 3.1817351410716818e-04
      1.6772493344536652e-02 1.7500773987544037e-02
      -2.5678076274772768e-02 1.5736479575638708e-02
      -2.8048303979120912e-03 1.1982910714732073e-02
      2.9205257343500220e-03 8.8661405846901260e-03
      -6.5504945413973059e-03 -2.2954534719664722e-02
      -7.9766451573082976e-03 -8.8142235801903189e-03
      -2.1209075734350359e-02 -2.3333617659532877e-02
      2.7795378215643429e-02 1.7308770856045968e-02
      3.9479068967179856e-03 5.7568135497441369e-03
      -2.2992726170212720e-02 1.0210003769634973e-02
      -1.6931174888102661e-02 -5.0268740140242485e-03
      1.8051582470954359e-02 1.1692354466596323e-03
      8.2285166122389886e-03 7.6965090592631489e-03
      1.4557326248007605e-02 -2.5786418763395529e-02
      2.1300258749848061e-02 -3.9968557190260771e-03
      2.5068404220271569e-03 -5.4948706199733017e-03
      -4.1883705021444409e-03 2.1503475261860173e-02
      9.6374716773665395e-03 -1.1767248031617808e-02
      8.8009752046189181e-03 1.8743431362053621e-02
      -1.1521378273061629e-03 -1.2591887899272340e-02
      2.7781887664441582e-03 2.2319542745761065e-02
      4.0211873982706280e-02 2.1239983524610057e-02
      -1.9216650975379734e-02 -3.2477842988301406e-02
      1.4449564625632363e-02 -4.7081762382845463e-02
      1.5263823432358785e-02 -1.3800961254969829e-02
      -3.2490616828556002e-02 -3.0084537742720512e-02
      -3.9991425408228330e-02 -1.7118365154852648e-02
      -1.5505580543221067e-02 -3.9671487313458322e-03
      1.4592704943930173e-04 3.4989194722426571e-02
      -8.5042365899177103e-03 -4.6796745154883759e-02
      9.9923201441072147e-03 3.4950140864832648e-02
      2.8165424078005711e-02 -2.3880939463318679e-02
      8.9053545249588029e-03 -3.8426204910549662e-02
      -5.2191110189936801e-02 -9.6327899577592097e-03
      -8.5705480228937432e-03 -7.4391105460633374e-03
      4.0806745698576136e-03 1.5259416677826517e-02
      -7.6395033035174635e-03 3.5930186154356017e-02
      -3.6115277417691628e-03 2.1172251756793922e-02
      6.0966737118925939e-03 -2.3357940451311131e-02
      -1.5430216923464796e-02 -1.9832544012988562e-02
      1.6515936363194282e-02 -7.3628406061520104e-03
      1.1260905751712577e-02 -7.9160085380412110e-03
      -9.0008047279922475e-03 -1.2756482272209704e-02
      -1.2400099573345444e-02 -1.0133990835503081e-02
      -8.9277196449383308e-03 -7.5239226520922558e-03
      -1.8483047233452208e-02 -1.3172885635227523e-05
      4.1079945532354317e-03 2.1013689042944043e-02
      2.8790761828616486e-02 -9.9371597365047939e-03
      -3.8166967097386581e-02 -1.3988671184851963e-02
      9.4980922436935442e-03 8.8004550514004208e-03
      -1.4854342022138486e-03 4.8399494246943410e-03
      -6.3675921180544829e-03 1.2815161865756503e-02
      1.1382297153532913e-03 2.5633478390961490e-03
      1.2547215498468553e-02 -2.5140660461564913e-02
      9.4321390890042805e-03 1.8038449055359198e-02
      -3.1453268786064644e-03 3.1691195878374795e-02
      -1.0647041038003813e-02 -2.1406161268804166e-02
      3.6817429555321843e-02 -5.2612341076174974e-03
      -4.8637793250406449e-03 1.1079618939191424e-02
      -1.3135112166092141e-02 1.3325996865230172e-02
      -2.1447078972001127e-02 1.7470990772354512e-02
      1.4593922201467277e-02 -8.7792415608000732e-03
      4.5796359144862020e-02 1.5147178041173326e-02
      1.0161346066686679e-02 2.1796021807304347e-02
      -7.0403156665250956e-04 -5.0449341901380633e-03
      -4.2091123705801671e-04 -1.0947795394385468e-02
      1.3799021098063287e-05 2.9795659873204840e-02
      1.1405878351125267e-02 -2.8258527687602494e-02
      1.1501686808719554e-02 2.6091555871683275e-04
      1.2461907106994987e-02 -7.4413076433546589e-03
      5.7938482129558794e-03 3.2264685891105822e-02
      1.2518324310747370e-02 2.0568674065218444e-02
      -8.6328394015947798e-03 -2.2193886841662600e-02
      -6.3637279923934899e-03 -1.4539326565576213e-02
      7.9930680519579498e-04 -3.2578397233193543e-02
      -5.2037146871353267e-02 -1.4764820820514613e-02
      -1.0088696520487201e-02 -5.9131277687318124e-03
      5.6538738079625070e-03 9.0510442206643525e-03
      -3.3213446659566999e-02 1.6951626862598618e-02
      1.4915287760499114e-02 -3.5578637136969953e-02
      6.1839740382517924e-03 1.7888784270710719e-02
      2.5272572946795371e-02 1.3740934930324260e-02
      4.9157712763921897e-02 1.5262193245410524e-02
      -2.2230586589059013e-02 -8.4353296851316303e-03
      8.1263197021517204e-03 2.5834222763328037e-02
      6.2265480545899247e-03 -6.3665304902888326e-03
      -1.9655600938637715e-02 1.3063154426356655e-03
      -1.8625735580551719e-02 -3.4980597923563537e-03
      -3.2851541495739281e-02 5.1557413488555557e-03
      -1.1930269779504496e-02 -1.4955098096089711e-02
      1.3788934219939973e-02 -3.9595896275699000e-03
      3.2780713410088702e-02 -3.0037259138122226e-02
      1.0950776595252648e-02 1.1692908009061020e-03
      7.8615841770625656e-03 2.3138249664213500e-02
      -1.7299667917586817e-02 6.6729926046882231e-03
      2.4755267087229981e-02 -9.6991576337366985e-03
      1.3145667737545911e-03 -4.8034843196617126e-02
      -9.3304752846540620e-03 1.7127213126043407e-02
      3.4808826510675552e-02 7.8376450796794374e-03
      -1.2960192237192282e-02 1.6300358621698621e-02
      6.1913651109952970e-03 -2.1877009110003120e-03
      -3.1539196336936698e-03 -1.6437719301767160e-02
      -1.2058549114008209e-02 1.4589932452141964e-02
      2.0330063021505966e-02 -2.8077612824249587e-02
      -2.8478364782637509e-02 9.0804123716752127e-05
      2.1339780008794381e-02 -2.3051893411327802e-02
      2.4491369393381996e-02 9.4442009618040026e-03
      -3.1264678308568085e-02 -2.2106169451669663e-03
      -7.5092707825938102e-03 -2.5580602720418691e-03
      -9.4319293355975171e-03 -1.7943514467528874e-02
      7.5410235794501962e-03 -7.1391975904064060e-03
      -9.1455935467130555e-03 1.0185460497230190e-02
      -3.4376646921649497e-02 3.5671373267587001e-03
      -9.0987635763343036e-04 3.5038015082330815e-02
      -2.8709655764229893e-03 2.7222927508394532e-02
      8.0228407162670251e-04 2.1760961147533946e-02
      6.9896899650179140e-03 -8.5172887045729100e-03
      -1.8326834577759840e-02 1.6676797149096673e-02
      -1.6782877243363720e-03 5.5087662044924412e-03
      -1.1707926552660048e-02 2.1690890386438493e-03
      -2.6827102871621786e-03 -1.5210875531107095e-02
      -3.4265570924115613e-03 -2.6037018480898712e-02
      2.1929016055169934e-02 2.5753535275325264e-02
      -3.1771925844868536e-02 1.1644615382292058e-02
      1.6670253026013038e-02 6.6367980385337848e-03
      1.6869870909381541e-02 2.9021764732986982e-02
      3.4282043040175209e-02 2.4030504423786493e-02
      1.7285262027813452e-02 -2.6309538151985073e-03
      -1.5945103780843742e-02 8.8967147961393339e-04
      6.4097438435171397e-04 2.7383080736165813e-02
      -1.5474145437938446e-02 1.2311907184179407e-02
      4.2954189503286652e-03 2.7029955171639128e-02
      4.1771637078001492e-04 5.4369451372009228e-03
      2.5746006094759251e-02 2.0918350761416297e-02
      1.4096884578795824e-02 2.9592909726679054e-02
      -1.5528319962189883e-03 -3.4568861268025712e-02
      8.5627752024948819e-03 -9.0323679903248459e-03
      3.3869987165849866e-02 4.2020162137322908e-03
      -1.0796374084280493e-02 -1.0627511288076560e-02
      1.8069479094798901e-02 8.3944177786347933e-03
      6.9674490792474321e-03 -1.8546785596356606e-02
      -4.5365008998997820e-02 1.7387931323836536e-02
      -4.3120627555831240e-03 2.0715641002070927e-02
      -2.1386126607434452e-02 -4.3829932920894576e-03
      4.1467964586485460e-02 1.5240569330103414e-02
      8.0334576558943604e-03 2.2082139243775393e-02
      -2.4000388800334595e-02 5.5774679848140066e-02
      -4.1556198183263435e-03 -1.3437253788201747e-02
      -3.7595881071801632e-02 -4.9746616034252331e-02
      -1.5188562303183070e-02 3.8831524834038955e-02
      3.2808961392665044e-02 3.6011301808007927e-02
      -7.1105728896579991e-03 2.6347688612714186e-02
      3.7552297627128513e-03 7.2865405825781994e-03
      -1.1793748053340259e-02 -2.6525688600815274e-03
      2.2811621300380513e-03 -1.8131937244583785e-02
      -3.0057731276299019e-02 6.1771770843000997e-03
      -3.5883806591194816e-03 -2.7795816019146182e-02
      3.6045327980265628e-02 -1.3749247604835984e-03
      -1.2845636743398267e-02 -1.3652232028288536e-03
      -2.8631291761195367e-02 1.1639599607543988e-02
      -7.9130471022399729e-03 1.0825107345965604e-02
      -4.7249897373512331e-02 2.8626408012016470e-02
      3.6727135162074528e-02 -1.0292021425551518e-02
      -5.6008234481786968e-03 -4.1022532132356779e-02
      2.3733366537929648e-02 -1.3828067268966637e-02
      3.2204150591204741e-03 -2.8675711710386326e-02
      -3.7561186539544530e-02 4.1897962123107271e-03
      1.2549049124253281e-02 -4.5695605643326753e-02
      2.5228475515799591e-02 -8.7565350676683685e-03
      -1.8209433478408098e-02 6.8092993995843036e-03
      -1.7546558290223661e-02 -1.2446348488802403e-02
      4.2620057397532031e-02 9.9232778782673749e-03
      -3.7250580602937046e-02 -1.0861008594119443e-02
      -9.2921487922682580e-03 -5.3871190175880330e-02
      4.1394564207734942e-02 -5.3609027013925191e-02
      5.3839994244917790e-04 -5.7211794204534414e-02
      -1.9257466298644055e-02 -1.8928683331716732e-02
      -1.5374968578092944e-02 1.7581443793752285e-02
      1.7257499312063267e-02 3.8485906639148001e-03
      6.8200785851240510e-03 -2.5745462755084967e-02
      8.2977965575804953e-03 7.2779708296201126e-04
      2.0395452268674136e-02 2.4570527604963054e-02
      1.6744712575554880e-02 1.6962774736475224e-02
      -5.9591150715331491e-02 -2.2479595879383162e-02
      8.8079826166340483e-03 -2.0890178388404167e-03
      1.6230200899764909e-02 3.3509319174948371e-02
      -1.6628176313224885e-02 1.9643393169199594e-02
      -2.9744494205072570e-02 5.4841134322358133e-02
      4.6017409127526450e-02 -8.8438438389644922e-02
      -6.9701340731964018e-02 1.1138506835185308e-01
      -5.8628457647381442e-02 -1.4797458142690621e-03
      -1.3061964963744491e-02 2.3654216113845758e-02
      -6.0756532298006358e-02 -3.0441098471974945e-02
      -5.9598918635127979e-02 -4.3947271104021135e-02
      -2.9539663323488518e-02 -1.0123257302039877e-01
      1.4508540425758842e-02 -3.4539570696126745e-02
      3.6212546733777472e-03 9.7886378067730415e-02
      4.8700270928414426e-02 -1.1726912106915862e-02
      -2.0923852155751380e-02 -1.1958371631363795e-02
      4.3334909679712333e-03 -2.0860300997064159e-02
      1.3853727519731442e-02 4.7308623887097008e-02
      -6.2967138109137094e-02 5.7511789057692900e-02
      -9.3464614554126760e-02 1.1154047681041350e-02
      -5.0270534644168773e-02 1.0953516675662155e-02
      9.3368268903551779e-03 -3.6151632770560237e-02
      3.7311137021445902e-02 5.9544502748931513e-02
      -4.4208102041881817e-02 -4.4073528329853680e-02
      6.4965916438409571e-02 -2.2184457098675080e-02
      -5.4072812433703810e-03 3.7770291582114972e-02
      1.2290667285678059e-02 6.4525988385182809e-02
      -2.3485485588498705e-02 -7.0747190764150994e-02
      7.0112517994859430e-02 -6.9283022742667982e-02
      4.1845905746643916e-02 3.0716484843471892e-02
      7.0927754572321283e-02 -1.6879583278829692e-02
      -3.0021145784956474e-02 -1.2465214779809083e-03
      6.6157824421501490e-02 -8.7415482127782759e-02
      1.1278086259602807e-03 9.0037551897634224e-02
      2.5296593068892426e-02 -7.1426588933341190e-03
      9.9096121855555882e-03 -2.6006419677583111e-02
      3.8200371704203054e-02 -4.6568225887542371e-02
      -1.9216758019760614e-02 4.6266272014672087e-02
      2.5678852869910583e-02 3.8946030179116319e-02
      -6.2664765964811270e-02 -4.1372239000670011e-02
      8.2465864879111991e-02 -5.6800300246516763e-02
      -6.5437916221166362e-02 7.7088468102366843e-03
      -1.2940039936100239e-01 -5.3064462035145588e-03
      -1.1393372994241398e-01 -8.5739948045758727e-02
      -8.9130225895533849e-02 -2.1109747388881543e-02
      -3.2826852750670842e-03 5.5667365476644935e-02
      -3.2502545320903492e-02 -6.3454322626418230e-02
      9.1671512368336240e-03 3.7726767965515454e-02
      7.3967542851077012e-02 -7.4225722518503817e-02
      5.5157496827146976e-02 -9.5385887443115283e-02
      -9.2680759085324013e-02 -5.8196564059088136e-02
      2.0901213002509282e-03 -3.5420567705443211e-02
      -2.2074697097019518e-02 -1.5845490379705895e-02
      -2.6361374097632371e-02 1.0593969383289706e-01
      6.7205980433215767e-03 1.2916042390097670e-02
      5.9912263151011332e-03 -6.2725580250520213e-03
      -1.2928821426235710e-02 1.9956513460277544e-02
      -2.7358129445362620e-02 4.4365439954309721e-04
      9.3391723130898819e-03 -2.3477644209273795e-02
      -1.2488508474916946e-03 -1.5710611676292521e-02
      -3.9153538305694742e-03 -2.9684972611542140e-02
      -1.9759937921814630e-02 -9.5182176273543567e-03
      1.9911265026072739e-02 -9.9662607012357407e-03
      2.1168603461977763e-02 -1.7254111003640587e-02
      -3.7049321386125579e-02 1.0997850145200980e-02
      5.0997818021766929e-02 9.2900194319629828e-03
      -1.3777642412785875e-02 -1.9411076226234995e-02
      -2.3823340519239160e-02 -1.0471908036482786e-02
      -2.6372540789767296e-03 -3.6436493082817191e-02
      -4.4411002807621142e-02 1.6734452945645767e-02
      8.4763057072276288e-03 -2.5838220199785631e-02
      -2.4411389964718217e-02 1.3659930919146628e-02
      1.2314841240508842e-02 -1.7241020663881921e-02
      8.5562095239314767e-03 9.5202941060805700e-03
      -2.3048081954772450e-02 5.9371895811940207e-03
      2.6064812158805551e-03 -7.1119335021306998e-03
      6.2403225087648119e-03 -5.9082857048933053e-04
      -2.2332038909454146e-02 -5.4263642946570338e-06
      2.0212791125757384e-02 -6.1104488673727097e-05
      -1.3806595537386663e-02 -2.4039837379184140e-02
      2.0903298248303857e-02 -3.5856943938985099e-04
      1.6157357089203787e-02 1.6685445054467927e-02
      -8.9430483410745179e-03 -3.3634877957611067e-02
      1.8438168419975458e-02 9.9807336389684661e-04
      -1.0188583246165211e-02 2.8339459602748862e-02
      -1.2589269260648009e-02 2.0631441345310395e-02
      1.8679648558367486e-03 -1.9037401982492437e-02
      -8.9204186389995610e-03 2.0918549047118890e-02
      -3.0934710148900452e-02 9.8767564075905763e-03
      -8.4635508471930156e-03 1.0232444212382156e-02
      2.1357739697713821e-02 1.0328770499452132e-02
      -9.7872038161790978e-03 -2.6856210282450422e-03
      2.3265167137290124e-02 2.4248875043049501e-02
      -1.9535394434632154e-02 -2.1143829803525326e-02
      -4.4564985401313907e-03 -1.4684986237520880e-02
      -2.1708946590441085e-02 2.2380493989565581e-03
      -1.7242542604536247e-02 2.9694132127449858e-02
      -1.3121426292154448e-02 7.3178103279858712e-04
      -1.6175991432006623e-04 -2.5840987571770706e-02
      -3.8392746006474431e-02 -4.1325023984350229e-02
      3.2662184133389068e-02 4.0125861394859970e-02
      5.2380556953768431e-03 -2.7057683046917808e-03
      2.4132150285048729e-02 -1.6097435734691606e-02
      3.0036369215023093e-02 1.4430288848336907e-02
      2.5203236548209676e-02 2.0777135811467784e-02
      -2.3396671981118028e-02 -4.8401316539466643e-03
      -8.6351672372419579e-03 1.5465438413848511e-02
      -1.6080937468069333e-02 -3.1251954046736946e-02
      7.2468997541818075e-03 -2.8744112756245704e-02
      2.0472189528942700e-02 -5.2024040043682695e-03
      1.5969131861443570e-02 -2.0250453247989148e-02
      -4.1871051852385509e-02 -1.3029536724511332e-02
      2.4921049237371016e-02 3.1219070990078032e-02
      2.0479259708771770e-02 -2.6871250274082496e-02
      -5.0438407463755663e-02 9.0357397126652715e-03
      4.6242944805147665e-02 -1.4193600808614230e-02
      2.3600001910958285e-03 -4.9467329249333883e-03
      1.7149656925299565e-02 -1.3504104851109887e-02
      -3.6148995547127361e-02 -9.2105021822991087e-03
      -5.0074000766450695e-02 -3.6452896487332909e-02
      -4.8545939275319156e-04 -4.5565146657946691e-02
      -9.0213622163805331e-03 -3.2173886984411232e-02
      3.9155588254517974e-02 -1.4811244409548653e-02
      4.0337644235243783e-03 2.2888782908332900e-03
      -1.4807230107641131e-02 -2.9017644502654885e-02
      -3.3236590881150885e-02 -1.1872632688844358e-02
      -2.2443829088802013e-02 -1.6513291697456745e-03
      -8.6696366369589002e-03 -3.5326986660905266e-02
      1.0867392167302373e-03 -4.1756706124912994e-02
      -2.7295287597322984e-02 -4.5107779814487131e-02
      2.0898195317817898e-02 9.1856342582275763e-03
      9.8053854728762137e-03 9.0440682664050687e-03
      -1.4557272732065436e-02 -3.6535626928685665e-02
      -1.3131422677062935e-02 1.2853384063724240e-02
      -1.2151728257593317e-02 3.8443627772701897e-03
      -5.2821546884702329e-03 2.2877945118777721e-02
      1.6371379093435390e-02 -1.0835652060871264e-02
      -1.4058965460015902e-02 -1.4002087507476677e-02
      3.7702229873473828e-03 -2.0213454837603118e-02
      9.4253215681689758e-03 -5.6889502858659974e-03
      1.9048356466194147e-04 -4.4868036961429776e-03
      2.0910560711606064e-02 -3.8166897732633834e-02
      3.2169683887295762e-02 1.1517136047053034e-02
      -2.3957051580263879e-02 -1.7530088746646875e-02
      -6.9361586876454159e-03 -2.3640636421302666e-02
      -2.7273019724687590e-02 -1.4936896204953015e-03
      -1.4304420758431984e-02 -1.3840472865011930e-03
      1.0626783337005494e-02 1.9062672052671620e-02
      3.8355034922099220e-02 -1.2910228934480102e-02
      -2.5675091949765826e-02 -3.1986272274073080e-02
      1.5720152113746111e-02 2.0171907693381551e-03
      -9.9815402755302650e-04 2.1752850916602361e-02
      2.1361697698695406e-02 -1.0184057312236991e-02
      1.5597164774293895e-02 3.5147999750449278e-02
      3.9862092430181538e-02 3.2792739950271682e-02
      -2.0096977893863357e-02 -4.4161128949364845e-02
      -1.0318838828601606e-02 1.2565453652046503e-02
      -1.8669411867387117e-02 -1.1696299266884725e-02
      -1.7145574304487869e-02 -4.3237351968505883e-03
      -2.0771803196611427e-02 -1.7696755405438538e-02
      -1.2667759993902362e-02 3.3364306559563084e-03
      -1.7537614162073847e-02 -3.2469379749395469e-02
      2.6095430193810450e-02 2.6309285472856436e-02
      7.9407725288573698e-03 5.8674808405891121e-02
      1.3521022434670221e-02 1.7441430274685372e-02
      -2.3237394285985934e-02 -1.6434885528151380e-02
      -5.0273066511772914e-03 2.8512650099700085e-02
      -3.5883616643079628e-03 3.7519692570297518e-02
      -1.8333864990157076e-02 6.1063293057546653e-02
      1.6067299981669533e-03 -1.0947629484865207e-02
      -4.0945098548056801e-02 -2.0822284906891239e-02
      -6.2537696426288357e-03 -2.5409357564893372e-02
      2.2613228927208965e-02 -5.8133418670981178e-03
      -3.8007829169937120e-02 -1.6455682701310329e-02
      2.4115922074363746e-02 -1.2192819191378288e-03
      -9.2961576869940252e-03 4.7482536540263795e-04
      -3.4962303331659466e-03 1.5670872780877934e-02
      -1.3900500868518064e-02 -1.6727163161393631e-02
      -9.9810837352542776e-03 -1.4378598525985796e-02
      1.4095022822055459e-02 -2.9943619978244594e-03
      2.3483277305333523e-02 1.2935481424200684e-02
      3.1496024540573021e-02 2.4389319061210626e-02
      7.6259984273521911e-03 -2.3859578170040148e-02
      -1.3449602275192809e-02 4.7594254158995146e-02
      2.4519431815047701e-02 -2.9165154226076150e-02
      1.2759058376501521e-02 2.6618239298414954e-02
      1.0142816581104027e-02 2.1853391034742674e-02
      -2.6871472757381915e-02 7.3248552580154067e-03
      2.9813164097762614e-02 1.3042369303534612e-03
      -5.3955940232272764e-02 -3.9466332734908870e-02
      1.0284549275306634e-02 -7.0748196132100469e-02
      2.2280304562037240e-02 -5.3013560544205487e-02
      -2.2308413963772384e-02 -2.6807675012817063e-02
      -3.8261108114021745e-02 -1.5392458069501399e-02
      -1.6907754168960721e-02 -8.5812420576038620e-03
      -3.5794531577454637e-02 3.6634857003120989e-02
      -2.1521741025009582e-02 -3.2196725249528518e-02
      8.3951149120713546e-03 2.5600051369598420e-02
      2.1022133467983668e-02 -2.8242225347458159e-02
      1.7811061430926780e-02 -1.9448950095267876e-02
      -3.5861630118704656e-02 -4.6764491535441384e-02
      1.5121291333168013e-03 -6.3750725773758198e-03
      1.6294318002191541e-02 7.7461565063058726e-04
      -2.4209274823767505e-02 4.6406595491591443e-02
