<?xml version="1.0"?>
<opencv_storage>
<opencv_ml_ann_mlp>
  <format>3</format>
  <layer_sizes>
    19 50 50 50 24</layer_sizes>
  <activation_function>SIGMOID_SYM</activation_function>
  <f_param1>6.6666666666666663e-01</f_param1>
  <f_param2>1.7159000000000000e+00</f_param2>
  <min_val>-9.4999999999999996e-01</min_val>
  <max_val>9.4999999999999996e-01</max_val>
  <min_val1>-9.7999999999999998e-01</min_val1>
  <max_val1>9.7999999999999998e-01</max_val1>
  <training_params>
    <train_method>BACKPROP</train_method>
    <dw_scale>3.0000000000000001e-03</dw_scale>
    <moment_scale>0.</moment_scale>
    <term_criteria>
      <iterations>2400</iterations></term_criteria></training_params>
  <input_scale>
    4.1234069564048683e+00 -1.9137028279173260e+00
    9.6789511930956600e+00 -2.1281508663193325e+00
    1.0586368363768159e+01 -1.9561454569637300e+00
    1.2008810007948147e+01 -1.7422133653269913e+00
    1.3501957256562774e+01 -1.4665218241363658e+00
    1.7349144057545914e+01 -1.4167187967732895e+00
    2.1310416751113667e+01 -1.3710629692622556e+00
    2.7676360760571846e+01 -1.4747444725784709e+00
    3.7709013349076621e+01 -1.6213112935068941e+00
    4.6076539209336900e+01 -1.6639392797856138e+00
    5.9837986787551806e+01 -1.8496771083677648e+00
    6.6547147572822510e+01 -1.7885471606154941e+00
    7.7123121627916035e+01 -1.8506455553755581e+00
    8.5866492795600024e+01 -1.8714217196648057e+00
    9.7772375047325269e+01 -1.9075904609417289e+00
    1.1287061384138084e+02 -1.9893596801307347e+00
    1.2140659728073884e+02 -1.9591581351817819e+00
    1.3825896825673485e+02 -1.9962422193886025e+00
    1.5266334984185437e+02 -2.0263353426936730e+00</input_scale>
  <output_scale>
    5.2631578947368418e-01 4.9999999999999994e-01 5.2631578947368418e-01
    4.9999999999999994e-01 5.2631578947368418e-01 4.9999999999999994e-01
    5.2631578947368418e-01 4.9999999999999994e-01 5.2631578947368418e-01
    4.9999999999999994e-01 5.2631578947368418e-01 4.9999999999999994e-01
    5.2631578947368418e-01 4.9999999999999994e-01 5.2631578947368418e-01
    4.9999999999999994e-01 5.2631578947368418e-01 4.9999999999999994e-01
    5.2631578947368418e-01 4.9999999999999994e-01 5.2631578947368418e-01
    4.9999999999999994e-01 5.2631578947368418e-01 4.9999999999999994e-01
    5.2631578947368418e-01 4.9999999999999994e-01 5.2631578947368418e-01
    4.9999999999999994e-01 5.2631578947368418e-01 4.9999999999999994e-01
    5.2631578947368418e-01 4.9999999999999994e-01 5.2631578947368418e-01
    4.9999999999999994e-01 5.2631578947368418e-01 4.9999999999999994e-01
    5.2631578947368418e-01 4.9999999999999994e-01 5.2631578947368418e-01
    4.9999999999999994e-01 5.2631578947368418e-01 4.9999999999999994e-01
    5.2631578947368418e-01 4.9999999999999994e-01 5.2631578947368418e-01
    4.9999999999999994e-01 5.2631578947368418e-01 4.9999999999999994e-01</output_scale>
  <inv_output_scale>
    1.8999999999999999e+00 -9.4999999999999996e-01
    1.8999999999999999e+00 -9.4999999999999996e-01
    1.8999999999999999e+00 -9.4999999999999996e-01
    1.8999999999999999e+00 -9.4999999999999996e-01
    1.8999999999999999e+00 -9.4999999999999996e-01
    1.8999999999999999e+00 -9.4999999999999996e-01
    1.8999999999999999e+00 -9.4999999999999996e-01
    1.8999999999999999e+00 -9.4999999999999996e-01
    1.8999999999999999e+00 -9.4999999999999996e-01
    1.8999999999999999e+00 -9.4999999999999996e-01
    1.8999999999999999e+00 -9.4999999999999996e-01
    1.8999999999999999e+00 -9.4999999999999996e-01
    1.8999999999999999e+00 -9.4999999999999996e-01
    1.8999999999999999e+00 -9.4999999999999996e-01
    1.8999999999999999e+00 -9.4999999999999996e-01
    1.8999999999999999e+00 -9.4999999999999996e-01
    1.8999999999999999e+00 -9.4999999999999996e-01
    1.8999999999999999e+00 -9.4999999999999996e-01
    1.8999999999999999e+00 -9.4999999999999996e-01
    1.8999999999999999e+00 -9.4999999999999996e-01
    1.8999999999999999e+00 -9.4999999999999996e-01
    1.8999999999999999e+00 -9.4999999999999996e-01
    1.8999999999999999e+00 -9.4999999999999996e-01
    1.8999999999999999e+00 -9.4999999999999996e-01</inv_output_scale>
  <weights>
    <_>
      -3.0507702628556825e+00 1.8009756313020298e+00
      -2.4520588601795761e+00 3.3115195831788733e+00
      -7.0091488393468748e-01 2.3846383524890244e+00
      6.6724840661015272e-01 1.5421367432906170e+00
      -2.4934191807307431e+00 1.4024495625882323e+00
      2.3778839978155739e+00 2.8828086643952879e+00
      -9.1701142614460496e-01 1.3532603119203932e+00
      -3.7216088028353300e+00 6.9807959447829371e-01
      -2.0942743318712395e-01 3.5418020666885019e-01
      2.6516346329402380e+00 2.6455717395888656e+00
      1.1415178144074474e+00 -3.7037320111456542e+00
      -8.2122734932059371e-01 -1.0675967240421544e+00
      -2.6362514440823881e-01 -1.2002360076427989e+00
      -2.3124370125274947e+00 -3.1734303539276030e+00
      -2.7996102083739494e-01 2.9783977840755975e+00
      -4.1108116701779135e-01 6.8216598844267140e-01
      -2.0290623042500502e+00 2.7567083065055358e+00
      -1.0552511924131838e+00 -9.2044375816273871e-01
      1.7500696969173213e+00 4.2666505420360523e-01
      1.5837093195049712e+00 -1.9936922335039293e+00
      2.4152688673105245e+00 -9.3170589065534726e-01
      -1.3974816035206785e+00 -1.6997857201940640e+00
      1.6430824845569154e+00 -2.0273048806713443e+00
      -2.8229816019078098e+00 9.6662011253160172e-04
      2.1031042342472994e+00 -1.7233278341988094e+00
      1.3498654629105922e+00 -1.6374405209601579e+00
      -2.1866110933931120e+00 -1.5392776068495739e+00
      -2.2385959770739969e+00 1.8601348858735476e+00
      1.1552238729855591e+00 1.7853783100035239e-01
      1.6130393471398350e+00 1.2034458951280655e+00
      -1.5690688436365856e+00 -3.0127970542151883e-01
      -3.0211453780169601e+00 1.8351775145622878e-01
      9.0284928157759237e-01 1.8351607803636666e-01
      1.2348430534265924e+00 1.6529127545854780e-01
      5.2326263102737125e-01 -5.6976094155989532e-01
      4.8058301719993093e+00 -1.1252379464718216e+00
      -3.9230940925449298e-01 3.0897998212736497e+00
      -8.6244872822623719e-01 -2.9669664831129596e+00
      -3.0586495153427617e+00 1.3025714251950073e+00
      -1.5137028431646447e+00 -6.4728567384660274e-01
      -3.5606258998794447e+00 -2.2983234678169246e+00
      -1.7237119168418791e-01 5.2340692675900502e-01
      2.6411246257005545e+00 -1.4819884542294626e+00
      -5.0964414851289475e-01 2.3638258341698606e+00
      -1.9955148727410048e+00 -2.4512451767117738e+00
      -5.1901237834667202e-01 8.8150371399091487e-01
      -1.1438569095663313e+00 1.5939001150830510e+00
      6.2716169011069800e-01 -1.2318252516733137e+00
      1.1405031907281431e+00 2.7658583842665756e+00
      2.0236035773596694e+00 1.5184018955038114e+00
      2.2251271807091686e+00 -2.6620963291216913e+00
      -8.1986285088072253e-01 -8.0384026392871866e-01
      -2.0419674685034583e+00 2.6105557883828365e+00
      -6.4523378948348642e-02 3.3372039363746936e-01
      -1.4012350907149036e+00 -2.0173530863718985e+00
      -8.3648751926301157e-01 -2.1494209766461059e+00
      -1.4741856739956858e+00 -6.9059712578732713e-01
      -3.8625921975811661e-01 -3.6095499079665361e-01
      -1.4661960921229020e+00 2.9929017217323532e+00
      -2.0639787981153233e+00 1.8359710865894121e+00
      2.1198221590867936e+00 2.7907118531344571e-01
      3.9857769687168332e-01 -1.4926665848479095e+00
      -2.0939862527455526e+00 7.5558835382765044e-01
      2.1178465136654694e+00 -1.5251602077811950e+00
      -7.3702482145233991e-02 -1.0645213606988067e+00
      4.4102384252473692e-01 -1.5088142324730225e+00
      2.8315831475959352e-01 3.0771048747757956e+00
      3.9844326002353840e+00 -2.5656451483659004e+00
      3.2948814505190555e-01 1.9178384884104760e+00
      6.9193115050037257e-01 -4.8287993766763300e-02
      9.0678633401176889e-01 -3.1723014464638837e+00
      -3.6727290890388162e-02 3.4993997026812345e+00
      9.0728774548145663e-01 1.4825537172554475e+00
      9.2581083015038812e-01 -1.5787689298298864e+00
      1.3043129158362110e+00 -7.7273447057287736e-01
      -2.3092286075922335e+00 -6.2023736695658138e-01
      2.4713640519330524e+00 -2.4545744184751674e+00
      1.1560928266191177e+00 5.2036892800394696e-01
      -1.5125718959172541e+00 1.9501126323615783e-01
      1.1538811774655482e+00 1.3856991206755140e+00
      3.4369731536288817e+00 9.6196671522473376e-01
      -2.4237422342302097e+00 -5.9853316324848793e-01
      -2.2325968326468164e+00 2.9827247633534117e+00
      -1.0451256677972950e-01 1.6855031905524132e+00
      -1.3612879098269732e+00 1.2582120631890611e-01
      -1.5754847827654335e+00 5.2232771947763135e-01
      1.7459951602211345e+00 7.0591010494216655e-01
      -3.5062006333620233e-01 -3.1874602598059618e+00
      1.9433916954341310e+00 -2.4295953175426526e+00
      2.7509089480501538e+00 1.1504244613766158e-01
      4.7704356798090392e-01 -1.7798726528535442e+00
      1.3352148251756306e+00 1.8317043170185068e+00
      6.4075908610494792e-01 -7.1519105057628041e-01
      1.5613073553804926e+00 9.7945118350115024e-01
      1.1970091155139568e+00 5.2681094753483371e-01
      -1.5337542191185438e-01 5.9020067251611530e-01
      6.0410167153615354e-03 -8.2036915741791039e-01
      -3.2140562807337583e-02 1.1369918494014752e+00
      -1.7520778495192204e+00 4.1819850036858712e+00
      1.6532623731552321e+00 -4.0856978288527479e-01
      -3.8776633281321775e+00 1.4429693207481264e-01
      -3.3060573367025312e+00 2.4558061892198113e+00
      -5.1493387899462855e+00 8.5681637219882667e-01
      3.6648410906646084e-01 3.4835693326947481e-01
      4.1984417733813234e-01 -2.8735369401596822e+00
      -2.4683018257721470e-01 4.6935483095680269e-01
      1.4601820227994939e+00 -1.8994611820316261e+00
      -1.1792962151652941e+00 -8.4760768517836216e-01
      -3.6393665527819743e+00 -6.7982843700785400e-01
      2.2068491664086007e+00 -1.7559022288029837e+00
      1.1770144608503343e+00 1.2653618875590732e-02
      1.8197801305278483e+00 -1.9914199129300107e+00
      -2.6609883062972584e+00 -1.9979802386394627e+00
      1.3247010382690032e+00 1.1656763702841300e+00
      5.1756580116044371e-01 -9.7541386137740205e-01
      1.5847608745714163e+00 8.2631988966004244e-01
      1.9393832603166730e+00 -1.3091680600543407e+00
      1.8360175785905279e+00 3.3059090562983120e+00
      7.7204806927101421e-01 1.9398111446734265e+00
      -8.4263920151263527e-01 2.8555225050123134e+00
      2.7527891036836294e-01 7.1544636281761831e-01
      -1.1235395931955070e+00 -1.1900389090998873e+00
      1.1563615090577304e+00 1.5846846042894527e+00
      9.4415499991789609e-01 -1.3648109610761053e-01
      7.0428272029348138e-01 2.4113254324950339e-01
      -1.2347937172194032e+00 5.4441612211498047e-01
      8.1272745504105359e-01 -5.0691098444531868e-01
      -2.4105128508960210e+00 -1.5065082804877992e+00
      2.6937752821111709e+00 7.0788246372166408e-01
      -1.2650403480064334e+00 6.8841002048988562e-02
      -1.6984665770536198e+00 2.8306394688588887e-01
      -9.2603481173784530e-01 -1.5010624392332867e+00
      2.7190592268427785e+00 3.5016556844085794e-01
      -1.8818799226425604e+00 -1.1094021764597888e+00
      -1.2733004404240613e+00 -1.4692257852436916e+00
      2.6522600940196206e+00 -8.0495192677659852e-02
      2.9708163207389182e+00 -3.4772704467316271e+00
      -1.5569605687194248e+00 2.0717110130221852e+00
      -2.3302337450133463e+00 2.6169067616873570e-02
      1.9135972458904771e+00 2.9147565321929481e+00
      5.5781850744821317e-02 -2.1033695186603962e-03
      2.6311606616550902e-02 -2.5666954727279014e+00
      7.3810162641262489e-01 1.4997787682629726e+00
      -1.3123947286710833e+00 2.8121833884313814e+00
      1.0483566605096208e+00 -1.2320581840234228e+00
      1.1916201506856627e-01 3.2427707985575021e-03
      -1.0317709398973616e+00 -2.5857300850184778e-01
      1.0544381849609143e+00 -5.3247197175671201e-01
      2.1585781610655388e-01 1.1283438323640267e+00
      4.5554478101320052e-02 -1.8617077998166818e+00
      -1.3310791556289565e+00 -1.0323091603072849e+00
      1.1566686062961475e+00 -6.6775578581281303e-01
      -6.1745754177895951e-01 -1.0083372981317035e-01
      4.3356175934961865e+00 -8.9125562304045891e-01
      7.4173875210125240e-01 -9.6473745318153958e-01
      6.2887995921916662e-01 -1.5888836248559438e-01
      5.5736070449181585e-01 8.0185390904231291e-01
      1.0385977354030060e+00 9.7519593160604912e-01
      1.1579563843339393e+00 7.0753027954965941e-01
      -1.3707580391932419e+00 4.6696071380279836e-01
      -3.0201252881309670e-01 -1.3226887649261332e+00
      6.0346312772135391e-01 2.5370737117016953e+00
      -1.0244854070885802e-02 1.6800947818935661e+00
      -1.1196992025854777e+00 -8.2032633706631186e-01
      2.5617255774342473e-01 1.7244079324275932e+00
      6.1155971667518162e-02 2.1851229367392579e+00
      5.7137156774129938e-01 -1.6129891242705134e+00
      -3.7884924064475711e-01 -7.8529397672542334e-01
      -2.2088407415310680e+00 2.9895753612944509e-01
      1.1287600190844147e+00 -9.9579382491825208e-01
      9.5628133513438018e-01 -6.5771150410234158e-01
      1.1828357541863057e+00 -1.5535061789952476e+00
      2.0295088047697614e+00 -1.2642082864794602e+00
      -1.5761421955817401e+00 -6.7638444815688215e-01
      1.6246879578456472e+00 -7.4484783024114209e-01
      6.1190551415343430e-01 -5.2415129823652717e-01
      -1.7321899365703912e+00 -2.8153195754509568e+00
      2.6338349628008495e+00 1.3161797455236031e+00
      2.4365809649443730e+00 1.0873583842245012e+00
      5.7993100480868931e-01 1.2820061070243365e+00
      -2.5055906032490651e+00 1.0688249158582603e+00
      1.2984669305248362e+00 -7.9812387333695711e-01
      -1.8690600262303897e-01 2.1181866515878092e+00
      9.3432085654066732e-01 -1.1017581244671089e-01
      -4.3800830681190850e-01 2.2105385225287050e-01
      3.7600573465059189e-01 -1.4631050225871607e+00
      7.4254088132728130e-02 3.0611712598528784e-01
      -1.4861863188175015e+00 9.3119416267748722e-02
      1.4514660700475703e+00 -1.9610407321236617e-01
      6.7169193666217530e-01 -1.3225646301449856e+00
      8.3574745492882452e-01 1.2210630577282018e+00
      -1.0239111369531091e-01 -1.8412457174246469e-01
      -1.4354826929430147e+00 -4.4285662762802347e-01
      -2.5721605274769885e+00 -2.6679724585458229e-02
      -9.4257299288406515e-01 -1.4653389119192941e+00
      -1.8833983686691183e+00 -1.0546727091123870e-01
      -1.7437121760558911e+00 -1.7158921550211148e-01
      -2.0792002843174875e+00 -3.3684910055668588e-01
      -1.1484426074738308e+00 -1.5125411003974074e+00
      1.2018879077129989e+00 -3.9583878149506857e-01
      2.3647573118439187e-02 1.6155905431151583e+00
      -2.5084803873252976e-02 -7.3643612275244219e-01
      -6.2665160966788525e-01 -9.4979042305669037e-01
      5.8912054241685419e-01 1.3362494098726696e+00
      -2.0067435596323710e-01 -1.3128359287524938e+00
      -1.1193523511386443e+00 1.7116061794518476e+00
      2.8559337479395372e+00 -6.0916061324731841e-01
      8.5294555348738241e-02 1.1592729637666530e+00
      1.1298929588584314e+00 1.5766880552025397e+00
      1.6708554004011208e-01 2.5529721812631854e+00
      -1.9475590994684833e-01 -5.0381402246935225e-01
      2.6571237303156325e-01 -7.5116098837064849e-01
      2.5448208721121418e-01 1.8711236699801557e+00
      -6.1622933088612963e-01 5.8429885456290354e-02
      -2.9567895119327275e-01 2.0092583172511685e-01
      4.7686633049445565e-01 -5.0802691889630502e-01
      1.0943582267462673e+00 2.4965512486112157e-01
      2.8278603812132730e-01 -9.0920781057172662e-01
      -2.7998090323821206e-01 2.8607000089921120e-01
      9.2490003751614858e-01 -1.6634800129051319e+00
      3.8380542767011927e-01 -1.7950244612977029e+00
      1.2579719816796218e+00 -6.9876770289547452e-01
      -1.5306295067072706e-01 1.4381729165407304e+00
      2.1157972432304524e+00 5.5209256043187116e-01
      3.5845358182384063e-01 4.1278150813939907e-01
      -6.2398350242389455e-01 6.5768945676002255e-01
      -5.5895864562505879e-02 -1.7725791551007772e+00
      4.7627163108973125e-01 1.0233810644414831e+00
      1.8553245193454972e+00 5.7298689981191453e-01
      1.2713276726225715e+00 1.1123406608911197e+00
      -1.4188997249919522e-01 -9.8696331763780898e-01
      1.9183893141434327e-01 -1.7986903916460957e+00
      -1.8581297587579784e+00 -3.4267437493984965e-01
      -5.4832717163102507e-01 -3.0910901559112225e+00
      -1.3551455716462888e+00 4.4804409190650374e-01
      2.6194209503400784e-01 -2.0056726786676990e+00
      -1.0542804719869010e+00 4.6276216399215175e-01
      4.1026883468437686e-01 -4.4191551126097711e-01
      9.1443416311167203e-01 -4.7724042833593233e-01
      5.3508580580961318e-01 1.5022460351266602e+00
      1.5951731449579514e+00 2.4459546669043897e-01
      1.1549747164726045e+00 -2.1131153777077496e+00
      3.8477473655587291e-01 7.6260363869195449e-02
      -4.8880299808144917e-01 -1.7892064633849878e+00
      4.7924706338398593e-01 -1.3804405683824270e+00
      1.2677755257632566e+00 -2.8069466131709264e+00
      9.2069251815806585e-01 -4.0679284284173900e-01
      1.5912679716862771e-01 1.3230515525245032e-01
      1.2433152960116900e+00 -7.4089721702554712e-01
      -5.5298545599543347e-01 5.7985111476847206e-02
      1.4175424519996138e+00 -1.1423085399186939e+00
      5.5185529134556177e-01 -9.8560657949896449e-02
      7.3234381784058200e-01 8.1830347441976781e-01
      1.1397305824175941e+00 5.0442672107458786e-01
      1.2693621052092401e+00 -1.6961213065578939e-01
      -7.5286104225096961e-02 -2.4750884156494082e+00
      -2.4734688844361152e-01 6.8315324796157062e-01
      4.0752762870814568e-01 -7.6891925838046615e-01
      -1.0247260659168578e+00 -2.8204903920795210e-01
      -1.7254655935585606e-01 1.9983825299509692e-01
      1.7039483745631721e+00 -2.4979236343543768e-02
      5.2924131183874312e-01 -1.5731577995319077e+00
      -6.1609219084296292e-02 -1.4709994105073667e+00
      -1.2860658352291884e-01 -2.0571822926051847e-01
      1.4991402896581973e-01 7.5272739026521474e-01
      -8.7543862477336942e-01 1.9976771826671418e+00
      -6.4606846111701421e-01 -3.4388241691478427e-01
      4.0738222874538726e-01 1.5183035018353557e+00
      9.9701659601334669e-01 -1.9509733812776928e+00
      1.9654465655024818e+00 9.7932686846552763e-01
      1.7005204285556343e+00 1.4240093451384754e+00
      1.4711528538616809e+00 -4.6960905379745721e-01
      -1.1831918230235985e+00 -1.0356222921348714e+00
      2.8928045825475668e-01 1.1005633272047546e+00
      1.1385487979744433e+00 1.2085996623649877e+00
      9.4361962786145248e-01 6.2377472781119081e-01
      -1.2211454030101400e-01 -1.3623003278569296e-01
      -4.8460234574788552e-01 9.5072541718899384e-01
      1.0079344377705433e+00 1.5493149786595708e+00
      1.4989669949700759e+00 4.5721014404342969e-01
      -1.0467676342055701e+00 -1.2651302156190560e+00
      -2.2274406467899390e+00 1.9014234515614437e+00
      2.0456256114844513e+00 1.6523750895342655e+00
      1.1161662808315393e+00 2.4948717838844168e+00
      -5.0717364309553725e-01 1.2807863543779494e+00
      -2.0953556635014015e-01 2.5426894887309637e-01
      9.7859061490177784e-02 1.5483714078860680e-01
      7.6127627513785445e-01 1.1295989204279961e+00
      5.6378120585842795e-01 3.2349036916626878e-01
      1.4625703589431795e+00 -6.9798612661161574e-01
      -1.3478651524423517e+00 1.7391272341426069e+00
      5.2487990047597333e-01 -4.0901398405683154e-01
      -9.3338804545457388e-01 3.7340924750540050e-01
      1.5894283774879505e+00 -7.0647161384944956e-01
      6.9667643681361258e-01 5.3229066457075336e-01
      -5.5872344787702810e-01 -2.1140667143601463e-01
      4.4935764301467573e-01 -1.9271469004521355e-01
      -1.9300033941738670e-01 -1.0559876144791147e+00
      -1.2518879368705413e+00 -7.9048761471535467e-01
      1.4893972728430271e+00 -1.4718368139916738e+00
      1.2315775176453509e+00 3.5786082098525424e-01
      -7.5643033469848642e-01 -5.5771129767198224e-01
      -5.6810458412941511e-01 -5.4596683549441649e-01
      -1.0566498200513712e+00 8.5827968069354776e-01
      -8.0757260432998335e-01 -4.9755929222262973e-01
      1.1812389790912152e+00 6.2601217244427387e-01
      4.3961362788200542e-01 -5.5151654463182109e-01
      2.1888496407803530e+00 2.5163738070267416e+00
      5.9379050476542239e-01 -3.4992812065976564e-01
      5.3351614781835099e-01 -7.9177710778571186e-01
      -1.9956726829132043e+00 1.1852215169939808e+00
      4.0301701898148351e-01 4.6179652739088450e-01
      -8.9716836303744329e-01 2.0492802525875828e-01
      2.6120074607145782e+00 3.0167007687624764e-01
      -5.4260472393681747e-01 2.6811633240545452e-01
      -1.7024496948346557e+00 3.0621317069828251e+00
      -1.6384743283423042e+00 3.4838363999335747e-01
      1.8070891417260868e-01 3.1410248318596634e-01
      -1.3013395895499300e+00 -3.1986753778656424e-01
      -1.9909289401384265e+00 -6.3182844680314088e-01
      -1.4339241839790371e+00 -1.3855068021885644e-01
      -2.0197447495470628e+00 -8.3213284915713237e-01
      -2.9126388304024314e-01 -1.9478721601410272e+00
      -1.8503798254848720e+00 -7.6893771057536042e-01
      -1.5416091988699183e+00 -1.0494444677558392e+00
      1.1664839029676031e+00 -8.4299227876495531e-01
      1.1670440275451475e+00 3.7223248005404086e-01
      -8.3714688735786114e-01 -3.4338040538798659e-01
      -5.8072952583336956e-01 9.8566213358516719e-01
      -2.3823841350917401e+00 1.5295137317882330e+00
      -1.3487228465669725e+00 -1.9127207858518429e+00
      9.6840064526325109e-01 -5.0245653582446459e-01
      7.1124486914780349e-01 -2.2571724462792975e-01
      -3.3134121588498505e-01 1.9508611187384712e+00
      8.4570707027226377e-01 1.0652258280603399e-01
      -2.4243328167354372e-01 -3.8680159249427609e-02
      1.3254655509062938e+00 2.2163066956005704e+00
      -1.0132501721010685e-01 1.7521103221642185e+00
      5.3429311127952106e-01 8.5450371414751825e-01
      2.2103073260008854e-01 -1.8329074232861662e+00
      -1.8421457429886441e+00 4.7117473005950501e+00
      1.9935196113989020e-01 6.7352997127204273e-01
      -1.5463437284611703e+00 -1.4536118812349124e+00
      1.5868286456575975e+00 2.1621470363187664e-01
      3.6191793899936731e-01 1.2752711886362991e+00
      -1.1605781736973071e+00 1.2644035629735573e+00
      -1.0035781572994724e+00 -4.4568185268087140e-01
      -1.1544569537424425e+00 2.7848373013919719e-01
      -2.4162299495964232e+00 1.0534270902242882e+00
      -9.9713943979938913e-01 3.1310316528536281e-01
      -3.7575969716781915e-01 -1.7566830153273902e+00
      -6.6924744300424022e-01 -4.6903268007400717e-01
      -7.0882155346499509e-01 4.8878935329211809e-02
      5.9009864534628191e-02 -6.0115437952643802e-01
      -4.9902524373604255e-02 -4.4552185678571515e-01
      1.7019323853442712e+00 -2.1473867440331768e-01
      1.1114658248849141e+00 -6.4259901412569620e-01
      6.0870028656549369e-01 -9.9133601453564746e-01
      2.2964860617450067e+00 -4.7288808841388902e-01
      6.0296318098209778e-01 -7.4370710843156794e-03
      -1.9081660254137989e+00 4.6937466617260076e-01
      1.5400521345191254e-01 -1.1271032915793928e+00
      -6.0158591600371547e-01 6.9353096913859469e-01
      4.2616699196172092e-01 -1.0283125916998981e+00
      4.5779877574159972e-01 3.2859962029565948e-01
      7.9714903493149081e-02 1.2059166645561528e+00
      2.4087402696258023e-01 -6.7600838815114284e-01
      -3.1307063402167945e-01 -1.0560616878364384e+00
      2.5196586760637746e-01 6.7411586170007154e-01
      8.1788057388761298e-02 4.1449660166017382e-01
      2.1289221926039978e-01 2.7049663138838975e-01
      1.1889025303726195e+00 -3.2639737201632696e-01
      -9.5898966451590151e-01 -2.8050680554320917e-01
      -2.7118326685186150e-01 1.0224558336361731e+00
      -6.5628075316283307e-01 -1.4907320353445705e+00
      -3.5530737552067443e-01 -3.6035779475592311e-01
      -6.5574963928405117e-01 -1.0349202909946211e+00
      6.9036728823874716e-01 -1.2950800697866942e+00
      -8.4723667075432177e-02 -1.3403002226837077e+00
      1.7324411724347084e+00 2.1885712580633769e+00
      -1.5135971264666959e+00 -1.3107402361134974e+00
      4.7038456380006988e-01 2.3642998050192546e-01
      -4.2127241013571887e-01 1.7559715078053788e+00
      -6.8311387954595904e-01 -5.7544849315449932e-02
      9.5293008833860127e-01 2.0417520323518767e-01
      -7.5154187988750798e-01 -2.0720337036192463e-01
      1.4325769746308630e+00 2.6157161676037027e-01
      2.4641800703963998e-01 2.0807977701342089e+00
      -9.4571400191334920e-01 4.2589671087649278e-01
      1.0804405683837608e+00 -3.7669842690959593e-01
      3.3679880697408993e-01 -1.6764072422982994e+00
      -1.0467412647278120e+00 -4.9575814593157957e-01
      1.4930157106171522e+00 -1.2837334101433358e+00
      7.3125798175660298e-02 -3.4410396183013414e-01
      -5.4879140840990492e-01 2.0589065128727566e+00
      4.4987884723027155e-01 -7.4570696489368693e-01
      1.4025119470474132e-01 7.9035211711251563e-01
      -1.7096259627230090e+00 -4.1922106087776001e-01
      8.9209598408142271e-02 -8.6504554588721957e-02
      -4.8054090001470812e-01 8.4732506118929052e-01
      -4.0409866888687923e-01 -4.8116106095566913e-01
      -1.3216726307043973e+00 3.7019953978116743e-01
      8.8572139826917828e-01 6.6833836184941076e-01
      -6.1247753522680004e-01 1.3187555067597159e-01
      -1.6524320908853030e-01 -6.8613591734046941e-01
      -1.6307888402757931e-01 1.1999135819763020e-01
      -7.7939905782564023e-01 1.1188928295186424e+00
      -1.0602009159455577e+00 -1.1682893654203011e-01
      6.8730768050977631e-01 -1.1681408675326868e+00
      -5.9757524515470905e-03 -2.3619856266888632e+00
      1.4041251171301955e-02 1.7931952915899432e+00
      3.0413631141879161e-01 -6.6856866034533599e-02
      -4.0800081281107309e-01 -1.9334816136398209e-01
      -3.8041491168915746e-02 -2.6884035725498915e-02
      -4.4241501201308531e-03 6.1540537229146730e-01
      -1.1232655141496644e+00 1.3331723079465965e+00
      7.1095137728105062e-01 -4.7790163857193459e-03
      -2.7791289101604938e-01 3.0716482800823341e-01
      1.0691286909816620e+00 -1.5782317672754953e-01
      6.2858377800531695e-01 -1.6750819012313145e+00
      3.3227875466066452e+00 4.7186059425113398e-02
      -7.4707210382324507e-01 4.3899283344168394e-01
      -8.9620523661961926e-01 1.4025852358908617e+00
      -7.0148443076157280e-02 3.0073551050334035e-01
      8.7361464189725102e-01 -1.4180317715187716e+00
      -1.4122719853894878e+00 4.0242548153222840e-01
      -5.6965425025183769e-01 5.5087252029177219e-02
      1.0457788891175173e+00 1.0735678113973401e-01
      -1.6486905145260167e+00 -2.2910336834640666e-02
      7.0958369439413527e-01 2.5385735244262309e+00
      -1.2426850271367424e+00 -1.6056077724700017e+00
      6.2885356535342163e-01 3.4577065465658313e-01
      -2.8539032984637380e-01 -1.0502499045401141e+00
      4.0569442475332534e-01 1.1834699425500070e+00
      -6.4226893531160378e-01 -1.8349989105296944e+00
      -8.1061729761328494e-01 -5.9837013177691867e-01
      -6.2660969196778227e-01 -1.1415056145354576e+00
      -1.2193201345344127e+00 3.1119704627427475e-01
      3.4298949607721080e-01 6.3151759657019491e-01
      -1.4615359313684582e+00 3.0133997848602884e-01
      1.6682799085029051e-01 4.0933424360489623e-01
      5.1731388268709644e-01 -4.8442447391291554e-01
      5.1906173092480590e-01 -2.9004304959461147e-01
      1.8803405715918486e+00 -3.0310144718967258e-01
      -1.2156268347629720e+00 -8.9050470601703569e-01
      -1.1665952931206343e+00 -7.0321624769468960e-01
      8.5439411291897727e-01 5.3573184174342459e-01
      -1.2352798077523468e+00 -3.9349637340950636e-02
      -6.0859218637296320e-01 -8.9503589198069045e-01
      6.4952518585599583e-01 -5.5971868560477332e-02
      -9.3615279209886204e-01 1.5950534474668161e+00
      -9.2214347005936104e-01 3.4728014651583666e-01
      4.4846972230805882e-01 -5.0381870966158804e-01
      -8.5657477255387249e-02 1.2446863611691705e+00
      5.9105875861069834e-01 -6.4353806743789835e-02
      6.7698399810705057e-01 -1.4110405532150730e-01
      2.9883173312419942e-01 -3.6931707355882509e-01
      3.7040718514002741e-01 4.4708441818674677e-01
      6.0938380303704720e-01 1.8790081694815702e-01
      -7.6163555916876791e-02 -4.5371533455069568e-01
      2.0683507574889335e+00 1.6385860663790877e+00
      1.3291187794494183e-01 4.9676001813554072e-01
      3.5940581928249932e-01 1.1439772091207030e+00
      -1.2523898060020969e-01 -1.3002604772929383e+00
      -1.3975719851850517e+00 2.4775212623547035e-02
      1.4874043024754553e+00 6.1295247489755023e-01
      1.6269603330323059e+00 1.9963833283414878e+00
      -6.7919721401761257e-01 1.6812889246592003e-01
      6.2976638843817781e-02 -4.2202890079803450e-03
      3.3047264245331985e-03 2.4066011119027828e-01
      -2.1954648167480659e+00 -1.5093083647639314e+00
      9.7811312427983110e-01 -6.9641319973887517e-01
      1.3384026698312021e-01 -1.6345244808634807e+00
      -2.1993696367178270e-01 4.2894989047727994e-01
      -5.3378428678936982e-02 -8.2970906943931477e-01
      -1.0775588405658780e+00 -2.9993423834940430e-01
      1.0468557174284303e+00 -1.9197917501873735e-01
      -2.5652370107863605e+00 5.5092067156328950e-01
      4.2354409124357204e+00 -1.8438150810275298e+00
      -1.4728923734150083e+00 6.6182236615833434e-01
      1.5207578144679874e+00 4.8731595532688871e-01
      -1.1172061669830335e+00 1.5967158454317585e+00
      -3.8475545726819071e-01 -5.8582489324221032e-01
      6.6836014493802509e-01 6.3745833792444229e-01
      2.2022953796881355e+00 -1.1278133829828376e+00
      -1.6851532892312039e-02 -9.6792082449942876e-02
      -2.8366190340153117e+00 -1.7649797686584598e+00
      -4.8257272804645879e-01 -9.5726691324066204e-01
      1.3269764116371205e+00 3.7508056385975130e-01
      -3.1602019476628446e-01 -1.0695866295892142e+00
      1.0938569894715300e+00 1.3452820116351376e+00
      -9.7009256597682691e-01 1.2539485831958945e+00
      3.6834754568383765e+00 -1.9088088621214470e+00
      2.1445269870758361e+00 -2.9544920826877306e+00
      1.8394401693396953e+00 -1.8031647834637308e+00
      -1.2250244704476414e+00 -1.6533215781609731e+00
      -8.1905510291640338e-01 2.0190199624106184e+00
      1.5686267498321567e+00 -5.7780372950087189e-01
      1.9707252573799272e-01 2.5050528607678419e+00
      -2.6002605727003503e+00 -1.1981638399237553e+00</_>
    <_>
      -5.0464709399124630e-01 -7.3068376235409194e-01
      1.0270211630232389e+00 -2.0729370578134469e+00
      7.1972102816395200e-01 -2.2791571360110576e+00
      7.4887071744959444e-01 -6.1942625710401189e-01
      -6.0674340190962350e-01 1.1287847360714460e+00
      -6.1578902561579374e-01 6.9721206609149666e-01
      1.3753690521000936e-01 -7.2259830600327674e-02
      -3.0072688760739491e-01 -5.9253941065624927e-01
      -3.2775503190434324e-01 -9.3941083211705045e-01
      -4.8928117922645320e-01 -1.1334710056509294e+00
      -1.4226886862060499e+00 -1.8565925260050125e+00
      -6.4416594331224286e-01 -1.0206524057064505e+00
      1.1200307023811673e+00 3.0293246169017851e-01
      -4.6838391989621619e-01 8.3044058000157761e-01
      1.5214499573099747e+00 8.4265409340102759e-01
      9.5469390121857589e-01 6.0021723709325625e-01
      -2.0163807558375764e+00 2.0450264745502209e+00
      1.2281630011557403e-01 -3.8959999906874537e-01
      1.0266528062266940e-01 3.6733238526911677e-01
      -1.2546054991637096e-01 5.3725023810849903e-01
      8.7085737358027326e-01 -1.4063237369354824e+00
      3.2778089100545421e-01 1.6498959757580545e+00
      -5.2423568725783676e-01 -1.5245854649993400e+00
      -9.5519237313384375e-01 -7.0700292612961380e-01
      -1.2209498303045141e+00 5.6065471341162254e-01
      -1.2525334786552695e+00 1.4480893885800099e+00
      -1.5172294339152009e-01 6.6483159222693178e-01
      -2.3146085820720336e-01 9.5424759396115011e-01
      9.8615889248635968e-01 -9.7857843862831709e-02
      3.5840059055731524e-02 2.2152691162642968e-01
      8.7102722088720685e-01 -6.1525881497785939e-01
      -5.0067800635302351e-01 -7.9405203817152770e-01
      3.3023829072085664e-01 3.1334460784767815e-01
      -6.6842234565932768e-01 1.3656773883089390e+00
      1.7175483014537954e-01 -1.4246412322497828e+00
      -2.2064463937723716e-01 -7.9887873591371439e-01
      -5.1194277832420532e-01 -1.7556585672217413e+00
      6.5254767413726877e-01 4.9557412888699803e-01
      5.2796350504980211e-04 8.3448099275268284e-01
      7.8039610166730278e-01 6.9183437591310715e-01
      -2.0338858850729369e-01 4.8624210758181498e-02
      1.0330946185571228e-01 -4.6265412417783330e-01
      -2.6384473841900957e-01 9.1261851827648163e-02
      -5.4067368027356504e-02 -1.1275907912332750e+00
      1.2241731477313320e+00 2.3568497345747444e-01
      3.0112529438667612e-01 -1.2789737163390391e+00
      2.1602683671497994e-01 1.0432578124890324e+00
      -8.7682813021064476e-01 1.3525031091423749e+00
      4.8582237139987294e-01 -1.0303098983471612e+00
      -3.4844572389996870e-01 7.1469965726559881e-01
      -1.2801681759468680e-01 1.0025660971477703e-01
      1.5971345498421077e+00 3.7677863554278129e-01
      -3.7955354126784430e-01 7.6354058801016789e-01
      1.7107732521355387e-01 -1.5026218227034109e+00
      4.2587466623895126e-01 -3.4232101571640507e-02
      -1.0873758589580349e+00 2.1095402368618321e-01
      3.8529350506805926e-01 1.0446160420337350e-01
      1.4269251906753724e+00 1.6782912347081020e+00
      9.5319888578842438e-02 -1.7216453554459310e+00
      -5.9500070203480016e-01 1.1486358319752765e+00
      -8.6141588584093809e-01 -2.4469349983907090e-01
      -3.2226255112621460e-01 2.1610484407827277e-01
      4.4462673127064140e-01 -6.9106963981209413e-02
      6.5063226317689446e-02 -3.1384048464106568e-01
      -4.9683169879200989e-01 1.8865221936304868e+00
      -1.1645530222098333e+00 2.0746250494840561e+00
      7.0956960952720671e-01 -5.1535733372159853e-01
      -1.5739578135469479e+00 4.7907760879906158e-01
      3.6393784221297559e-01 -1.0062299953040821e+00
      -8.2815818426476917e-01 8.8160117975755303e-01
      -1.5525490196465375e+00 -8.3105239289016863e-01
      9.9705982450950537e-01 -1.8680370732682333e-01
      -5.3742354745753507e-01 1.2864193674161630e+00
      1.0312265511795684e+00 -6.5751649780773036e-01
      -1.0104386081293222e+00 3.1133425485583094e-01
      -4.9149962856126428e-01 3.6985248038957330e-01
      -4.2456087384415225e-01 -8.3749895759436399e-01
      3.3465056945361879e-02 2.4351910154615775e-01
      -3.2392222146899609e-02 8.5487465593526368e-01
      -3.8093161029768216e-02 -5.7495368917916279e-01
      -6.7936131099960428e-01 -3.0915362833450344e-01
      -2.1469661064174905e-01 3.0961906842112332e-02
      -1.3763147829965569e-01 5.2332112288213750e-01
      -1.6471790238436059e+00 1.5268594577584167e+00
      -9.3487503392006721e-01 -1.0098035305535040e+00
      1.5463731887393697e+00 -4.9844058789892803e-01
      5.8981124600656842e-01 -6.6449286578677491e-01
      1.1169760551756194e+00 -1.7356794826149394e-01
      3.4489587229132916e-02 1.1385177857774422e+00
      9.6018992201887943e-01 -8.6538622380693764e-01
      -7.0955335926714946e-01 2.0358596495977888e+00
      -9.5316982057933852e-01 8.1077977467922946e-01
      -5.5172404120883090e-01 -6.2323689269930704e-01
      1.9886818290786883e+00 3.4876011134578138e-03
      8.7922502353834764e-01 7.9318356617183783e-01
      1.1021307384495556e+00 9.2398194198515449e-01
      1.3133945923046859e+00 -1.4055751399745835e+00
      1.3123604381038925e-01 8.5881307146078123e-01
      -1.0261902899501811e+00 1.8825434659906862e-01
      -3.3830894259491001e-01 -1.8686719438206179e-01
      5.5798714915081615e-01 -6.0495168948255240e-01
      6.8274590104874056e-01 -6.2618721994388532e-02
      5.5491143054420033e-01 5.0342711252928807e-01
      1.7323361625900027e+00 -1.0713912271219853e-01
      -1.2338356408718230e+00 -6.9342937195929366e-01
      -9.7982561234197163e-01 -9.5704456844562791e-01
      4.4893000604675054e-01 4.3632294042564412e-01
      -9.9885166561964644e-01 -8.2261949372786403e-01
      -3.5542290149393535e-01 -1.7086847043630740e+00
      7.9369444805623168e-01 -2.7331908033861513e-01
      -7.2259619611458392e-01 -3.6799211594721976e-01
      -1.2220204774850554e+00 1.5358903873789590e-03
      5.7699200926037542e-01 -4.8074245481314629e-02
      -1.3855517708015544e-01 3.9491360898092442e-01
      8.2838062710848814e-01 -5.0674462785991470e-01
      -6.9654601873294453e-01 1.7396006568191380e+00
      -1.1885897544494630e+00 -9.4408986530734151e-02
      -8.2745235922336824e-01 9.0359210217810271e-01
      1.7779335619579379e+00 -6.2484586299654366e-01
      3.0034896076674344e-01 1.0846123669776957e+00
      3.1971486743955307e-01 7.1271893019752519e-01
      5.4463147226486941e-01 -8.6961569863461341e-01
      -4.5681676827866108e-01 -1.9402031022672204e+00
      -1.4006206612176819e+00 -3.7142233691525202e-02
      -8.2941902008684087e-01 -4.4564994497276258e+00
      7.9065979707873668e-01 7.7726979695742782e-01
      -1.0813817971744899e+00 -6.8879534774419051e-04
      -2.7479321741402507e-01 4.5043870920319040e-01
      2.3397131027693019e-01 4.1740973901886003e-01
      1.2488887584364188e-03 -5.4307204634040884e-01
      -5.8283216550765726e-01 1.7806302249807621e-01
      -9.0361991168787026e-01 -3.0858169262927626e-01
      -1.8729001853507667e+00 -3.1261758849613402e-01
      -5.0887205794332202e-01 -2.8578604112187009e+00
      -7.0731934768727045e-01 1.6120959584872843e+00
      -1.0505128688788887e+00 4.3720805963894305e-01
      1.3191202110267808e+00 2.3831073661499685e-01
      -1.6259662354721133e-01 -2.7162515975297374e-01
      -2.2341279557248903e-01 -1.3436993956923227e+00
      3.7681896624703659e-01 -1.0105451777061922e+00
      2.0108904947571887e-01 1.1739253862732701e+00
      -1.3211641394434728e-01 7.5873319812936157e-01
      -5.8574239874339806e-01 3.2125189578318847e-01
      3.8646059852233444e-01 7.0854116907062781e-01
      -8.2828355152452049e-01 8.8313007290626988e-01
      8.0381906260256952e-01 1.4553035387946835e+00
      -3.9777598833985012e-01 -4.7585340955887179e-01
      8.1037959261626791e-01 1.8943246869760952e-01
      -7.2204566569461615e-01 4.9676330681068026e-01
      1.1504824111715684e-01 4.6158226234702426e-01
      -2.8802534289824255e-01 1.2498025448973490e-01
      -6.4697473485780777e-01 -3.0089870991265273e+00
      -1.0765367712564280e-01 -2.1547399216340180e-01
      1.0969164896842600e+00 -1.7214463957597679e+00
      1.2350572014179597e+00 1.7227425786982324e-02
      9.4175286447265438e-01 7.8413586665489243e-01
      -3.0013632707162419e-01 1.9379813565990414e+00
      6.1479059028905580e-01 -2.9672831158706953e-01
      1.2305754020290646e-01 1.0303394396976242e+00
      -2.1351042156762379e+00 9.5063048939834738e-01
      1.6598377946720833e-01 -1.2277592591758853e-01
      -7.4018676272150374e-01 5.6439247295330852e-01
      8.7933467911416596e-01 -2.6822963864574534e-01
      1.4224841839757256e+00 -1.2222184791938531e+00
      8.0215980053436087e-01 1.1630278433982724e+00
      -6.5542079250385066e-01 -6.6338926906862339e-01
      9.7807785803842751e-01 -1.6138975205354937e+00
      -2.7649653278566233e+00 -7.2559000337784851e-01
      -1.8834130905192756e+00 1.3300483652789268e+00
      -1.5001901486279676e+00 1.4449218936952681e+00
      8.9335112493500324e-01 9.4277997739551389e-01
      2.7481546770295051e-01 3.8243627801754171e-01
      -1.6251986129166521e-01 7.4815992224388017e-01
      1.4792463450338331e+00 1.1208750773104721e+00
      -1.0370626542067800e-01 3.0170483860682134e+00
      -4.0441847592306118e-01 1.0505141077062807e+00
      1.0455385580017461e-01 3.3910698702368947e-01
      -9.3419422655458120e-02 -1.3582116611005770e+00
      -2.6197609094149987e-01 1.2233975607594973e+00
      3.4870871669829601e-01 -5.2411756509337937e-01
      3.2311958901542276e-01 -5.4486629963259647e-01
      -6.8495530464220589e-01 -8.4596723790461348e-01
      -8.5700803274362658e-01 1.6881689936863545e-01
      -2.1463399929551780e-01 7.5721275166760182e-01
      7.9648144141040589e-01 1.3655645726161333e-02
      -3.1210293235980646e-01 -3.2588042434524717e-01
      -2.8549927899206967e-01 6.6237492625988259e-01
      1.2798815704550673e-01 1.1217049070146696e-02
      -1.3803481481326121e-01 8.4482644227684489e-01
      -8.7220679725523764e-01 3.4642125964267419e-02
      -9.3890471667853370e-01 2.4152573631066132e-01
      -1.7643481812307932e-01 3.0763953388650123e-01
      -7.9831412244289091e-01 8.7847577223604967e-01
      -5.7640552893141828e-01 5.4072846737756830e-01
      -2.0450514529840541e-01 7.9928861206607793e-01
      3.7223127842862475e-01 2.2125411055577707e-01
      6.2196500596740312e-01 -2.2916358292173928e+00
      -2.9037042507318694e-01 9.3897768951279614e-01
      -2.6684178299094202e-01 6.4030791334307546e-01
      4.6039366373776536e-01 -2.0129695513367221e+00
      6.5486959971652536e-01 3.7789550042410608e-01
      -2.3927121002066287e-01 3.5322330147876341e-01
      -1.0045729897365145e+00 -5.8183276975333764e-01
      -8.9017931897202562e-01 -7.9643388645554503e-01
      -2.4843523581194033e-02 -4.6117544130331445e-01
      1.2935057402128616e+00 -3.5663195706778848e-03
      2.0403937512098116e-01 1.2428894498058900e+00
      7.9970343021866730e-01 1.1873061703423425e-01
      8.5877804613736564e-01 -8.7490869344654099e-01
      3.3084528418730619e-01 3.1697044653800904e-01
      -1.3663467097937648e-01 1.1963015567692403e+00
      1.6982265440531952e-01 -5.0714192438154115e-01
      -5.8574276137167358e-01 -3.5122270932419514e-01
      1.0932951853500479e-01 9.7021110809341449e-01
      -4.6687066947406607e-03 -3.5383348927619868e-01
      -3.6528224873552723e-01 7.5013209757781518e-01
      1.0175289648440311e+00 9.2846310505344243e-01
      -1.0299726119292096e+00 7.9953090643113656e-01
      1.3005493063536273e+00 -6.2866552229033493e-02
      6.9279904720152372e-02 -5.7400162425601264e-01
      -6.0625071554602639e-01 -8.7484020069140878e-01
      2.7560522284586181e-01 -1.6208113413774865e+00
      -1.3295989113755795e+00 -9.0961049486373502e-01
      -1.1109712052478131e+00 -1.5336637433220929e-01
      3.5687643236126713e-02 -2.0460651423599461e+00
      7.4994775726622698e-01 -2.1604257525116133e-02
      1.0138047677188751e-01 -1.7382920043815524e+00
      -1.4270195458456338e+00 -2.3030755229604602e-01
      -3.5499400658347618e-01 -2.8805123588552428e-03
      -1.8773382272214328e-01 6.5855950077825620e-01
      5.0071154843394239e-01 2.1146699077956570e+00
      -2.8082174055636699e-01 1.0772958718140492e-01
      9.9317680062192204e-01 1.1201520775875040e+00
      1.0181116022353605e-01 2.3711528670812845e+00
      5.1446477497621401e-01 -3.9781723155133630e-01
      9.0005165190280323e-01 3.3818187348427675e-01
      -1.7320912824531565e-01 -6.3507753875337547e-01
      1.4306539713525920e-01 3.6627562225057786e-01
      6.0431843473514413e-01 -1.3286074716638793e-01
      -2.9577168491547906e-01 -1.0375647837075064e-01
      4.9684195086394950e-01 -8.7625470341114634e-02
      -1.3446831049818961e+00 -2.7329887646545592e-01
      2.2285645132545334e-01 3.4843558922475881e-01
      -1.6433232324489880e-01 -4.5016318902342206e-01
      6.5674884237691278e-01 6.8310099400458490e-01
      1.8800469811931262e+00 -1.2001210340451836e+00
      5.9983912205002343e-01 5.8358705186281301e-01
      -2.0942969620882149e-01 1.1879016795449389e+00
      1.5427161854247470e-01 5.4430411054722050e-01
      5.7809845628514940e-02 9.2223639994039527e-02
      -1.0283883656900761e+00 3.6935107619108898e-01
      -8.2316976972688105e-01 -1.7109957700506091e+00
      -3.5874232045240889e-01 6.5378916319385283e-01
      -3.2010775276662734e-01 1.0546005552522300e+00
      -6.6705516596967418e-01 -1.6841508846674420e+00
      1.7122293776617403e-01 1.4101697989956405e-01
      1.7444483920043323e+00 1.1050908710380101e+00
      -9.2850649329882240e-01 1.1094206375117817e+00
      -2.8541852262162809e-01 3.5111612542558202e-01
      1.4581023450825785e+00 -2.4107956512305473e-01
      6.5920108026838772e-02 1.8271553716565606e-01
      -3.1356060300414670e-02 -1.4534182191068952e+00
      3.0882623535999919e-02 1.3576269155440097e+00
      1.6892631715412848e-01 4.2780064080023406e-01
      1.5625655932523122e-01 5.8958945912064764e-01
      3.5898179569817290e-01 -2.4167436333865404e+00
      1.1528312298893566e+00 2.0536814693474056e-01
      1.9191231699590922e-01 5.4779655696547080e-01
      -5.0265877208650445e-01 -4.2309710890751878e-01
      1.5196081574606610e+00 -6.4567366253800307e-01
      -4.0230705855040966e-01 8.9880322239745480e-01
      1.0486341545985682e+00 9.9282792456827662e-01
      9.9409895016391780e-01 7.8492866068352263e-01
      1.0459241086643646e-01 2.8493841816678722e-01
      3.6355589070496813e-01 -3.8140314866993075e-01
      1.9020829324182208e-02 4.1947330839734520e-01
      -1.0973443162538121e+00 1.8430315211411144e-01
      -1.0290804934533153e+00 -1.2411300874958604e+00
      6.8329217806631037e-01 9.6655899901411180e-01
      4.1037140993686266e-01 7.8593004079398787e-01
      7.6607426757471520e-01 7.4989734121976048e-01
      -5.6491270076390399e-01 1.0218032308808216e+00
      9.2707737785499356e-01 3.9471224924827736e-01
      -5.6041895756134719e-01 1.4884462030187100e+00
      2.8106380033991402e-01 -1.2005472921392564e+00
      -8.7126097758609120e-02 1.0498729349306439e-01
      -6.9926486426293788e-02 -3.1235772922686184e-01
      -2.1064490813447045e-01 -1.0278198972904665e-01
      7.7124769789646230e-01 -1.7452945228763470e-01
      -1.0425223952224831e+00 -3.2290280749839373e-01
      1.9592602860722634e+00 1.5121914851781300e+00
      5.5448493158812534e-02 -6.1379503921022571e-01
      -5.8884579319345864e-01 -8.7012325914391273e-02
      1.3221582039508259e-01 -6.2000300878543713e-01
      9.6352348079211581e-01 -1.0085729981799425e+00
      8.4603041541014812e-01 -8.5985427267609715e-01
      9.8962538895021668e-01 -5.4206269810238634e-02
      -8.1521636851079737e-01 1.1247014707508109e+00
      3.1929265597293649e-01 -2.2170880848153995e-01
      -1.1750311065961563e-01 -1.0762384204346260e+00
      6.3248711846290495e-02 1.5818184427923183e+00
      9.2720500388840263e-02 -9.7961065027443261e-01
      7.5118134788641022e-01 -6.6616284727229413e-01
      6.3535812673036907e-01 2.0052862083305554e+00
      4.3432119796016821e-01 3.9623301020626284e-01
      6.6362355533079975e-01 -8.3184558958401922e-01
      -1.0622504294577939e+00 -1.3532292264247994e+00
      -2.5101698513782700e-01 -3.0930352328008304e-01
      -3.4936599575109806e-01 4.2841112207878229e-01
      -2.7173058992549748e-01 9.5407595951586419e-02
      -6.0211122952484286e-01 -2.6757837794925232e-01
      -1.4592659699292949e+00 1.4244713233917915e-02
      4.2873097430450903e-02 -1.2224064142944238e-01
      4.9847904562481726e-01 7.2852721775385332e-01
      -9.2403635941175599e-01 -3.2689459622034633e-01
      -1.5340163246463971e+00 -5.2420373964848166e-01
      -7.2916614268018418e-02 7.0490278241912241e-01
      2.0824073662473035e+00 8.2826178285599461e-01
      -5.1629365334135469e-01 -6.1891311886338329e-01
      -1.2489643178038584e-01 8.8154441747132295e-01
      -6.3374365517391784e-01 -4.7179824427086586e-01
      -9.6603825749735049e-03 -1.7096824854408599e-01
      -2.3225908585308139e-01 1.3760995811012695e+00
      -7.9256317181723901e-01 8.8455588977615873e-01
      9.1310147632948069e-01 -1.7225237171920216e+00
      1.0433658440530615e+00 -5.2154673603089584e-02
      -9.2819810630096283e-02 -1.2798705797339399e-01
      5.1775271520847677e-01 -1.3574683825569059e-01
      5.4134964861997492e-01 -3.4278176501803753e-01
      -7.7455781155203873e-01 4.7758568655224631e-01
      8.8150421092351786e-02 9.7995474091856949e-01
      1.4928620090553549e-01 3.8422396937125430e-01
      6.3933233513197768e-02 5.8271431196960521e-01
      1.1741319168998615e-01 2.0332526779398559e+00
      -5.1656098292270569e-01 1.0222559450784954e+00
      -1.3077514377635335e+00 2.1282960375027635e-01
      -1.6613718003519981e-01 -8.6213614646492220e-01
      5.7919893654363475e-01 1.4082843336942932e+00
      -5.2847868405262947e-02 9.1066761512382477e-01
      -1.8745143924392482e-01 2.9658062485268744e-01
      7.2375085944486639e-01 -8.0786678202046613e-01
      9.9961148230874852e-01 2.8193445372525494e-01
      -5.5043487610193420e-01 3.0813265568061243e-01
      -8.9324520817958331e-01 -8.9023228397010101e-01
      2.7048438444301576e-01 2.7420839263295899e-01
      3.0821052041434382e-01 -4.6402909669576470e-01
      5.8404620179505284e-01 8.6009529263083040e-01
      -1.0826635855346445e+00 -2.7491889292495897e-01
      3.6135078816376381e-01 -7.8382323518465924e-01
      -1.3444358971301524e+00 3.1816979048468402e-01
      -3.9635430036743280e-01 -3.2465399434408504e-01
      2.7925796771247796e-01 9.1838817913188231e-01
      5.0904168650043069e-01 -2.6157489105721154e-01
      9.1790546642459225e-01 -1.9002226856884671e-01
      -1.2736260194750307e-01 6.5052146723303317e-01
      -7.5530048094402658e-01 -2.0638077925875589e+00
      2.4873918464952610e-01 -6.3232358021852908e-01
      -7.9715594364886100e-01 -1.2596051396153030e-01
      1.0062515093142799e+00 -6.1521599521908210e-01
      3.1179273324031150e-02 9.3331158580606599e-01
      -1.2802053126940788e-01 1.1650717774672035e-02
      -2.6479275274719316e-01 -8.5452330157064785e-02
      1.0561200922091005e+00 -5.5434680740566580e-02
      2.4869299097586166e-02 6.5937938433401821e-01
      6.1351060984114481e-01 1.3044288145520067e-01
      1.8024472017202544e+00 1.3516634311265996e+00
      -3.4691997353503934e-01 -2.4476570341770604e-01
      -4.6956900906689453e-01 -1.9577304935168496e-01
      9.7018948233842695e-01 1.0146956112458899e-01
      -7.7580411912441594e-01 5.3271844446360084e-01
      1.2768581822078804e+00 -1.1360616716124868e-01
      2.7497450468903750e-01 -4.6272159054640100e-01
      8.1281067547864461e-02 -2.7334205466694639e-01
      -1.6734019347852813e-01 -4.5308290690985409e-01
      -1.3935447436648188e-01 -3.3262273343693001e+00
      -1.1263230336598105e-01 6.6924384170846424e-02
      3.7754486386440744e-01 -1.0196861127279442e+00
      -1.1049858035918352e+00 -8.3986866796505755e-01
      -7.6944417917137420e-01 7.7185159417629889e-01
      1.1914574259238402e+00 9.6591962825175604e-01
      1.3058053182496129e-01 -4.5926136065102602e-01
      -6.9035530121301614e-01 3.7226863063160387e-01
      -5.8261195532572863e-01 -1.5953322123261549e+00
      -2.9075012563992775e-01 -1.2654223453488542e+00
      -5.5558553975215375e-01 -5.9406797242974063e-01
      -4.7335968873580836e-01 1.0135876994458339e+00
      -9.0652169346312997e-02 9.4366287811371252e-01
      -7.1614867352204781e-01 -4.9598343512473569e-01
      6.1668405338605359e-01 -1.3385923791547385e+00
      -2.4118525705435248e-01 -6.1421640062578431e-01
      -6.9833581008561008e-01 -8.4868508121888631e-01
      -6.7319468650935355e-01 1.7747658418455675e-01
      -1.1447930597837967e-01 1.9360816718087954e+00
      -7.0488112164428618e-01 1.3089261601272655e+00
      -8.0611006136338681e-01 3.1126481385157756e-01
      -2.6246827633994718e-01 -1.8158592582011408e+00
      -1.9834754492203950e+00 9.3384488934442877e-01
      9.3775655318106810e-01 1.3022602957175866e+00
      -1.2147651486695747e+00 3.5253295229900000e-01
      3.4587410473012298e-01 -3.9390570608502989e-01
      8.3155357770231786e-01 -6.3329412824550135e-01
      -3.0227666452566820e-01 9.4133611087136276e-02
      1.9892359073288279e-01 -9.4924777180604814e-01
      -6.1251006462528811e-02 -1.1320959943303390e+00
      -7.3442069488584127e-01 6.4151126450371432e-01
      -9.3170449948938749e-01 8.3104204598747122e-01
      -4.7164905760053133e-01 8.5258620273593780e-02
      2.3301537910473705e-01 3.9086897061227317e-02
      4.7879535607184241e-02 -1.5787346929899365e-01
      -2.7476336053092892e-01 6.6785065994277126e-01
      7.3414559952672998e-01 -8.5127927756401031e-02
      6.5978504012904582e-01 7.2766557733607640e-01
      3.5461310767517285e-01 5.2433620962795824e-01
      -6.9805878157531631e-01 -4.4857225576634963e-01
      1.6372377442369130e+00 5.4694019170141672e-01
      6.8537263615662325e-01 -1.5987909599032637e+00
      -8.1678930792621462e-01 4.9691403165652376e-01
      9.1329618814534541e-01 -2.9577213105727768e-01
      8.4659186140406040e-01 9.8602290514396229e-01
      1.1064085826813315e+00 -2.8049273197450397e-01
      1.4016268318198151e+00 -2.2019929523972592e-01
      -3.6002940475031442e-01 9.6714761094212620e-01
      2.2112684212132169e-01 -8.0641333946244143e-01
      6.5312397566116454e-01 -1.4476978416108419e-01
      -1.0194108669249651e+00 7.4258399126085983e-01
      3.8345871052190733e-01 3.5727291389914873e-02
      -1.9776744334065832e-01 -2.7169818140683705e-01
      -1.0876166998417469e+00 3.4301691821853703e-01
      -2.0106563088987811e-01 -3.8942002574551682e-01
      -4.0068760183737490e-01 -1.8380491952976481e+00
      4.6864302703012534e-01 3.5770636452450100e-01
      3.7407106178115845e-01 1.2780453698886873e+00
      -4.7587326210928410e-01 -1.8143836981444873e-02
      1.3211671821087675e-01 -1.2040763344203638e+00
      -2.0877349468444089e+00 2.1786408786679168e-01
      -1.8786542449535273e-01 6.5702292813409294e-02
      1.5455798565602454e+00 7.7807112558643188e-01
      -5.8468001651209323e-01 -6.9723471053446806e-01
      1.0716444176531219e+00 -7.6779438061727878e-01
      3.6996600774197180e-01 6.7506764833022548e-01
      -8.1826290692452819e-01 3.1489462653238098e-01
      9.9333440891578861e-01 -1.0058110646197969e+00
      2.5790761815567831e+00 6.8084304896691494e-01
      -2.4245780220108235e-02 1.3572383656007872e-01
      -1.2170372165191945e-01 -1.6934816511431858e+00
      -5.9105605103122072e-01 1.4600220265456443e+00
      4.2066371997747887e-01 1.0231689434285687e+00
      1.3929681060411816e+00 4.6792852555731240e-01
      5.5998760640060430e-01 -2.6262422831640803e-01
      5.2845828723216415e-01 1.1923792514926923e+00
      4.2698359858258128e-01 1.1388090576150933e+00
      -1.9364765273920478e-01 -9.4529658240063297e-01
      -6.1117112544554231e-01 1.0069689511311826e+00
      1.0589206397413971e-01 3.1861645974564823e-01
      1.1238285254266038e-01 -1.6756604379452258e-01
      -5.5155906743753746e-01 6.7911050650695959e-01
      -1.5543897705018855e-01 -7.1015129976448288e-01
      1.4011942340562296e+00 9.5929287571728639e-01
      -3.6184647450535140e-01 6.7530738780899435e-01
      -3.4506753628196779e-01 -7.1158533769687282e-01
      -2.1641678172698660e+00 -1.9949184436967668e-01
      -1.4434453876038833e+00 -2.3477763571421137e-01
      -3.6237120456820487e-01 3.3619735460020767e-01
      -4.0891692897014559e-01 9.8737948266567332e-01
      -1.1164248198125842e-01 -1.2193719372033861e-01
      -2.3087043177907660e-01 -5.4957750488598545e-01
      1.3438698628404859e+00 1.2773817595476789e+00
      2.2478119285970719e-01 -4.9893875591954723e-01
      2.1633215381531726e-01 1.1404719092263800e+00
      1.2022883639620323e+00 1.1639934022188429e-02
      4.8733501779162441e-02 -6.7442136888343482e-02
      1.2850174524207727e+00 5.3058826290939098e-01
      -1.7806465271512889e-01 4.0562692431306169e-01
      3.3789249594203730e-01 -9.0688518516180538e-01
      -1.1396446658884407e+00 2.2597453611379259e+00
      5.5353964761111973e-01 -1.2266749283526486e+00
      5.6019649651798020e-01 -7.6550256767401226e-01
      -8.8383390697124795e-02 1.3390872934992595e+00
      -2.6350735230705837e-02 -3.2211689484613004e-01
      -4.9332368884004753e-02 -7.7113429184880244e-01
      1.3372136999399969e-02 1.4961338885343183e+00
      -3.3910775457292225e-01 4.3710519430769434e-01
      -7.0633710182305326e-02 2.8182296851764460e-01
      -5.1340526750454618e-01 2.2029941249493015e+00
      1.2459172841900645e+00 -3.3100213126378908e-01
      1.2361338468607665e+00 4.2158703705212047e-01
      -5.5467571319464881e-01 -2.0764161601650111e-02
      -9.9180156608193482e-01 -1.4792283677431961e-01
      -2.0756724231148513e-01 3.2501042578986883e-01
      1.7932855779643896e-02 -4.3986094319898406e-01
      3.1622030465733114e-01 8.2435514458392067e-01
      -1.0425393775183533e+00 5.2034076688350706e-01
      -8.1213355996055059e-01 3.4929131940750413e-01
      -7.3696177835075027e-01 8.9763059784529819e-01
      3.5289642859410736e-01 2.5338967702447079e-01
      -1.3520699040026807e-02 1.5217779416643495e-01
      6.0777430994272330e-01 4.2085451401265139e-01
      1.2108971346804924e+00 1.5260232366413407e+00
      -1.5922437054108973e+00 6.7873008053426631e-01
      1.5199300695408569e-01 -2.7339356889678794e+00
      1.4912930774912199e+00 7.4631919799503788e-01
      -1.9902476962614346e+00 4.2013351121745152e-01
      -1.4275838155893736e-01 -6.6826255300252413e-01
      -3.4606395409567725e-02 -2.9133251532942944e-01
      1.9849045793534832e+00 -5.5997417449360876e-01
      -2.2443944974904623e-01 3.8912973248364104e-02
      -1.8085580037105833e+00 -2.3518070922587919e-01
      -4.2136430649456785e-01 -4.2070758300716476e-01
      -4.0921674088738487e-02 1.4217725855487340e-01
      2.3679931434495691e-01 -1.0805024764373734e+00
      -4.0912560118525976e-01 -2.0856967597701809e-02
      1.3911884400013310e+00 -3.8422596746464144e-02
      -1.8791639929118992e-01 -1.7217584144452058e-01
      -2.1428850876390157e-01 -7.9020336056871843e-01
      7.8574035420875632e-01 3.0529237388062846e-01
      1.5965834915248306e-01 1.2883948287123770e+00
      -5.3382953851696474e-02 -1.8410559779983566e+00
      7.9402903307034478e-01 -4.1903643324915857e-01
      2.1224286949773541e+00 -3.8018240266157088e-01
      5.5198246693431097e-01 -3.9027027157180239e-01
      1.3359707628558808e+00 4.0383270839791557e-01
      -3.9444423043806009e-01 1.5522618907804604e+00
      2.9630737192298578e-01 -5.2333715530736874e-02
      5.7347921768826221e-02 1.0004848372908355e+00
      -3.1459746935451988e-01 -1.4490282284945022e+00
      2.3542206891831015e-02 4.5900812723882639e-01
      1.8037949787627614e+00 -1.3493325876273186e+00
      1.4147819352438842e+00 1.5509248805169340e-01
      -1.1871092477730935e-01 -1.2875223689067181e+00
      -3.1998884451778864e-01 8.9971262020609247e-02
      -4.6372399388582775e-01 -1.2040784427063165e+00
      1.3022147773737480e+00 6.2915575796614487e-01
      -4.1760359302745254e-01 2.3132590465186392e-01
      8.4727653995298058e-01 -7.0462467519202288e-01
      -2.5933928755611391e-01 9.6946047425669168e-01
      4.6934504639956709e-01 -1.4196256386445316e-01
      1.3313743687070698e+00 -4.4352220080957844e-01
      1.1563760552167266e+00 -1.9773523745435279e-01
      -3.1955435152961599e-02 -4.2027447905496124e-01
      -3.7319628034121316e-01 9.2724662936555802e-01
      9.9908582960437434e-02 7.0171836402900223e-01
      -8.7998460837758763e-01 -6.0347943679574456e-01
      4.0813473808213638e-02 -1.1252409245742875e-01
      -9.4363138557101933e-01 -6.3012607842270803e-03
      -1.3434043832583094e+00 -5.0275283413690952e-01
      -1.6080919964523430e+00 1.6232942275248641e-01
      -8.7480971874856417e-01 -7.9270005212161865e-01
      1.3887099272753334e+00 -8.4200260604058341e-01
      1.3501070603402459e+00 -1.4866931566388070e-01
      -6.6271709043324956e-01 -1.6804525877622606e-01
      1.3726822192799970e+00 1.9355288890224842e+00
      -8.3075969967650520e-01 -2.8361546810696626e-02
      3.0164914968721740e-01 -1.5939284229112092e+00
      -7.1196077916921996e-01 1.3476992220089004e-01
      7.2794455471355513e-01 1.0098141759943600e+00
      -6.1256021492965751e-01 -1.1829514557488596e+00
      -4.4701122041256985e-01 1.4180647944845393e+00
      -1.6508771476673356e+00 -2.1128308209479343e+00
      1.2573432093858525e+00 1.7038845699693762e-02
      -4.5290127137457348e-01 1.1731411749758172e+00
      4.4915505126207034e-01 1.1498642867931108e+00
      -5.9006207150812995e-01 1.4725791544777969e+00
      -5.8067286306425359e-01 -9.8941262193793977e-01
      -3.4691809961232264e-02 -7.1773510438156751e-01
      -2.9223613799611353e-01 -1.0104807280168779e+00
      -1.2828006822284908e+00 -1.4044959844829445e+00
      5.0515460360218445e-01 -9.2950386279775521e-01
      -1.6468442492607852e-01 1.5566902121380854e+00
      -7.4528194082508681e-01 1.3555325495725905e+00
      -4.6854145182564344e-01 -1.2694451301099496e+00
      -5.0749089131409096e-02 -2.0253873402403855e+00
      1.5214888753059805e-01 6.3903807286889303e-01
      -5.7030054825158119e-02 -4.3675756183167680e-01
      -1.4058610096359516e+00 7.7109463908771236e-01
      4.3075416613112255e-01 1.5054042318399432e+00
      3.4190440543532269e-01 5.3833574624047131e-01
      6.0397565394805386e-01 1.4240492325593563e+00
      -7.8736734390533158e-01 5.0590042422206738e-01
      7.2913765302040079e-01 -1.5489138552288112e-01
      -2.0673025725965269e-01 -1.2721262643180496e-02
      4.8369869583614222e-01 1.9210669949292623e+00
      6.5331110318953411e-01 3.7582415861363483e-01
      8.3110511744124260e-01 -2.3113763668091392e-01
      -8.3965855327184313e-02 -2.6105646228577573e-01
      -6.8984507540713191e-01 2.2359751337387941e+00
      -4.4921341184345859e-01 -6.5105128200870821e-01
      -8.4294191594823736e-02 8.5370744546036284e-02
      2.6700195386455280e-02 4.1436720413686584e-01
      -3.3011915311046885e-01 1.1105777899232401e+00
      5.1678986888604106e-01 -3.7045348528921401e-01
      1.5550445925619327e-01 -1.2884506739331134e-01
      1.1227625828012462e+00 2.0912241995687828e+00
      1.1874753296722760e+00 -9.1941875955093566e-03
      5.0630512923822701e-02 -1.1375474071251029e-01
      -1.3135083489976997e+00 -1.6983919667940255e+00
      -1.1901385165963071e-01 1.1612948844903068e+00
      -5.2775291495746146e-01 -1.5318982717623726e+00
      -1.0775607725085969e+00 -7.2065675688187825e-01
      5.0018735636645906e-01 4.8804558316864713e-02
      -2.7265693152303233e-01 1.0197162843071628e+00
      5.4758268709590441e-01 -1.0200975379090833e+00
      9.2316041555291217e-01 -6.2850110282617311e-01
      8.2436659917838634e-02 -4.1306958147887496e-01
      9.3437966234127323e-01 1.4143714451465883e+00
      -1.1088278657312092e+00 -7.7322694503892908e-01
      -3.2208259957852631e-01 -5.7447247400076362e-01
      1.5421522108413952e+00 -1.1228438366158805e-01
      -5.0029507196661316e-01 1.4370437767071265e-01
      3.7037282463850302e-01 -1.7973091289896431e-01
      -1.0471679532709269e-01 -1.7139975552007281e+00
      -1.9330227814520295e+00 -4.0024661895817099e-01
      -1.9357120905874356e-01 -1.1446324010381059e+00
      1.0925447790457607e+00 6.9392969340762467e-01
      -4.6563935332765216e-01 8.5306990282038864e-01
      5.7008326033800305e-01 -3.1211959984880772e-01
      1.1394283021715013e+00 7.6414677419264421e-01
      -1.7089239808995365e+00 7.8431576958314109e-01
      -8.0529122686689061e-02 1.4465181228113272e-01
      7.7804982964525005e-01 -1.1879280524440974e+00
      6.2685532812673217e-01 1.1338995394130384e+00
      -1.1090802153842991e+00 1.8703833234154430e+00
      6.5583210063206679e-02 -1.0276873536534239e+00
      -2.2792308172962666e-01 -6.1345314681227692e-03
      -2.8437078930834747e-01 -3.6824136924195611e-01
      -9.6653418850117401e-01 -1.0068341136414773e+00
      7.2117844569945833e-01 -2.4063635952706294e-01
      1.1781452436641233e-01 -8.5127667929527570e-02
      -9.3863923303339578e-02 9.7555415821604696e-01
      1.9400453486905239e-01 -1.9236344178734949e-01
      -4.0792684188981210e-01 -9.5360252890947805e-01
      -1.5822743059474607e+00 -1.9166132933727218e+00
      7.1286387281872954e-01 -1.1737799432916070e+00
      -2.4333380852442998e-01 -2.8100407010897976e-01
      2.3301452673850201e-01 -1.8232071763069750e+00
      1.5654757804070001e+00 4.2135372037559504e-01
      1.3925799023661811e-01 1.3134053472185672e-01
      1.1793124113132110e+00 -1.0763553255262315e+00
      5.6466315578007353e-01 -1.2481127141878652e-01
      -3.7752402115199957e-01 7.9312694824284469e-01
      9.2466107440118339e-01 -1.0544431765038120e+00
      2.6789203294361980e-02 -3.5441609939381097e-01
      -7.1279947182077086e-01 9.1438485333581931e-01
      -8.3458451922963250e-01 5.5984040452907202e-01
      1.3396311973443569e+00 -1.2860102609784114e+00
      1.7470990107693987e+00 4.4501882797771997e-01
      -1.0858338621545431e+00 2.8689247026251863e-01
      -1.0469922479672531e+00 -6.7691447264505444e-01
      6.0596214648111650e-02 3.0298238324812016e-01
      -2.5657306362312576e-01 4.1077058747804485e-01
      -5.1487685232586833e-01 -8.8938432587739336e-01
      1.8346222086653541e-01 -1.0578422909637356e-01
      -7.8654910284617541e-01 -1.4366782016980433e+00
      1.0193533267840351e+00 -2.7435632348703214e+00
      3.4568004144024583e-01 -2.4881118082901874e-01
      -1.1598059036758306e+00 5.9886945586557616e-01
      -9.6019251322004395e-01 -1.2047843123546945e-01
      5.2464993525134707e-01 1.3737160341536749e+00
      -1.0455577736959558e+00 5.3708731421898459e-01
      -1.5066483416775908e-01 5.2035004508121951e-01
      1.2974964571496184e-01 -9.6000425683701018e-01
      -4.2578744563498389e-01 -9.8991082262249008e-01
      4.6433471602001841e-01 -5.4597214693645280e-01
      1.2383765871503996e+00 1.1493660927255773e+00
      2.3806269205689393e-01 1.2863152983068771e-02
      3.7747378729596537e-01 -2.8864907568310483e-01
      -2.1038024968658080e+00 -5.9334183449925271e-01
      -2.5341621752288407e-01 -2.4887701087280822e+00
      2.8070848050724623e-01 1.1927746929058919e-01
      3.0640651736443708e-01 -2.0844906706788419e-01
      -6.4411796040423144e-02 -1.3396070299906704e+00
      -2.8168136331822274e-01 -1.0872272265055232e+00
      4.0822924647853609e-01 4.9982281525133937e-01
      1.5189196286019235e-01 4.3183530404582832e-01
      1.0779854772288469e-01 -7.1142269153928270e-03
      6.4052693048196929e-01 -2.0034635256517883e-01
      -3.6351606431769723e-01 -6.4358143252859856e-01
      -3.5813044850959119e-01 1.0389526870612369e+00
      -3.0862949116076044e-01 -9.4114728659888167e-02
      5.0558911334420442e-01 6.3003830772440361e-01
      -3.1489124539744395e-01 4.2921109416216491e-01
      6.1552714078763948e-01 1.7468731758533123e+00
      3.6229549913674569e-01 8.9029307792717038e-01
      -7.2176142565618151e-01 2.0504278490279895e-01
      -4.5258091210534362e-01 1.8653790325007575e+00
      1.2623348824928744e+00 1.1360191683764029e+00
      7.1190056681242153e-01 -5.7748936140253226e-01
      -5.6811446986931879e-01 -6.8854513420161978e-01
      1.2885508536772674e+00 1.7613201183438629e-01
      -9.3220529300108268e-01 1.0511155222859292e+00
      6.9270430326657184e-01 5.6340851671236336e-01
      1.2907332982020463e+00 4.6746339938488551e-01
      1.9054787909126791e-01 2.8598335295336208e-01
      -9.6658695889472446e-01 1.3225853611853294e-01
      -1.1811130583090612e+00 -1.5833893274454651e+00
      2.8654661470547504e-01 -1.0457924851386836e-01
      1.6875851077546948e+00 4.2025990441947148e-01
      1.3669020592036178e+00 2.1488929780872582e-02
      -3.0222430514131393e-01 -1.4325239446616025e+00
      -1.7463082014482967e-01 -4.4501217652680542e-03
      -4.6445221554546884e-01 3.8050343815908488e-01
      6.3977708180572024e-01 3.1067833779142184e-01
      -7.9503993497523673e-01 -1.1750721307848653e+00
      1.3694642118397293e+00 -6.8634938430210413e-01
      -9.0751653752404682e-01 2.8043723182276548e-01
      -2.4437983419318299e-02 -3.0162076669366617e-02
      5.0304570076452382e-01 -8.3568311655023472e-02
      -5.0172615047281643e-01 8.1485004927028959e-01
      -1.5371723010336891e+00 -4.3592486401551328e-01
      -8.4172414735703555e-02 -1.9791418398999130e-01
      -8.0615914422744606e-01 -1.4443909830332071e+00
      5.5900700269522687e-02 5.4736289406302896e-01
      -4.6130068066849517e-01 2.4503150463123610e-01
      -3.4836651271744151e-01 -8.5077753628648289e-01
      3.9460774634824747e-01 -1.9034870331526548e-02
      -1.0916295022249372e+00 -1.5194243462266352e+00
      -5.6911980983862887e-01 -1.0065242682459385e+00
      -1.3068233822621269e+00 -8.9361512443980873e-01
      3.0175357868662478e-01 2.5237262201659783e-01
      8.6945146575765664e-01 1.9124091273947591e-01
      -4.8216591129035680e-01 -1.3180608472306037e+00
      1.0358883239341108e+00 -5.0862402377547578e-01
      -1.4854309472598408e+00 1.2000668315506711e+00
      4.0756935152525353e-01 9.2541351905155167e-01
      -2.4934815432726035e-01 1.2617497060234895e-01
      5.5866260810073565e-01 4.2528356649737808e-01
      -4.7782111488089829e-01 -1.2166113267150647e+00
      3.9894329196383621e-01 4.8889351237823292e-01
      9.0429708472132997e-01 2.8430261911505650e-01
      -1.1300781082710336e+00 -5.4903382691068836e-01
      4.6321646313947162e-01 -4.4946634668719587e-01
      1.9470119169197123e-01 1.9496981713131545e+00
      -4.9475285063603464e-01 -6.2479280488255429e-01
      -3.9189162930935417e-01 -3.3232651365278121e-01
      -1.3148371589297167e-01 9.2932171855763177e-02
      -5.2094025941578981e-01 -2.5679522934622212e+00
      -1.5823506686339603e-01 2.1836429101560539e-01
      -1.1270061605524331e+00 -6.3368661619432984e-02
      -3.2247320662146706e-01 -4.3355594299332351e-01
      -3.7999266998609571e-01 8.7611709239001789e-01
      1.4610519296945329e-01 2.3654653767380845e-01
      5.7046741406520962e-01 7.3887378005701110e-01
      1.1947216962969569e+00 8.5350173585232531e-02
      6.3978560421365605e-01 9.5016389391742240e-01
      -1.1857574586400930e+00 -3.3499378381026340e-01
      -6.0868487678321825e-01 3.6306481830282628e-01
      1.7807586192575933e-01 -4.1242593535557376e-01
      2.1742197356146349e+00 -9.3166046391114243e-01
      -4.5044930425268537e-01 1.8814673308167229e+00
      -1.1227853413103941e+00 5.7035034449970534e-01
      7.9716225708601918e-01 -1.7115561762206635e+00
      -1.7956172573165017e+00 8.0309145214284927e-01
      3.8789975034076929e-01 -6.4500365203072829e-01
      1.4773947591031069e+00 4.6099059259282933e-02
      -3.3479218679593803e-01 6.5914721424059575e-01
      6.6114371047648623e-01 1.0603519574333131e+00
      3.1835856828254000e-01 -1.0801077569764896e-01
      6.4240577155042625e-02 8.3150084248140610e-01
      -9.0927169467751556e-01 6.0823461411722457e-01
      1.2353113463844212e+00 8.3881640041931127e-01
      -5.9925840066071057e-01 5.5742000823257565e-01
      5.0197817386607113e-01 -9.1091269252260507e-02
      -4.9406933524947966e-01 -2.3846315869208934e-02
      1.5630427647345224e-01 -3.5915283212252125e-02
      1.3302850387227194e-01 -1.9238839263046809e-01
      -5.7099240797973128e-01 3.5499935379872555e-01
      -2.1456165543583392e+00 -1.6393241384930028e+00
      7.7478379086802374e-01 2.6045576372528212e-01
      1.1899079452361887e+00 6.5836921907566581e-01
      -1.8836640252652119e+00 -5.0861281145490156e-01
      5.0633023674012922e-01 7.6451015567063518e-02
      -1.9231461961315335e-01 -1.5364062050397151e+00
      1.8434842804572893e+00 9.4693769296570196e-01
      1.9834896110978847e-01 -2.2991825560090962e-01
      -9.2773052293265867e-01 -5.4353683199203007e-01
      -1.2962571467429373e-01 5.4478661024342712e-01
      -1.6873257386047094e-01 6.4787962565207624e-01
      -1.5287213873988600e-01 -2.2590081328547518e+00
      1.1762441250243859e-01 1.4077990809209715e+00
      6.0753234604640383e-01 4.1006097360079113e-01
      1.8344002722454902e-01 -8.5485304575359011e-01
      2.9756554395517176e-01 -6.6071728121648943e-01
      3.9424558264654980e-01 3.8688077657784087e-01
      -2.5145108727831084e-01 -4.3678822350000368e-01
      -1.2873806993699913e-01 1.1405944993503305e+00
      1.7785656836931618e+00 9.0974662870110234e-01
      2.3772222472643903e-01 3.7180692801382031e-01
      2.8811980681735661e-01 -1.6588061441181297e+00
      7.9556423496989914e-01 2.5515745823214614e-01
      3.9437691236668460e-01 -2.7988785471983013e-01
      4.9676875585438934e-01 -3.5012457622887028e-01
      1.6562380222968245e+00 1.3846772846978399e+00
      -1.3125262057888574e+00 2.0984399868269286e+00
      -7.5664057395194628e-01 1.6339698146230290e+00
      -1.6289266889308951e-01 -7.1499068520711162e-01
      -7.0202657583863792e-01 1.2748321578411872e+00
      -1.4137351059423298e+00 -6.9609060057157424e-01
      1.2779184530571661e+00 3.4973100733343843e-01
      -2.0201922698472723e+00 -6.9607358611905901e-01
      -5.6518870176749048e-01 -2.4622639156623485e-01
      -5.2637736094652809e-01 6.9291389675559756e-02
      -2.9242028906777906e-01 6.8811924602991958e-01
      9.8554928098559702e-01 -8.0876670430355735e-01
      -1.0721256490848562e-01 -9.2933715762931457e-01
      -4.8952799391453705e-01 -9.6828961707080063e-01
      1.3585603535157159e-01 1.5970626867595247e-02
      -1.6373778458430624e-01 4.9000371846021989e-01
      4.8642604037292925e-01 1.3024054398287563e+00
      -8.4863886683038653e-02 -8.7705730941922733e-01
      1.8074814950878321e-01 -7.5079850648609481e-01
      -8.2105344887675180e-02 1.6076123522910535e-01
      -6.5914715080703867e-01 3.9941094833631663e-01
      -1.3430196215349527e-01 7.9181534772237594e-01
      2.2461531639909521e-02 -3.6304561562429914e-03
      5.6283779656655020e-01 -1.0514368390909690e+00
      -1.3679502944710392e-01 -3.9353292578507326e-01
      2.7309831470315182e-01 1.5512172043375876e+00
      -7.2460498413708152e-01 -6.1167986776653582e-01
      8.2472613700057862e-01 1.0021439510332762e-01
      1.0808022478558970e+00 2.4723881639007597e-01
      -8.2026837946230047e-01 -7.8278196387794083e-02
      1.3508402298832803e-01 -1.0358480156308587e+00
      -7.9716243679501952e-01 5.5770031915104856e-01
      1.1184186372036817e+00 -1.5276296773676463e+00
      -9.3910198195985994e-01 4.5173912451580206e-01
      1.3829068854910782e+00 1.2630139379546718e-01
      9.4810032629054430e-01 -1.3320245142701466e+00
      2.9573119464774789e-01 -2.4757092525860436e-01
      4.3432416613684321e-01 1.1802817385971538e+00
      -1.1879906164162504e+00 -9.7558448507302575e-01
      6.4468470754877660e-02 -7.6585094968725920e-01
      -1.4338236557953172e-02 2.6713351762501192e-01
      -7.0096848058583472e-01 1.3711889887445776e+00
      2.4291823681142355e-01 1.4687035894877485e+00
      2.7450579691767640e-01 7.7506357223552225e-01
      8.8402107311217371e-01 6.8553052528108427e-01
      9.9188223941619280e-01 -8.2059778977296838e-01
      5.2041867411116038e-01 -3.0248149957540282e-01
      6.8969080059229393e-01 -7.5023618343816145e-01
      2.2986212393907146e-01 4.7807885876718131e-01
      -1.2943518364488280e+00 -3.4001716019468758e-01
      7.7435836072332032e-01 -2.8715505255648166e+00
      1.2934041656496233e+00 2.1464593035857849e-01
      5.3038458858294457e-01 -8.3552356432195929e-01
      -1.1892762689302350e+00 3.6597220424367455e-01
      -3.9689335859375863e-01 -8.9779114850201269e-01
      1.3509528828156057e+00 2.5098837781546496e-01
      7.6114126790918746e-01 1.4755956670819542e-01
      4.3561727003805467e-01 9.2962525182189693e-01
      8.1804397935442308e-01 5.0155038018476550e-01
      1.2783017410499051e-01 1.1049698675034250e+00
      2.0250203878920239e+00 -4.9367554857707391e-01
      -7.5113599057098102e-01 -3.8159145538348538e-01
      2.9819555906011563e-01 3.9296368754865768e-01
      -1.2747215941763803e+00 5.1352255793100310e-01
      -4.1434846998299485e-01 -1.1935164656208075e+00
      6.0068330269454517e-02 -6.5157832522782211e-01
      5.5534194910590562e-01 1.9689978139861866e-01
      -9.6083416938886435e-01 7.5229732594673648e-01
      -3.0807360139537148e-02 -7.3389508174034268e-01
      -1.0473194180927516e+00 1.3813266480128565e+00
      -1.1046611196952154e+00 5.1575892987612826e-01
      1.0045109828847847e+00 9.6245237597575306e-01
      -3.1954130381823576e-01 -2.2593587883932886e-01
      -7.0266698888875642e-02 -8.1225394128122230e-01
      3.5686423965334707e-01 9.3643814367987499e-01
      -1.7195142630146920e+00 1.8923993136434519e-01
      5.1909820987107602e-01 -1.8817920933395733e+00
      5.0563589227140249e-01 -4.2349829822146664e-03
      2.1883540853118708e+00 4.8158303985153467e-01
      -1.7493236250895181e+00 -1.0876254517703106e+00
      4.8584309522710584e-01 2.4320828079518764e+00
      -7.5239663884235697e-01 9.2500613190010195e-01
      3.8323943011920636e-01 8.6771234961542998e-01
      3.4825687698750762e-01 6.2909775195288153e-01
      -4.6953650211865566e-02 1.9769385535744450e+00
      3.8387608516989816e-02 1.7417087107575080e+00
      -3.2571476698826995e-01 2.3720231303805661e-01
      -8.6079147384019405e-01 -7.6787009210213064e-01
      -8.5906259719672556e-02 -4.3476836264207003e-01
      -4.1695395182517458e-01 9.9316062482134404e-01
      6.2701774924499032e-01 1.3953533122244746e+00
      6.9409960667663440e-01 -6.2610027229405049e-02
      4.1332981143665420e-01 7.0157355721099002e-01
      3.4470566660732288e-01 -1.8903573419228563e+00
      -2.8980162009571048e-01 7.8292226824308725e-02
      -3.6557694107320704e-01 -9.2824593719686410e-01
      -1.1959926578247335e+00 -1.3076791984051039e-01
      -7.0545231496985147e-02 2.6145305467142266e-01
      8.2986156582984361e-02 -1.2243054203675197e-01
      6.9802587531880278e-01 2.9549544520626487e-02
      -5.2790804595344554e-01 -4.5783381471558826e-01
      4.7352032029844621e-01 -2.5299475741051181e-01
      -1.2351395152927704e+00 6.3419126698607997e-01
      4.8043590175346221e-02 -7.5163251755113558e-01
      -8.2089861349554638e-01 -1.4010340366748080e+00
      -6.1328215266306907e-01 -5.5095483338985451e-01
      -1.3921240513533266e+00 1.8211678041330728e-01
      -1.1413943752715847e+00 7.3022437487908390e-02
      -5.5193587054652260e-01 -8.2128879648908015e-01
      1.4760404293226698e-01 -5.5828784534524167e-01
      1.1253707933430595e+00 1.3479032297142954e+00
      -5.4030728971812059e-01 -4.6926226120415326e-01
      -4.8050952219573340e-01 1.5375457469099071e-01
      9.3514057696401365e-02 8.4183507760328802e-01
      -3.1414813952720605e-01 8.0309306618182835e-02
      6.4947005459017187e-02 3.6557845496367186e-01
      -7.8458769432396391e-01 1.4404597224543736e-01
      1.1178562166402912e+00 1.5896064657822835e+00
      5.1529942230487104e-02 -1.3036697171502138e+00
      1.1159013338613970e+00 -2.1580154846604507e+00
      -4.9490675483070906e-01 -4.9836379449480867e-01
      -2.5337171160243949e-01 4.9540533794273750e-01
      -2.1410712431577347e-01 -2.5019847202165524e-01
      -7.3727833648114707e-02 -1.7430718487930899e-01
      -5.4370709060135747e-01 -1.7185537743433041e-01
      1.1962674779740050e+00 -3.6066089280771402e-01
      9.8161821701460172e-01 -1.4248268154130861e+00
      8.6858438936220972e-01 -1.7822988871644885e+00
      -7.1129570109867224e-01 -8.2616407669571079e-01
      2.6481701505882277e-01 -3.2175077211747916e-01
      2.9306378507018327e-01 -1.0710461762273606e+00
      1.8559369079378165e+00 1.2324335374884750e+00
      9.0376810481198305e-02 -1.0282774556838612e+00
      8.5415946668990372e-01 -4.2648348578784656e-01
      1.8281334350196136e-02 -1.6457421950821500e+00
      -5.9019729971862611e-01 -5.3322662631985496e-01
      -4.8020285048582256e-01 8.5838969840263368e-01
      -2.0943245142516972e-01 -9.9621121823509695e-01
      -7.2921042712907247e-01 1.2129247415416757e+00
      1.0787033741576932e+00 -1.2542768701664919e+00
      4.6053051761657848e-01 6.0396170948081374e-01
      2.5380750268296270e-01 2.1048704441932736e-01
      4.1750327882016119e-01 -2.1150772669760390e-01
      1.5766224622451405e-01 -2.9784714174729410e-01
      1.2964077641838259e+00 -1.2134935801514994e+00
      -3.2176325077536067e-01 1.1667258789239383e+00
      -6.1274798200888425e-01 1.6033644524143913e+00
      -1.1049771806425257e+00 -1.5939582811589379e+00
      -2.6411071975275601e-02 -1.0460653756047893e+00
      -6.9808367326226295e-01 -3.6773389493059538e-01
      6.1241428424317390e-01 1.1020977015611324e+00
      -6.5081703811557826e-02 1.1383324433956966e-01
      -1.1572685536632209e-01 9.6451679590338113e-01
      1.6415425797180296e+00 7.3023199572843600e-01
      -5.7426360057263359e-01 1.7600449661366289e+00
      4.6520060071473787e-02 -1.7768969537255377e+00
      -1.2825919871869793e+00 -2.9221384043700099e-01
      -2.7737838322165909e-01 -3.2642804245437335e-01
      -1.3110874936657613e+00 1.3189003925734695e+00
      9.6396617625889447e-01 -1.0844479593779115e+00
      1.8115742915183353e+00 -7.9073898498852313e-01
      6.0682446302615189e-01 -2.9177082608597782e-01
      5.4543748205554032e-01 -2.6472892672171122e-01
      2.7295588974088159e-01 5.4494233122491564e-01
      1.4085205361784900e-03 6.7271065300768584e-01
      -1.3171470375390745e-01 -2.5559966741304518e-01
      -8.9918394059007034e-01 2.7377631893001103e-01
      2.5302390606012221e-01 -2.2358896799618808e-01
      1.6948367815280091e-01 1.5308873427710314e+00
      -1.6351853438086719e-02 -1.1104005400498118e+00
      -7.1663339923041902e-01 6.3215302703137155e-01
      -7.3130705775216542e-01 -1.0961828615529339e+00
      5.0590071206477449e-01 6.5823778426971657e-01
      1.3897915545165920e+00 7.4212318143777700e-01
      -4.4470818241906512e-01 -4.8213216160597905e-01
      -4.4881694794536037e-01 4.5618356901489715e-01
      -1.7761942508781983e+00 -4.0958244760215889e-01
      5.7442873697217456e-01 -5.4535475396302224e-01
      -7.9264958782069767e-02 -3.1394213174022984e-01
      -7.7664049743149044e-01 8.1969286250000417e-01
      3.0225266262869296e-02 -7.1567819041130909e-01
      -3.8811181993645127e-01 -1.4733606615954034e+00
      5.3330882684581116e-01 1.0982693974292355e+00
      -1.0233824007266372e+00 -2.8688279675867734e-01
      -4.6455202721928746e-01 4.8022890611516961e-01
      -1.4380568956856479e+00 1.5893859001404581e-01
      3.5484361721712770e-01 3.7666178738164946e-01
      9.4577937198235340e-01 -1.4691945396450852e+00
      -9.4166845096863225e-02 -4.6173431724863317e-01
      -5.8180572025021304e-01 1.5873494842555416e+00
      4.2098980698600408e-01 -5.9284719528719465e-01
      6.1256930693108447e-01 -4.2430195026419100e-02
      2.9919626899851776e-01 1.6166605913368970e+00
      -9.6751355856694288e-01 -2.5803669554616122e-02
      -2.7810118288073210e-01 -2.1755574674243285e+00
      -7.0846836966632409e-02 -8.0545094152355290e-01
      -6.8340282049005963e-01 -9.0147074812053807e-01
      5.4312141354900523e-01 9.8215485514545742e-01
      6.9883735202270758e-01 5.4239137265956683e-01
      7.0392645600253367e-01 -1.4433634308292315e-01
      6.9154705790211535e-01 -8.8458295374864826e-01
      7.7270707464199007e-02 4.3581005685352664e-01
      -1.3191694107482206e+00 -3.1150900025112843e-01
      -3.2280854288979355e-01 -3.3140595456273547e-01
      8.4868261857675409e-01 2.4109359754330517e-01
      -8.0848000497404404e-01 -1.7464949228779301e+00
      1.2137774092267870e+00 -1.0489379934087133e+00
      -5.7741227247653570e-01 -3.7403342905693715e-01
      -1.1204306692265156e-01 -3.1785077201013689e-01
      -1.8841932014708590e-01 -8.1253942547182711e-01
      -2.2868489600720104e-01 3.5575533477682780e-01
      -1.2268518799742427e-01 -3.3144324346770981e-01
      -3.8103604360115567e-01 1.3809986650010148e-01
      -1.0922037545177107e-01 3.6093444765100458e-01
      -1.3632904828523407e-01 -3.6213313055071372e-01
      -2.1821466126339578e-01 -1.1548140959468898e+00
      5.2007530091332389e-02 7.1686016485336457e-01
      5.2757870346385127e-01 3.7378956477360253e-01
      3.2395867640670380e-02 4.3454502081800439e-01
      3.3430788811037809e-02 -8.9951190552400884e-01
      2.7456194434766684e-01 4.8120173396503435e-01
      1.3464723230740688e-01 2.3954247063536466e-01
      4.3160924646923704e-01 -1.9964704964590652e-01
      3.3750757961402977e-01 -1.9478119771107930e-01
      6.2148916735028215e-01 3.4377179601578760e-02
      -8.6705500650759726e-01 7.6150015056398157e-01
      -1.2573909723147834e+00 -4.0022927195903274e-01
      1.2448872176092709e+00 7.5873500602654242e-02
      2.1057064644043250e-01 7.5010207195612633e-02
      9.8736601106237154e-01 1.0819835590732294e+00
      6.1952999898829264e-01 7.2308653028185776e-01
      -2.4414051895974373e-01 8.5793228120862153e-01
      4.6158719787340585e-01 4.5359242596618926e-01
      -5.5901032084008451e-01 6.8174451419353244e-01
      1.1505750517558919e+00 -1.5742548661877647e+00
      6.9565063741803901e-01 2.2949923791472054e-01
      7.1144647395321414e-01 7.9668895060042155e-01
      -4.6588247607295193e-02 -8.5402798307963113e-01
      4.4116941292314843e-01 -1.1446110224152617e+00
      -1.1690775365524032e-01 5.1652303327383842e-01
      2.3263577872725319e-01 1.2090142908219685e+00
      -1.1571943568855027e-02 -2.9861462780935838e-01
      1.1471911269896427e+00 3.9460230045193512e-01
      -4.2868635477592681e-01 -1.4711548836988826e+00
      3.0554233606383951e-01 -7.1135328063699696e-02
      -2.3209724113595925e-01 -7.8762016576813987e-01
      4.1523841730209904e-01 -1.3658450781351328e+00
      6.0673190341905672e-02 1.0268972696972585e+00
      -7.0491025801310725e-01 1.1378384547785096e+00
      6.6177534569978647e-01 -5.7713357207292071e-01
      -6.5038140626666519e-01 -1.8342499022086283e+00
      -2.3478659692511952e-01 -4.5460347751669912e-02
      -3.3670952690675326e-01 1.1308206257330169e+00
      -1.1627508884577309e+00 -7.6337502850832306e-01
      -4.7872727009817279e-01 -1.2141555985806582e+00
      1.0533527402592580e+00 6.0056568310027203e-01
      2.9901092711610483e-01 1.2903650642075424e+00
      -1.1530464768274200e+00 -1.6710940537599785e+00
      9.7558751208490654e-02 -3.3360194883875394e-01
      -8.3055962253391136e-01 -5.0534155147987529e-02
      -5.2750844515526873e-01 2.0473832716963078e-01
      -2.5397480474375722e-01 -2.9697258192636822e-01
      3.8033123081638331e-01 3.6937846475251707e-01
      4.1684468075052972e-01 8.8006019284596593e-01
      2.2857212686947909e-01 1.3105291180292333e+00
      -8.1518934072249361e-01 1.3775539409765487e+00
      1.2337042973143173e+00 -1.5353254074060221e-01
      -1.3771611969891724e+00 8.5919751312345846e-02
      -5.9266018322381864e-01 1.1100666037373510e+00
      -9.3679093627788579e-01 6.6596198378860805e-01
      -4.9826977903332947e-01 -4.9618060028428768e-01
      -4.2638611362972706e-01 -4.4392613133169756e-01
      1.3221460266518152e+00 -6.6552826850391992e-04
      2.8215391462212865e-03 5.4404622163197691e-01
      -6.8455406106108022e-02 1.0589729825892569e-01
      6.2743307868193932e-01 -2.8683155514232617e-01
      -5.8099195937043835e-01 8.3966259946159139e-01
      -1.3515516448596219e+00 1.9718437736345393e-01
      -3.1455083665596362e-01 -8.8989439299315909e-01
      3.5677041726074366e-01 -1.0750569995238706e+00
      -6.1629314292429227e-01 5.3597139140622818e-01
      -1.8614766696160889e+00 -2.7073624957654785e-01
      -5.6651743746200933e-01 6.0762342042262985e-01
      5.5007591853367499e-01 -9.4770005801532303e-02
      -3.7294391271143290e-01 1.1495621162543477e+00
      1.4037540505272095e+00 3.0070700236093378e-01
      5.8359550915489133e-01 -1.1128110477499924e+00
      -4.2397261895381261e-01 5.1807033942642411e-01
      -1.1213104432478762e+00 -8.3384726356503047e-01
      1.4873346796486761e-01 -1.3179821004490000e+00
      -1.8170659006465262e-01 -5.9482978272720721e-01
      1.1017669847935252e+00 -5.0205740397218623e-01
      -2.4417504565767650e-01 1.1348352833469464e+00
      -8.6129704599553802e-01 2.9872616375855748e-01
      -9.1697711933090087e-01 -7.2565387400088152e-02
      1.6943874167115669e+00 -6.1558952707478221e-01
      1.0905771972024130e+00 -8.0380879397588567e-01
      9.7482123425964462e-01 1.4485344449783568e+00
      -2.2588864496165532e-02 2.1029301886848975e-01
      1.6558629930356368e+00 6.1986264563867899e-01
      1.9835950701265186e+00 -1.8222969972774832e+00
      4.7912276301996676e-01 -1.6545550024959634e+00
      8.1622071525791051e-01 -6.1375566260330627e-01
      -1.7993924113459505e+00 -8.5845789812972417e-01
      -9.2604298433009025e-01 3.6801478774960256e-01
      -1.1726226361049790e+00 -3.4126556351322940e-01
      1.1776043645467851e+00 9.8656358296862645e-01
      -1.8412135929577720e+00 -4.6947169123688953e-01
      2.6323226891335055e-01 -1.8852188762965535e-01
      -4.3238543283909536e-01 -8.1383141028623185e-01
      4.4806560838763593e-01 1.4808025507186109e-01
      -1.5904321257641458e+00 -3.8288042170904701e-01
      -5.3449435361677078e-01 2.5819292998312443e-01
      -1.3601058485205800e-01 2.8566450902895113e-01
      4.4918051067698056e-01 1.1970943232248772e-01
      -7.4906654379791349e-01 -3.4689098561125481e-02
      -2.2822899454176457e-01 -1.1134977124651382e+00
      4.3004326762754236e-01 3.1223315161017173e-01
      -2.2267249970352113e-01 6.8434475733957179e-01
      -1.3967665973855443e+00 1.0926067215719029e+00
      1.0027544539410023e+00 -1.0258625958306244e+00
      -3.1942529096999078e-01 7.8098913989344254e-01
      1.1489133423004088e-03 1.4361404829837474e-01
      -8.8423449669526977e-01 -2.9237521477242356e-01
      8.3405011644490712e-01 4.0483643793366253e-01
      -7.9937568794676428e-01 -6.9005437588235352e-01
      -3.8663775273013312e-01 -2.3762182600733494e-02
      2.1016137206369816e+00 -4.8386043611119522e-01
      2.3777755785762719e-01 -5.8449837547852879e-01
      3.0905215585334483e-01 3.3139185182245190e-01
      -8.6668567425434695e-01 1.1550415646832737e+00
      7.7909208046977607e-01 6.3290692756182587e-01
      3.2034899096339986e-01 -7.7448547258384834e-02
      9.8676645803535901e-01 -8.7674331181217158e-01
      -3.0247950526089856e-01 -9.4862274205748276e-01
      -7.7567673037378748e-01 -3.4136470116502288e-01
      -9.6891167092850783e-02 -2.0204070340948885e-02
      3.1436433531100827e-01 -8.3646820257068388e-01
      -7.1494987659120313e-01 -6.5093865101652737e-01
      4.6935566655756106e-01 1.3995253116227346e+00
      -3.4036935435398635e-01 -2.2165003929542987e-01
      7.6121297133472743e-01 -1.2298085030784438e-02
      -1.9045058912471602e+00 2.3854297503532584e-02
      1.4183928257417251e+00 -1.0973009260392004e+00
      -6.0511266984921686e-01 1.0904041344731461e+00
      1.3738604750984326e-01 -2.9503335711233042e-01
      1.7860413342490750e-01 4.6221421596390383e-01
      -5.1606461792424330e-01 5.2363258045458072e-01
      -8.8843874965345043e-02 -1.2896603276122101e+00
      1.2115222163234972e-01 -2.3695165409916932e-01
      -1.8390504077492109e-01 -1.3885089588560144e+00
      1.6657073891219658e+00 -5.2512544705555331e-01
      -2.8936017403156600e-01 7.4243485066173542e-01
      -7.7931666505576835e-01 3.1095636459524978e-01
      3.8906367302181988e-01 -1.0633230036166841e+00
      -9.0657855132716159e-01 -1.0370019685296097e+00
      -1.3429246207892251e-01 -1.0138706147240693e+00
      7.2470194781559727e-01 1.0112954157554350e+00
      -7.9492172448367637e-01 3.2746950398410668e-01
      -7.6649781356434254e-01 -6.4959834281199769e-01
      -6.6499718538270980e-01 -4.0579342574447003e-01
      -2.5613462565417348e-02 7.3185640379837358e-01
      1.1575412791588413e+00 5.3834020214505307e-01
      4.6667676026598298e-01 3.0381125509664739e-02
      -1.6986022001463896e-01 -1.1246647799531919e+00
      -1.0892733412398603e+00 6.2210498734213748e-01
      -4.4128162715145997e-01 7.8083740515433719e-01
      -1.2475709869443631e-01 -2.0266689864943332e-01
      -1.6043723711070929e-01 -1.4470996365126207e+00
      1.7701861078458143e+00 3.2597317656373219e+00
      1.0832762812890588e+00 -6.6436110444829932e-01
      -2.3629517245982762e-01 -6.3456842176704498e-01
      1.1886741772214182e+00 1.7770730303622292e-01
      -3.6282192543611902e-01 1.3933967787117152e-01
      6.0946379521566252e-01 1.2503318509497738e+00
      -3.2220197194181952e-03 -1.2618796401289580e+00
      9.2205759548338137e-02 -7.0707073036052714e-01
      -2.2721674339071871e-01 6.8357820115304235e-01
      -2.0216912809696325e-01 -7.5627105575666831e-01
      5.3521609029542359e-02 -8.8821171076685790e-01
      -1.5198951755853904e+00 2.1366905837453551e-01
      1.0321860139222887e+00 4.5307131880673368e-01
      -6.9822983507260827e-01 6.9899135624737574e-01
      1.1063480809315722e+00 3.2577494555177181e-02
      -5.6186122706993913e-01 -6.7955888373836293e-01
      1.0750491325356462e+00 7.0266196294832772e-02
      -9.8273789437500303e-01 -1.8612571112422580e+00
      -4.2765785203557011e-01 -3.9935767931967830e-01
      1.2541438454289994e-01 -1.9500788048910309e-01
      2.2256522685106767e-01 -1.1215969790489573e+00
      1.8565876473936740e+00 -9.6494679869499422e-01
      3.8036872498286434e-01 1.2852923269905892e-01
      -1.2605673300612410e+00 -1.8242846811999555e-01
      1.8567525315281801e+00 4.1511239540406347e-01
      1.3267852752363427e+00 1.9865749093676068e+00
      2.1605340547571141e+00 6.8137346692721146e-01
      1.1101889196881598e+00 1.2376986836401216e+00
      -7.0130807287953778e-01 -8.5645873650242232e-01
      1.3653856783741263e+00 -1.4552155109420759e+00
      -2.8548643837539028e-01 1.7978558971373659e-01
      1.4095171664654038e+00 -7.8885002758901490e-01
      1.6135441753195949e+00 -8.9503311681359699e-01
      5.5046594744073274e-01 3.8418615468585476e-01
      -1.0088652682426280e+00 9.8433840664011674e-01
      2.7573933607932899e-01 -1.3713453268783415e-01
      -1.3056163111683776e+00 -8.9624612695741057e-01
      8.9194669819673333e-01 -1.5290558285311534e-01
      1.5905612448328610e-01 -1.1447813196691718e+00
      2.3984333174976918e-01 4.7528771181692619e-01
      8.7621386857562200e-01 -5.2747314697513509e-02
      -2.9999790547560152e-02 1.1969506736862023e+00
      -4.4505461553766362e-01 1.4771040521240431e+00
      -1.8441704447683724e+00 -8.4060002389538302e-01
      -8.5600657989495887e-01 2.4572999042626376e+00
      3.5418634610923083e-01 -1.9357454995614425e+00
      8.1093637209610270e-01 1.2669012229395449e+00
      4.5773337386570252e-02 -2.4620831228868076e+00
      9.8735570861170008e-01 -5.4591247382663577e-01
      7.8372859411376716e-01 -6.4087215047536006e-01
      -2.6707882569662539e-01 5.3115528389396434e-02
      8.3576826628079648e-01 1.1230312264279028e+00
      5.2216996823076633e-01 1.3552993068554089e+00
      -1.4762318366516709e+00 -6.3501400941633934e-01
      -6.4096334751165718e-01 -5.9628027120592175e-01
      -1.4896904101375046e+00 -2.1223400266924516e-01
      4.0631018657906262e-03 -1.7694432898159496e+00
      1.2131065980406517e+00 6.1713543239634273e-02
      1.3119909598417074e+00 6.3522483708271771e-01
      -1.6572535788029935e-01 7.0772422087099385e-01
      1.2420914239072012e+00 3.9048510545029042e-01
      9.7661909831560825e-02 4.7140493212262147e-01
      1.1029166266988874e-01 -3.6973145013383529e-01
      -3.6862815035021906e-01 -2.3157661375174893e-01
      -1.6368908615397617e+00 1.6694540034000199e-01
      1.1621668395130378e+00 1.1546487365361953e+00
      -3.2652817550126145e-01 1.5213471543946991e-01
      -2.2413222142094685e-01 9.8330135730366841e-01
      -2.3144777593355401e-01 -1.6131259413412824e-01
      9.2166374897666270e-01 7.1720349383953097e-01
      -4.7954780176906980e-01 -1.2141168829357456e+00
      -8.5458666759285029e-01 -7.4920980832086903e-01
      1.0986423092502187e+00 8.6928501332399144e-01
      1.3912794974690448e-01 4.8629554428683375e-01
      -1.1775128304511679e+00 8.7643860086775816e-01
      -1.1524923601161987e+00 5.9548787137963699e-01
      -6.2381899342236036e-01 -2.9040181918124292e-01
      9.4573776192761816e-01 -1.0120166174204856e-01
      1.4942436909795211e+00 1.0860942767857618e+00
      -3.1908559466708564e-01 4.8871998863591129e-03
      -5.5047222481046043e-01 9.5337445813761190e-01
      2.1368595237580432e-01 3.0385478204237204e-01
      2.0393101179118744e-01 -2.4790568338182137e-01
      4.8474429390706442e-01 9.8333524357713240e-02
      1.5346252241092200e+00 -5.2717933308551190e-01
      -4.5550387494734362e-01 -8.6180875974921978e-01
      4.4255901206195897e-01 1.2614737240093521e-01
      -2.2120078270751553e-01 -2.0892599483207677e-02
      9.0355880617798118e-02 -7.3496543763755595e-01
      2.3296633333460279e-01 -4.2098406048294468e-01
      5.7147095703308372e-02 -3.9665973191005488e-01
      1.7569462785680787e+00 -5.1918502186180777e-02
      -1.3574492964529199e+00 -7.5495762224107602e-02
      -2.5839577687339765e-01 3.1312858831533924e-01
      -7.9913856188796106e-01 5.4997895266253830e-02
      -1.5978001530567063e-01 -4.1866125631535500e-01
      1.5307652635998625e-01 -8.4480995679900162e-01
      -4.2090116888761153e-01 -1.2981901005386829e+00
      8.1193484879498823e-01 -4.9484577944900278e-02
      2.2234515696326361e-02 -5.4583818048349919e-01
      -3.4914743419285896e+00 1.8636915128214010e-01
      -6.9445413620030461e-01 -5.5153876906393817e-01
      -1.0873413440466563e-03 -3.7111737033461933e-01
      3.9290083027048539e-01 3.1895264504829540e-01
      7.3199727205114251e-01 8.7452053295546883e-01
      4.2180708082453333e-01 1.0255804690323751e+00
      -1.6486563484530625e-01 -2.2333248262877370e+00
      -2.1754887319086542e+00 -1.0880460772442166e+00
      1.6171475220453764e+00 -1.3430580487389967e+00
      -1.2172729546478995e+00 -3.4184204633532189e-01
      -3.9544917806041363e-01 1.2377575893564707e+00
      4.1489159947088694e-01 -2.2616379033787085e-01
      1.6211434543408783e+00 -4.7750871097694281e-01
      -9.7921549890598814e-01 1.6829497629998427e-01
      1.4095047974694737e+00 5.7276589404113114e-02
      -1.5580333991406727e+00 3.4931198609894021e+00</_>
    <_>
      8.1233785306013584e-01 2.8157760843451080e-01
      -3.5574938974017273e-01 3.1115358661470488e-01
      -5.4661444368713352e-01 1.9344550612526955e-02
      -1.1494916174446554e+00 -2.2489481993845564e+00
      -1.1320095107421730e+00 1.7499765546264659e-01
      -2.1783772217054956e-01 4.8927648864533679e-01
      1.0218780152376552e+00 -2.3654694285582010e+00
      1.2828646917828521e-01 -3.1957033827289277e-01
      -8.4060786047856062e-01 -1.3292694335998307e+00
      4.1527521046474475e-01 4.1855116228976091e-01
      1.3672768651023963e+00 -2.5094959942600270e-01
      -4.1411765756298313e-01 -5.2010073176838041e-02
      -1.6869144199528560e-01 -2.7627438237276292e-01
      -5.2766002843535298e-01 -6.5756317321897029e-01
      -2.5198426382077349e-01 -2.3268406312928677e-01
      -4.7975080566150921e-02 4.1918930647130553e-01
      3.8196789896523917e+00 9.3579431584023390e-02
      5.1712812536786779e-01 -5.0401333732811704e-01
      3.3126890648934043e-01 -6.1133147230579743e-01
      -3.2435247190695465e-01 -4.9227825104044209e-01
      8.9728120520730181e-01 1.8010488706952672e+00
      1.7038881553593308e+00 4.3440191274684031e-01
      -1.0716656840884564e-01 6.7425516992861911e-01
      8.5943130929570899e-01 1.7640462595812115e-01
      -5.9797663313060423e-01 1.2312201598778438e+00
      -7.7989028154306772e-01 -7.6013612196786973e-01
      -6.9918247603601810e-02 6.4843263622875602e-01
      1.3088419847201258e-01 -4.2202600751866687e-01
      -2.0180105996692094e-01 -1.2068761085383215e+00
      -2.0617263529437664e+00 -6.5694762229786596e-01
      -4.7868608288991527e-01 -7.7361931586715360e-01
      9.4535475983564254e-01 2.2549876589080634e-01
