<?xml version="1.0"?>
<opencv_storage>
<opencv_ml_ann_mlp>
  <format>3</format>
  <layer_sizes>
    19 50 50 50 21</layer_sizes>
  <activation_function>SIGMOID_SYM</activation_function>
  <f_param1>6.6666666666666663e-01</f_param1>
  <f_param2>1.7159000000000000e+00</f_param2>
  <min_val>-9.4999999999999996e-01</min_val>
  <max_val>9.4999999999999996e-01</max_val>
  <min_val1>-9.7999999999999998e-01</min_val1>
  <max_val1>9.7999999999999998e-01</max_val1>
  <training_params>
    <train_method>BACKPROP</train_method>
    <dw_scale>3.0000000000000001e-03</dw_scale>
    <moment_scale>0.</moment_scale>
    <term_criteria>
      <iterations>3000</iterations></term_criteria></training_params>
  <input_scale>
    4.1234069564049110e+00 -1.9137028279173458e+00
    9.6789511930956920e+00 -2.1281508663193396e+00
    1.0586368363768077e+01 -1.9561454569637149e+00
    1.2008810007948126e+01 -1.7422133653269882e+00
    1.3501957256562768e+01 -1.4665218241363651e+00
    1.7349144057545864e+01 -1.4167187967732855e+00
    2.1310416751113674e+01 -1.3710629692622560e+00
    2.7676360760571878e+01 -1.4747444725784726e+00
    3.7709013349076578e+01 -1.6213112935068923e+00
    4.6076539209337007e+01 -1.6639392797856176e+00
    5.9837986787551564e+01 -1.8496771083677574e+00
    6.6547147572822539e+01 -1.7885471606154950e+00
    7.7123121627915978e+01 -1.8506455553755565e+00
    8.5866492795600024e+01 -1.8714217196648057e+00
    9.7772375047324658e+01 -1.9075904609417171e+00
    1.1287061384138109e+02 -1.9893596801307389e+00
    1.2140659728073840e+02 -1.9591581351817748e+00
    1.3825896825673519e+02 -1.9962422193886074e+00
    1.5266334984185363e+02 -2.0263353426936632e+00</input_scale>
  <output_scale>
    5.2631578947368418e-01 4.9999999999999994e-01 5.2631578947368418e-01
    4.9999999999999994e-01 5.2631578947368418e-01 4.9999999999999994e-01
    5.2631578947368418e-01 4.9999999999999994e-01 5.2631578947368418e-01
    4.9999999999999994e-01 5.2631578947368418e-01 4.9999999999999994e-01
    5.2631578947368418e-01 4.9999999999999994e-01 5.2631578947368418e-01
    4.9999999999999994e-01 5.2631578947368418e-01 4.9999999999999994e-01
    5.2631578947368418e-01 4.9999999999999994e-01 5.2631578947368418e-01
    4.9999999999999994e-01 5.2631578947368418e-01 4.9999999999999994e-01
    5.2631578947368418e-01 4.9999999999999994e-01 5.2631578947368418e-01
    4.9999999999999994e-01 5.2631578947368418e-01 4.9999999999999994e-01
    5.2631578947368418e-01 4.9999999999999994e-01 5.2631578947368418e-01
    4.9999999999999994e-01 5.2631578947368418e-01 4.9999999999999994e-01
    5.2631578947368418e-01 4.9999999999999994e-01 5.2631578947368418e-01
    4.9999999999999994e-01 5.2631578947368418e-01 4.9999999999999994e-01</output_scale>
  <inv_output_scale>
    1.8999999999999999e+00 -9.4999999999999996e-01
    1.8999999999999999e+00 -9.4999999999999996e-01
    1.8999999999999999e+00 -9.4999999999999996e-01
    1.8999999999999999e+00 -9.4999999999999996e-01
    1.8999999999999999e+00 -9.4999999999999996e-01
    1.8999999999999999e+00 -9.4999999999999996e-01
    1.8999999999999999e+00 -9.4999999999999996e-01
    1.8999999999999999e+00 -9.4999999999999996e-01
    1.8999999999999999e+00 -9.4999999999999996e-01
    1.8999999999999999e+00 -9.4999999999999996e-01
    1.8999999999999999e+00 -9.4999999999999996e-01
    1.8999999999999999e+00 -9.4999999999999996e-01
    1.8999999999999999e+00 -9.4999999999999996e-01
    1.8999999999999999e+00 -9.4999999999999996e-01
    1.8999999999999999e+00 -9.4999999999999996e-01
    1.8999999999999999e+00 -9.4999999999999996e-01
    1.8999999999999999e+00 -9.4999999999999996e-01
    1.8999999999999999e+00 -9.4999999999999996e-01
    1.8999999999999999e+00 -9.4999999999999996e-01
    1.8999999999999999e+00 -9.4999999999999996e-01
    1.8999999999999999e+00 -9.4999999999999996e-01</inv_output_scale>
  <weights>
    <_>
      -3.3180219910221234e+00 -3.8747404519607859e-01
      -4.1206537039264743e+00 4.5609326074188159e+00
      -5.7319689426904186e-01 1.4193055731172923e+00
      -3.8980572816711362e-01 1.3153052741811058e+00
      -3.9472513039692059e+00 4.3379186044340710e+00
      1.9060705433795651e+00 7.6544902497439715e-01
      -3.9986031348295181e-01 2.1115582728771520e+00
      -3.5115333233328725e+00 1.1413541681164674e-01
      -2.6544804723260582e+00 4.5389929582056593e-01
      4.1758583786510375e+00 1.0582064313594739e+00
      2.1227115817149635e+00 -3.5048760494520934e+00
      -2.3736071784262669e+00 -2.6425881670908518e+00
      1.3046988424390574e-01 -8.3373802740426078e-02
      -1.7128101305151697e+00 -2.6153954491034201e+00
      1.5117156513527021e+00 4.8622682715042451e+00
      -1.1315974541543719e+00 1.1150857511788223e-01
      -1.0178641026310444e+00 1.3565478639806441e+00
      -3.3714254186570708e-01 -5.7018345473299481e-01
      2.0255631694943181e+00 1.8393715289000165e-01
      6.0791391321256227e-01 -1.2501309685749655e+00
      4.6696379771022961e-01 -1.2789933524857027e+00
      2.5648516979949604e-01 3.7927084516519532e-01
      1.5984459014153258e+00 7.6227244376943570e-01
      -4.8240740189562690e+00 -3.4715982258314737e-01
      3.6678861761769710e+00 -7.7102859754926778e-01
      2.0815974167640072e+00 -9.3878680344556853e-01
      -1.2250460454859176e+00 -1.6042876990620583e+00
      -1.0800357830937783e+00 1.5557768641012257e+00
      1.1729754527846981e+00 1.7398544689731101e+00
      1.4657859709748249e+00 -9.2585547068204999e-01
      -1.8330643159824418e+00 -5.2789124680453089e-02
      -6.7304965397416605e-01 9.2472669963206555e-01
      -7.6283156200076263e-01 1.3973425894998048e+00
      6.0219254277284073e-01 1.5341606693088601e+00
      -2.0069921240103126e+00 2.2982888234436660e+00
      4.7270513243683769e+00 -2.7289755203218844e+00
      -2.2009789305519596e+00 1.9570345455089087e+00
      -1.2572003155715552e+00 -1.3288312250725018e+00
      -3.3322876245689454e+00 2.7296609288257662e-01
      6.0271355334976240e-01 -1.2120231306865841e+00
      -1.5369202301740543e+00 -3.9421761767107405e-01
      1.0754448438358482e+00 9.5256949771379462e-01
      1.0645548208213211e+00 -6.6845278930129884e-02
      -1.5716470770688276e-01 2.9478970418171069e+00
      -8.1433586947248982e-01 -4.7165350120349041e+00
      -1.0903227762195633e+00 -9.8420768724124730e-01
      -3.2319335010431223e+00 3.0099793108929296e-01
      8.6003931477038098e-01 -8.8510366490519088e-01
      4.7478740799808422e-01 2.5718403402726318e+00
      2.2327194402249981e+00 4.0021899896448010e-01
      -3.5146635453690267e-01 -2.0661548273954171e+00
      1.9997096792261906e+00 -1.2530570976227933e+00
      -2.0822842402515875e+00 9.7517555176407678e-01
      -6.1726072719665015e-01 3.2669282361108054e-01
      -4.5364489086231280e-01 -1.2456662311535778e+00
      1.4314909720382465e+00 -3.7895616314096425e-01
      1.3359893808110734e+00 -1.0764234533003774e+00
      6.8506566463542051e-01 1.7297234528759797e+00
      1.1754544158219063e-01 2.6785035864686182e+00
      -8.3808528632552526e-01 1.8268101811626920e+00
      1.6997562595962887e+00 2.0264190878983910e+00
      1.6196131915120953e+00 -3.1716629246978560e+00
      -2.5394808167590954e-01 1.0682938179574060e+00
      3.2615151735943195e+00 -2.2318156005890661e+00
      1.3716856213115456e+00 -6.6550837810494301e-01
      3.2546554167747810e-01 -2.5865433460015539e+00
      4.1406402660738661e-01 3.8125203998194359e+00
      4.2213716318832262e+00 -1.0187717959529543e+00
      -1.1282300204440101e+00 7.9149992528866087e-01
      -1.6907832850545479e-01 -2.0654061650494442e+00
      1.0212868461552893e+00 -2.5849003247008677e+00
      1.7929981340365417e+00 2.5599154151687409e+00
      1.0072444306828845e+00 2.2711329118289683e-01
      7.1086403990127889e-01 -5.3581060107225398e-01
      -1.1484492761650862e+00 -1.2721559431211913e+00
      -1.4953507661139096e+00 -1.0384447254897862e+00
      1.9911780728296815e+00 -1.4211509042626138e+00
      8.6761316918320386e-01 -1.2569650914464408e+00
      1.7608592845625493e+00 8.3202880391700418e-01
      1.9873490912944651e+00 -2.1052039932152009e-01
      1.1140036987983475e+00 6.3140324678582327e-01
      -3.3361392485612584e+00 -3.1382864193524300e+00
      -2.9919453364944335e+00 2.3411143501439020e+00
      -5.7137117869863630e-01 3.9155901818892644e+00
      -7.9009857337169132e-01 -1.8626144566629435e+00
      -2.9327277128264293e+00 -5.3306844914086804e-01
      2.2787574616888109e+00 1.3948959453138228e+00
      3.3588685044976563e-01 -2.9412634806535438e+00
      -4.5497315180889747e-01 -4.3975086665423087e+00
      2.7010716093406937e+00 -7.0861861757318428e-02
      1.5808279132196688e+00 3.2582111177777251e-01
      1.9852953729860410e+00 2.5037025555050820e+00
      -6.3578765494203959e-01 -7.9360633158990279e-01
      -1.5805069960395084e+00 -1.8443988796064912e+00
      -7.7202445184216639e-01 -3.3994075271269403e-01
      -5.6546853470248723e-02 6.2447835970830678e-01
      -1.0771152310149474e+00 3.2548886766386809e-01
      -3.1000930834396905e+00 1.1289637903014504e+00
      -1.2802974499227138e+00 2.3948465909515071e+00
      2.0595767650388539e+00 7.7244551627729019e-01
      -3.5682513101350279e+00 3.9095760741803548e-01
      -1.0242461009906458e+00 -1.6758143533131731e+00
      -2.8384098877002528e+00 -6.2049140036566615e-03
      1.9999632037261403e+00 3.0537854911277718e+00
      2.9706803482305379e+00 -1.4133349040033545e+00
      -8.2638917052954186e-01 -2.0406439709118982e+00
      1.4399969609119545e-01 -1.3555759383658117e+00
      -2.8747762727114212e+00 -4.5078945769801415e-01
      -2.9685522579817873e+00 -3.2098351853322254e-01
      1.0961704337454985e+00 -3.4712724820538834e+00
      8.5050796903218295e-01 8.0299600995761611e-01
      2.2393842570317557e+00 -1.6842880684928032e+00
      -2.0891603411325401e+00 -3.1884207231913964e+00
      -7.5264627277313714e-02 7.5310843357922763e-01
      -9.8387105952614062e-01 9.0387165657251367e-01
      1.7803729663116026e+00 -1.4506493591160043e+00
      1.7312690350671349e+00 -1.5876656151222701e+00
      1.3556777809334006e+00 6.1209371284340497e-01
      3.2149710760045851e+00 1.7717343463759168e+00
      -8.4696676585564823e-01 2.1689046291738596e+00
      1.3116483487202566e+00 -7.3462849518181683e-01
      1.2476956396477212e+00 -7.4059959607269576e-01
      1.5449403181103255e-01 9.5024517248244100e-01
      1.2695455867192631e+00 9.8240531902015882e-01
      4.5775877365031187e-01 3.2550622437293186e-01
      -3.6842075698427594e+00 -9.3982784545899933e-01
      6.0860167528394082e-01 -3.2629835010849256e-01
      1.8098123430531323e-02 -1.4332006658933003e+00
      8.0829516773145216e-01 1.1674640517002270e+00
      -3.7392232242501278e-01 -1.9967842525037616e-01
      -2.6218587266947031e+00 1.3241600105145754e+00
      2.0095745464753809e-01 -1.5839366864727198e+00
      1.6263149178201848e+00 2.8652883595651102e+00
      -2.4946772843281426e+00 1.8759760266634601e-01
      -1.7049551374823726e+00 -1.4346953515094052e+00
      1.3532933892246690e+00 -2.7556129614560443e-01
      1.8731586886317300e+00 7.9787657115351851e-01
      -1.3700829851011254e+00 1.8638674624077538e+00
      -1.7877600779953997e+00 7.7487786166850522e-02
      1.4089737203336792e+00 2.9147293658968452e+00
      7.4175639199429400e-01 -9.5623504147496141e-01
      9.5833084173749150e-01 -1.7651425894591026e+00
      4.9653765735777761e-01 5.4104697591104989e-01
      -1.5250632948889184e-01 9.9923019335243379e-01
      2.2506258794361664e+00 2.3934821658889383e-02
      4.1759756160354145e-01 -6.9144930413387407e-01
      -1.8394142764950716e-01 -1.0383846088665698e+00
      -8.8716542557714317e-01 1.1840176467050911e+00
      6.1328921214098074e-02 1.7348339491498270e+00
      -5.1283018086396515e-01 -3.2238562146885591e-01
      -3.0195960034753855e-01 9.4556963314157727e-01
      -6.8154910505677790e-01 -3.0428635289114409e-01
      -5.0747243285941179e-01 -2.5026087170626311e-02
      3.2407216165871106e-01 -8.2199948758481955e-01
      1.5531898419992494e+00 -6.1755444799857721e-02
      -1.3727319492701440e+00 -2.5569414853845553e+00
      3.1604475531633136e-01 -6.8366148112327507e-01
      1.1761546121016189e+00 2.5270673459642552e+00
      1.2010017411473788e+00 1.2579472669324989e+00
      -1.5820755812702725e+00 5.2552561376597506e-01
      -2.3401326654838517e+00 8.2716184063222975e-01
      4.8153827775148561e-01 1.0129887689675128e+00
      -1.9001153051903090e+00 1.4763703334405631e+00
      3.1709106123712416e-02 2.4806907523386859e-01
      1.4504091328207713e+00 7.8574872883986135e-01
      1.5774635572598257e+00 -9.6340326043382529e-01
      8.3139760046144251e-01 -1.5929096532280105e+00
      1.6242723966797182e-01 6.2101227227255851e-01
      -3.5812530815191339e+00 1.4544944144872733e+00
      -8.8371710733914044e-01 -2.3511469145627300e+00
      1.1653524741391910e+00 5.3504948848621625e-01
      -1.6723640776425144e+00 -1.3150879951650352e+00
      2.8390379170279151e-01 1.9091429915615318e-01
      4.0249675183328636e-03 -1.5779068577652351e+00
      2.0220969265320710e-01 -4.7731331796872206e-01
      1.9034082742330174e+00 -1.1960056918762592e+00
      -6.6743980385695600e-01 -3.4142619127403679e+00
      -1.7529165019705581e+00 1.6828345362508026e+00
      2.8953075065587743e+00 1.5675743077967994e+00
      3.5849139851177064e-01 2.0644679568361770e+00
      -2.1427686019107579e+00 -8.8195750701513786e-01
      2.7675234729587541e+00 1.6094108944888841e+00
      9.7698756071836057e-01 1.3564551485429605e-01
      1.2157707650596437e+00 -7.2228894350358241e-01
      -7.6777616789798597e-01 3.5545569725777532e-01
      4.7990710096551997e-01 -7.9123047987013162e-01
      2.8729002654774882e-01 5.4459346296988953e-01
      2.5296609446251656e-01 -3.0545203399662585e-01
      -2.0345463997692192e+00 -1.2232691393358388e+00
      7.7040898392028256e-01 -8.9412582104115468e-01
      1.3318590937021662e+00 5.8175477876387749e-01
      -8.3653533115006429e-01 -1.4489207343149761e+00
      -1.1078761386455085e+00 -5.4566733741935658e-01
      -8.6473870021187904e-01 1.6246659932764480e+00
      -1.8051766687230836e-01 1.3598688635729015e+00
      7.3129612684622047e-01 -1.4551090407771936e+00
      9.1511587357507962e-01 -1.9085420779134279e-01
      6.8163245534850769e-01 -1.5507184338364244e+00
      -9.2818653188528966e-01 -1.7067031547253986e+00
      1.3919275184708346e+00 -8.4217882406123024e-01
      -7.1602324536297457e-01 -1.4597666463261943e-02
      8.1140017335382364e-01 1.9968876551702446e+00
      2.4476355438520281e-01 -7.3799601125604386e-01
      4.9164782746072194e-01 5.9384083860176384e-01
      -1.1997607275321753e-01 2.1833184938198227e+00
      -2.6141526084745254e-01 -7.1076531905553386e-01
      3.4630508179951796e+00 2.5562879432922836e-01
      8.8849105088115254e-01 7.8328632563694600e-01
      1.9944323701208291e+00 1.3514038048424990e+00
      -5.5989540711925601e-01 7.3456592227233530e-01
      -5.5487469347357092e-02 6.3182035681104420e-01
      4.7509863556153448e-01 -2.9972239007057666e-01
      -1.0957383714724422e+00 -6.0535701965096812e-02
      1.1678969810195365e+00 -1.3572190481356334e+00
      1.4895512412523576e-01 -7.4704676595389341e-01
      -1.5883941073696815e+00 1.8437817308762421e+00
      1.6138202424656017e-01 -2.2508404611728264e-01
      -6.5149859401202784e-02 7.1467860975436126e-01
      1.4751819744719015e+00 2.8265355761408412e-01
      1.3849112672425312e+00 3.9109242986176618e-01
      4.7511850175376857e-01 -1.1684795589589465e+00
      2.2652907072994144e+00 8.0256712336921332e-01
      3.9008554050889299e-01 8.8127371152576905e-01
      1.0061763195284860e-01 3.3744642362822830e-01
      -6.7773897177503772e-01 -3.5860338572528455e-01
      -3.9049182385196740e-01 4.3405743678054116e-02
      1.5938203829578574e+00 -1.9049164355250765e+00
      -5.0159077289637788e-01 2.4837269084792490e+00
      7.6818795476075141e-01 4.2687897613445591e-01
      7.1550210211973575e-01 7.3377895113590530e-01
      1.1897314923306639e+00 2.2288541044109608e-01
      -1.1415902397680138e+00 2.5561340838415419e-01
      1.0223308480241151e+00 -2.2376661506322817e-01
      -9.8622235483479426e-02 -2.2930920247578435e+00
      -6.3717241754089116e-01 2.2507810240540427e+00
      -2.3373030906805865e+00 -1.2627539547696576e+00
      2.2117741154594381e-01 -2.0299415409177155e+00
      1.7387972316697442e+00 -5.5174807056922404e-01
      3.0676680372906218e-01 -7.4409279757466384e-01
      2.5633769860622463e-01 7.7267633149922160e-02
      -3.3603809299680459e-01 6.7825816443220333e-02
      1.1736739590572054e+00 -2.0379610807063360e+00
      -2.8397576890730514e-02 -3.3024699015058945e-01
      1.2318967299699544e+00 -1.1109049705681713e+00
      4.4612268503901614e-01 -9.0816902893176643e-01
      5.0531157680115368e-01 6.3828071470851344e-02
      -1.0814141763727410e+00 -5.1542423252288938e-01
      -5.1514862301525421e-01 9.4190443331117046e-01
      9.7019399016507368e-01 -1.2341517796560586e+00
      2.9790597700213656e-01 5.6019086489123593e-01
      5.5189879251669161e-01 -1.4386007803248475e+00
      -1.2383798602326954e+00 -4.9814286895458915e-01
      1.5140187646064529e+00 1.7601811137166439e+00
      2.4411952352258015e+00 -7.2645701105271798e-01
      -3.4371015185588699e-01 -2.1117808238498387e-01
      2.5059943058341072e+00 -2.6614109590005808e+00
      -2.7214264604019822e-01 -1.8161863935717706e+00
      -4.3008592039668154e-03 -7.5674290878556461e-01
      -1.3179282822876343e-01 4.1102751191429243e-01
      9.9849756879067915e-04 -9.8742079484933742e-01
      9.8381649998272680e-01 -1.4179212280040017e+00
      4.2221870830872898e-01 -8.7511247118961877e-01
      3.5112310683261816e-01 1.5591081008107246e+00
      9.2507903859129137e-01 1.1930620570787076e+00
      -1.0259832598529346e+00 5.2771105559665887e-01
      -5.2298476149749540e-01 8.6129058091311483e-01
      -1.2037639640826520e-01 -8.8137931392201307e-01
      2.5538463622284202e-01 3.7632571941044626e+00
      -6.1792178005166898e-01 -1.2078084396053719e+00
      -3.4936547273703572e-02 -1.1512059819197078e-01
      -2.4815253063001985e-01 1.0050704618422981e+00
      -8.5167242012933997e-01 -2.2151553743393670e-01
      5.0225383032913608e-02 -2.6298260179163663e-01
      -3.0814077628152059e-01 4.0276041261109330e-01
      4.5832598373652819e-02 -5.5164550375430121e-01
      1.7875490464301560e+00 -5.2254100854100505e-01
      4.8551048895330290e-01 -1.1602312957101579e-01
      -1.8741441491263214e-01 1.9518402803808859e+00
      -1.0091651315040258e-01 -2.1496582850285101e-01
      8.6348639916718206e-01 -1.2912197637828473e+00
      -2.6371233823911228e-01 9.4201068957423795e-01
      -1.6347723554099716e+00 8.3285872740831157e-01
      1.7763170206278440e+00 4.4531403529558633e-01
      -9.6858774165361535e-03 2.3182780677903300e-01
      2.2658747070110872e+00 -1.3120523157707931e+00
      -2.9766384089607173e-01 8.8486284857613595e-01
      3.4781717719100735e-01 4.8292168557458759e-01
      -1.8395844580034582e+00 5.5727691051512362e-01
      1.1334525183328070e+00 1.9139741495833745e-01
      3.3052636411839120e-01 4.1761437824056513e-01
      -3.0500566649964460e+00 2.7206797266077248e-01
      8.0987877958468485e-02 -8.0484050507872462e-01
      -9.1258649965583472e-01 5.9081341102593310e-01
      6.7005852333696136e-01 5.0897206856579880e-01
      1.8284431760868740e+00 3.3788607293484257e-01
      1.3235850874528774e+00 8.1408203344706331e-01
      6.6644537434622764e-01 -7.1973132236333359e-01
      -1.7309263074333294e+00 -1.0305113276400562e+00
      -3.5461796575859683e-01 -7.9546601729831912e-01
      4.6364347719298249e-01 -6.7929353238649548e-01
      4.0513649677091984e-01 -2.5016734070273383e-01
      5.9498179562073128e-01 3.9253620085317587e-01
      -5.7471969513405763e-01 2.2201213730348859e-01
      -5.7265573355092803e-01 -2.1174359441111629e-01
      -1.5554540476368064e+00 -1.1349202167171941e+00
      1.0531332259494430e+00 3.5204431891594190e-01
      2.5881371311709822e-01 -6.6974376313160877e-01
      1.5741403478345846e+00 6.9141869237381537e-01
      -1.3973115279933885e+00 -4.2524370799975025e-01
      5.8347314875087146e-02 -1.7220850651477144e+00
      9.7064437685525917e-01 2.3914901856478613e-01
      1.2049578767187090e+00 1.2409387297478212e+00
      -2.9600251968328282e+00 1.2678519133650432e+00
      2.2474835998295242e+00 2.4279834110000179e-01
      6.3869822921982400e-02 4.4568175992137415e-01
      2.0680497890146429e-01 1.5396576200311016e+00
      -3.1008981024638904e-01 1.4547776010165142e-01
      2.0666421865853563e-01 -1.5361803006240269e+00
      -7.2340740207558984e-01 -1.2650056554131006e+00
      7.1900483451794750e-01 -6.0256474004205349e-02
      1.5518232409768601e-02 1.4320067896256475e-01
      -9.8375916460183691e-02 -2.5553529975926387e-01
      -7.8449860731347210e-01 -1.7116203540446402e+00
      -1.2650535622281505e+00 -5.3035622799133131e-01
      -4.6486071345304936e-01 1.4733819779175197e+00
      1.9783534911722020e-01 1.0623706200826368e+00
      -8.8868899428695314e-01 5.9015659750199001e-01
      9.2847444989781514e-01 -5.2432606382123204e-01
      6.4648065796240639e-01 2.7861883856045933e-01
      6.0030618461237695e-01 -1.0810329832715750e+00
      9.0805857431120118e-01 -1.5222155329139726e+00
      -4.0632486526199324e-01 6.3342312966124137e-01
      2.4069851499481074e+00 6.3469926573874980e-01
      -4.1942323223840794e-01 1.1701044756640970e+00
      2.8198726440247412e+00 -1.1845041939576073e+00
      -4.9128325685042207e-01 -5.9358063496137425e-01
      4.9071012590531216e-01 2.8897599315446769e-02
      -8.3086686058914971e-01 3.1862669846831654e-01
      3.8098909854552893e-01 1.4101850128377060e+00
      3.2163221220901284e-01 -9.0568980693891643e-01
      7.6440408394055415e-01 7.9359951063116918e-01
      -1.0900246593204064e+00 8.5061540864562590e-01
      -5.9961002682018139e-01 -2.9690144500627231e+00
      2.7738212030351067e-01 3.5457697269315504e-02
      -3.1904061758918495e-01 -1.1293588314677433e-01
      -1.5181990908261935e+00 8.9168566350501222e-01
      -6.0758519494184382e-01 -2.5308869759241576e-01
      -1.0167949146923323e+00 2.1158906059079011e-01
      -4.6867874249089037e-01 1.2703301100853170e+00
      1.7005468214672748e-01 4.0098896280263516e-02
      4.5939438695950852e-01 -1.6932877555488981e+00
      -1.3998768578767982e+00 -7.0426391139049349e-01
      7.7895093088901046e-01 -7.9050736249546094e-01
      -1.4167507992888737e-01 2.2196904623035149e-01
      -2.4528125082115618e-01 -2.6390248087968893e-01
      8.0880159691158060e-01 -4.1050892817119565e-02
      -1.2076259936486682e+00 -8.1208686329435953e-01
      2.2867364556323149e+00 1.0093396754729975e+00
      2.1475261295105325e-01 -1.5301027138873163e-01
      2.2319091460956034e-01 -1.1643404136490307e+00
      -3.6062074461883663e-02 6.5457765192497375e-01
      -8.6330561626373570e-01 -1.0575058535541679e+00
      -1.6371876976549773e+00 -5.3965898568840331e-01
      9.5185027267280553e-01 -5.7360589940630291e-01
      3.9340690091346647e-01 4.3405575368815519e-01
      1.2470375434187762e+00 1.2767813121018985e+00
      -4.5237400814807210e-01 -6.7979175779952528e-01
      -2.5012952219163964e-01 -1.4438389564022458e+00
      1.4140123544287422e+00 1.6806653792630974e-01
      1.1024164657123354e+00 -1.1967177265659154e-01
      -1.1532168771576308e+00 -5.0362684639370980e-01
      -1.8450743778360088e+00 -5.2613704237470638e-01
      1.6717017100936806e+00 1.1164009313619010e+00
      -6.2891429344454963e-01 1.2702183491284329e+00
      -1.0779192683623757e+00 -7.3956083633807844e-03
      -2.4126635825915304e+00 7.6230197596234367e-02
      3.3873521937558271e-02 5.2907939233609713e-01
      -7.5482837683087847e-02 -5.9901712694886144e-01
      1.9810254111474496e-01 9.1521317212147249e-02
      8.0239306529641230e-01 -8.2021119742442983e-01
      5.9563589283809482e-01 -1.6283531956874784e+00
      -1.8192572102450231e+00 -1.0382634941993321e+00
      -2.4325652516544463e-02 -2.3968960521237977e-02
      8.1416008372917303e-01 -6.6619218422497040e-01
      8.0740356190537133e-01 -2.7347148960941253e-01
      -1.9795875486016659e-01 -1.3550151762069542e+00
      8.8880511364614478e-01 1.7018716758144353e-01
      -4.7906868565604804e-01 1.1664326897167927e+00
      -1.7083654643724511e-01 7.3518888161854157e-01
      6.4781293052675204e-01 -5.5435497459266947e-01
      1.4540598564425582e+00 1.1008768302325185e+00
      -8.1799152787434781e-01 8.5347624730689264e-01
      1.2153974171709452e+00 -5.2899794096525843e-01
      1.8986834712664120e+00 -1.1127668842059963e+00
      -6.7260012440585037e-01 7.1816080708898083e-02
      -8.2631718272323196e-01 -5.5631232332836456e-01
      -1.5139358654206232e+00 -1.6855569746870722e-01
      -6.6383460306214406e-02 -1.2391407039022455e+00
      -1.5918859446573122e-01 6.5221199028614985e-01
      -1.2588896085176033e+00 -6.7839643309873399e-01
      3.1777479296228256e-01 -1.8176254408853001e+00
      8.5609474732093094e-01 3.5003591235245912e-01
      -2.9221017561439483e-01 8.7405774184506915e-02
      5.4713238457671898e-01 -1.1550584292103330e-01
      -2.9330229825290005e-01 -1.6765004526038414e+00
      -1.9827212664388665e+00 -7.9829756999327939e-01
      -1.1374576949396283e-02 1.8765542296908904e+00
      -1.4786347249284022e+00 -1.1176508476026652e+00
      -1.7726590451524729e-01 -5.3681696660280598e-01
      2.0918195552553989e-01 2.2881686005725586e+00
      7.5199485481504769e-01 2.1235119895284811e+00
      -2.3459201116020112e-01 1.1319478195746018e+00
      1.2240536037965017e+00 1.4892497470075103e+00
      -1.2381082926468227e-01 4.1672494406449184e-01
      1.3245599635347263e+00 9.6934915948305078e-01
      -1.4079661742186858e-01 1.5603258250884144e+00
      6.2463957871775566e-01 6.4402301827741193e-01
      1.7087215049477888e-01 1.0769303220556337e+00
      1.5398536711139670e+00 -4.6610556438256340e-01
      -5.8064225100682310e-01 3.8812414326922084e-01
      3.9962581251754908e-01 -2.7494986794711923e-01
      2.4827531146824663e-01 9.2444585723369388e-02
      -1.0834190618332933e+00 8.3001667809920421e-01
      4.4502219335583049e-01 -2.2407089537458243e-02
      9.1636503890493126e-01 -6.4233447161933266e-01
      3.6397822945166197e-01 1.3035313840528804e+00
      6.5493532780692632e-01 -8.3090068327292921e-01
      7.3760247603443885e-01 -1.0377199248532667e+00
      -4.1705381388913254e-01 -4.2471101802900313e-01
      3.3216410664307067e-01 3.4410705189858676e-01
      -1.2015767493619265e+00 1.2294460525207038e+00
      1.5451425926602158e+00 1.2967288131214871e+00
      2.7392920118094083e-01 -4.4254276135519732e-01
      8.4809540898930724e-01 -5.6516268833569527e-01
      3.0653777900070800e-01 2.0376339612008038e-01
      1.3831296779115007e-01 -1.2114731954169475e+00
      3.4768578453441906e-01 1.3120876242511896e+00
      -9.4978827984951875e-01 5.3285352495923732e-01
      5.2294867478550822e-01 9.3372720671182005e-02
      8.0467062635062564e-02 -4.4432609546388141e-01
      1.2985322175932998e+00 1.3958416463859893e+00
      1.5778870970200884e+00 1.5438762437981470e+00
      5.2991963101781914e-01 -1.2795505682191621e+00
      1.5860116589202879e+00 -2.5760364698514510e-01
      -5.3750926532872545e-01 -6.7123038398520726e-02
      3.6078752680187337e-01 3.2310369681512457e-01
      -6.3933132624376654e-01 -4.5019377434058250e-01
      4.0392873369348992e-01 1.6517324565512930e+00
      2.5235504431528194e-01 -8.2336467103531585e-01
      1.9106782259280897e-01 -1.8912547412680589e+00
      -7.0366490915714577e-02 2.0752680409251880e+00
      5.0605479565889022e-01 -2.9738256184879192e-01
      -1.4966140435148761e-01 -1.6587344081897776e-03
      -2.5710186917333383e-01 -2.7889671310417564e-02
      -1.1078701553479231e+00 -7.5373686067988033e-01
      1.8499892496036829e+00 -1.4177716108603831e+00
      5.4032281318028974e-01 1.5903669846538685e-02
      1.3051593163413537e+00 -9.5616341091279811e-01
      6.6518833931113430e-01 -6.0312664880470801e-01
      -2.9337935943782223e-01 6.7819148391568396e-01
      4.2559245263084237e-02 1.0410383512930161e+00
      -2.6734971979461630e-01 7.4420327334281711e-01
      4.7102400654238835e-01 1.0832696151340309e+00
      -6.0506058062645662e-01 -1.1118127816595393e+00
      3.1795217637679472e-02 1.2138479531980198e-01
      -1.5272582538623022e-01 -2.6379084118243740e-01
      5.8633469557138762e-01 1.1518663697365044e+00
      -1.3763671709150988e-02 -8.7523284151804503e-01
      7.7947781406412242e-01 -5.5730915387366520e-01
      8.7587866997971808e-01 7.8432135504374934e-01
      2.5762563476389849e-01 -6.7896517576014970e-01
      -3.1825008956467760e-01 -1.5236746637250850e-01
      -1.2564781674236054e+00 6.9909443413672623e-01
      -9.4864183835396165e-01 1.3057778114822107e+00
      -1.0700889697052172e+00 2.3402045681773287e-02
      -1.5808441996839175e+00 -3.1942387976217432e+00
      1.5300479780677847e+00 -8.9370013332782561e-01
      -3.4960201209495185e+00 -1.4779337076548391e+00
      5.3426655613529839e+00 -1.3368415929684350e+00
      -6.1433173234435423e-01 1.3448701674632086e+00
      3.0093397594878897e+00 9.3749867402361786e-01
      -3.0525865991436572e+00 8.2930883598140992e-01
      1.6445006539558438e+00 -1.8426623839660169e-01
      2.6053043320740821e-01 8.1617781634287079e-01
      -5.7530798901104097e-01 2.3299417397248845e-01
      1.6309683534789321e-01 2.8359019544344710e-01
      -1.8640139656239556e+00 2.1063311553023385e+00
      -1.4106546277961829e+00 -7.1888636463768640e-01
      2.7450715424803529e+00 -1.4241716160608694e-01
      -2.1550431065576525e+00 -3.8900796896834415e+00
      4.7121278976961040e-01 -7.6085095804252312e-01
      8.8077511658206625e-02 9.0155518802444456e-01
      2.3900230293822591e+00 -4.0701164167022914e-02
      1.3214068904257232e+00 -5.7022574334243292e-01
      7.7412965537912182e-01 -9.7678503558343732e-01
      -2.3163027462516674e+00 1.0197795344213127e+00
      -6.2063445146322593e-01 3.6837930258257781e+00
      6.1083522518171417e-02 1.6425531794066708e+00
      1.3862309707760045e+00 1.9185549248352978e+00
      -5.8882110512911967e-01 1.7871175732412072e+00</_>
    <_>
      -7.4419953684426465e-01 -2.1935262569716589e+00
      -1.4825065950483411e+00 1.3475184149306856e+00
      8.9039658843069291e-01 1.4316602504439857e+00
      1.2689881084570975e-01 -1.4220504801834246e+00
      -1.7350084406310933e+00 -1.0165323922821972e+00
      -5.4634219383140181e-01 -2.8739364621000479e-01
      4.6005245941911949e-01 -1.6962584186341469e-02
      1.0344934152699399e+00 8.2468684744182119e-01
      -3.9594259025206169e-01 -1.3857089730961023e+00
      -6.7344030400762767e-01 2.5816299670375469e+00
      -1.7072784027092327e+00 -4.9075405701827218e-01
      -6.5889776958137825e-01 -1.5997277555475193e+00
      -4.1970701730307680e-01 8.8375832470464877e-01
      1.1750753121364563e+00 6.0420082358802396e-01
      2.6094209993965178e-02 5.2747198617678148e-01
      8.4832186246998398e-01 7.0642192042604712e-01
      -9.5974150832334459e-01 2.8922504507351660e-01
      -1.0224310822776964e-01 2.0517408418844657e-01
      -1.5045622062616426e+00 -7.7600486269583635e-01
      1.1287993242669638e+00 9.5421579371122944e-01
      2.1161564604670660e+00 -3.5131066305281101e-02
      6.8945805728182963e-01 2.5360232173935611e+00
      -1.9140673815453557e+00 -4.2699906859729941e-01
      -5.3754484688652371e-01 4.3085404543275690e-01
      -9.1706741035263339e-01 1.5305656183327920e+00
      5.0541983442083749e-01 1.2200732749981797e+00
      -5.1981021659308298e-02 -1.2459236875977830e-01
      -1.8565593534080688e-02 3.4583068151845220e-01
      5.3742914754564852e-01 6.7134315307031145e-01
      -7.8083716439570142e-02 -1.0212966220978812e+00
      -5.1109702148267466e-01 4.1271683086278654e-01
      4.4200616951247729e-01 1.1149753061044803e+00
      2.9568156434910520e-01 2.8678489035730331e-01
      1.7398881188007638e+00 9.6122191553895031e-01
      -2.4318419064100052e-01 -1.6723979447622148e+00
      -1.6988099146850761e+00 -8.9513249349206991e-01
      -3.0966133663919099e-01 -5.6955583123089060e-01
      -3.2766095309103060e-01 -3.7110131456304002e-01
      -1.0637957471372248e+00 6.8860858526654878e-01
      1.6301794111386528e-01 -1.3362285793863798e-01
      -2.8497263988476063e-01 1.2850360223268738e+00
      -2.5272557844408929e-02 4.6970004508128937e-01
      1.7125318060802008e-01 -1.1038135676205276e+00
      7.8102738121256149e-02 -9.1744738854161845e-01
      7.0875345480237928e-01 5.1858804900653099e-01
      -1.5882621183888879e+00 -4.6855192560532699e-01
      4.9046094546445884e-01 6.4569320886912585e-01
      -3.1471742607732395e-01 4.6067325275564175e-01
      -4.0353238532858760e-01 2.8631982680187412e-01
      -7.4136625542737100e-01 -2.7958026480773573e-01
      3.5232648682402230e-02 2.5961659539788717e-01
      3.0135022624679869e-01 -1.1678238645723168e-01
      -2.7911018699790618e-01 1.2713307784091803e+00
      6.7235748565237330e-01 -4.6280964380850520e-01
      -2.8487700431965657e-01 2.3670064851107769e-01
      -6.3099150287655004e-01 -5.7026445791756508e-01
      8.0198380498686161e-01 1.6348509415170256e+00
      -9.3794602957397089e-01 -4.3560114392098656e-02
      -8.0795940264777466e-01 -5.6198166424864715e-01
      -3.7201245891320667e-01 6.1806857629294576e-01
      1.9483808830475673e+00 -1.4933376705105628e-01
      1.5053531292095326e+00 1.1972267459949417e+00
      1.8291512190219095e+00 -1.5253854180547760e-01
      4.7490450135367783e-02 -5.9164523614772965e-02
      -8.3686638414856873e-01 6.0508212535898231e-01
      -2.4810293536197192e-01 -1.7094615321157797e-01
      4.8674644657739692e-02 1.6335528837427414e-02
      5.7194293594484413e-01 7.7915309002210731e-01
      -9.1490944533666574e-01 1.7121218594180204e-01
      -7.8857240856148714e-01 9.8755151811981279e-01
      -1.1036698819009003e+00 -8.6725862875472570e-01
      5.8590001940803371e-01 -1.1393364989341137e+00
      3.0268300532239645e-01 1.6126247118405497e+00
      -4.7040066300462963e-01 3.1632834078613048e-01
      -8.8134014750890988e-01 1.0879645881640085e+00
      1.0482372744680939e+00 -9.7885120899331213e-01
      6.1550226110351103e-01 4.6189857364151377e-02
      -1.3904517480301909e-01 6.4120443320005660e-01
      7.4072536035164882e-01 -6.2818168443242628e-01
      -3.1842314999584531e-01 7.1404954631238016e-01
      4.6130872430817482e-01 6.8733343365088828e-01
      8.1743846863243974e-01 -8.4087653927994044e-01
      8.4121676204261826e-03 1.9296118596503931e-01
      -1.3861071665849392e+00 3.1336513476912758e-01
      -7.4678257516352053e-01 1.4172181721860708e+00
      7.9634420730413658e-01 5.7451037766993551e-01
      5.7084658845557534e-01 -1.2534353659138096e+00
      -2.0272502099900117e-01 -2.4200150094323625e-01
      -1.1924802683805916e-01 1.2306543204987777e+00
      1.0442066955078007e+00 -4.3162232512786808e-01
      -4.1442216791454112e-01 1.5962490492085111e+00
      1.3625409818330436e+00 1.1259856162329209e+00
      3.3124588684094991e-01 -1.4424918556206319e+00
      -4.1024334149192110e-01 1.7996223484439552e-01
      1.1978224684036692e-01 1.2898096538702189e-01
      2.0305798089774615e-01 1.9644103277332892e-01
      1.0151249984937962e+00 3.3608418961225852e+00
      9.9586650664806611e-02 1.3418403531160494e-01
      2.1852905264436392e-01 4.0278822261246624e-03
      -1.1555315754901148e+00 4.6958886545396129e-02
      -1.7604206113418035e+00 -1.3015992028183779e-01
      4.7474841624161973e-01 -1.0713966859676616e-01
      4.6950809027998186e-01 6.4837774779112878e-01
      1.0919752443745088e+00 3.1498487571981765e-01
      -1.4512712549518489e-01 2.0326850059467017e-01
      -3.1499946037272186e-01 -1.1838241111549519e+00
      2.1398350002632380e+00 4.5214080420815506e-01
      4.2815680928805883e-01 4.6677942495099455e-02
      6.9522322959430938e-01 3.1168472844918876e-01
      -1.5930657917994440e-01 -1.5679101526168528e+00
      -1.4320995396074592e+00 -3.8756094308674244e-01
      9.2196174926672536e-01 -1.3660342112091770e-01
      1.3055729438813000e+00 6.8041851725151592e-01
      5.9760256412653001e-01 6.6805978914611408e-01
      4.8738240759429879e-01 5.4110515495472289e-01
      9.8693739469149289e-01 2.8518900330563186e+00
      -1.7615176534270400e+00 4.4938569682235385e-01
      -1.0683269680125551e-01 7.6077086058409138e-01
      1.0626111702629006e+00 -2.0882279834403741e-02
      9.6612983826601162e-01 1.4755905085386452e+00
      -2.5362912539193028e-01 -4.3315837521571490e-02
      5.5143987276737971e-01 -2.3588012481237715e+00
      -7.9817678939736281e-01 -2.0678919021663127e+00
      -2.8966999036862157e-01 5.5309335921316038e-01
      7.6601496413740666e-01 -1.5759410581120927e+00
      8.9813667739053726e-01 -2.9851591232541169e-01
      -6.3849620749858238e-01 -8.9918169089570876e-01
      -5.8812599200581250e-01 3.9016504609327729e-01
      -5.8276835905424811e-02 8.8448127782961250e-01
      4.0063991319313946e-01 -6.7282525788560610e-01
      2.5552724356753959e-01 2.8389921025551984e-01
      -1.1596418846804256e-02 3.2728960052486067e-01
      1.9630096420756482e-01 -4.9345927181115345e-01
      -8.9314774432210656e-02 -2.3420492420683051e-01
      6.2044257975013917e-01 2.9552283366959708e-01
      -7.4609049387505344e-02 5.6325858396184936e-01
      1.0961147999677643e+00 7.4417814756364409e-01
      -1.3005711613769884e+00 -6.2415001201391007e-01
      1.1637729162341759e+00 -8.9227504811988112e-01
      -1.1566027797397735e+00 3.2684111857274722e-01
      -2.8570883924648679e-02 7.0686259094242504e-02
      -9.3109542962417402e-01 -7.0439108855098409e-01
      7.6192074683828449e-03 1.3648327644838754e+00
      1.9841681006206191e+00 -1.9138490760108912e-01
      6.0872802020294048e-01 1.1391436294421502e+00
      3.1119137511342904e-02 1.5035259598116077e+00
      4.5042412037723756e-01 1.1138976213285803e+00
      2.1001373823337579e-02 2.0790329451575781e-01
      1.5631697596997449e-01 7.3862971746226552e-02
      -4.4756805510600413e-02 -2.2608812494488961e+00
      1.3994472489339880e+00 -4.6208112101413068e-01
      -5.7819742726217327e-01 -2.8791533829760270e+00
      8.6044174885969349e-01 1.5408052273092305e+00
      -5.2035355727477950e-03 7.0412936026265638e-01
      -3.3330894227953051e-01 6.9222042189474986e-01
      1.0116281268291443e+00 1.0039155088446454e+00
      2.0965003196489132e-01 -8.3508506350349110e-01
      -6.7675867534691769e-01 5.1957368678178746e-02
      -2.8995174509403641e+00 2.9768211638768478e-02
      3.7427889442166651e-01 1.8639044986870719e+00
      1.5528381177016006e+00 1.2987056145866642e+00
      -2.5986800840497171e-01 -1.7958311496372542e-01
      8.1251350399011191e-01 -9.2117098365926031e-01
      1.6279610695491442e+00 -1.6229694819079282e-01
      2.5520022931900066e-01 3.4530179597196270e-01
      1.4272695623475704e+00 -2.5849802102687196e+00
      1.9525675207103486e+00 -1.8642356543785177e+00
      -1.5168891255470967e+00 -6.1041497150898905e-01
      -1.8130125056426074e+00 7.1974418614754476e-01
      9.1378479514923439e-01 -2.1286612986704081e+00
      -1.0839864969399848e+00 -1.2524186144411182e+00
      2.9856701512784998e-02 1.9648710429904899e+00
      -2.1952198352966326e+00 2.0537968064784553e+00
      1.5873637377047427e+00 -5.2330047959556514e-01
      -1.1920246624593542e+00 2.3262603863571933e+00
      -8.2224845058839158e-01 8.2533026923045139e-01
      -6.9098587576991599e-01 -9.1935529233761071e-01
      -6.1469215031650959e-01 4.7709443187228917e-01
      -1.3638065419050815e+00 7.4073021532703709e-01
      1.0242019582147723e+00 2.8887729193458994e-01
      -9.7261864929253228e-01 1.7609772422651784e-01
      -4.0345865562858968e-01 5.8351732407625179e-01
      -1.1009433007942384e+00 -1.2033030922444135e+00
      3.5247706085223519e-02 4.3716609141670032e-01
      1.3880647203724137e+00 -2.8512016874984638e-02
      1.0709679658958517e+00 1.4378931408980922e-01
      3.6984232600755845e-01 -1.1716618172928066e-01
      -1.4530913399334324e+00 -7.7221807394689534e-01
      -7.4514978315922198e-01 -2.5862125668396835e-01
      -8.6929867171994801e-01 -1.1832684487745269e+00
      -1.2889595962554921e+00 -2.7152761922415647e-01
      2.6533012538134365e-01 3.6784624390177673e-01
      -2.5950537793892742e-01 3.5075184606659404e-01
      -4.5194222018895036e-01 9.9445603666657112e-01
      2.6035256779213739e-01 3.5101753331625851e-01
      2.8084877360240135e-01 -6.8171951783804263e-01
      -1.0178232990519982e+00 -6.9795192512889270e-01
      1.8896461736868295e-01 6.6927713119372412e-01
      -1.1617648808820533e-01 1.5156080442493387e+00
      1.1286592689574206e+00 7.3804279112875437e-01
      -6.3780067861700185e-01 5.0310651647185745e-01
      2.8778959936751275e-01 1.4745541849208488e+00
      -1.1182055228666710e+00 7.2326752373605599e-02
      2.8430241512165827e-01 4.7155051297281142e-01
      6.4552193327214447e-01 2.4610165525741118e-01
      9.2054728682641140e-02 8.0682127070702880e-02
      1.1098608180039033e+00 1.7553851410344901e+00
      4.2112302548803748e-01 -6.5866264174098754e-01
      -4.7789195167900311e-01 -5.5999486938936871e-01
      -2.7585512860266242e-01 -1.5503431409586514e+00
      1.0016890032032100e+00 4.4901782163177406e-01
      6.0008174710908913e-01 -1.3901904162934137e-01
      3.5367598781852208e-02 1.2420015850588109e-01
      1.2202198175378587e+00 -7.2193796218222528e-01
      -6.9446400993036961e-01 -3.4432635305663412e-01
      2.9081932127621729e-01 3.0131047802292910e-01
      -1.2430028283618195e+00 1.3257737368840592e+00
      -9.7648067577933495e-01 5.0197687819508974e-01
      1.0594921168795044e+00 -4.1762907392972942e-01
      -2.4250527938231692e-01 1.3797483356064499e+00
      1.5131579804634884e-01 1.6300821441050073e-01
      3.7102480367205287e-01 -1.2521873592850215e+00
      -9.4382019829418129e-02 -7.8376063170728760e-01
      -8.4607445950440152e-01 3.2439297668223654e-01
      2.9501297129495493e-02 1.4727056807507286e-01
      4.6849535623886207e-01 1.2828311812448010e+00
      6.7047583971846084e-02 -1.7235270201651007e+00
      -1.3335245663600903e-01 1.8701486599094055e-01
      6.0875502472947714e-02 2.7656569066521280e-01
      2.1943003597794145e-01 4.6995727481275701e-01
      4.3973082155935961e-01 7.6226896815225575e-01
      -1.1184656306607883e+00 -5.5638590344119709e-01
      -2.2092054103692257e-01 -9.1631787692267253e-01
      -1.1045906916961250e+00 1.9106185818764667e+00
      9.0606419440516750e-01 9.4326000454255854e-01
      1.0992531776937533e+00 -1.1331796405817976e-01
      3.9393369795173783e-01 1.3653795079882317e-01
      5.6786640739965932e-01 -6.8517953718862004e-02
      -4.2592493497996398e-01 3.0770779733059284e-01
      -1.1547929669358903e+00 -8.4477140597521838e-01
      4.8165612947429959e-01 -1.0540399932220794e+00
      4.7826014072902712e-01 -6.2024371658442079e-01
      2.1582935610844906e-01 -6.3338709375120406e-01
      -8.5524195634205646e-01 3.2891983624113708e-01
      2.6115727985537309e+00 -1.3257467555194600e+00
      1.5230005228902541e+00 -4.6478682259289744e-01
      -6.1456780290999902e-01 -5.3802108498379596e-02
      1.3033294184638647e-01 4.2791052932687035e-01
      5.9780937631171971e-01 -5.2027288807389022e-02
      -5.0094590316829701e-01 6.4744340711946850e-03
      8.2854710832651768e-01 -3.9514884124063350e-02
      -2.5800916780158706e-01 -2.2157967828595257e+00
      1.5014117959196907e+00 4.6125130454708585e-01
      8.5194923891856644e-01 -6.8568251564840155e-01
      -7.6726770646021680e-01 -5.3912823019909767e-02
      6.4161366587269952e-01 1.9842072471760148e+00
      -3.3982757077547959e-01 2.6308912132864348e-01
      3.8945266235399312e-01 4.4778676235701204e-01
      5.1794058255218534e-01 3.3757546790512566e-01
      3.0853575575898062e-01 1.6028497296198145e+00
      7.2819450186008794e-01 -9.0658668059158098e-01
      7.6418974338210599e-01 -1.3345291714326590e-01
      -1.2668612158362144e-01 1.5351053302987111e-01
      -6.5552086347543059e-01 8.1741132171014652e-01
      -4.7580917181510744e-02 1.2219446600654292e-02
      -1.9846692417072126e-01 9.2733284773204760e-01
      4.0579370645755464e-01 -1.3409288463321576e+00
      1.7780053190015038e-01 -1.0684458298539452e+00
      -1.4879179430665976e+00 1.0074274911814968e-01
      1.1965957495308379e+00 -1.3356387215950001e+00
      -1.1610063730290722e-01 3.4471277991988097e-01
      3.7087426495552062e-01 7.4536972788815503e-01
      3.7446813671200496e-01 4.6087176301577693e-01
      3.9711210636456766e-02 -8.2496027593105059e-01
      2.8713257909350887e-01 2.2442061272634466e+00
      1.3605111073312377e+00 7.8812758983811337e-01
      4.1684334503515835e-01 -2.7481173252167784e-01
      9.4455654681875123e-01 3.8211325174049529e-02
      3.5906421609400846e-01 1.0957179790944473e+00
      6.5371228066931553e-01 -7.2673306377367863e-01
      -6.4190712276335507e-02 8.4913224544767518e-01
      9.3000466624980116e-01 5.0834968059796637e-01
      7.2673453150116274e-01 -6.7859537705031081e-01
      1.4771631021477918e+00 3.6171079104631312e-03
      -1.6504808437535046e-01 -2.9313922278808784e+00
      1.0924923823461123e+00 -2.6525771665984393e-01
      -6.5879021929195258e-01 -3.3039651498076900e-01
      1.2448018742678527e-01 3.7704676332627163e-01
      -2.5193358586079034e-01 -6.3694805560078405e-01
      -4.8313117317429044e-01 -1.0603659704861736e-01
      5.9495608251507637e-01 -4.1048847760607415e-01
      -1.8163409643525943e-01 -1.4394949382587180e-01
      9.4306096370956061e-01 2.9506782296879985e-01
      3.3475275403936888e-01 1.2211645581720296e+00
      9.5454080593578738e-01 -1.4558098908556932e-01
      -2.6504308395297488e-01 -3.0060929256111724e-01
      -2.4652166775615070e-01 9.7783333929291261e-01
      7.5706997095227013e-01 6.8302971947095270e-01
      9.8943810177550073e-01 -1.0430150649421952e+00
      5.1078511681411909e-01 -5.2636305975586703e-02
      -1.2876106847586122e+00 -6.7897466663904738e-01
      7.1095599395556464e-01 -2.9195572365562056e-01
      -5.1967801975981553e-01 1.8310515112750517e-01
      -1.6414773200239799e-01 -8.4064163679635706e-02
      8.9457416028815084e-01 1.0497442890992421e+00
      -1.4827601833308099e-01 4.3038899758810722e-01
      4.1097062269587936e-01 -1.3690740809663804e-01
      3.6185294392313982e-01 -9.9409542670290174e-01
      -1.1485089870096894e+00 -3.0043134150019524e-01
      -5.2345965433873443e-01 -5.4220344646824858e-01
      -4.1878932503262828e-01 1.1352078844695415e+00
      6.2784026267917270e-01 6.8041139358690252e-03
      1.1280889291596405e-01 7.3361436777334255e-01
      2.6555842965560728e-01 7.8009821360694087e-01
      4.5533499539762701e-01 2.0925718211877389e-01
      -1.2242965552851448e+00 -1.0109385792388321e+00
      5.7672111094266276e-01 -9.5822102167042351e-03
      -6.9848383439941086e-01 8.5053613234580450e-01
      1.2626495721287065e+00 -6.0438523554326322e-02
      -2.4644936835529152e-01 2.2948580652600539e-01
      -7.5232308212117449e-01 -6.7324804655165449e-01
      1.2101944558463409e+00 -2.8277055612505303e-01
      2.5878602517294264e-01 9.3372558863516003e-02
      -1.1941914078142255e+00 -1.0275608138351069e-01
      -4.4890453036591749e-01 -2.8816748988415886e+00
      1.2697931139036165e+00 1.0354813322331211e-01
      7.9958387417020649e-01 -6.8179605458980275e-01
      -9.4593348573709790e-01 -2.1227097697601210e-01
      -2.2614132155600825e-01 4.7140892189622773e-02
      -3.1009662550888473e-01 -1.1325279192119846e+00
      -8.4773147540119853e-01 1.6124165725405191e+00
      1.1389143589130669e-02 -1.0425236875313059e-02
      1.3931364346538446e+00 9.2472524901858466e-01
      -8.4808494851171501e-01 1.6616863339652577e+00
      -2.9720736124097707e-01 1.1168272348541939e+00
      2.0729448814116355e-01 -9.7201439634746090e-01
      4.0759326777370297e-01 8.6367864810240047e-01
      9.1793319049252697e-01 3.5761561535327357e-01
      -2.3429547652604929e-01 9.9381259255821119e-01
      2.2280853543382750e-01 3.4294528180168082e-01
      1.9426936960585897e+00 2.4771334863348950e-02
      2.3227532029847003e-01 -5.7619891110253174e-01
      -3.5063404963768524e-01 -7.9806803623636302e-01
      1.5725592446474573e-01 4.2545528466638122e-01
      7.4577464472432864e-01 -1.3433488930833291e+00
      2.1109255202478103e-01 1.7767666904839644e-01
      -6.1820741885204966e-01 1.5207866429718087e+00
      2.6848735917250305e-01 1.4253924312005324e+00
      1.6314725549306441e+00 -9.7340273441965475e-01
      -4.2897377850451240e-01 2.3506403114592160e+00
      -6.2487657607873648e-01 -6.5865417823134398e-01
      3.1929134814902416e-01 2.3124839247554596e-01
      8.1888938668374300e-01 7.5010546785835130e-01
      1.1434825043594854e+00 -9.1860279230711672e-01
      -7.7436206883124414e-02 -7.8172128184731260e-01
      -1.1333333129089276e+00 -1.7169429957177900e+00
      8.5860862655802084e-01 -7.9068383979790813e-01
      -1.2623358234949671e+00 -1.6628960045565649e-01
      -6.1076587527023274e-01 -1.7554160796694585e+00
      -1.5653127309665689e+00 -2.0475761268184982e+00
      6.6345439994939970e-02 3.0331438514728865e-01
      -5.7703562931299857e-01 3.5211616569935256e-01
      -4.9340142179674784e-01 -7.2157373428594421e-02
      -5.8608028197919999e-02 7.3687682934168974e-01
      7.3942183454529931e-01 1.0992569905613094e+00
      3.1460753283118109e-01 1.7357071874181664e+00
      -1.1617115838938787e+00 1.8613338976953155e+00
      -2.8436926973596083e-01 1.1952756075635582e+00
      2.0819584677958372e-01 -1.0128265654114503e-01
      -3.6347681770502160e-01 -4.9825257863746747e-01
      -3.4241628463999377e-02 8.9731948931794869e-02
      8.9036982702031386e-01 1.2528291647856922e+00
      -9.2033428351284363e-01 6.0564665496052716e-01
      1.2976475262843055e+00 7.3291984963703560e-01
      -1.3291485634508693e+00 -1.4479303477675094e+00
      -3.8125579420561795e-01 7.6228078505764330e-01
      -2.0865102763044594e+00 -1.1928283468703984e+00
      -4.0565535846280594e-02 -6.7660012091265631e-01
      -6.0136103459329471e-01 1.1349642867204333e+00
      1.4190079453114521e+00 1.3309872479542587e-01
      -3.3906128851733058e-01 -1.2102375988193321e+00
      2.2431710647725600e-01 -8.0999506280870748e-01
      -5.4623446311495161e-01 -5.6787422515517583e-01
      -1.0869873555658630e-01 -1.6744607844216264e-01
      7.6353338261774661e-01 1.4434191332049564e-02
      -5.0638411718815302e-01 1.0461640268060246e+00
      1.3561139919258989e+00 1.0024554630722657e+00
      -8.0739551462459180e-01 -6.8723329648041309e-01
      3.8644535502924393e-01 -7.5906460773606510e-01
      -4.3520677477502134e-01 3.0216491323904870e-01
      -5.3638045909062348e-02 -1.9447580539660680e-01
      -1.0315948938801598e+00 -1.0841736781523710e+00
      -2.1175728178689607e-01 1.2330958917228256e+00
      -5.4221184484876228e-01 6.0873224427991834e-01
      -8.8050042223589542e-01 -8.8466477969512480e-01
      3.3761420690702570e-01 -7.1736095716225412e-01
      -8.8544267898136375e-01 4.9139419578969040e-01
      -8.2664861500960019e-01 1.2007839731921599e+00
      -7.8524117065139165e-01 6.0277342808214884e-01
      4.9032404326849982e-01 1.4466544172301716e+00
      -5.8953178856319388e-01 -1.5578509050448519e+00
      -4.4361241261112028e-01 1.8122768196510974e+00
      -7.0778570288309728e-01 -2.7712295331843279e-01
      1.9078678404380670e-01 -1.2188134597347919e+00
      -7.3934727311038062e-01 4.5916506173927500e-02
      -1.2001785122412427e+00 -5.4611834261418246e-01
      7.3083487772549882e-01 -1.6801832521040803e+00
      -1.0283601789824530e+00 6.3569904813238776e-01
      -5.5910013356767617e-02 -4.6109855988348181e-01
      -6.0747941624516788e-01 1.9430726695380964e+00
      8.3407922537747892e-01 2.5403959610222432e-01
      8.0093980290715305e-01 6.0072312435533060e-01
      1.6974123086425633e-01 5.0953029034526820e-01
      1.4174829147195414e-01 2.6653200005963135e-01
      1.2618704388503088e+00 -5.3585869762425409e-01
      -2.9246426228969269e-01 7.3931557839811524e-01
      8.7591135423844857e-01 3.8261596666190745e-01
      -3.5747729025752040e-01 -2.9249178494263955e-01
      7.7836582712277058e-01 2.4687991371419973e-01
      5.7616776567600281e-01 -5.0410016865097240e-01
      -7.1711846768621512e-01 -6.5694027803204616e-02
      -6.7026623344730485e-01 1.9881186031028512e-02
      -2.9428184362926796e-01 -1.0556919530259312e+00
      6.7802855210939802e-02 -5.4786278267786914e-01
      8.0417676331948018e-01 -1.0821197024527818e-01
      1.0928878728908593e+00 6.7782130543419750e-01
      -7.2590704749984536e-01 -7.4231220152421701e-02
      -4.8384806290305815e-01 2.0394408484213500e+00
      -2.9574399438417437e-01 -5.1068938878854353e-01
      -7.0621000453367421e-03 4.5306396504723706e-02
      -4.5106431538252306e-02 4.5444454771748505e-01
      2.0811527693527995e-01 2.1884460020299832e+00
      -5.1277450617168197e-01 -8.1629685860336830e-03
      -6.9255158117213078e-01 1.4973669949710847e-01
      2.7274957543650213e-01 6.2420123349273338e-01
      9.4219542462944450e-01 -6.0424668598313314e-01
      8.9461523575235258e-01 5.2623124714805602e-01
      4.2213875497035164e-01 -4.2931234719497502e-01
      6.2171420609573569e-01 -7.0892903877653590e-01
      -4.1323477799600006e-01 -1.8171237510240060e-01
      1.3480178409101971e+00 1.0787035217406991e+00
      1.7799585186618425e-01 -1.1889780506928143e+00
      1.2634462826997099e+00 -6.9762858834457334e-02
      8.0992619372910912e-01 -1.4516025018725631e-01
      -1.9431384577052389e+00 1.8079989207244516e+00
      -1.2540619369457093e-01 1.2286542836424039e-01
      -1.4245298733463101e+00 5.8777121332292181e-01
      1.7841719915966556e+00 3.6485427243957112e-02
      3.4733145293829737e-01 2.4274529607325576e-01
      -7.7024036767033122e-01 1.0827066579978075e+00
      5.5114384991209098e-01 5.9869361604160554e-01
      -6.4810790210628622e-01 -9.1698162071429967e-01
      1.0156736085958138e+00 -6.0427106060403912e-01
      -2.5084129349814432e-01 -7.5268554524782139e-01
      -2.2318886577319610e-01 5.3564614572372915e-01
      -2.8834467250841347e-02 8.3444404287317686e-01
      3.7793688088240618e-01 2.5108803984439776e-01
      3.2985082456218856e-03 -6.3996253231616351e-01
      -1.8332126911093671e-01 8.5527427481493834e-01
      9.1577201938516983e-01 -6.6606978618571744e-01
      -2.1448288688840909e+00 -6.5549577906854817e-01
      3.4088132526245520e-02 -1.0663237101965062e+00
      -2.6882929948457546e-01 3.5804672801373094e-01
      -1.5517854103028634e+00 5.3405263222744026e-01
      8.5344069628990715e-01 -1.6635175922493224e+00
      -9.7517276819604326e-01 1.7454230061072307e-01
      3.1966060085090259e-01 2.6559886372620689e-01
      9.2295123710499560e-01 -1.6973421646734596e-01
      6.3481841819995732e-01 3.1984689376837866e-01
      5.7929037186413346e-01 6.5752838902487606e-02
      2.6439967642692958e-01 -2.4055184463255827e-01
      -2.8700867675461050e-01 1.6529965468476930e+00
      -7.9528810782860992e-01 -2.7701364940311179e-01
      -1.6276135965247557e-01 -2.1210079324577616e-01
      -4.8071375645362407e-01 1.7292883090598756e+00
      4.3614704585855457e-01 -6.7244235171630418e-01
      -4.6204762144616679e-01 7.1945770704954515e-01
      -1.1741227185891833e-03 9.1842418262139580e-01
      -1.3340256051947749e-01 8.2386137744650456e-01
      6.5082752298717517e-02 -8.8485553650858473e-01
      -8.6128715893142749e-02 -4.9015601854844715e-01
      -1.1447514734854261e+00 -2.0424898176933270e-01
      -1.5910916174924530e+00 -3.4685360756589240e-01
      -3.1113132301041646e-01 -7.3032297661525780e-01
      -3.0633888529672415e-01 4.9781169303583828e-01
      -1.5489463661680816e+00 9.8944098424342664e-01
      9.4265173019271054e-01 1.8823278367986609e+00
      -5.3498070415937182e-01 -9.5069178987266212e-01
      -5.6957621864048430e-02 8.0654653122988404e-02
      -1.7532336290028580e-01 -1.2578659022654867e-01
      -4.1073634657756120e-01 1.4095869564937062e+00
      -9.0388777615839055e-01 7.2648634893438024e-01
      -8.3081911690334287e-01 -7.7250999698865219e-01
      5.7255630384467493e-01 -2.4688690062199889e-01
      7.0665511967894890e-01 -1.1582759056837356e-02
      7.4717320588366110e-02 5.1690432548069631e-01
      2.8116771632835885e-01 1.0256063996844991e+00
      8.3703764824563376e-01 1.3237756649423480e+00
      8.5395251120858634e-02 2.9840676014654466e-01
      -2.3872858487509691e-01 6.2464025467092943e-01
      1.0335653331185730e+00 -1.0652454676217695e+00
      -4.0394070511215692e-02 1.7520807193190902e+00
      -7.5053753803498702e-01 5.2825748955991014e-01
      -7.5300071255028167e-01 1.2619783896645582e+00
      2.9776224055950623e-01 -1.1479206815505774e+00
      -1.5285510241160525e+00 -1.2509863280870608e+00
      1.8970490371009655e-01 -2.3057227999444510e-01
      8.2075910949224717e-01 -3.8092553825187080e-02
      1.2074215910625139e+00 1.3103451073144246e+00
      5.2226280461900387e-01 -2.2557053876410915e+00
      -1.1415463347889472e+00 -5.9506392716909318e-01
      1.4435295207089482e+00 -4.1579158378888620e-01
      -9.1978691149271527e-02 6.1253030439738454e-01
      4.3335559506039240e-01 8.6119630949022974e-02
      -3.0018985660714903e-01 -3.7714711808558876e-01
      6.1759051956284083e-01 -1.4635988587885165e+00
      1.4710353790174507e-01 -2.0296206915420076e+00
      -4.3515169452668101e-01 -1.3502066306231237e+00
      1.4036281808395319e+00 3.0364339103308063e-01
      6.7564764253119813e-01 -2.9932637723845512e-01
      1.3553319733992097e+00 2.4986495596883671e-01
      2.8611245411990138e-01 2.0171027648598443e+00
      4.6413255267351033e-01 5.1334025547447859e-01
      -1.1292236819031685e+00 -6.1753184544809825e-01
      1.9587303582646634e-01 -4.1993361585767330e-01
      -1.5057180125756155e+00 -6.0403084706201193e-01
      -9.3493881268873924e-01 -3.9486109334481996e-02
      1.4941721316985443e+00 -8.8649994371542362e-02
      1.0959747283848995e-01 -1.2888755305813768e-01
      -1.2753094197577175e-01 8.0808692867694221e-01
      -8.6655446198841107e-02 3.7929203071935529e-02
      1.0719983783683660e+00 3.8951015137365108e-01
      -2.9276686285608093e+00 -2.5333127222409718e-01
      4.3487562067170649e-01 -9.7764243085854219e-01
      -3.6531260636145563e-01 8.5773598104183857e-01
      -1.0869055171782224e-01 -2.0746793669006519e-01
      -1.0292880076329811e+00 1.5168425980662226e+00
      -3.8300096129397648e-01 -2.9658198947037290e-01
      6.6081767211330766e-01 -6.5047653247441806e-01
      1.0371968625171348e+00 1.0957430092863385e+00
      1.1291232359153425e+00 -2.7344107700995195e-02
      -1.1794658530801436e+00 1.1607859077213518e-01
      -3.6629852889355347e-01 -3.3394587927262881e-01
      -7.0190057934060945e-01 6.7575687227998205e-01
      1.3865756499164009e-01 2.5025535358504625e-01
      -1.3011893721793666e+00 -4.0445871484576262e-01
      3.1225408466161275e-01 -1.5165316917878071e+00
      1.1691553409712714e+00 -6.7469361763936045e-02
      9.2516237140887525e-01 1.4934514153132158e-01
      -5.9629704147020557e-01 3.1115326551457484e-01
      -9.4279139864985617e-01 1.2595754243973856e-01
      7.1960166076499618e-02 -9.1679837871206804e-01
      1.4134761185832465e+00 -1.6220900953013135e+00
      -6.6525457623627282e-01 7.8580029288113873e-01
      7.4665391114758062e-01 1.7614131082830726e+00
      4.6462613753269127e-01 -1.1578724384901524e+00
      4.2155918483117361e-01 -1.8393132752148054e+00
      -2.8707886970968159e+00 -1.1689338566747747e+00
      3.4210636035040881e-01 -1.2099615479726339e-01
      4.4191408983731334e-01 2.0409664490636983e+00
      -5.7198070500649034e-01 2.8799743595893906e-01
      9.5483205623227663e-01 6.0085808168781252e-01
      -3.7767537796446476e-01 -4.8511639586524768e-01
      5.2940751704378997e-01 -9.6133612713567029e-01
      -6.3532196810001362e-01 1.1238501389115243e+00
      -1.1231798088840372e+00 -1.1457299118203181e+00
      -4.5608095772697609e-02 6.4694957726758917e-01
      -6.7637509530733178e-02 -8.0908435236549414e-01
      -1.5673021667860780e+00 1.1168442983303004e-01
      -3.7362233486100299e-01 1.5256330728534329e-01
      -4.6002042232453066e-01 -1.2621052155994290e+00
      -2.0978494297205050e-01 5.4058587844043537e-01
      9.6377783382830673e-01 7.1223442130037951e-01
      -1.1084099175078344e+00 1.0750889052575474e+00
      9.7439124617819250e-01 1.6490792616929322e+00
      5.2659509715323471e-01 -8.1097656784887073e-01
      8.4536532368175732e-01 -1.0459630342632567e+00
      6.3720395092605042e-01 2.1125592786517189e-01
      -7.1280716784136083e-02 -2.8378765202807887e-01
      5.8718584533204332e-02 -5.0352814071931895e-01
      -3.9805316348097947e-01 1.5165745817140077e+00
      -2.0084890484793005e-01 7.5712649626539685e-01
      -1.7349831709124125e-01 -1.5821629916813082e-01
      1.6561237175955013e-01 -1.4826587692524242e+00
      -1.1176065320833555e+00 5.1185241012062033e-01
      1.9921992664036811e-01 2.6309017218066355e-01
      -2.0081106622824643e-01 -4.6960362350174964e-02
      8.3342448992314921e-01 1.2625071615807497e+00
      -2.1920367072166558e-01 -4.5386779201534072e-01
      5.5531115997614700e-01 6.4653911247428919e-01
      1.2730600644409655e+00 2.1207493735726046e-01
      -2.6168291623941226e-01 6.3917683707496709e-01
      -7.1436541410828969e-01 1.1417459084950012e+00
      3.7670335603860611e-01 8.0268268784306962e-01
      1.0096235202585857e+00 -5.8642355567986448e-01
      3.1769461136615390e-01 1.3370618002742432e+00
      -4.0060360489713015e-01 2.0671821960207786e+00
      7.2886547600588336e-01 -5.8999137131778701e-01
      7.0057694840035811e-01 -7.1648597818370785e-01
      -6.7951687322390997e-01 2.6652738964317706e+00
      -1.1384819990407782e-01 -3.4218940142716098e-01
      7.4256521691423916e-01 9.7298767270000353e-01
      5.3348106761156711e-01 -1.3780265609647058e+00
      6.0269927485258412e-01 -4.3383043737312554e-01
      -1.0970328852523925e+00 4.7942427558112488e-01
      -2.8815211442344257e-01 -3.6969887334934270e-01
      1.6459535524424245e+00 -9.6383007498002848e-01
      -1.8364732208628023e-01 3.2547373245130518e-01
      1.4052916011922518e+00 -5.6924516127019514e-02
      -4.9030824744640378e-01 -3.1084620962034721e+00
      -5.2316465439730597e-01 1.0637905546728419e+00
      1.1723097375206077e+00 -2.8424309520500302e-01
      2.8873465667023929e-01 1.2221021448765645e+00
      -2.5125888332222829e-01 8.1607901722627307e-01
      -7.1978179253303121e-01 7.4346194874156779e-01
      -4.0815466533293976e-01 4.0902399835923209e-01
      -7.3207483565222431e-01 1.0968847167139215e+00
      -2.2552220238126391e-02 1.7240422560283339e+00
      7.6654185603199110e-01 -9.1379292722076100e-01
      2.4645827692484670e-01 9.6276637235702400e-01
      7.7169330407611558e-01 1.8201442844749255e-02
      1.1363282900854812e+00 -7.6323057592320498e-02
      -1.6217251713974576e+00 -3.3447446341241116e-01
      4.5255935937057096e-01 -3.0539715895690445e-01
      1.9764638267512954e-01 -8.9875201886463318e-01
      -1.2449410006590868e-01 -1.0936577568658075e+00
      3.1318423914982163e-01 -1.1955459221241760e+00
      2.5511390478384344e-01 2.5311109306982482e+00
      -2.4418784356339485e-01 5.1424345230127499e-01
      1.0743587070656414e-01 -3.8554023143486460e-01
      -8.1524932841182715e-02 -6.9791139901791943e-01
      1.2017140359410312e+00 3.0060574140280560e-01
      -5.3771788036986279e-01 2.0425103268005065e-01
      -3.6387568149829103e-01 -1.1915770426610581e+00
      -3.5873111762079612e-01 -1.2850511818474388e+00
      1.7168986813896572e+00 -1.9428409430452463e-02
      -1.4526375347629517e-01 1.1552940417678079e-01
      9.3669586634424795e-01 -5.3800558019303085e-02
      1.7880958687391459e-02 2.8837248043370733e-01
      1.0403591310302741e-01 3.9265387822130016e-01
      1.4431161767455614e-01 1.3727875337272186e+00
      3.4818191323267335e-03 8.1875067304977966e-01
      2.9401702212672617e-03 -4.9708059012537981e-01
      -2.4971284504083371e-01 3.8035015759646168e-01
      -5.1160414946253741e-01 7.2830590445885968e-01
      -2.8637501442769414e-01 -2.0573428701573265e-01
      -2.5446079243234931e-01 -2.5223630809673101e+00
      -1.1167380727292286e+00 -7.6100823618618330e-01
      5.4355387085932454e-02 2.2628935494421940e-01
      2.8396735650044197e-01 -1.5961661401545602e+00
      1.1186419386041530e-01 -7.3487138296060267e-02
      -6.9187276385563531e-02 -6.8328788389730111e-01
      -4.1683270795881472e-01 -1.8317829376249588e+00
      -8.9565348261858380e-01 -8.6193152582271881e-01
      7.1886935363887960e-02 2.0398850918579192e-01
      -3.8185294109678797e-01 5.7562463968261302e-01
      -2.5818151426751806e-01 5.8655315730681212e-01
      -1.7366165246129963e+00 -1.1420142071633863e-01
      -4.7263361481867128e-01 1.9132773115498322e-01
      -4.6558362138753101e-01 2.2449311580111395e+00
      -1.1765469429623918e+00 -4.3420158350336246e-01
      1.1971419823749769e+00 2.3239453677785352e-01
      8.4919158987364907e-01 2.2115212517368554e-01
      8.9633541599940281e-01 4.7421575568549990e-01
      -3.0280882614730936e-01 2.9184090977483640e-01
      1.9847419571739219e-01 -1.4424245264085045e+00
      6.3343658236828781e-01 7.6999965274302062e-01
      -1.7978755309753430e-01 6.0448750819046437e-01
      -9.5834344878964572e-01 3.9720209122243388e-01
      -9.1889694991377169e-01 -4.4709101397680057e-02
      3.9584449676429954e-02 -1.0938184395988346e+00
      2.8576837400827959e-01 3.3032899161349638e-01
      6.1074246640604679e-01 2.1434960484328234e+00
      2.7522957264717063e-01 1.2490809484802934e+00
      -5.2471322358196004e-01 -1.0366384517508138e+00
      3.0018990176919585e-02 2.4223011424443433e-01
      2.7716541275543377e-01 1.2713657804010432e+00
      1.1729753590570446e+00 4.7255634851493294e-01
      7.7490596064454331e-01 -4.7143238758748168e-01
      -1.0882126650040255e-01 4.4987313255304924e-02
      -7.3125850270699877e-01 1.2381052792658978e+00
      -1.0729263017650560e-01 -1.0310871542338211e+00
      -1.0825714968702096e+00 1.4002353728464736e+00
      2.7496492725348370e-01 -8.1981870877568730e-01
      -4.6155579496054405e-01 -1.4154223909487917e+00
      1.3814485957780529e+00 5.4441571824186330e-01
      -2.9436243115943428e-01 -1.3577998309919701e+00
      -1.3027685290705282e-02 3.3991419385370431e-01
      -1.0769091265864921e+00 1.7530085283638214e-01
      3.5589875636709345e-01 -1.0567316121817731e+00
      -1.9643057121172876e+00 1.6295290433869607e-02
      -1.0081678008372854e+00 2.1619147382080353e-01
      3.7238334588150884e-01 -1.2219291834772166e+00
      -1.4010738834059436e-01 -1.2232113344714779e+00
      -4.2094345535458133e-01 -3.3253383767988226e-02
      4.2456112916181604e-01 -1.0497174723852551e+00
      1.5996761955986027e+00 3.6390947822186098e-01
      -6.5505809184888486e-01 -6.6337430514364026e-01
      3.6085049593155527e-01 -3.8576673816414726e-02
      4.9899696556519341e-01 -1.5499007203083566e+00
      -7.6605792852902566e-01 1.2203454629476473e+00
      -1.4905714990885062e+00 -4.0247342564369154e-01
      8.1774197651959901e-01 -1.1095801295363297e+00
      -9.9123104598860867e-01 8.7853064895073196e-01
      1.3668693839013659e+00 1.1675418594834348e+00
      3.6977376108846070e-02 -1.5503024255093933e+00
      2.5966170506747877e-02 7.0515148078653356e-01
      -4.3243994788742202e-01 -1.0302867321688502e+00
      3.2082602051356490e-01 -1.6776583737656670e-01
      7.1604017153005439e-01 -1.6807591477800649e-01
      -5.9192850017591592e-01 6.5048625415166217e-01
      9.8308240274470016e-01 1.9837507692838801e+00
      -9.7869543144531679e-01 -5.4407436235606954e-01
      7.9027997096587616e-02 -1.5471861552392270e+00
      -3.1582227016392028e-01 -3.0821296019233912e-01
      -1.0746446361812667e+00 -7.3601367773921089e-01
      1.8546800706684397e-01 -4.1009175543398740e-01
      4.7680948349150554e-01 6.3988201993470795e-01
      -3.5545302250151345e-02 5.5641168559715160e-01
      2.4316175095191089e-01 -3.1202907040470146e-01
      2.5762703743309168e-01 -5.3396714754310404e-01
      -1.9712218680533957e+00 -5.0662953064043803e-01
      6.2375300439871779e-02 1.1558825586544379e+00
      -6.1716795512900713e-01 8.8954856880398014e-01
      8.8227733009988940e-01 1.2924517640276334e+00
      4.7224191152759290e-02 9.7605035608354085e-01
      -5.3324426038279227e-01 -9.8184518393601583e-01
      2.7978204318656225e-01 -6.8818934677676891e-01
      -2.4209164587900184e-01 1.5553729846533484e+00
      1.1544084342526690e+00 -4.6796155054275407e-01
      8.5367929999311665e-01 2.1743085999188918e+00
      -1.6535159996755067e+00 -2.8384837194310326e+00
      3.3057128096897592e-01 -8.5852846449339126e-01
      1.8408111013704991e+00 8.5516828317155147e-01
      1.2407567199387902e-01 3.3243921830820977e-01
      -1.0023419309676321e-01 6.6357857072258697e-01
      -1.1169168002856313e+00 4.2687218295830281e-01
      -6.5749532982600989e-01 1.9831986932109086e-01
      -1.2955336160917241e-01 2.6723531427760810e-01
      -1.0801648213836845e+00 -1.1884845637217154e+00
      -1.3204268628535101e+00 -1.0343820674356390e+00
      -5.9812665666560583e-01 2.6158068513799215e-01
      1.9343448512029491e+00 2.9533782550250448e-01
      -1.9122078944823397e+00 5.4902886505769211e-01
      5.2747227156297494e-01 -3.1400526116823896e-01
      6.4776631052026123e-01 -1.4403576464516350e+00
      -5.3435607731987633e-01 5.6575486830466182e-01
      6.3297742620191999e-01 -7.3255157386003700e-01
      -5.4443041496486388e-01 1.4655730408575898e-01
      9.7636873958692671e-01 6.2487929104191264e-01
      -4.3769542572449549e-01 3.4580816679972154e-01
      -4.8958674979448724e-01 8.9625138857746034e-01
      1.0942552709309943e+00 -1.3430529641799278e+00
      5.4259530961927338e-01 -2.5324042242431433e-01
      2.6965151594845149e-01 3.4473612249617741e-01
      1.2312526751309609e-01 1.4154442898087674e+00
      5.9951067661794177e-01 2.1200049006136159e+00
      -1.4589666253236006e-01 -2.2247828565454649e-02
      1.6314742020040247e+00 2.9847640083871824e-01
      2.2602184291956301e-01 2.2409701312774988e-01
      4.0540901505136206e-01 -4.2416328498326900e-01
      -1.3838255085367970e-01 2.7613832505705410e-01
      8.2802832999265899e-03 -3.0046013712174341e-01
      5.7699436655745051e-01 9.3978641645493122e-01
      -5.9221102524218076e-02 8.6700952181856472e-01
      -1.4229103421712412e+00 -4.5906923723406162e-01
      5.7351099349402879e-01 1.0596007043666125e+00
      9.4800007345889958e-01 -3.3591638217907360e-01
      5.2262749366380541e-02 9.2034231042119463e-01
      -7.6486807204294249e-01 7.4025088971767372e-01
      -5.8872633991692891e-01 -4.3448623968386763e-01
      -2.7163748197140139e-02 -1.3477699304260346e-01
      8.0648944843050907e-01 9.1609478674278466e-01
      -1.3339245611002211e+00 -3.8599236636935146e-02
      3.5642538094522369e-01 3.5572643186284320e-01
      4.6867966547886991e-01 -7.9856429541303098e-01
      2.0204828392515087e-02 -1.2823264481840702e+00
      -3.5927439215294787e-01 8.1965358450368719e-01
      3.4565614157008684e-01 -2.1418710644820288e-01
      -1.6752656955519377e-01 -1.1269618873959807e-01
      2.1715183023444867e-01 -6.7620474561077903e-01
      1.5745343488143748e+00 7.5502844605263764e-01
      1.0825217147488286e+00 4.6204955773377637e-01
      4.7665110702920555e-01 4.1423448295068988e-01
      4.7319674981750198e-01 -1.6024157031292008e+00
      -1.1370928631026962e+00 1.0588752709109768e+00
      -1.2417693805190264e+00 -1.3932614440672335e+00
      -3.1998543882248304e-01 6.0943130965697456e-01
      9.9291288755898588e-01 5.2956627368502807e-01
      7.2249735538799043e-02 1.6197027327977137e-01
      -7.3372757392963606e-01 1.5840073820304879e+00
      -5.2963928419682493e-01 8.8463598795767506e-01
      -7.8219080697204046e-01 1.0301861714755631e+00
      6.8163272701602962e-01 3.8227122808648734e-01
      -1.8617550067910310e-01 -2.0458515352067030e-01
      7.2615243205162516e-01 4.0152555785653221e-01
      4.3419709376051763e-01 2.2107858147047552e-01
      -6.3673445185703725e-01 1.4863881842787582e-01
      -7.2546581444324576e-01 -7.1176120529149733e-02
      -9.2050121847310540e-01 -1.6473262130832957e+00
      2.4716788957107647e-01 1.5894241254781740e+00
      -9.8274316848172349e-01 -1.2635563492330776e-01
      -1.7654549206078953e+00 4.0589306570107525e-01
      -9.2634094818336461e-03 -7.2540189289074708e-01
      2.3257069135221714e-03 2.1921241164779595e-01
      4.5933298793183569e-01 5.5422483728767080e-01
      -1.6798024068821554e-02 -5.2457829459623571e-03
      6.5904501388132419e-02 9.1872592234263362e-01
      -4.8746752171521268e-01 9.0940077473110462e-02
      -7.2166866400581664e-01 1.0824754449757428e+00
      1.0531746739057507e-01 8.8083597890422041e-02
      6.9160219490943098e-01 -3.7481620922230696e-01
      -2.7080102047738214e-01 1.1704896687223090e-01
      1.7275434192353933e+00 -1.2805683129055063e+00
      1.7092182971748002e-01 -4.0557803247850233e-01
      -4.3676736987810738e-01 -2.6019856400173236e-01
      -4.5199061995414791e-01 -4.8456756867950856e-01
      -3.8357318550538949e-01 -2.8660620490649957e-01
      1.3731202010112920e-01 2.3074059164120628e-01
      -3.2976075336255373e-01 -4.3816086784071351e-01
      -4.3476419748229245e-01 -1.2680992677128092e-01
      1.8569538306367817e-01 7.5996711945361295e-01
      4.3233993413711586e-01 -4.7472713115603205e-01
      -1.1506965989036511e+00 -3.1000356385856193e-01
      3.8496681960124557e-01 1.1213337293719596e+00
      5.3863682358582021e-01 -6.8222019359221864e-01
      -3.0208443553308184e-01 2.1010044920742681e+00
      -2.3319070036570141e-01 -8.8526886784931647e-01
      -1.3031977215418494e-01 -3.4869015922413493e-01
      7.3506353168377683e-02 1.8396376536898593e-01
      5.8849457710023412e-01 5.7319767602958505e-01
      4.0142894885005281e-01 -3.5538287271670868e-02
      6.6101861287266706e-01 7.9444580263531531e-02
      -1.3740077862055053e-01 3.3192714619718328e-01
      -2.2982172557839564e-01 1.4169613288352607e+00
      7.1781857058464660e-01 -1.0346500790338304e+00
      5.0954955842883687e-01 2.9897893041380275e-01
      -1.7402040642912139e-01 5.6085034751081542e-01
      -9.0760535922868124e-01 -1.3896474259256134e-01
      1.1462455032966701e+00 4.9111660292671661e-01
      2.9365436944688816e-01 -8.8215675338780852e-01
      1.9090420591084756e-01 -1.5738389708470493e+00
      4.1364453190085620e-01 -9.2200560507756313e-01
      -2.0725219888760811e+00 -2.9708079015174188e-01
      1.8295460185939674e+00 -1.0605412524029207e+00
      2.7206089350309492e-01 1.2816789561883686e+00
      1.2304519760717727e+00 -1.0037396854302831e+00
      -7.2670080418451899e-01 -1.3776430987866830e+00
      3.7469847992789374e-01 -9.7769466983807773e-01
      2.8125363446880941e-01 1.4282453409245439e+00
      1.0014157478996066e+00 -6.1877690881795766e-01
      -1.1671322638742867e+00 1.6648326187217020e+00
      -6.2893266851696006e-01 4.6245361522388084e-01
      -7.3106791461373710e-01 8.3234796226164220e-01
      7.7741849514114658e-01 1.8032354221010871e-01
      -4.8038884708598750e-01 -2.4321600923008313e-01
      -6.4282665120003846e-01 6.3287123263674847e-02
      -3.8053182290612519e-01 -3.0466210000624538e-01
      4.3737940058508085e-01 8.4426131872626176e-01
      -6.1852830593736263e-01 4.8612431207059176e-01
      -1.7448063578081914e+00 -2.2823944716785845e-02
      1.5155525046032594e+00 1.3821516778077569e+00
      -4.9765322757176578e-01 -2.0981723570214675e-01
      4.6174481180889071e-01 -1.6656383041753662e+00
      -2.2801568627464097e-01 -1.8076042811889348e-01
      8.0129976628413402e-01 -9.2298412480525771e-01
      3.9544672970508882e-01 -1.1092084532227204e+00
      9.6140066213263126e-02 -7.2415214399621608e-01
      1.6236069373086395e+00 4.4525394753164876e-01
      -1.3704690583659604e+00 7.0488951669739763e-01
      -1.7073583461015113e-01 1.3953283944600368e+00
      3.4872096128313756e-01 8.5781834519145883e-01
      4.9560547963129559e-01 1.5561010189936249e+00
      -1.2584902477226631e-01 1.8946663440807940e-01
      2.6706241838032307e-01 1.7593286650876188e+00
      -4.4408798008901440e-01 3.2578501987488329e-01
      -4.9954924503088338e-01 7.9662594984205692e-01
      2.4848022531139216e-01 -1.1853300883772457e+00
      6.0831863235047645e-01 -6.7839479604732977e-01
      -7.7608784821896259e-02 -4.7741090546655641e-03
      3.9176918235079289e-01 -1.2354908495845851e-01
      6.2145275900804064e-01 1.7765086423369831e+00
      -6.7497681533724141e-01 2.6584231626223948e-01
      1.1474436667902653e-01 8.9137959404241329e-01
      5.0306024374291103e-01 -1.8504325745152113e+00
      -9.9048904176044406e-01 -9.5776154095012578e-01
      1.4404968392451867e-01 -8.2620365873111404e-02
      -4.9723317894189364e-02 -4.0690518317631813e-01
      2.7504750254709248e-01 -9.6084872886028488e-03
      2.7947296320397624e-01 4.2021586095205221e-01
      5.7693514404994140e-01 -2.4216178349344916e-01
      4.6668603012152610e-01 4.6156237169971742e-01
      3.7398302621431907e-02 9.8288997124046901e-02
      -5.1383490972465495e-01 -2.4313640305138770e-01
      -3.3073168599468916e-01 -2.7634677347865699e-01
      -1.1491263557469236e+00 3.8148906350626832e-01
      4.7856305901538043e-01 -1.6087818070775861e-01
      -2.5877159147146700e-01 5.7385860077074378e-02
      2.0261654053547612e-01 -2.1449631672838454e-01
      -1.5550318110059583e-01 2.1306842747013612e+00
      -1.2971681057118432e+00 1.2180672716060121e+00
      6.6496477583311531e-01 6.3198945743037471e-01
      -2.2869180524409699e-01 -1.1286962061738199e+00
      3.0536834216237502e-02 -8.5435793221211465e-01
      -2.0810386204760564e-01 -2.0173109695502117e-01
      -3.5488471739008831e-01 -2.8728722031631970e-01
      -1.5020176656848465e+00 -9.1131947895401344e-01
      -1.3108637732037853e+00 7.2013555628163817e-01
      -2.2338843311541062e-01 7.9312823834350010e-01
      1.0919442622768426e-01 -9.4139327232338310e-01
      -2.7872949683786402e-01 -2.8508691589589286e-01
      7.7786090112959977e-02 -1.2250912805942205e+00
      -3.6265760271723646e-01 7.6925909668763093e-01
      2.5588606304899503e-01 1.1254076594251516e+00
      -3.1787440031934244e-01 -1.0120346633753738e+00
      2.5713293986918540e-01 -5.5013320070206373e-01
      1.1659328801374150e-01 -5.6790812285055881e-01
      -4.8384655360926176e-02 -2.8348647674314109e-01
      -5.7013489167183418e-01 -5.9422979217535854e-01
      -4.0967106274469328e-01 -3.8142406361319331e-01
      -1.0093071975263251e-01 4.4697966261068756e-02
      2.8568449306639981e-01 2.1677502981430616e+00
      -5.3964856891448654e-01 5.6411433197815974e-01
      7.6534641711634110e-01 2.7758038365292542e-02
      -6.4857151837659999e-01 -2.9978172549714044e+00
      8.1721159738128790e-01 6.3255729682272790e-02
      -1.4665663985511888e+00 -8.9600521836454827e-01
      -2.2389917558245256e-01 -7.9894362139534192e-01
      -6.0980308235938774e-01 6.8235850807169773e-01
      6.2450528643262671e-01 -1.1991904049888251e-01
      1.9123755471756534e-01 -9.7283013926747430e-01
      -6.5886944555251614e-01 -3.7590587671172471e-01
      1.3525218765353250e-01 -4.8387885082058629e-01
      1.2054711168155099e+00 4.9992337108658530e-01
      5.3338539008854169e-01 1.3824074962538766e+00
      -1.9538064100850887e+00 4.7661346840113233e-01
      9.7789324409096878e-01 5.1923404844029408e-01
      4.5141261420912915e-01 5.9944037254198490e-01
      -1.7837811423815658e-01 -2.4177197547492996e-01
      -2.2263423486452616e-01 -1.3303774848687092e-01
      -5.2384215277638069e-01 6.1655057041632780e-03
      -9.1967578927680649e-01 1.7980927391017059e+00
      1.0214129646698789e+00 -2.8781600743089725e-01
      5.9102325775777931e-01 -5.6132056502827754e-01
      -6.5156218542205957e-01 3.2082603197825998e-01
      1.3180190057208152e+00 4.2519408440838713e-01
      -5.8331200865974386e-01 -5.5398162058983713e-01
      -1.4416718053260777e+00 -4.5939048513626041e-01
      -5.2952830203473200e-01 -2.7007711558475672e-01
      3.3398376861222889e-01 1.3758087599228637e+00
      1.9389296937378828e+00 3.0290563729070985e-01
      7.0675904841527459e-01 7.3904320975654414e-01
      4.3046170063846306e-01 3.9709810523351019e-01
      2.7229712938861483e-01 1.1341442024514295e-01
      -1.2122601954032836e-01 3.4710939581330236e-01
      6.1680862449565410e-01 1.3259689179498584e+00
      2.6282706242340870e-01 9.4651724322275255e-01
      -6.2005914937390838e-01 2.6027087953356991e-02
      -9.9505973627364175e-01 4.2462128934775967e-02
      2.7515645600109457e-02 3.3062907265735558e-01
      9.9976174547501517e-01 4.8190908627429485e-01
      1.0638912598137737e+00 4.7336140494327295e-01
      1.0017921047742963e-01 -5.3161725628271461e-01
      -6.0963075627476349e-01 -4.7226725596411223e-01
      -2.5175014023027148e-01 1.4518925197166976e-01
      3.7732011560415296e-01 -2.3459300668043870e-01
      1.1509213873940174e+00 1.4629118467549980e+00
      1.0053172038754206e+00 4.5312048037755748e-01
      7.5589173844909940e-01 -4.6250751745778129e-01
      -9.7030546130346162e-01 4.2970640110347291e-01
      -1.9494352808737631e-01 -4.7683614854423367e-01
      -2.7769089639460415e-01 -1.0883761359002972e+00
      -4.3491473340271997e-01 -4.5262920481730612e-01
      3.9843299892725502e-03 4.6627243819389229e-02
      -1.4477094949735390e-02 8.2125316777689372e-01
      -2.4503925293190210e+00 1.0662720791510534e+00
      4.6713144116741229e-01 -4.1665827750273821e-01
      7.5282229308298287e-01 -1.2572192821245352e+00
      5.7987062532118272e-01 -2.2409886942233206e-01
      -4.2106050709049803e-01 3.4362052556781891e-01
      1.8964612157695744e+00 -1.1465904738792305e-01
      1.1638149297174762e-01 -5.0204975111601879e-01
      5.5010822538366944e-01 -3.1007176520227514e-01
      7.6766508446205739e-01 1.0998756367645295e+00
      5.7297930016146903e-01 -6.9208420284651226e-02
      -1.7645933825862967e-01 -1.3389366201789570e+00
      -1.2898020882789227e+00 -7.2911668501142879e-01
      -1.9651614745549520e-01 4.7877872515000175e-01
      -1.7419210723577894e+00 9.4819657681661240e-01
      7.1019167790641369e-01 -5.4818774292295736e-01
      3.5325871795727043e-01 -3.3604251308363899e+00
      1.9573719123071595e-01 -9.0738384711864711e-02
      6.9620225331933816e-01 -3.6680880886540657e-01
      -1.9370762297667241e+00 -2.4251835183983206e-01
      9.4256948021759290e-01 -2.0043313083768295e+00
      4.0736610488424485e-01 -8.6591680478075272e-01
      4.4662666106119403e-01 -8.6527519313283785e-01
      -7.2103947169702887e-01 2.2528576423636476e-01
      7.5999357614887697e-01 1.3537497313584690e-01
      -3.0950135096040854e-01 -9.2388604357631587e-01
      1.0153723437945958e+00 1.1412492807321205e-01
      -3.3254319297321255e-01 -9.1473540919731866e-02
      -1.1808213807985213e-01 8.7026697095692634e-02
      -7.0347344030776482e-01 3.2946075356530330e-01
      6.0949585902061176e-01 8.3616299806672445e-01
      8.6732415120455575e-01 -7.0578242263686208e-01
      6.1476610802828868e-01 -9.2861726717947612e-01
      -1.3041167920170227e+00 -5.8722556370051016e-01
      5.3207270812816100e-02 1.3204194722380380e+00
      5.3661271470435834e-01 7.3977364948366431e-01
      -5.3605929749205694e-02 1.1737386802371501e+00
      -1.0283088571609333e+00 1.1961362588393916e+00
      -4.1779075207176819e-01 -2.9548277153919433e-01
      1.5373484547694900e-02 3.0684995451529640e-01
      -6.5774397442917742e-01 -1.0072150655893595e+00
      -1.4125641598437193e+00 1.3821368702085982e-01
      3.7730176615248934e-01 7.6229701584779452e-01
      -1.2632663971468319e-01 -1.7839591895024607e+00
      -1.4697486240037230e-01 9.5960026992952252e-02
      -1.4204500364797573e-01 5.3556652128771053e-02
      6.4970154756815057e-01 4.8224869334465259e-01
      -5.8763611430049445e-01 1.0124892467286173e+00
      1.0014199069488274e+00 1.4307818939845944e+00
      -9.3164502317473064e-01 4.8054789433580058e-01
      8.4183331133914252e-01 -2.5977476682237693e-01
      -5.7458016733058082e-01 -6.3598938107245206e-02
      3.7649658745995229e-01 -9.3975439175831593e-02
      -2.0950631918814100e-01 -8.4138408731713898e-01
      1.2074510168974297e+00 -2.3039027663535866e-01
      -7.2123593859308932e-01 1.4148237742208858e-01
      2.5437009376199754e-01 -1.2220296943678047e-03
      5.3863065812227329e-01 6.9107519574912379e-01
      6.7288453855356544e-03 6.7616671923926930e-01
      -6.1297818226481793e-01 -7.1950935190869569e-01
      -4.5223550130898926e-01 -5.7860086361209861e-01
      -2.4437871384292079e-01 -1.3532747676740362e+00
      -1.2910766798353074e-01 -2.1802697703203119e-01
      1.0106761130186179e+00 3.1849070639739091e-01
      7.8724931467596637e-01 2.9655858429046222e-01
      6.8966086555427697e-01 1.4205223724886880e+00
      7.2086374023930933e-01 4.4865251514975030e-01
      -6.3022536109000815e-01 -5.2951607374103393e-01
      -1.1709982254329359e+00 -2.7278521797744643e-01
      -1.2453701370549557e+00 -3.9111477514533621e-01
      -1.3125611938690678e+00 -1.8669194092854888e+00
      -1.7429647252094687e+00 5.9391798559929432e-01
      7.0786789455317944e-01 6.6720732365269486e-01
      9.5025407009719065e-02 1.1958848768371078e+00
      7.5864033576445511e-01 -5.8735568751400169e-01
      -8.3143403078966172e-01 5.3999421962488436e-01
      3.8774787155149665e-01 -6.6372372111775413e-01
      -9.4019793900456089e-02 1.2671743117333458e+00
      1.3827522040309599e+00 -1.7819992132759812e+00
      3.3234326697889345e-02 -1.6768574707826198e-02
      -3.6152688277323486e-01 7.2232814320261141e-01
      -5.1394424754822754e-02 2.7238554330622977e-01
      -2.6273134383997082e-01 1.5726841170867092e+00
      6.8735165404948873e-01 8.9583382587759752e-01
      1.7058281690544117e+00 -1.0362212232516375e+00
      3.2690172866460854e-01 -1.8307076281776595e+00
      -5.6613445601475565e-01 -3.5833318067793024e-01
      -3.0691450668136021e-03 7.7254676044379256e-01
      -5.6626045657706536e-01 2.7483569579685069e-01
      4.4744190147844082e-01 -4.5843391218850932e-01
      7.2581469380137556e-02 8.5842553363777063e-01
      -1.3696533604542431e+00 -8.8293707746802153e-01
      -1.3492501310956273e-01 -1.2281161646775751e+00
      -2.9933921375456107e-01 1.6153673330150770e-01
      2.6486725492047929e-02 -8.4494970856193063e-02
      2.2413062609832604e-01 7.6058753379834820e-01
      -1.5606133334428831e+00 2.0808201263860693e-01
      -2.5835887521636014e-02 -6.1105434760152988e-01
      -2.3255684835948389e-02 -4.3493618514479443e-01
      -3.4358911347863580e-01 -1.1046556770162853e-01
      1.1532859533473254e-01 -1.2087929687516843e+00
      2.7875703334614782e-01 -6.3649683439551644e-02
      2.2769022856026064e-01 1.0950091368422634e+00
      1.8320953576476993e+00 2.6959803358466078e-01
      3.5812618526953344e-01 -4.8573004107182816e-01
      -6.7448134436991136e-01 -7.3911484286519891e-01
      1.6267875979045662e-02 8.1599481215976766e-01
      5.4642755887051553e-01 -2.8420154759199384e-01
      5.4639674263453375e-01 7.8346431891241219e-01
      -5.3382497771871418e-01 -1.0348689769688595e+00
      -4.1896271154806275e-01 6.4476235481482819e-02
      2.1200026635166931e+00 -1.0126627916101849e+00
      -7.9623510859993862e-02 -2.9226040079507881e-01
      8.1928948370380805e-01 7.6714228613691024e-02
      -3.9212201629680732e-01 4.6635083078484396e-01
      3.3676608120325080e-01 1.0917668494584967e+00
      7.3658284247092476e-01 7.4231491766585844e-01
      -5.9056167974077911e-01 -6.6464791433743187e-01
      -1.2538350577443014e+00 -1.2272684324885204e+00
      -2.8062067081367781e+00 4.3575222660050983e-01
      2.6280841608515793e-01 -1.7139893327451938e+00
      -1.1388285772275399e+00 3.0029291747707154e-01
      6.9763607833525598e-01 1.2768617842835837e+00
      5.6142797711959846e-01 -1.4191052778144650e+00
      2.6372613066034500e-01 -6.1503850524526671e-01
      -2.7323415443282772e-01 1.0474147571711777e-01
      -7.5795672425498450e-02 -8.3321534474662562e-01
      -7.9609354994748083e-01 1.4756790086183509e+00
      -1.6811703777075332e-02 1.9388280735336681e-02
      6.8437746994716853e-01 5.6066994692275163e-01
      -2.4351767645791844e-01 -1.4724532531232353e+00
      -3.0737509595960200e-01 6.2829014118208026e-01
      1.8739711785897270e-01 2.7515979533706264e-01
      -3.6034359877063976e-01 8.8899271667559443e-01
      1.2434689680283742e-01 -3.8104279526335083e-01
      -5.9676827574929281e-01 -7.1971588996678149e-01
      1.5701429997640377e+00 -5.1119041753057293e-01
      -1.5313121571508142e-02 1.1170963317415978e+00
      1.8853944129386936e-02 2.6498578316442306e-01
      -2.3580037247126190e-01 4.1824534216642884e-01
      4.3293802590603719e-01 9.9062378425682274e-01
      1.0246113501276253e+00 9.3415667252899925e-01
      2.1136337732463484e-01 -3.4670555513482004e-01
      -1.2814248054239870e+00 -6.8642426131760570e-01
      -6.4045634731081671e-02 -1.7411719417549595e-01
      1.1087095404989777e+00 5.8553414076696519e-01
      -1.2340542258532916e+00 1.4524804060697123e+00
      5.7391331890987451e-01 7.5165962280615850e-01
      7.9051475253582626e-01 5.0857670092036045e-01
      5.8792392069438704e-01 -2.1174316545749544e-01
      7.2321323677175947e-02 1.2743508590931441e+00
      6.6640772155988304e-01 6.4892713704670257e-01
      4.0590697935503400e-01 1.0848586311838881e-01
      9.4314227680466767e-02 -7.9671918972484068e-01
      1.2561576168719729e-01 2.4492332720720206e-01
      4.8750581809460192e-01 6.0608510802894422e-01
      3.0007413350720685e-01 -6.0552086971173980e-01
      5.9589703197101981e-02 -6.6213672014476943e-01
      -2.6456344201323628e-01 -2.0763462075908487e-01
      -1.2552201125473235e-02 3.0562953893201156e-01
      2.7628030396741277e-01 2.6689704000455010e+00
      -1.9890244790895964e-01 -2.9595314721894728e-01
      -3.4795457579062061e-01 9.0635042826961620e-01
      -3.3945527884316717e-01 3.6942105246703605e-01
      6.3210424782009555e-01 -5.4044752065852530e-01
      -1.6337455172792725e-01 4.8934132223880283e-01
      6.8878259494248931e-02 -4.7957871632956584e-01
      3.3524282208678602e-01 1.4310209833445957e+00
      7.0293660359308541e-01 2.9838406462257461e-01
      7.1627544675119903e-01 2.6221939550104517e-01
      -7.2064719325696891e-01 1.0157246838299041e+00
      -1.0270693035027230e+00 6.9486115287085704e-01
      -1.5202725554127586e-01 -5.2187913411845532e-01
      1.3276851110121326e+00 8.6130709817538120e-01
      4.9236942551995505e-01 4.1347015825850642e-01
      6.9379741111953064e-01 1.2677932899116318e+00
      1.4205774591927347e+00 3.9438860455384023e-01
      2.9157844736782335e-01 -2.0388787301148952e+00
      1.2940405283599259e+00 1.4926263508693519e-01
      4.9388057514799694e-01 -2.8115417071777360e-01
      9.5530956929884461e-04 3.6178100246524479e-02
      -1.7665227868368494e-01 1.5883928378186438e+00
      7.0837894394548107e-01 1.0376985143477263e-01
      -1.0484297656980106e+00 3.1371645233705381e-01
      -7.9577700235059012e-01 -1.0670950523884972e+00
      -1.2880053431735659e+00 4.7922349561951733e-01
      1.3560910908102315e+00 -2.8514949719885735e-01
      1.2898589334625936e+00 1.6831930381737645e-01
      8.8469544627186969e-01 -3.6278531932973684e-01
      3.4166435311918286e-01 3.9730501695338788e-01
      -2.3017381662727152e-01 7.5250275345979423e-01
      -2.9239459583473454e-01 -1.3873896742429018e-01
      2.2337462334787048e-02 5.8289883235991937e-03
      -1.3114134711612657e+00 9.6051060764414309e-01
      -1.4917536933341383e-01 -9.6035457438336669e-01
      -8.7759588437730240e-01 -3.3240054715593326e+00
      -8.0334466770402024e-01 4.9289208926931299e-01
      4.0466658673758021e-01 7.5070968031689578e-01
      -6.4200886284961212e-01 5.1968629604992322e-01
      2.7857407049699950e-01 2.1525032369917366e-01
      -9.9536766140465360e-02 -1.9502411537172539e+00
      5.7469837306743476e-01 4.1891873723032330e-01
      -9.0465231966472426e-01 -7.4679394556230472e-01
      -1.1271832355534410e+00 -1.2717004206291893e+00
      -5.0868831674332149e-01 3.8466637714536683e-01
      4.3146368047362449e-01 4.1537774035843522e-01
      1.1264334119930153e+00 1.4224596569643964e+00
      5.6559517474019660e-01 -2.2961135049218956e-02
      -1.4898857058124673e+00 -3.0609776243439790e-01
      -1.1638052241582963e+00 -3.5883878870524816e-01
      -6.2784809679755282e-01 9.6846372444619111e-01
      1.0422626438295681e+00 5.3746642570735004e-01
      5.8779172632076049e-01 3.2127091797595950e-03
      6.3574153982188575e-01 -5.0547496902385503e-01
      9.4181199870493559e-01 -5.5934725013219033e-01
      -6.3720248452439721e-01 3.1035682711036955e-01
      4.3286501718318482e-01 4.7342231392120765e-01
      -3.9726229369065374e-01 -1.2621331122211951e-01
      -7.5551842156498172e-01 5.0119317871879032e-01
      6.7105111201023326e-01 2.1337601824771676e-01
      -5.5114954878490907e-01 -1.4794512421528210e+00
      6.5253768410525437e-01 -5.1478018307417295e-01
      -9.0767670030262149e-01 1.6243708985148559e+00
      2.2829985686287677e+00 1.3040956904911964e+00
      4.4677311327251978e-01 2.3337077535575429e-01
      -8.9777734998410200e-02 -1.3328704764961177e-01
      3.2034561092550951e-01 5.7978139896800718e-01
      -2.9137291218494277e-01 1.1112414723299269e+00
      -1.9813379654439893e+00 1.6278418402861641e+00
      -1.4342590162166038e+00 4.1683209679361916e-01
      7.2444567776127389e-01 3.0383931216230897e-01
      -2.1730903684207964e-01 -4.3386261620847764e-02
      -1.6302040456708871e+00 -9.2243048627798507e-01
      -5.0612784572206093e-01 -1.3331764861196882e-01
      -4.2506958474999196e-01 -6.8011952307127521e-01
      5.2225758254268462e-01 -1.4990597430080291e-01
      1.8787943740414872e+00 -7.7609686446800730e-01
      -5.8797763761774891e-01 -6.0817962388814895e-01
      -6.2868541911585318e-01 1.3621256451242239e-01
      -1.2599984110716156e+00 4.6230410957278195e-01
      4.6916829365652735e-01 -7.6452204284015512e-01
      -7.3351623373991293e-01 8.4165663883547026e-01
      1.5314980439985035e+00 3.0873642904220971e-01
      3.1215635140143472e-02 -2.4842376582554740e-01
      -8.6718892741617581e-01 2.6883192673808948e-01
      1.7684636929168157e-01 1.5047943865379029e-01
      1.8653034457382825e-02 -7.2454427379448771e-01
      -5.8184902754581169e-01 -2.0470191871446129e-02
      3.8479209852223978e-01 9.3688500074982695e-01
      1.2600567655967532e-01 1.0105114150697474e+00
      1.1462123913476998e+00 -9.1682915446455560e-01
      -1.5055755214479536e+00 -6.9544213667685817e-01
      5.7041871279165476e-02 6.4523137423698962e-01
      -5.3159198556946141e-01 -1.7238204301996880e+00
      1.2376828740397301e+00 -7.8530907972653385e-01
      -3.8140208072767623e-01 -3.1652131674759068e-02
      -1.7313271458437007e-01 3.2653792086413602e-01
      2.8884710500929972e-01 1.2478860736513824e+00
      2.4431391760203439e-01 1.5886282230769013e+00
      -5.7058613338440567e-01 1.5038947258882787e+00
      6.5480911737065542e-03 9.4448731592936352e-01
      1.1966544460398751e-01 -8.7801496543773916e-01
      5.5809749714741086e-01 -7.8941832112009580e-01
      5.0331513078241974e-01 5.9584543814831736e-01
      -3.8250589645634986e-01 2.6071754501395766e-01
      8.3040477128558055e-01 -1.0003129056017739e-01
      6.0299084895614175e-01 5.3767257681322100e-01
      -1.0933407387353791e-01 2.4872210713094767e-01
      -5.3814405667938259e-01 2.1144595883667178e-01
      1.1025545231705376e-01 -9.9039834568924912e-01
      -1.1209021237212693e+00 -2.0544757039793951e-01
      -5.4898622564152033e-01 5.7158388706186936e-01
      1.3549074449732337e+00 1.4997119256107116e-01
      -6.8176004771280452e-01 8.0282266877981054e-02
      4.6361543456054211e-01 -1.1752332502583838e+00
      -8.7762202753438145e-01 -7.3645290800419860e-01
      2.4274167304163533e-01 -1.0083356297960065e-01
      -1.3746689891403369e-01 -9.0097886131579563e-01
      5.3909792941731749e-01 -9.6995532237698148e-02
      2.1077239491697383e-01 -7.3624100341727383e-01
      -3.3379019996328035e-01 -1.9336193162555612e-01
      9.0027736188002860e-02 9.1223117534570619e-01
      -8.4500525825037898e-01 -1.6213414759489968e+00
      9.3876042487649358e-02 4.8682691795281280e-01
      -1.3094619620629115e+00 -9.2420979239699552e-01
      -4.3437472085359863e-01 2.4413834803894776e+00
      1.9338652538063190e+00 -5.6349792491960406e-02
      1.3908589077697004e+00 -4.2697553374435776e-01
      8.4728552917076749e-01 2.5564854884071547e-01
      8.5419584279377972e-02 1.5378874535594894e-01
      6.4332795095118800e-01 -1.1739947103920610e-01
      1.2235204327891211e+00 -1.4406815531903008e+00
      4.5246233520224477e-01 1.5341564136902492e+00
      -6.1883811808189026e-01 -8.2547824116818491e-01
      -1.8054273324771437e+00 8.4567224761382376e-01
      -7.6802715048937809e-01 -1.7419609188477883e+00
      5.8112814451228234e-01 -5.8234077413696139e-01
      2.4544629817655236e-01 1.8843083350996104e-01
      -3.6481165315668934e-01 -1.5687282521147852e-01
      1.3154105226983217e+00 -1.1544924434823636e+00
      -1.1010557462272941e+00 3.8483337749854436e+00</_>
    <_>
      1.3779412222999388e-01 -2.9533191569522771e-01
      -4.3106076283421418e-01 -4.3462259382891660e-01
      3.1322367379955685e+00 3.5325147819574543e-01
      -3.6851038218945825e-01 -1.2709647040908417e-01
      -1.3417702080101115e+00 2.0646654042838550e-01
      1.5956348542683279e+00 -3.2072912677370952e-01
      -1.8067930386564388e+00 -5.1225210836606683e-01
      -1.0063039720652406e-01 -5.4509818052888526e-01
      4.2848880811765994e-01 1.7108353936481138e+00
      7.3708974520861656e-02 6.1030663127707929e-01
      7.6331416269161501e-01 6.5067049229632357e-01
      1.8586037676318765e-01 -5.0012457658563347e-01
      1.7598077441918059e-01 -4.4191912915833576e-01
      -3.3838193670448141e-01 -9.1331311204181517e-02
      1.1910501988543372e+00 3.2973033794274265e-01
      -2.1337243982043272e-02 1.9591747412449248e-01
      -5.1304407898572935e-01 -6.3164603476561976e-01
      -9.0453161414665362e-01 -5.6565276072791626e-01
      -2.0827318813990257e+00 3.6094239548056201e-01
      4.9559980079237308e-02 7.2137372237836073e-01
      2.3779503310772288e-01 -4.8870573591659738e-01
      6.8340930893404372e-01 -6.6191873541963286e-01
      -2.7524310041241284e-01 -4.0554594083741499e-02
      -8.6673034101259275e-02 -2.0995131378557591e-01
      1.0042896095433578e+00 -6.9653836908228794e-01
      -2.9546487386895554e-01 1.2818333295745039e+00
      -3.3926853276629414e-02 1.7676521395665015e-01
      2.8438976241594643e-01 -5.6883480819953058e-01
      -1.2303954418263137e+00 6.9521301387396994e-01
      -1.1886838088859450e+00 -2.1569833230371593e-01
      -9.0220588495268039e-02 1.1518914372559361e-01
      2.4367682659806530e-01 -1.4014016848462523e+00
      1.1197391588477382e-01 7.4796633645475419e-01
      8.2083269843577200e-01 2.4398763908408305e-01
      8.3343262501333715e-01 2.3055191425527347e-01
      -2.4207474159383149e+00 -2.4217292108622449e-01
      -2.6453494804134819e-01 2.3743024658855943e-01
      -4.5293673324653300e-01 5.1172955491068517e-01
      -8.7279888120229954e-01 -1.5893407685593181e-01
